{
  "artifacts": [],
  "brain": {
    "attention_bias": [
      1.9765076,
      2.0,
      2.0,
      1.9865277,
      1.9828095,
      1.9827407,
      2.0,
      2.0,
      1.9847533,
      1.983226,
      1.9832317,
      2.0,
      1.9948815,
      1.99022,
      2.0,
      2.0,
      1.9838973,
      2.0,
      1.9832904,
      1.9863833,
      1.9950612,
      1.9986876,
      1.9908251,
      2.0,
      1.9253512,
      1.9906113,
      1.9988145,
      1.9908407,
      1.9916759,
      1.9999354,
      1.9977419,
      2.0,
      2.0,
      1.9946168,
      1.9982091,
      1.9927369,
      1.9930412,
      2.0,
      1.9901173,
      1.9915831,
      2.0,
      2.0,
      1.95002,
      1.9891433,
      1.9827041,
      1.9829595,
      2.0,
      1.9846241,
      2.0,
      2.0,
      2.0,
      2.0,
      1.9594584,
      1.9825955,
      2.0,
      1.9951899,
      1.9840747,
      1.9839605,
      1.9828193,
      1.9828319,
      1.9833324,
      1.9987667,
      2.0,
      1.9954571,
      1.9829945,
      1.9824307,
      1.9908769,
      1.9828796,
      1.9841239,
      1.9848865,
      1.9869843,
      1.9829136
    ],
    "attention_weights": [
      -0.1889619,
      -0.1662009,
      -0.0065154,
      0.0506348,
      -0.0384697,
      -0.2241685,
      -0.1653367,
      0.3233866,
      -0.3618438,
      -0.0213133,
      0.2655309,
      -0.3558453,
      -0.0828854,
      0.255132,
      0.0084605,
      -0.0421459,
      -0.2548562,
      -0.1473157,
      0.2021787,
      0.1182942,
      -0.1566363,
      0.0877654,
      -0.0142739,
      0.0600137,
      -0.154046,
      0.0561217,
      -0.1119527,
      -0.1055351,
      -0.0843819,
      0.1445162,
      0.1450673,
      0.1280875,
      -0.0798429,
      -0.1855807,
      0.2256935,
      -0.2218827,
      0.2771517,
      -0.1856774,
      0.2537885,
      -0.106687,
      0.1198859,
      -0.4534167,
      0.0947379,
      -0.097873,
      -0.2078331,
      0.2260981,
      0.1084,
      0.2940231,
      0.2661402,
      -0.2548281,
      -0.0844071,
      -0.1217074,
      0.2382722,
      0.1108108,
      0.0340831,
      0.0989911,
      -0.1802759,
      0.0092097,
      0.0577562,
      -0.0446415,
      0.106554,
      0.0158824,
      0.0178002,
      -0.0328987,
      0.2675026,
      -0.1509006,
      0.0421749,
      -0.0487553,
      0.0302895,
      0.1550394,
      -0.0073875,
      -0.0399279,
      -0.170167,
      -0.1911103,
      -0.1391764,
      -0.2549175,
      -0.0595414,
      0.1718735,
      -0.0735994,
      0.0527521,
      -0.1725776,
      0.0220527,
      -0.140215,
      -0.0789253,
      -0.3516625,
      -0.1466453,
      -0.2254815,
      -0.1937259,
      0.1770206,
      -0.1176453,
      -0.0241616,
      0.0154124,
      0.1906252,
      -0.1942071,
      -0.1297776,
      -0.120828,
      0.1888955,
      0.1433973,
      -0.3773204,
      -0.0761911,
      -0.2919883,
      -0.4043188,
      0.1713754,
      0.0713507,
      -0.0158709,
      0.0348037,
      -0.0788396,
      -0.231885,
      0.0665602,
      -0.1873779,
      -0.0221033,
      0.1657483,
      -0.1309413,
      -0.1101223,
      0.1345653,
      0.0089556,
      -0.0140382,
      0.0451179,
      -0.1701412,
      -0.092335,
      0.1386723,
      -0.2911831,
      -0.1313366,
      -0.1515706,
      -0.1738015,
      0.0787291,
      0.2249679,
      -0.2094834,
      0.0307263,
      0.128485,
      -0.1137396,
      -0.0316554,
      0.0952365,
      0.161498,
      -0.2053488,
      -0.21178,
      0.0574772,
      0.2346823,
      -0.0069702,
      -0.1649787,
      -0.1134392,
      -0.110415,
      -0.0486518,
      0.2552491,
      0.206604,
      -0.1389406,
      0.0236152,
      -0.121256,
      -0.2673261,
      0.0188302,
      -0.4526453,
      -0.275268,
      -0.0088592,
      0.1636426,
      0.0242926,
      -0.3133271,
      0.123017,
      -0.2316561,
      0.0784042,
      -0.2163259,
      -0.1821463,
      0.0450125,
      0.1471764,
      0.3777224,
      -0.2092555,
      -0.0598538,
      -0.0629121,
      -0.2843385,
      0.0396243,
      -0.0839233,
      -0.0906623,
      0.0483927,
      0.1842423,
      -0.0260629,
      -0.2430748,
      -0.0386702,
      -0.0342515,
      -0.1866471,
      0.1188089,
      0.003356,
      -0.2026691,
      -0.102679,
      0.4310755,
      -0.1655515,
      -0.2357808,
      -0.2035097,
      -0.1238958,
      -0.1869863,
      0.1196361,
      -0.0507679,
      -0.0887183,
      -0.3207657,
      -0.0101136,
      -0.3061425,
      -0.2457552,
      0.0280554,
      0.0759314,
      -0.0922295,
      -0.0373008,
      0.0752742,
      -0.0851085,
      0.1940215,
      0.2769817,
      0.1321364,
      0.3120227,
      -0.2213132,
      -0.0126915,
      0.0157899,
      -0.3502856,
      0.0826269,
      -0.0405582,
      0.0532871,
      -0.3867906,
      -0.0508398,
      0.4169377,
      -0.1443866,
      -0.0022203,
      -0.0401425,
      0.111495,
      0.0530351,
      0.1046203,
      -0.0080256,
      -0.1795543,
      0.0286956,
      -0.1574965,
      -0.0236817,
      -0.1091157,
      0.1861689,
      0.1425261,
      0.0235761,
      -0.2212278,
      -0.1324732,
      0.1452144,
      0.1258747,
      -0.0237304,
      0.1372469,
      -0.045822,
      0.1596176,
      0.0172949,
      0.0541997,
      0.2273957,
      0.0221771,
      -0.1342669,
      -0.0151042,
      -0.0998308,
      0.0439214,
      -0.27565,
      -0.3538754,
      0.2385683,
      -0.1678303,
      0.1250464,
      -0.2142298,
      0.1618667,
      0.0790419,
      -0.0996201,
      -0.085721,
      0.1761972,
      0.0365758,
      0.0961867,
      0.0762609,
      -0.1466309,
      0.1017342,
      -0.1881364,
      -0.0585508,
      -0.0820586,
      -0.1274944,
      0.116509,
      0.1376001,
      -0.1528037,
      -0.0561793,
      -0.0848235,
      -0.0437479,
      -0.0698822,
      -0.2287533,
      0.166142,
      -0.1706855,
      0.0107581,
      0.1103216,
      0.112496,
      0.2088628,
      0.1704439,
      0.2032331,
      0.1909343,
      0.0108998,
      -0.2966397,
      -0.1091997,
      0.2039726,
      0.1294259,
      0.0734446,
      0.3283474,
      -0.0312794,
      -0.0743678,
      -0.0314214,
      0.0504269,
      -0.0416263,
      -0.0857865,
      -0.3579976,
      0.3207769,
      0.0388147,
      -0.1511113,
      0.0363227,
      -0.1704829,
      0.0582514,
      -0.2909648,
      -0.1509209,
      0.3067693,
      -0.0693848,
      -0.0358849,
      0.1364722,
      0.1476389,
      0.0382961,
      -0.3273177,
      0.1513544,
      0.2536553,
      0.1609966,
      0.0079202,
      0.0482902,
      0.0354823,
      -0.2214036,
      0.1254293,
      -0.1310827,
      -0.1709144,
      -0.18966,
      0.0053493,
      -0.1149617,
      -0.1935393,
      0.0356713,
      -0.120675,
      0.0738541,
      -0.1798689,
      0.2929919,
      -0.1228103,
      -0.1614117,
      -0.0879307,
      -0.057153,
      0.0533855,
      -0.1093085,
      -0.556847,
      -0.075352,
      0.0644744,
      0.0052853,
      -0.0254622,
      -0.3182364,
      0.101479,
      0.2119521,
      0.1772922,
      -0.1840855,
      0.0073697,
      0.3231013,
      -0.0349192,
      0.1005247,
      0.1300809,
      0.0222588,
      0.0286161,
      0.1292703,
      -0.1273018,
      -0.0208696,
      -0.1801287,
      -0.421833,
      -0.0531867,
      -0.101704,
      0.3102256,
      0.0404816,
      0.0208655,
      0.2394724,
      -0.0816644,
      -0.1715779,
      -0.0582289,
      -0.152213,
      -0.0485916,
      0.3419302,
      -0.2494317,
      0.0972052,
      0.0563047,
      0.1298725,
      0.1218209,
      -0.0922192,
      0.0738613,
      -0.0521476,
      -0.0039666,
      0.2237203,
      0.0609578,
      0.1009852,
      0.1912301,
      -0.0615263,
      -0.0514027,
      -0.1000531,
      0.1558988,
      0.0281579,
      -0.0940788,
      0.1743176,
      -0.0647107,
      -0.086221,
      -0.2908669,
      0.1073121,
      -0.0081389,
      0.1132368,
      0.3497642,
      -0.0791898,
      -0.3131332,
      -0.0525393,
      0.2834423,
      0.1440603,
      -0.0389243,
      0.0159755,
      0.2266449,
      -0.09622,
      0.0264179,
      -0.1636059,
      0.2382029,
      0.1136188,
      0.2857116,
      0.1758631,
      0.1281972,
      0.1323767,
      -0.1088459,
      0.20685,
      -0.1841626,
      0.1236867,
      -0.2158929,
      -0.0560923,
      0.0037565,
      -0.0567635,
      -0.066584,
      0.0399715,
      -0.0333489,
      0.0438875,
      0.0123743,
      -0.0036346,
      0.0049682,
      0.030582,
      0.1536486,
      -0.0021365,
      0.2262567,
      0.2512005,
      0.0863907,
      0.0084309,
      0.0232227,
      0.302009,
      0.0468384,
      0.0389574,
      -0.2325632,
      -0.0779114,
      -0.0561523,
      -0.0693833,
      0.0131983,
      -0.1077541,
      0.1366727,
      -0.0935897,
      0.2912373,
      -0.1955215,
      0.0231719,
      0.0119629,
      -0.1560988,
      0.0606074,
      0.1213987,
      0.1605944,
      0.0742288,
      0.1469559,
      -0.0029468,
      -0.1554403,
      0.367991,
      0.1074169,
      0.2603092,
      0.0843598,
      0.2597423,
      -0.0109738,
      0.1162492,
      -0.0743381,
      0.0954793,
      -0.1973677,
      -0.0919117,
      -0.0298619,
      0.1036447,
      -0.0632847,
      0.1693033,
      -0.1910986,
      -0.0961722,
      0.1941288,
      -0.0183722,
      -0.0775379,
      0.0036899,
      0.0520636,
      -0.1154668,
      -0.0610039,
      -0.0811267,
      0.0864888,
      0.2143125,
      0.0670865,
      -0.0445573,
      -0.0603443,
      -0.0843902,
      -0.0803413,
      0.0518011,
      -0.0286628,
      0.1419053,
      0.1403767,
      0.0386327,
      -0.2209353,
      0.1245089,
      -0.1565743,
      -0.0466601,
      0.0597654,
      0.2069252,
      -0.2057801,
      -0.0202835,
      -0.2061937,
      -0.1801063,
      0.1064144,
      0.1793065,
      -0.2190837,
      -0.1484942,
      0.1951703,
      0.0049021,
      0.0215862,
      -0.4019825,
      -0.1376199,
      -0.2165721,
      0.0196253,
      -0.0751537,
      0.1972672,
      -0.1094908,
      0.1906303,
      0.1460974,
      0.1290335,
      -0.3935092,
      0.0513704,
      -0.2267448,
      -0.1499341,
      0.0958971,
      0.0054305,
      0.1475201,
      -0.183665,
      -0.015836,
      -0.2444802,
      -0.4515437,
      -0.1023757,
      -0.1069726,
      -0.2248966,
      -0.4079993,
      -0.1449475,
      -0.1566024,
      0.1214481,
      0.0563945,
      -0.1764699,
      0.0333179,
      0.026854,
      0.0092467,
      -0.1158808,
      -0.1492442,
      -0.2941672,
      -0.2611321,
      -0.1164659,
      -0.0534767,
      -0.0163331,
      0.1169622,
      -0.1162448,
      0.173463,
      -0.250187,
      0.0290414,
      0.2758729,
      -0.1125246,
      0.0744058,
      0.0198023,
      -0.1999841,
      -0.1979061,
      0.2412768,
      -0.2731666,
      -0.0600668,
      -0.0291165,
      -0.211979,
      0.3117064,
      0.1144933,
      0.135984,
      -0.248949,
      0.098264
    ],
    "auxiliary_prediction_weights": {
      "damage": [
        1.2555727,
        -0.0912934,
        0.0542916,
        -0.4427713,
        0.2331083,
        -1.1323816,
        -0.1617058,
        -0.0552702
      ],
      "hazard": [
        0.807166,
        0.2064853,
        -0.5292697,
        0.1649351,
        0.2015824,
        -0.7268176,
        0.3618824,
        0.2588388
      ],
      "reproduction": [
        -0.7356278,
        -0.267853,
        -0.3736577,
        0.4429527,
        -0.0209626,
        0.3499994,
        -0.3045965,
        -0.703823
      ],
      "social": [
        -0.2146204,
        0.3823576,
        0.1171356,
        0.1596125,
        -0.6021277,
        0.2282539,
        0.7101626,
        -0.7699178
      ],
      "tool": [
        0.0129875,
        -0.0193123,
        -0.4931965,
        -0.5636641,
        -0.7858537,
        0.3689253,
        0.0537292,
        0.1766541
      ]
    },
    "bias_h": [
      0.024864,
      -0.0622518,
      -0.0861108,
      -0.1783243,
      -0.1542064,
      0.0163755,
      0.2110799,
      -0.0613638
    ],
    "bias_o": [
      -0.0197993,
      0.0322899,
      -0.1368112,
      0.043491,
      -0.2113961,
      -0.1878784,
      -0.0114091,
      -0.0676774,
      0.1327803,
      0.0433545,
      -0.051509,
      -0.0506459,
      -0.0908864,
      0.1147247,
      0.0541574
    ],
    "hidden": [
      -0.0792807,
      -0.0314748,
      -0.5458035,
      -0.2514062,
      -0.4844851,
      0.13295,
      0.702236,
      -0.3111191
    ],
    "hidden_size": 8,
    "hidden_trace": [
      -0.0642426,
      -0.0515004,
      -0.5369087,
      -0.2678712,
      -0.4775224,
      0.1410421,
      0.7093247,
      -0.2959605
    ],
    "input_size": 72,
    "input_trace": [
      0.0484843,
      0.8859043,
      0.8863817,
      0.2146423,
      0.0020663,
      0.0036342,
      0.7285423,
      0.1785109,
      0.0465249,
      -0.000278,
      0.0041654,
      1.3310371,
      0.3481717,
      0.1470527,
      0.4131045,
      0.4456458,
      0.0299688,
      0.4689433,
      0.0062323,
      0.0502161,
      0.1448474,
      0.3004616,
      0.0129035,
      0.7897138,
      -0.8382589,
      0.0761453,
      0.4709935,
      0.0450122,
      0.0763457,
      0.3544427,
      0.4085759,
      0.4099517,
      0.4143826,
      0.1412252,
      0.1983959,
      0.1077438,
      0.1040344,
      0.6474578,
      0.0993967,
      0.0356321,
      0.3988065,
      0.4510386,
      0.4969731,
      -0.0167881,
      0.0046375,
      -0.0008776,
      0.2756958,
      -0.0030314,
      0.1788615,
      0.8829977,
      0.2779338,
      0.1059341,
      -0.0647161,
      -0.1194028,
      0.6119873,
      -0.0493308,
      -0.0045979,
      0.009994,
      0.0013898,
      0.0112161,
      -0.0008606,
      0.0752765,
      0.3732106,
      0.091021,
      0.0024927,
      -0.0055033,
      0.0236675,
      0.0196741,
      0.03659,
      0.0269973,
      0.0658585,
      -6.82e-05
    ],
    "last_attention": [
      0.8755194,
      0.8866606,
      0.8891157,
      0.8873992,
      0.8843823,
      0.8760086,
      0.900768,
      0.8888753,
      0.8866197,
      0.8626756,
      0.8780267,
      0.8905213,
      0.8771083,
      0.8897044,
      0.8784286,
      0.8963614,
      0.8791008,
      0.8831623,
      0.8690019,
      0.8693152,
      0.8823966,
      0.8785755,
      0.882139,
      0.8976526,
      0.8726792,
      0.8766822,
      0.885251,
      0.8784181,
      0.875345,
      0.8898912,
      0.8967303,
      0.8932023,
      0.884702,
      0.894775,
      0.8829046,
      0.8904317,
      0.8839645,
      0.8922489,
      0.8627531,
      0.8813087,
      0.8833622,
      0.8926113,
      0.8695384,
      0.889009,
      0.8778762,
      0.880302,
      0.8928901,
      0.8870501,
      0.8810655,
      0.9000517,
      0.8884356,
      0.875544,
      0.8767835,
      0.8778382,
      0.892745,
      0.8823478,
      0.8777712,
      0.8727761,
      0.8734088,
      0.8742893,
      0.8654558,
      0.8876693,
      0.8746439,
      0.8827719,
      0.887493,
      0.8757864,
      0.8730105,
      0.8804695,
      0.8846786,
      0.881595,
      0.8815826,
      0.8861451
    ],
    "last_inputs": [
      0.0245091,
      0.8947026,
      0.915353,
      0.1967409,
      -0.024438,
      0.0397756,
      0.7173526,
      0.1507488,
      0.0452487,
      -0.0160909,
      0.0221687,
      1.340987,
      0.3765633,
      0.125972,
      0.4177051,
      0.4347908,
      0.0420218,
      0.4817877,
      -0.0038958,
      0.0758678,
      0.1513474,
      0.2971261,
      0.0318199,
      0.7833456,
      -0.846296,
      0.0636444,
      0.4180323,
      0.0316206,
      0.0700553,
      0.3233117,
      0.3738882,
      0.4316879,
      0.417686,
      0.1243589,
      0.1958848,
      0.1201615,
      0.0978041,
      0.6909446,
      0.0542062,
      0.0305627,
      0.4190367,
      0.490917,
      0.4819647,
      -0.0377026,
      -0.0009603,
      -0.0075727,
      0.2789904,
      -0.0085061,
      0.1729278,
      0.9124999,
      0.3021579,
      0.1082145,
      -0.0686463,
      -0.1293844,
      0.6206603,
      -0.0580148,
      -0.0440396,
      0.0276739,
      0.0018867,
      0.0109827,
      0.0154734,
      0.0811269,
      0.3898529,
      0.1225447,
      -0.0026649,
      -0.0086041,
      0.0502902,
      -0.0029552,
      0.0055129,
      0.0419125,
      0.0898749,
      0.0121037
    ],
    "last_outputs": [
      -0.2710458,
      -0.2071656,
      0.1537813,
      -0.1204164,
      -0.0675603,
      -0.0160117,
      -0.1898985,
      -0.1391164,
      0.2858617,
      0.0125336,
      -0.3525845,
      -0.1945973,
      -0.0460791,
      0.0915934,
      -0.0196536
    ],
    "last_prediction_errors": {
      "damage": 0.132541,
      "energy": 0.3066142,
      "hazard": -0.0552402,
      "reproduction": -0.0781797,
      "social": -0.1398628,
      "tool": 0.709107
    },
    "output_size": 15,
    "prediction_weights": [
      -0.7999878,
      0.2259597,
      -0.2719662,
      0.2372752,
      0.8913803,
      -0.4835699,
      -0.4792068,
      0.7295051
    ],
    "weights_in": [
      0.1266206,
      1.014312,
      0.6498935,
      -0.3069532,
      0.9386275,
      0.3421713,
      -0.1729748,
      0.0878586,
      -0.8060144,
      -0.0974473,
      -0.1178343,
      -0.5053455,
      -0.1221086,
      0.3451168,
      0.5507466,
      -0.0734048,
      0.6216368,
      0.9568049,
      -0.0947766,
      -0.2674024,
      -0.3672502,
      -0.1773949,
      0.0770626,
      -0.3838875,
      -0.1864579,
      0.2436282,
      -0.1689513,
      -0.1674419,
      -0.1325082,
      -0.1089383,
      0.0812182,
      -0.1440412,
      -0.4216665,
      -0.136605,
      -0.1956074,
      0.2697014,
      0.1037307,
      -0.4148925,
      -0.409069,
      0.8492559,
      -0.0951427,
      -0.5971168,
      0.3664391,
      0.9108272,
      0.3348325,
      0.8050528,
      -0.4732034,
      -0.2525588,
      -0.1131863,
      -0.2192323,
      0.4026527,
      -0.1968307,
      -0.1350603,
      0.5798775,
      -0.0956801,
      0.296577,
      0.1963958,
      0.1692846,
      0.3639805,
      0.0388646,
      0.6831126,
      -0.9494491,
      -0.5217887,
      0.0413847,
      -0.1271395,
      -0.1329016,
      -0.5023215,
      1.3881987,
      -0.4840666,
      0.4938096,
      -0.5055362,
      0.4321058,
      -0.1729155,
      1.0489057,
      0.5884558,
      0.1261372,
      -0.2844551,
      1.1024385,
      -0.782234,
      -0.1071952,
      0.5054851,
      -0.7112303,
      0.8051318,
      -0.4180372,
      0.2855929,
      -0.6465225,
      0.4704327,
      0.0235624,
      -0.4507351,
      -0.1937183,
      -0.0567554,
      -0.1145075,
      0.3817422,
      0.1365912,
      0.2979629,
      0.4169738,
      0.3362706,
      -0.9987796,
      -0.498,
      -1.081468,
      0.6862166,
      -0.2891757,
      0.6020093,
      -0.2144445,
      0.5278029,
      -0.4520183,
      0.3519026,
      -0.0578016,
      -0.444958,
      -0.0619238,
      -0.5790147,
      -0.1509459,
      0.1993698,
      0.3752809,
      -0.0141407,
      -0.3574916,
      -0.4098173,
      -0.8127212,
      0.1363047,
      0.6036698,
      0.6036803,
      -0.3999241,
      1.05066,
      0.018755,
      -0.0075653,
      -0.4948892,
      -0.5969782,
      -0.2287043,
      0.3453832,
      -0.1453417,
      -0.151788,
      -0.6306842,
      0.6498265,
      -0.5461915,
      -0.0635493,
      0.1875859,
      0.2259638,
      -0.0132874,
      0.4942905,
      0.2208098,
      -0.3416236,
      -0.0293214,
      -0.4046957,
      -0.0449156,
      -0.3114763,
      -0.0841671,
      0.1105435,
      -0.6917679,
      0.2256908,
      -0.70203,
      -0.0981708,
      -0.5732541,
      0.1363805,
      0.0772508,
      -0.7566947,
      0.2340583,
      0.299382,
      -0.0012899,
      0.0351021,
      0.4185453,
      -0.4489109,
      0.2797105,
      -0.4811026,
      -0.0794363,
      -0.0071079,
      -0.1556446,
      0.2407429,
      -0.17982,
      0.2366444,
      -0.6274588,
      -0.3390581,
      0.1270689,
      -0.0541544,
      -0.1807114,
      0.3476469,
      -0.4692014,
      -0.5214656,
      -0.0563615,
      -0.5360938,
      0.3848304,
      -0.5812064,
      -0.4542928,
      -0.0159284,
      -0.0177912,
      -0.3371695,
      -0.4024322,
      -0.2503578,
      0.2981951,
      0.5649183,
      -0.5810093,
      -0.3217227,
      -0.9508898,
      0.5622459,
      0.2935787,
      -0.390249,
      -0.7920757,
      0.9002539,
      0.3671783,
      -0.1588426,
      0.4952667,
      1.1865883,
      0.0513244,
      0.0570898,
      -0.208114,
      -0.6681015,
      -0.2133554,
      0.0630093,
      -0.4483453,
      -0.0105977,
      0.1123716,
      0.1746365,
      0.3359805,
      0.1328267,
      -0.4992376,
      0.2787854,
      0.2502797,
      -0.2934892,
      0.3054552,
      -0.0905167,
      -0.6611004,
      0.378547,
      0.2392511,
      0.0767998,
      -0.2971895,
      1.0257839,
      -0.0406957,
      0.2385086,
      -0.0434147,
      0.6269409,
      -0.1382627,
      0.0542649,
      0.4378123,
      -0.4397965,
      0.837145,
      -0.0149069,
      -0.1902306,
      -0.4715168,
      0.2984801,
      0.6445882,
      -0.283091,
      -0.355438,
      -0.2697808,
      -0.6973304,
      -0.1310679,
      0.0731311,
      0.7346604,
      -0.1696539,
      -0.2459566,
      0.3255206,
      -0.0611266,
      0.1493163,
      0.0040147,
      0.3319771,
      0.0027969,
      -0.0692208,
      0.1972368,
      0.1491354,
      -0.1974017,
      -0.5374135,
      -0.10888,
      0.4110781,
      -0.1738536,
      -0.2735041,
      0.538882,
      -0.6933059,
      0.1853666,
      -0.1466154,
      0.4895466,
      -1.0858516,
      -0.5212921,
      0.0248744,
      -0.0754536,
      0.2386414,
      0.0203682,
      -0.3312933,
      0.8952286,
      -0.2140158,
      -0.4626512,
      -0.1674939,
      -0.4326042,
      0.7892786,
      -0.8805475,
      0.1568587,
      0.412952,
      -0.4387511,
      0.2774649,
      0.3761152,
      0.2607644,
      0.4041314,
      -0.7394484,
      -0.2141299,
      0.302108,
      -0.6262448,
      -0.1436443,
      0.0590382,
      0.3171785,
      0.7701272,
      -0.1215486,
      -0.4943081,
      0.2486971,
      -0.1621645,
      -0.1634825,
      -0.030854,
      0.0946816,
      0.1543101,
      0.1640274,
      0.4081437,
      0.1310802,
      -0.3817999,
      -0.1758614,
      -0.0144812,
      -0.1260522,
      -0.311357,
      -0.1276936,
      -0.209936,
      0.1410401,
      -0.929721,
      0.4649046,
      -0.4911698,
      -0.3273718,
      0.0170488,
      -0.1181613,
      -0.2021722,
      0.9970679,
      -0.2456407,
      0.5536587,
      0.1529838,
      -0.129449,
      0.7572339,
      -0.1137462,
      0.0219809,
      0.0716098,
      0.6325432,
      0.3412923,
      -0.0048291,
      -0.2480031,
      -0.4008169,
      -0.6371039,
      0.4942862,
      0.551002,
      -0.0217514,
      -0.2003685,
      -0.0945594,
      -0.533348,
      -0.1285802,
      -0.7845918,
      0.0016802,
      -0.2185335,
      0.1836298,
      0.5779076,
      -0.8032782,
      -0.0378297,
      -0.0897984,
      0.0964777,
      0.1280178,
      0.4031248,
      0.5291743,
      0.295722,
      -0.3693312,
      -0.7373156,
      0.3352164,
      -0.7899236,
      0.3675412,
      0.1147982,
      0.1336142,
      0.4331997,
      -0.1193684,
      0.0077305,
      0.1037097,
      -0.0834889,
      0.5499926,
      -0.4150719,
      -0.4048261,
      0.6278722,
      -0.697868,
      0.2284145,
      -0.7080882,
      0.1877815,
      -0.2868184,
      -0.1255309,
      -0.5783972,
      -0.7812635,
      -0.0656067,
      1.1774795,
      0.0600652,
      -0.3096992,
      1.112898,
      -0.3897283,
      0.2994234,
      0.1939204,
      -0.019877,
      -0.4583798,
      -0.3740976,
      -0.1023932,
      0.0777855,
      0.0757226,
      0.4162445,
      0.1921017,
      -0.2662208,
      -0.3691722,
      0.8141639,
      -0.2305604,
      0.2023751,
      0.0266455,
      0.3809183,
      -0.2285373,
      -0.3290983,
      0.1298056,
      0.017926,
      0.2529775,
      0.1138155,
      0.2480917,
      0.5049474,
      -0.0544903,
      -0.0716372,
      -0.2122615,
      -0.6731275,
      -0.9338713,
      0.1873849,
      -0.17472,
      0.6345581,
      -0.1044044,
      0.2467882,
      -0.2925298,
      -0.0767863,
      0.7986993,
      -0.5442515,
      0.963894,
      0.399699,
      0.0453719,
      0.2840415,
      -0.2234628,
      0.4588537,
      -0.142012,
      0.4248029,
      -0.4101812,
      0.1091402,
      0.2442158,
      -0.5683579,
      -0.4524263,
      0.6960313,
      0.1203587,
      -0.0481783,
      0.8088126,
      -0.7663293,
      0.9076528,
      0.7928094,
      0.8407402,
      -0.6969949,
      -0.1001145,
      -0.0658729,
      0.4519484,
      0.1228886,
      -0.4578814,
      0.1567593,
      0.4027159,
      -0.7365922,
      0.1704579,
      1.1276567,
      -1.0989461,
      0.698785,
      -0.3138282,
      -0.162628,
      0.4016923,
      -0.0150668,
      -0.8875723,
      -0.4698461,
      -0.1634255,
      0.0355138,
      -0.5381823,
      0.6135692,
      -0.096343,
      0.1085272,
      -0.0537648,
      0.5051633,
      -0.2081031,
      -0.6826539,
      0.5547779,
      -0.9811295,
      -0.2718536,
      0.0002081,
      -0.6972602,
      -0.8034849,
      0.0338106,
      -0.1309422,
      -0.5005316,
      0.8250531,
      0.1087592,
      0.879187,
      -0.1376309,
      0.4729463,
      -0.8748977,
      0.1790494,
      0.5527117,
      0.3437977,
      -0.317749,
      -0.0735322,
      0.6031366,
      0.0259981,
      0.1359644,
      -0.4398731,
      -0.1111384,
      0.0661327,
      -0.37772,
      -0.5049875,
      0.7454531,
      -0.0142437,
      0.3943628,
      0.7141913,
      -0.1517622,
      0.4340022,
      0.3896852,
      0.5525718,
      0.1865504,
      -0.2421193,
      -0.0043649,
      -0.2164938,
      -0.3523284,
      0.0816527,
      0.5091425,
      -0.3538563,
      -0.2080176,
      -0.4389917,
      0.4327375,
      0.7466183,
      0.135226,
      -0.5311727,
      -0.699931,
      0.2127699,
      -0.3804659,
      -0.3826453,
      -0.2029664,
      -0.2692236,
      0.6404959,
      -0.741125,
      0.1142014,
      0.3139335,
      -0.1956141,
      -0.555277,
      0.4656884,
      -0.544268,
      -0.0082643,
      0.1980602,
      0.251654,
      0.574751,
      -0.8532153,
      0.8356403,
      -0.3280086,
      0.2800634,
      -0.5470273,
      0.1616811,
      0.0798744,
      1.1970009,
      -0.9244078,
      -0.2487945,
      -0.0603904,
      0.0749411,
      0.3278224,
      -0.162102,
      -0.0570459,
      -0.8466992,
      -0.4348637,
      0.0931176,
      0.5393303,
      -0.3919869,
      -0.180537,
      -0.8150298,
      -0.1804837,
      -0.0308253,
      -0.0176457,
      -0.4771882,
      -0.5782823,
      0.1469749,
      0.2871186,
      0.2806948,
      -1.0263099
    ],
    "weights_out": [
      0.3514203,
      -0.6675578,
      0.2347326,
      0.4424798,
      0.3958396,
      -0.3155415,
      -0.3246481,
      0.0087223,
      0.2207904,
      0.1516372,
      0.4429474,
      0.4799614,
      0.4329893,
      0.2114859,
      -0.0192063,
      0.3131616,
      -0.2860578,
      -0.1053327,
      -0.8297757,
      0.1818563,
      -0.3926866,
      0.0447445,
      0.2538859,
      -0.0458455,
      1.0767796,
      -0.3982539,
      0.4702147,
      0.052446,
      0.1475591,
      -0.0364078,
      -0.3125971,
      -0.5621976,
      0.3498291,
      0.2676108,
      -0.751896,
      -0.1798374,
      -0.1873129,
      0.0732714,
      0.0464608,
      0.4684088,
      -0.3507898,
      0.3992398,
      -0.702917,
      0.3105591,
      -0.1262382,
      -0.2462027,
      0.4812117,
      0.6462564,
      0.4653867,
      0.5424682,
      0.0966094,
      -0.0698097,
      0.196535,
      -0.8783892,
      -0.0856576,
      0.4613763,
      0.2039043,
      -0.3003191,
      -0.5520083,
      -0.3061968,
      0.2921015,
      -0.3046502,
      -0.6465861,
      -0.2007702,
      0.3393732,
      0.1024954,
      -0.8070291,
      -0.2155663,
      0.0131956,
      -0.4176885,
      -0.1305034,
      -0.3923288,
      -0.4146226,
      -0.148768,
      -0.2562567,
      -0.0756227,
      -0.0440919,
      0.169093,
      -0.4296175,
      0.0827866,
      -0.238323,
      0.2934239,
      0.4504912,
      0.6399716,
      0.7070869,
      0.1195481,
      -0.2831116,
      -0.2283167,
      -0.0663825,
      -0.015647,
      -0.1354501,
      -0.4083015,
      0.2383654,
      0.8330368,
      -0.5980208,
      0.5297203,
      -0.813304,
      0.4872118,
      -0.3487629,
      -0.1865002,
      -0.3627738,
      -1.035586,
      -0.1155126,
      0.3748204,
      0.3316864,
      -0.0047036,
      0.2329981,
      0.129532,
      0.4098616,
      0.5234544,
      0.1605399,
      -0.4393858,
      -0.4144915,
      -0.5855363,
      0.8056259,
      0.9198697,
      -0.1364824,
      -0.402071,
      0.5626745,
      -0.0100157
    ]
  },
  "brain_template": {
    "attention_bias": [
      2.9851471,
      2.8646725,
      3.1088605,
      2.8817191,
      2.9351023,
      2.9307596,
      2.8392644,
      3.0052604,
      3.0468259,
      2.9156648,
      2.9743929,
      3.0008085,
      3.0327833,
      2.961718,
      3.1351755,
      2.9897009,
      2.9437166,
      3.1766268,
      2.9380334,
      2.8875952,
      3.0076121,
      3.1732146,
      3.0240842,
      3.0278417,
      3.2108154,
      3.1570438,
      3.0488855,
      3.0792734,
      3.2407408,
      2.9337093,
      3.1081025,
      3.082251,
      2.9700711,
      2.8992945,
      2.8469364,
      3.0262355,
      2.9734478,
      2.921404,
      2.9632696,
      3.0664189,
      3.0318651,
      3.1739302,
      3.1180634,
      2.9712613,
      3.0109597,
      3.0026538,
      2.9894183,
      3.2682604,
      3.1278367,
      2.834045,
      3.0398607,
      3.0275148,
      2.8439398,
      2.9212904,
      3.0440517,
      3.008795,
      3.0079881,
      3.0070113,
      3.0016995,
      2.9915484,
      2.8521495,
      3.2026359,
      3.0648106,
      3.1144883,
      2.9490839,
      3.0770295,
      2.8947351,
      2.9009955,
      3.0667652,
      3.0194642,
      2.8328283,
      2.906153
    ],
    "attention_weights": [
      -0.1517072,
      -0.1129947,
      0.0352833,
      0.079272,
      -0.0388292,
      -0.2261124,
      -0.1087424,
      0.3463403,
      -0.3639414,
      -0.0215863,
      0.26782,
      -0.2959681,
      -0.0727095,
      0.2740416,
      0.0340294,
      -0.0148834,
      -0.256636,
      -0.1191049,
      0.204103,
      0.1211928,
      -0.1490848,
      0.1068498,
      -0.0139091,
      0.1036982,
      -0.1570001,
      0.0620645,
      -0.074621,
      -0.0974667,
      -0.0787993,
      0.1671986,
      0.1680745,
      0.1547463,
      -0.0561907,
      -0.1787479,
      0.2400419,
      -0.2145883,
      0.2896011,
      -0.1481764,
      0.2717325,
      -0.1006949,
      0.1421802,
      -0.4347391,
      0.1403216,
      -0.0984505,
      -0.2095764,
      0.2280193,
      0.1253916,
      0.2968034,
      0.2715553,
      -0.2434389,
      -0.0691152,
      -0.1198389,
      0.2445785,
      0.1044049,
      0.0315382,
      0.0924268,
      -0.1817345,
      0.0091712,
      0.0582422,
      -0.0449868,
      0.1074478,
      0.0168763,
      0.0233184,
      -0.0291495,
      0.2698539,
      -0.1521802,
      0.0435289,
      -0.0490479,
      0.0309402,
      0.1569129,
      -0.0051559,
      -0.0402872,
      -0.1169647,
      -0.1023286,
      -0.062201,
      -0.2151345,
      -0.0600726,
      0.1733056,
      0.0451779,
      0.0946586,
      -0.1726013,
      0.0222482,
      -0.1412269,
      0.0206094,
      -0.337601,
      -0.1081023,
      -0.1852262,
      -0.1501358,
      0.179375,
      -0.0704595,
      -0.023904,
      0.0187342,
      0.207177,
      -0.1651423,
      -0.1267101,
      -0.0504447,
      0.1739795,
      0.1541207,
      -0.312361,
      -0.0588806,
      -0.2836722,
      -0.3701013,
      0.2136778,
      0.1146271,
      0.0234297,
      0.0507513,
      -0.0565111,
      -0.2190496,
      0.0834807,
      -0.1256809,
      0.0074244,
      0.1812453,
      -0.0971119,
      -0.0649792,
      0.1904184,
      0.0123606,
      -0.0141694,
      0.045537,
      -0.1311428,
      -0.0926906,
      0.1565765,
      -0.2151999,
      -0.0921094,
      -0.1421751,
      -0.1784762,
      0.0712043,
      0.2762537,
      -0.2147037,
      0.0315205,
      0.1299358,
      -0.1147574,
      -0.031842,
      0.0963435,
      0.1691717,
      -0.1743902,
      -0.2042648,
      0.0580385,
      0.2366205,
      -0.0031154,
      -0.1662187,
      -0.1136646,
      -0.1094549,
      -0.045497,
      0.2573536,
      0.2154726,
      -0.024021,
      0.1499168,
      -0.0819489,
      -0.2696941,
      0.0188379,
      -0.2884102,
      -0.1996411,
      -0.0062116,
      0.1656243,
      0.0250679,
      -0.2027004,
      0.1413629,
      -0.1796207,
      0.1334371,
      -0.160954,
      -0.1821984,
      0.1058463,
      0.1490951,
      0.3861584,
      -0.1911944,
      -0.0201804,
      -0.0513912,
      -0.1876606,
      -0.0267035,
      -0.0728919,
      -0.0071309,
      0.0747949,
      0.2002396,
      0.0268834,
      -0.182298,
      0.0179081,
      0.0160988,
      -0.1657905,
      0.1565471,
      0.0196262,
      -0.1874155,
      -0.0267228,
      0.4746874,
      -0.1468071,
      -0.1919841,
      -0.1238012,
      -0.169187,
      -0.1790266,
      0.1204344,
      -0.0510213,
      -0.0081389,
      -0.3208318,
      0.0478743,
      -0.033731,
      -0.1675357,
      0.0604856,
      0.0414375,
      -0.0928941,
      0.1957645,
      0.0988405,
      -0.0840212,
      0.1973702,
      0.2793375,
      0.1332467,
      0.3154567,
      -0.1994019,
      0.1023467,
      0.0351758,
      -0.3531007,
      0.082698,
      -0.0287677,
      0.0537696,
      -0.3882329,
      -0.0482102,
      0.4265849,
      -0.1455579,
      -0.0137869,
      0.0197864,
      0.1860629,
      0.0717552,
      0.1054449,
      -0.0082097,
      -0.0823356,
      0.0804793,
      -0.1572697,
      -0.0234735,
      -0.109667,
      0.2366807,
      0.1487096,
      0.056739,
      -0.1949065,
      -0.1041593,
      0.1474017,
      0.1577942,
      -0.0235657,
      0.1416385,
      -0.0355754,
      0.1821213,
      0.026496,
      0.1078317,
      0.1847022,
      0.0287994,
      -0.0897242,
      0.0008726,
      -0.0926344,
      0.0736146,
      -0.2415961,
      -0.3265533,
      0.2669201,
      -0.1570328,
      0.1477342,
      -0.2080083,
      0.1713766,
      0.11772,
      -0.0768324,
      -0.0738796,
      0.2013205,
      0.0862195,
      0.0386434,
      0.0841141,
      -0.1480951,
      0.1027346,
      -0.135918,
      -0.0567681,
      -0.0402999,
      0.0730168,
      0.1704687,
      0.1615362,
      -0.1825067,
      -0.0524336,
      0.0927294,
      -0.0233321,
      -0.0690334,
      -0.2294024,
      0.1675927,
      -0.1722053,
      0.0114108,
      0.1284417,
      0.1969235,
      0.2229739,
      0.1720953,
      0.2044459,
      0.201916,
      0.0108857,
      -0.297869,
      -0.1083944,
      0.2091733,
      0.1306421,
      0.134755,
      0.4926277,
      0.1187825,
      -0.0066772,
      -0.0317407,
      0.0507587,
      0.1642143,
      -0.0033125,
      -0.3577971,
      0.3238982,
      0.0395152,
      0.0207467,
      0.0645412,
      -0.1118857,
      0.1341936,
      -0.2130145,
      -0.1506102,
      0.3949364,
      -0.069222,
      -0.0299855,
      0.1644038,
      0.2037952,
      0.048681,
      -0.1978888,
      0.1020104,
      0.271796,
      0.2778387,
      0.0388895,
      0.0678056,
      0.1044484,
      -0.1473106,
      0.2035226,
      -0.0615152,
      -0.1438135,
      -0.1474671,
      0.0301096,
      -0.089456,
      -0.0839248,
      0.0864363,
      -0.0977554,
      0.1370604,
      -0.090732,
      0.3356143,
      -0.1158457,
      -0.1629044,
      -0.0886184,
      0.0241082,
      0.0554044,
      -0.0645246,
      -0.3455763,
      0.0051426,
      0.0913266,
      -0.0131094,
      -0.0353862,
      -0.158306,
      0.1075424,
      0.2152669,
      0.1799089,
      -0.1857243,
      0.0074842,
      0.3264441,
      -0.0171342,
      0.1902777,
      0.1506145,
      0.0226292,
      0.0285003,
      0.1402272,
      -0.1282122,
      -0.0192861,
      -0.1783817,
      -0.4182552,
      -0.0536376,
      -0.1071598,
      0.2724547,
      -0.0050936,
      0.0069507,
      0.2415554,
      -0.0823644,
      -0.2365164,
      -0.0879115,
      -0.1545632,
      -0.049243,
      0.3447715,
      -0.2895085,
      0.0921966,
      0.0396115,
      0.1120933,
      0.1029859,
      -0.0934595,
      0.0533705,
      -0.0528654,
      -0.0058637,
      0.2189014,
      0.047608,
      0.0971609,
      0.1571499,
      -0.0348299,
      -0.0562947,
      -0.1326408,
      0.1489321,
      0.0232574,
      -0.1132152,
      0.1547794,
      -0.0853277,
      -0.105156,
      -0.3004328,
      0.0957548,
      -0.0140928,
      0.1083963,
      0.3265082,
      -0.0929931,
      -0.3223697,
      -0.0688394,
      0.257846,
      0.1585533,
      -0.0427302,
      0.0161469,
      0.2285253,
      -0.1267623,
      0.0254496,
      -0.1874598,
      0.1337534,
      0.085122,
      0.2763263,
      0.1899147,
      0.1274817,
      0.0422449,
      -0.1188014,
      0.2079636,
      -0.1864043,
      0.1247447,
      -0.2177845,
      -0.0569197,
      -0.0053563,
      -0.1007871,
      -0.0740627,
      0.0402058,
      -0.0334289,
      0.0393653,
      0.0125057,
      -0.0045415,
      0.0038805,
      0.0287901,
      0.1549801,
      -0.0010243,
      0.117319,
      0.1285476,
      0.0551393,
      0.0085346,
      0.0235733,
      0.1453327,
      -0.0258982,
      0.0364248,
      -0.2351956,
      -0.0791486,
      -0.1699931,
      -0.0894064,
      -0.0386254,
      -0.1606246,
      0.0832419,
      -0.0959012,
      0.2360314,
      -0.1978633,
      0.0183793,
      -0.0068491,
      -0.1958235,
      0.0495969,
      0.0257379,
      0.249579,
      0.0637833,
      0.0700512,
      -0.0250587,
      -0.1699843,
      0.320001,
      0.0473139,
      0.2082009,
      0.0365513,
      0.2402952,
      -0.0464876,
      0.1026004,
      -0.0900829,
      0.0228361,
      -0.2335619,
      -0.1097538,
      -0.0749353,
      0.0238444,
      -0.0181198,
      0.1619647,
      -0.192553,
      -0.097206,
      0.1156489,
      -0.0216645,
      -0.1391703,
      -0.2847012,
      -0.0267728,
      -0.1494187,
      -0.0247437,
      -0.0836188,
      -0.160998,
      0.1911921,
      0.0658738,
      -0.0466695,
      -0.0607851,
      -0.0851019,
      -0.0818223,
      0.0269518,
      -0.1494996,
      0.1236488,
      0.1413675,
      0.0395962,
      -0.2348228,
      0.1254983,
      -0.1599695,
      -0.0501541,
      0.0542963,
      0.2086682,
      -0.0977925,
      0.1608773,
      -0.0584316,
      -0.0951608,
      0.1073631,
      0.1808293,
      -0.0081291,
      -0.0774341,
      0.2000161,
      0.0050674,
      0.0218484,
      -0.1955738,
      -0.1024114,
      -0.1595033,
      0.1044508,
      0.0151197,
      0.2004343,
      -0.0132138,
      0.1931254,
      0.1533212,
      0.1593796,
      -0.3359664,
      0.0592101,
      -0.0841868,
      -0.1736286,
      0.1143867,
      0.1350127,
      0.1793459,
      -0.1646134,
      0.057027,
      -0.1709185,
      -0.370577,
      -0.0238524,
      -0.0776343,
      -0.1832775,
      -0.3821216,
      -0.1141479,
      -0.0294106,
      0.1749831,
      0.0805819,
      -0.1087338,
      0.1186607,
      0.1522383,
      0.0155268,
      -0.1167757,
      -0.1505034,
      -0.225822,
      -0.2642565,
      -0.0916351,
      0.0674754,
      0.0546117,
      0.1347129,
      -0.1166936,
      0.1565732,
      -0.1878997,
      0.0163096,
      0.279137,
      -0.1134841,
      0.074951,
      0.0201235,
      -0.201545,
      -0.1892764,
      0.2933489,
      -0.2587336,
      -0.0604876,
      -0.0293146,
      -0.207019,
      0.3148048,
      0.1167722,
      0.1406527,
      -0.2440329,
      0.0989866
    ],
    "auxiliary_prediction_weights": {
      "damage": [
        1.2547815,
        -0.0833488,
        0.1044456,
        -0.4020857,
        0.265313,
        -1.1516416,
        -0.2117525,
        -0.0488992
      ],
      "hazard": [
        0.8152738,
        0.1993121,
        -0.5995622,
        0.1088289,
        0.1661157,
        -0.7066852,
        0.4321349,
        0.2662761
      ],
      "reproduction": [
        -0.7409341,
        -0.2689193,
        -0.3445766,
        0.4685294,
        -0.0105054,
        0.3426419,
        -0.3321385,
        -0.7175346
      ],
      "social": [
        -0.2076581,
        0.3743771,
        0.0404827,
        0.0980764,
        -0.6458088,
        0.2551451,
        0.7880897,
        -0.7719666
      ],
      "tool": [
        0.0208562,
        0.01517,
        -0.4335269,
        -0.5294245,
        -0.7264845,
        0.3439262,
        -0.0132881,
        0.2385207
      ]
    },
    "bias_h": [
      0.024864,
      -0.0622518,
      -0.0861108,
      -0.1783243,
      -0.1542064,
      0.0163755,
      0.2110799,
      -0.0613638
    ],
    "bias_o": [
      -0.0197975,
      0.032701,
      -0.1467026,
      0.0436329,
      -0.2113272,
      -0.1878098,
      -0.0113409,
      -0.0676057,
      0.0332915,
      0.0436116,
      -0.0515168,
      -0.0504978,
      -0.091143,
      0.145425,
      0.0541675
    ],
    "hidden_size": 8,
    "input_size": 72,
    "output_size": 15,
    "prediction_weights": [
      -0.8144905,
      0.263036,
      -0.0568558,
      0.4076631,
      1.0212555,
      -0.5580106,
      -0.6958999,
      0.7485417
    ],
    "weights_in": [
      0.1263403,
      1.013863,
      0.6495082,
      -0.3070619,
      0.9386271,
      0.3421714,
      -0.1734834,
      0.0876508,
      -0.8060285,
      -0.0974473,
      -0.1178345,
      -0.5057997,
      -0.1221442,
      0.344841,
      0.5505377,
      -0.0736298,
      0.621625,
      0.9565644,
      -0.0947826,
      -0.2674247,
      -0.3673237,
      -0.1775468,
      0.0770621,
      -0.3842384,
      -0.1860844,
      0.2435836,
      -0.1692122,
      -0.167526,
      -0.1325567,
      -0.109121,
      0.0810203,
      -0.1442472,
      -0.4218515,
      -0.1366938,
      -0.1957151,
      0.2696374,
      0.1036522,
      -0.4152129,
      -0.4092094,
      0.8491904,
      -0.0952937,
      -0.5972985,
      0.3660607,
      0.9108247,
      0.3348328,
      0.8050525,
      -0.4733763,
      -0.2525642,
      -0.1132065,
      -0.2193303,
      0.4024802,
      -0.1968382,
      -0.1351061,
      0.5799494,
      -0.0956579,
      0.2966584,
      0.1963939,
      0.1692812,
      0.3639805,
      0.0388646,
      0.6831101,
      -0.9494559,
      -0.5218234,
      0.0413437,
      -0.1271395,
      -0.1329016,
      -0.5023261,
      1.3882002,
      -0.4840621,
      0.4937902,
      -0.5055548,
      0.4321058,
      -0.1718505,
      1.0507426,
      0.5897369,
      0.1269563,
      -0.2844543,
      1.1024384,
      -0.7798437,
      -0.1063125,
      0.5055447,
      -0.7112304,
      0.8051381,
      -0.4161326,
      0.2858351,
      -0.6456727,
      0.4712895,
      0.0244838,
      -0.4506852,
      -0.1927352,
      -0.0567308,
      -0.1144129,
      0.3820417,
      0.1372136,
      0.2980433,
      0.418315,
      0.3358506,
      -0.9985912,
      -0.4966628,
      -1.0810897,
      0.6864435,
      -0.2884167,
      0.602745,
      -0.2135835,
      0.5285945,
      -0.4516968,
      0.3523545,
      -0.0575029,
      -0.4446288,
      -0.060639,
      -0.5783932,
      -0.1506477,
      0.200043,
      0.3761157,
      -0.0130498,
      -0.3574248,
      -0.4098181,
      -0.812721,
      0.1370791,
      0.6036853,
      0.6039593,
      -0.3985965,
      1.0514333,
      0.0189226,
      -0.007569,
      -0.4950535,
      -0.5962109,
      -0.2288639,
      0.345418,
      -0.1453317,
      -0.1517874,
      -0.6306843,
      0.6498338,
      -0.5460731,
      -0.0629991,
      0.1877671,
      0.2259637,
      -0.0132878,
      0.4943793,
      0.2208155,
      -0.3416088,
      -0.0292443,
      -0.4046287,
      -0.0449158,
      -0.3057714,
      -0.0747662,
      0.1175322,
      -0.6868896,
      0.2256941,
      -0.702028,
      -0.0869327,
      -0.5690946,
      0.1367121,
      0.077252,
      -0.7566822,
      0.2441583,
      0.300854,
      0.0022414,
      0.0394882,
      0.4232562,
      -0.4486558,
      0.2847406,
      -0.480975,
      -0.0789512,
      -0.005579,
      -0.1524672,
      0.2410385,
      -0.1726899,
      0.2370499,
      -0.6265176,
      -0.3322501,
      0.1290134,
      -0.0530067,
      -0.1768924,
      0.3514631,
      -0.4648,
      -0.5173957,
      -0.0547595,
      -0.5337963,
      0.386399,
      -0.5794765,
      -0.4476709,
      -0.0127687,
      -0.0162675,
      -0.3337046,
      -0.3981694,
      -0.2445008,
      0.298444,
      0.5649149,
      -0.5810082,
      -0.3182391,
      -0.9508146,
      0.563336,
      0.298698,
      -0.3867781,
      -0.7912568,
      0.9005082,
      0.3661714,
      -0.1566241,
      0.4943754,
      1.1867145,
      0.0513712,
      0.0570909,
      -0.2081133,
      -0.6680721,
      -0.2129051,
      0.0650928,
      -0.4474751,
      -0.0105985,
      0.1123713,
      0.1750061,
      0.3360197,
      0.132908,
      -0.4989431,
      0.2791743,
      0.2502798,
      -0.2888922,
      0.3128969,
      -0.0850113,
      -0.6570535,
      0.3785493,
      0.2392531,
      0.0857104,
      -0.2938912,
      1.0260464,
      -0.0406946,
      0.2385168,
      -0.0354361,
      0.628097,
      -0.1354611,
      0.057737,
      0.4415406,
      -0.4395948,
      0.8411259,
      -0.0148067,
      -0.189846,
      -0.4703076,
      0.3009947,
      0.6448191,
      -0.2774528,
      -0.3544393,
      -0.2690384,
      -0.6918722,
      -0.1294926,
      0.0740472,
      0.7376769,
      -0.16664,
      -0.242473,
      0.328743,
      -0.0598664,
      0.1511319,
      0.0052729,
      0.3333602,
      0.0080381,
      -0.0666744,
      0.1984706,
      0.1518707,
      -0.1940383,
      -0.5327646,
      -0.1086849,
      0.4110755,
      -0.1738528,
      -0.2707816,
      0.5389416,
      -0.6924731,
      0.189281,
      -0.1439024,
      0.4902048,
      -1.085626,
      -0.5220875,
      0.0264696,
      -0.0761476,
      0.2387387,
      0.020404,
      -0.3312926,
      0.8952292,
      -0.2139922,
      -0.462309,
      -0.1659043,
      -0.4319216,
      0.789278,
      -0.8805476,
      0.1571506,
      0.4129831,
      -0.438688,
      0.2776884,
      0.3764199,
      0.2607646,
      0.40769,
      -0.7335485,
      -0.2095393,
      0.3051745,
      -0.6262428,
      -0.1436432,
      0.0661516,
      0.3198292,
      0.7703419,
      -0.1215482,
      -0.494301,
      0.2550367,
      -0.1612172,
      -0.1611964,
      -0.0281012,
      0.097638,
      0.1544694,
      0.1671845,
      0.4082244,
      0.1313856,
      -0.3808411,
      -0.1738666,
      -0.0142716,
      -0.1215137,
      -0.3110717,
      -0.127103,
      -0.2056417,
      0.1422731,
      -0.9289983,
      0.4673156,
      -0.4887085,
      -0.3246054,
      0.0195993,
      -0.1171493,
      -0.200708,
      0.9980514,
      -0.2445598,
      0.5578045,
      0.1549816,
      -0.1284819,
      0.7594209,
      -0.1109888,
      0.0255582,
      0.0717859,
      0.6325413,
      0.3412928,
      -0.0025733,
      -0.2479554,
      -0.4000586,
      -0.6335335,
      0.4965341,
      0.5515538,
      -0.0216577,
      -0.2009873,
      -0.0928386,
      -0.53385,
      -0.1284914,
      -0.784561,
      0.001681,
      -0.218533,
      0.1836496,
      0.5782211,
      -0.8018273,
      -0.037272,
      -0.089799,
      0.0964775,
      0.1282683,
      0.4031512,
      0.5292297,
      0.2959046,
      -0.3690719,
      -0.7373156,
      0.333117,
      -0.793172,
      0.3647753,
      0.1130501,
      0.133613,
      0.433199,
      -0.1233566,
      0.0062414,
      0.1035852,
      -0.0834889,
      0.5499926,
      -0.4185932,
      -0.4053933,
      0.6264762,
      -0.6993833,
      0.2267871,
      -0.7081749,
      0.1860438,
      -0.2868621,
      -0.1256995,
      -0.5789245,
      -0.7823623,
      -0.0657138,
      1.174891,
      0.0597474,
      -0.3100343,
      1.1104783,
      -0.3904133,
      0.2990226,
      0.1925943,
      -0.02128,
      -0.4599058,
      -0.3755093,
      -0.1029401,
      0.0769774,
      0.0751735,
      0.4156439,
      0.1898227,
      -0.2673282,
      -0.369709,
      0.8129456,
      -0.2321059,
      0.2003262,
      0.0265584,
      0.3809193,
      -0.2285377,
      -0.3303408,
      0.1297766,
      0.0175165,
      0.2510547,
      0.112576,
      0.2477702,
      0.5048929,
      -0.0541312,
      -0.0725127,
      -0.2120058,
      -0.6731723,
      -0.9338885,
      0.1873847,
      -0.1747202,
      0.6345453,
      -0.1045742,
      0.2460026,
      -0.2928377,
      -0.0767857,
      0.7986992,
      -0.5443875,
      0.9638762,
      0.3996625,
      0.0452798,
      0.2838807,
      -0.2234627,
      0.4531614,
      -0.1514165,
      0.4176658,
      -0.4148962,
      0.1091367,
      0.2442143,
      -0.5795769,
      -0.4565605,
      0.6956959,
      0.1203576,
      -0.0481905,
      0.7986369,
      -0.7678462,
      0.9040716,
      0.7884221,
      0.8360271,
      -0.6972504,
      -0.1051471,
      -0.0660014,
      0.4514638,
      0.1213584,
      -0.4610608,
      0.1564663,
      0.3955332,
      -0.7363866,
      0.1695113,
      1.1209034,
      -1.1008455,
      0.6976474,
      -0.3176514,
      -0.1664776,
      0.3972897,
      -0.0191403,
      -0.8891796,
      -0.4721453,
      -0.16498,
      0.0337958,
      -0.5448109,
      0.6104668,
      -0.0978316,
      0.1050449,
      -0.0580498,
      0.4992414,
      -0.2083479,
      -0.6826505,
      0.5547767,
      -0.9846426,
      -0.2719293,
      -0.000906,
      -0.7024837,
      -0.8069852,
      0.0329954,
      -0.131179,
      -0.4995108,
      0.8227212,
      0.1096563,
      0.8790607,
      -0.1376784,
      0.4729451,
      -0.8748984,
      0.1790198,
      0.5522504,
      0.3416689,
      -0.3186258,
      -0.0735313,
      0.603137,
      0.0256298,
      0.1359228,
      -0.4399587,
      -0.1114367,
      0.065732,
      -0.3777201,
      -0.5043527,
      0.7465605,
      -0.012857,
      0.3946917,
      0.7141921,
      -0.1517629,
      0.4354548,
      0.3902574,
      0.5526255,
      0.1865498,
      -0.24212,
      -0.0031429,
      -0.216251,
      -0.3516756,
      0.0821689,
      0.5096983,
      -0.3538281,
      -0.2074235,
      -0.4389745,
      0.4327954,
      0.7467988,
      0.1356029,
      -0.5310862,
      -0.6989047,
      0.2119364,
      -0.3803445,
      -0.3818763,
      -0.2027568,
      -0.2690941,
      0.6409825,
      -0.7405134,
      0.1147291,
      0.3144035,
      -0.195402,
      -0.5549547,
      0.4658517,
      -0.5440879,
      -0.0075026,
      0.1984066,
      0.2518205,
      0.5751928,
      -0.852521,
      0.8361826,
      -0.3279371,
      0.2800631,
      -0.5470273,
      0.1622978,
      0.0798842,
      1.1973103,
      -0.922948,
      -0.2481792,
      -0.0602278,
      0.0748079,
      0.32771,
      -0.1610181,
      -0.0570488,
      -0.8466619,
      -0.4348546,
      0.093118,
      0.5393303,
      -0.3919809,
      -0.1804052,
      -0.81443,
      -0.1803482,
      -0.0308258,
      -0.0176455,
      -0.477101,
      -0.5782737,
      0.1469957,
      0.2871613,
      0.280783,
      -1.0263103
    ],
    "weights_out": [
      0.3514202,
      -0.6675581,
      0.2347301,
      0.4424777,
      0.3958381,
      -0.3155406,
      -0.3246458,
      0.0087223,
      0.2208744,
      0.1515418,
      0.4423706,
      0.4795139,
      0.4326717,
      0.2116888,
      -0.0186085,
      0.3131293,
      -0.2854629,
      -0.1033157,
      -0.816161,
      0.1938651,
      -0.3851115,
      0.0415089,
      0.2422924,
      -0.0485202,
      1.0767968,
      -0.3982837,
      0.4700138,
      0.0522791,
      0.1474535,
      -0.0363356,
      -0.3123982,
      -0.5621786,
      0.3498321,
      0.2676032,
      -0.7519912,
      -0.1799177,
      -0.1873635,
      0.0732963,
      0.0465491,
      0.4684254,
      -0.3507821,
      0.3992287,
      -0.703009,
      0.3104858,
      -0.1262928,
      -0.2461727,
      0.4813019,
      0.6462527,
      0.4653888,
      0.5424386,
      0.0965141,
      -0.0698883,
      0.1964709,
      -0.8783533,
      -0.0855634,
      0.4613601,
      0.203913,
      -0.3003383,
      -0.552109,
      -0.3062838,
      0.2920395,
      -0.3046065,
      -0.6464853,
      -0.2007741,
      0.3320375,
      0.1348723,
      -0.6681171,
      -0.1073076,
      0.1046588,
      -0.4683283,
      -0.270526,
      -0.364018,
      -0.4145853,
      -0.1487724,
      -0.2566036,
      -0.0759107,
      -0.0442807,
      0.169223,
      -0.4292646,
      0.0827972,
      -0.2383233,
      0.2934256,
      0.4505022,
      0.6399809,
      0.7070935,
      0.1195436,
      -0.2831226,
      -0.2283159,
      -0.0663637,
      -0.0157041,
      -0.1356585,
      -0.4084586,
      0.2382314,
      0.833111,
      -0.5978058,
      0.5296744,
      -0.8132862,
      0.4873179,
      -0.3483975,
      -0.1862035,
      -0.3625563,
      -1.0357173,
      -0.1158617,
      0.3748407,
      0.3381892,
      -0.0105025,
      0.1889174,
      0.0945129,
      0.3859351,
      0.540059,
      0.2049547,
      -0.4422333,
      -0.414491,
      -0.5855373,
      0.8056134,
      0.9198604,
      -0.1364895,
      -0.4020667,
      0.5626877,
      -0.0100172
    ]
  },
  "bucket": "interval_champion",
  "cognition": {
    "event_memory": {
      "damage": 0.0,
      "energy_gain": 0.0,
      "energy_loss": 0.007378,
      "health_gain": 0.0,
      "reproduction": 0.0,
      "social": 0.091855,
      "surprise": 0.103792,
      "tool": 0.441101
    },
    "last_action": "use_tool",
    "last_valence": 0.008618,
    "lesson_memory": [
      {
        "affordance": "lever",
        "attempted_affordance": "lever",
        "gain": 0.000387,
        "kind": "tool_use",
        "method_quality": 0.0,
        "place": 32,
        "problem": {
          "kind": "obstacle",
          "obstacle": "salinity",
          "place": 32,
          "required_affordance": "filter",
          "required_capability": "filter",
          "severity": 0.454769
        },
        "score": 0.74,
        "skill": 1.0,
        "success": true
      },
      {
        "affordance": "lever",
        "attempted_affordance": "lever",
        "gain": 0.000387,
        "kind": "tool_use",
        "method_quality": 0.0,
        "place": 32,
        "problem": {
          "kind": "obstacle",
          "obstacle": "salinity",
          "place": 32,
          "required_affordance": "filter",
          "required_capability": "filter",
          "severity": 0.454826
        },
        "score": 0.74,
        "skill": 1.0,
        "success": true
      },
      {
        "affordance": "lever",
        "attempted_affordance": "lever",
        "gain": 0.000387,
        "kind": "tool_use",
        "method_quality": 0.0,
        "place": 32,
        "problem": {
          "kind": "obstacle",
          "obstacle": "salinity",
          "place": 32,
          "required_affordance": "filter",
          "required_capability": "filter",
          "severity": 0.454885
        },
        "score": 0.74,
        "skill": 1.0,
        "success": true
      },
      {
        "affordance": "lever",
        "attempted_affordance": "lever",
        "gain": 0.000387,
        "kind": "tool_use",
        "method_quality": 0.0,
        "place": 32,
        "problem": {
          "kind": "obstacle",
          "obstacle": "salinity",
          "place": 32,
          "required_affordance": "filter",
          "required_capability": "filter",
          "severity": 0.454945
        },
        "score": 0.74,
        "skill": 1.0,
        "success": true
      },
      {
        "affordance": "lever",
        "attempted_affordance": "lever",
        "gain": 0.000387,
        "kind": "tool_use",
        "method_quality": 0.0,
        "place": 32,
        "problem": {
          "kind": "obstacle",
          "obstacle": "salinity",
          "place": 32,
          "required_affordance": "filter",
          "required_capability": "filter",
          "severity": 0.455005
        },
        "score": 0.74,
        "skill": 1.0,
        "success": true
      }
    ],
    "lineage": {
      "inherited_brain_template": true,
      "parent_lineages": [
        489
      ],
      "parents": [
        3691
      ],
      "root_id": 489
    },
    "place_memory": [
      {
        "place_id": 31,
        "value": 0.877022
      },
      {
        "place_id": 33,
        "value": 0.696182
      },
      {
        "place_id": 32,
        "value": 0.418008
      }
    ],
    "prediction_errors": {
      "damage": 0.132541,
      "energy": 0.306614,
      "hazard": -0.05524,
      "reproduction": -0.07818,
      "social": -0.139863,
      "tool": 0.709107
    },
    "recent_trace": {
      "action": 0.571429,
      "damage": 0.0,
      "energy_delta": -0.016761,
      "health_delta": 0.0,
      "prediction_error": 0.306614,
      "reproduction": 0.0,
      "social": 0.2,
      "tool": 1.0
    },
    "signal_values": [
      0.0,
      0.0,
      0.025073,
      0.019007,
      0.037337,
      0.023583,
      0.072886,
      0.00032
    ],
    "success_profile": {
      "causal_step": 21.0,
      "causal_unlock": 3.0,
      "collaboration": 325.13254,
      "energy_gain": 112.713092,
      "prediction_fit": 110.128244,
      "reproduction": 18.0,
      "structure": 1.375,
      "tool_use": 1514.917802
    },
    "tool_trace": {
      "last_artifact_method": 0.0,
      "last_craft_target": "",
      "last_tool_affordance": "lever"
    }
  },
  "context": {
    "criterion": "overall_champion",
    "label": "final",
    "lineages": {
      "agent_lineages_total": 80,
      "living_agent_lineages": 6,
      "top_all_time": [
        {
          "avg_living_energy": 25.41249,
          "avg_living_health": 0.74822,
          "born": 1542,
          "dead": 1301,
          "inherited_template_count": 1536,
          "lineage_root_id": 490,
          "living": 241,
          "living_neural": 241,
          "max_generation": 26,
          "offspring_total": 3060,
          "profile": {
            "causal_step": 54.0,
            "causal_unlock": 32.98724,
            "collaboration": 111387.99092,
            "energy_gain": 17969.82702,
            "knowledge_transmitted": 3.67079,
            "prediction_fit": 12331.94002,
            "reproduction": 3060.0,
            "social_learning": 441.1,
            "structure": 193.375,
            "tool_make": 61.14022,
            "tool_use": 2172.11375,
            "written_learning": 10.63842
          },
          "score": 98367.02841,
          "successful_tools_total": 1104,
          "tool_use_counts": {
            "bind": 298,
            "build": 98,
            "concentrate_heat": 66,
            "contain": 462,
            "crack": 53,
            "craft": 56,
            "cut": 5,
            "lever": 63
          },
          "tool_users": 216,
          "top_living_ids": [
            9081,
            6451,
            7033,
            5683,
            9542
          ]
        },
        {
          "avg_living_energy": 34.36183,
          "avg_living_health": 0.77593,
          "born": 995,
          "dead": 800,
          "inherited_template_count": 988,
          "lineage_root_id": 430,
          "living": 195,
          "living_neural": 195,
          "max_generation": 23,
          "offspring_total": 1982,
          "profile": {
            "causal_step": 333.0,
            "causal_unlock": 38.80391,
            "collaboration": 67027.9865,
            "energy_gain": 19056.94601,
            "knowledge_transmitted": 2.25783,
            "prediction_fit": 9730.16561,
            "reproduction": 1982.0,
            "social_learning": 367.9,
            "structure": 344.75,
            "tool_make": 75.74275,
            "tool_use": 5315.56351,
            "written_learning": 16.09799
          },
          "score": 71310.8531,
          "successful_tools_total": 3990,
          "tool_use_counts": {
            "bind": 1594,
            "build": 164,
            "concentrate_heat": 551,
            "contain": 428,
            "crack": 627,
            "craft": 70,
            "cut": 69,
            "lever": 474
          },
          "tool_users": 257,
          "top_living_ids": [
            6854,
            6751,
            7020,
            6914,
            7539
          ]
        },
        {
          "avg_living_energy": 31.69035,
          "avg_living_health": 0.85094,
          "born": 306,
          "dead": 201,
          "inherited_template_count": 305,
          "lineage_root_id": 489,
          "living": 105,
          "living_neural": 105,
          "max_generation": 23,
          "offspring_total": 469,
          "profile": {
            "causal_step": 109.0,
            "causal_unlock": 26.74882,
            "collaboration": 15030.37461,
            "energy_gain": 3278.77743,
            "knowledge_transmitted": 1.75298,
            "prediction_fit": 2954.05991,
            "reproduction": 469.0,
            "social_learning": 463.15,
            "structure": 193.125,
            "tool_make": 58.42207,
            "tool_use": 11000.33764,
            "written_learning": 0.28908
          },
          "score": 41418.77879,
          "successful_tools_total": 9882,
          "tool_use_counts": {
            "bind": 2083,
            "build": 91,
            "concentrate_heat": 1932,
            "contain": 1146,
            "crack": 427,
            "cut": 2272,
            "filter": 201,
            "lever": 1675
          },
          "tool_users": 150,
          "top_living_ids": [
            4350,
            6629,
            6687,
            4874,
            8571
          ]
        },
        {
          "avg_living_energy": 0.0,
          "avg_living_health": 0.0,
          "born": 1,
          "dead": 1,
          "inherited_template_count": 0,
          "lineage_root_id": 447,
          "living": 0,
          "living_neural": 0,
          "max_generation": 0,
          "offspring_total": 0,
          "profile": {
            "causal_step": 2.0,
            "collaboration": 0.78914,
            "energy_gain": 177.28194,
            "prediction_fit": 61.27064,
            "structure": 1.375,
            "tool_use": 1366.33117,
            "written_learning": 0.00976
          },
          "score": 3338.60214,
          "successful_tools_total": 1197,
          "tool_use_counts": {
            "build": 1,
            "concentrate_heat": 1135,
            "crack": 1,
            "lever": 60
          },
          "tool_users": 1,
          "top_living_ids": []
        },
        {
          "avg_living_energy": -0.03533,
          "avg_living_health": 0.34456,
          "born": 2,
          "dead": 1,
          "inherited_template_count": 1,
          "lineage_root_id": 416,
          "living": 1,
          "living_neural": 1,
          "max_generation": 1,
          "offspring_total": 2,
          "profile": {
            "causal_step": 7.0,
            "collaboration": 28.95816,
            "energy_gain": 133.13608,
            "prediction_fit": 176.71801,
            "reproduction": 2.0,
            "structure": 480.375,
            "tool_make": 14.71131,
            "tool_use": 552.5657
          },
          "score": 2342.45763,
          "successful_tools_total": 700,
          "tool_use_counts": {
            "bind": 168,
            "build": 205,
            "concentrate_heat": 2,
            "contain": 176,
            "crack": 23,
            "craft": 13,
            "lever": 113
          },
          "tool_users": 2,
          "top_living_ids": [
            416
          ]
        }
      ],
      "top_living": [
        {
          "avg_living_energy": 25.41249,
          "avg_living_health": 0.74822,
          "born": 1542,
          "dead": 1301,
          "inherited_template_count": 1536,
          "lineage_root_id": 490,
          "living": 241,
          "living_neural": 241,
          "max_generation": 26,
          "offspring_total": 3060,
          "profile": {
            "causal_step": 54.0,
            "causal_unlock": 32.98724,
            "collaboration": 111387.99092,
            "energy_gain": 17969.82702,
            "knowledge_transmitted": 3.67079,
            "prediction_fit": 12331.94002,
            "reproduction": 3060.0,
            "social_learning": 441.1,
            "structure": 193.375,
            "tool_make": 61.14022,
            "tool_use": 2172.11375,
            "written_learning": 10.63842
          },
          "score": 98367.02841,
          "successful_tools_total": 1104,
          "tool_use_counts": {
            "bind": 298,
            "build": 98,
            "concentrate_heat": 66,
            "contain": 462,
            "crack": 53,
            "craft": 56,
            "cut": 5,
            "lever": 63
          },
          "tool_users": 216,
          "top_living_ids": [
            9081,
            6451,
            7033,
            5683,
            9542
          ]
        },
        {
          "avg_living_energy": 34.36183,
          "avg_living_health": 0.77593,
          "born": 995,
          "dead": 800,
          "inherited_template_count": 988,
          "lineage_root_id": 430,
          "living": 195,
          "living_neural": 195,
          "max_generation": 23,
          "offspring_total": 1982,
          "profile": {
            "causal_step": 333.0,
            "causal_unlock": 38.80391,
            "collaboration": 67027.9865,
            "energy_gain": 19056.94601,
            "knowledge_transmitted": 2.25783,
            "prediction_fit": 9730.16561,
            "reproduction": 1982.0,
            "social_learning": 367.9,
            "structure": 344.75,
            "tool_make": 75.74275,
            "tool_use": 5315.56351,
            "written_learning": 16.09799
          },
          "score": 71310.8531,
          "successful_tools_total": 3990,
          "tool_use_counts": {
            "bind": 1594,
            "build": 164,
            "concentrate_heat": 551,
            "contain": 428,
            "crack": 627,
            "craft": 70,
            "cut": 69,
            "lever": 474
          },
          "tool_users": 257,
          "top_living_ids": [
            6854,
            6751,
            7020,
            6914,
            7539
          ]
        },
        {
          "avg_living_energy": 31.69035,
          "avg_living_health": 0.85094,
          "born": 306,
          "dead": 201,
          "inherited_template_count": 305,
          "lineage_root_id": 489,
          "living": 105,
          "living_neural": 105,
          "max_generation": 23,
          "offspring_total": 469,
          "profile": {
            "causal_step": 109.0,
            "causal_unlock": 26.74882,
            "collaboration": 15030.37461,
            "energy_gain": 3278.77743,
            "knowledge_transmitted": 1.75298,
            "prediction_fit": 2954.05991,
            "reproduction": 469.0,
            "social_learning": 463.15,
            "structure": 193.125,
            "tool_make": 58.42207,
            "tool_use": 11000.33764,
            "written_learning": 0.28908
          },
          "score": 41418.77879,
          "successful_tools_total": 9882,
          "tool_use_counts": {
            "bind": 2083,
            "build": 91,
            "concentrate_heat": 1932,
            "contain": 1146,
            "crack": 427,
            "cut": 2272,
            "filter": 201,
            "lever": 1675
          },
          "tool_users": 150,
          "top_living_ids": [
            4350,
            6629,
            6687,
            4874,
            8571
          ]
        },
        {
          "avg_living_energy": 54.68116,
          "avg_living_health": 0.79254,
          "born": 3,
          "dead": 0,
          "inherited_template_count": 2,
          "lineage_root_id": 428,
          "living": 3,
          "living_neural": 3,
          "max_generation": 16,
          "offspring_total": 5,
          "profile": {
            "causal_step": 2.0,
            "collaboration": 228.1616,
            "energy_gain": 165.77385,
            "prediction_fit": 139.3502,
            "reproduction": 5.0,
            "social_learning": 1.6,
            "tool_make": 3.26645,
            "tool_use": 23.87133
          },
          "score": 376.19963,
          "successful_tools_total": 9,
          "tool_use_counts": {
            "bind": 4,
            "craft": 3,
            "lever": 2
          },
          "tool_users": 1,
          "top_living_ids": [
            428,
            9668,
            9561
          ]
        },
        {
          "avg_living_energy": 75.45151,
          "avg_living_health": 1.0,
          "born": 7,
          "dead": 6,
          "inherited_template_count": 6,
          "lineage_root_id": 463,
          "living": 1,
          "living_neural": 1,
          "max_generation": 3,
          "offspring_total": 7,
          "profile": {
            "causal_step": 1.0,
            "collaboration": 13.09917,
            "energy_gain": 1812.30748,
            "prediction_fit": 187.28802,
            "reproduction": 7.0,
            "structure": 1.375,
            "tool_use": 8.55815
          },
          "score": 218.66179,
          "successful_tools_total": 7,
          "tool_use_counts": {
            "bind": 1,
            "build": 1,
            "concentrate_heat": 3,
            "contain": 2
          },
          "tool_users": 1,
          "top_living_ids": [
            463
          ]
        }
      ]
    },
    "population": {
      "agent": 546,
      "fungus": 514,
      "neural": 546,
      "plant": 2135,
      "total": 3195
    },
    "world_energy": {
      "biological_storage": 225.8658,
      "chemical": 2.1115,
      "electrical": 237.6934,
      "high_density": 10.5386,
      "locked_chemical": 470.9569,
      "mechanical": 1854.8698,
      "radiant": 972.4174,
      "thermal": 3260.6666
    },
    "world_physics": {
      "archetype_counts": {
        "cavern": 1,
        "desert_glass": 2,
        "forest_edge": 3,
        "high_ridge": 4,
        "hydrothermal_vent": 1,
        "mineral_scree": 3,
        "pelagic": 4,
        "reef": 8,
        "tidal_marsh": 5,
        "trench": 5
      },
      "avg_abrasion": 0.1478,
      "avg_acidity": 0.15088,
      "avg_biological_activity": 0.23524,
      "avg_boundary_permeability": 0.3473,
      "avg_current_exposure": 0.1035,
      "avg_edge_current": 0.25217,
      "avg_edge_slope": 0.41624,
      "avg_elevation": 0.46212,
      "avg_fluid_level": 0.26745,
      "avg_humidity": 0.33609,
      "avg_interiority": 0.35334,
      "avg_oxygen": 0.41369,
      "avg_pressure": 0.1771,
      "avg_resource_gradient": 0.54087,
      "avg_salinity": 0.47256,
      "avg_shelter": 0.40618,
      "avg_structure_scale": 13.13636,
      "avg_temperature": 0.50553,
      "avg_terrain_richness": 0.56417,
      "avg_wet_dry_cycle": 0.17127,
      "max_abrasion": 0.24775,
      "max_acidity": 0.35509,
      "max_biological_activity": 0.73395,
      "max_boundary_permeability": 0.79585,
      "max_current_exposure": 0.28235,
      "max_edge_current": 0.79551,
      "max_edge_slope": 0.97036,
      "max_elevation": 0.98072,
      "max_fluid_level": 0.5477,
      "max_humidity": 0.65742,
      "max_interiority": 0.47059,
      "max_oxygen": 0.54739,
      "max_pressure": 0.46525,
      "max_resource_gradient": 1.0,
      "max_salinity": 1.25,
      "max_shelter": 0.48968,
      "max_structure_scale": 398,
      "max_temperature": 0.74928,
      "max_terrain_richness": 0.91823,
      "max_wet_dry_cycle": 0.24149,
      "structure_count": 198.0
    }
  },
  "genome": {
    "aquatic_affinity": 0.2208106498094278,
    "armor": 0.027988941383375425,
    "asexual_threshold": 0.47865383080474416,
    "buoyancy": 0.3862330271823463,
    "chemical_metabolism": 0.5963777679224712,
    "desiccation_tolerance": 0.8945419689169609,
    "developmental_complexity": 0.7335941329379065,
    "digestion": 0.5911931640442019,
    "electrical_use": 0.015770050540091674,
    "learning_rate": 0.2195405229274394,
    "manipulator": 0.493807632932324,
    "mate_selectivity": 0.17077221333334153,
    "mechanical_use": 0.08671967198154071,
    "memory_budget": 2.509113462388081,
    "mobility": 0.4673349265412824,
    "mutation_rate": 0.01175714714573405,
    "neural_budget": 7.888639699709888,
    "offspring_investment": 0.5444756163959701,
    "photosynthesis_surface": 0.10446152569075742,
    "plasticity_rate": 0.3405426585841981,
    "prediction_weight": 0.16120386463466485,
    "pressure_tolerance": 0.49756927069650364,
    "radiant_metabolism": 0.0008787075106659048,
    "salinity_tolerance": 0.18764366959409362,
    "sensor_range": 0.5365882143287092,
    "sexual_threshold": 0.6155119802941578,
    "signal_strength": 0.33876346558933984,
    "storage_capacity": 0.5330739483653905,
    "thermal_tolerance": 0.37776093952233014,
    "valence_damage": 0.6011333157991614,
    "valence_energy": 0.7896463338410984,
    "valence_health": 0.365918728286045,
    "valence_reproduction": 0.472351395727044,
    "valence_social": 0.10926434715934442
  },
  "inventory": {
    "branch": 1
  },
  "organism": {
    "age": 3600,
    "artifacts": [],
    "complexity": 2.4753,
    "energy": 2.0631,
    "generation": 3,
    "health": 1.0,
    "id": 4350,
    "inherited_brain_template": true,
    "kind": "agent",
    "last_action": "use_tool",
    "last_artifact_method": 0.0,
    "last_craft_target": "",
    "last_energy_delta": -0.1676,
    "last_lesson": {
      "affordance": "lever",
      "attempted_affordance": "lever",
      "gain": 0.000387,
      "kind": "tool_use",
      "method_quality": 0.0,
      "place": 32,
      "problem": {
        "kind": "obstacle",
        "obstacle": "salinity",
        "place": 32,
        "required_affordance": "filter",
        "required_capability": "filter",
        "severity": 0.455005
      },
      "score": 0.74,
      "skill": 1.0,
      "success": true
    },
    "last_tool_affordance": "lever",
    "last_valence": 0.0086,
    "lineage_root_id": 489,
    "location": 32,
    "neural": true,
    "offspring_count": 18,
    "parent_lineage_ids": [
      489
    ],
    "parents": [
      3691
    ],
    "success_profile": {
      "causal_step": 21.0,
      "causal_unlock": 3.0,
      "collaboration": 325.1325,
      "energy_gain": 112.7131,
      "prediction_fit": 110.1282,
      "reproduction": 18.0,
      "structure": 1.375,
      "tool_use": 1514.9178
    },
    "successful_tools": 1385,
    "tool_use_counts": {
      "build": 1,
      "concentrate_heat": 669,
      "contain": 308,
      "filter": 184,
      "lever": 223
    }
  },
  "reason": "final_overall_champion",
  "score": 2923.214493,
  "signal_values": [
    0.0,
    0.0,
    0.025073,
    0.019007,
    0.037337,
    0.023583,
    0.072886,
    0.00032
  ],
  "tick": 5429,
  "tool_skill": {
    "anchor": 0.003072,
    "bind": 0.072179,
    "build": 0.073378,
    "carry": 0.016393,
    "channel": 0.001938,
    "concentrate_heat": 1.0,
    "conduct": 0.061471,
    "contain": 1.0,
    "crack": 0.041519,
    "craft": 0.020353,
    "cut": 0.215291,
    "enclose": 0.002344,
    "energy_storage": 0.043702,
    "filter": 1.0,
    "float": 0.001568,
    "gradient_harvest": 0.001533,
    "inscribe": 6e-06,
    "insulate": 1.0,
    "interpret_mark": 0.004143,
    "lever": 1.0,
    "permeable": 0.016165,
    "protect": 1.0,
    "reaction_surface": 0.010756,
    "record": 0.00171,
    "shelter": 0.019704,
    "support": 0.023264,
    "traverse": 0.03936
  }
}
