{
  "artifacts": [],
  "brain": {
    "attention_bias": [
      2.0,
      2.0,
      2.0,
      2.0,
      1.9958784,
      1.9959674,
      2.0,
      2.0,
      2.0,
      1.9965904,
      1.9964498,
      2.0,
      2.0,
      2.0,
      2.0,
      2.0,
      2.0,
      2.0,
      1.9964785,
      1.9982279,
      2.0,
      2.0,
      1.9999967,
      2.0,
      1.9681252,
      2.0,
      2.0,
      1.9999856,
      1.9999826,
      2.0,
      2.0,
      2.0,
      2.0,
      2.0,
      2.0,
      2.0,
      2.0,
      2.0,
      2.0,
      1.9999972,
      2.0,
      2.0,
      2.0,
      1.9995808,
      1.9957787,
      1.9960554,
      2.0,
      1.995874,
      2.0,
      2.0,
      2.0,
      1.9986735,
      1.9749612,
      1.9894707,
      2.0,
      1.9881503,
      1.9972787,
      1.9958649,
      1.9958561,
      1.995749,
      1.9958537,
      2.0,
      2.0,
      2.0,
      2.0,
      2.0,
      2.0,
      2.0,
      2.0,
      2.0,
      2.0,
      1.9961679
    ],
    "attention_weights": [
      -0.2269712,
      -0.1111563,
      0.0266455,
      0.1108532,
      0.0077969,
      -0.2804767,
      -0.0795863,
      0.2584668,
      -0.4578568,
      0.0007583,
      0.2190941,
      -0.4247118,
      -0.0864555,
      0.1877847,
      0.189154,
      0.0032598,
      -0.110521,
      -0.044033,
      0.1328963,
      0.1914575,
      0.0482523,
      -0.0219873,
      -0.0737189,
      0.1060392,
      -0.3090166,
      0.0668443,
      -0.0918563,
      0.0797988,
      -0.0725869,
      0.2359344,
      0.0574871,
      0.2018968,
      -0.0560477,
      -0.189451,
      0.1036079,
      -0.1144704,
      0.4724634,
      -0.0986324,
      0.299384,
      -0.0677631,
      -0.0241518,
      -0.3405981,
      0.1494537,
      -0.1715371,
      -0.1445372,
      0.1634691,
      0.2416896,
      0.1271311,
      0.0709389,
      -0.2916006,
      -0.0728743,
      -0.1259904,
      0.3005312,
      -0.0077349,
      0.1554247,
      0.1264339,
      -0.1388361,
      -0.0505725,
      -0.0641149,
      -0.0497619,
      0.1820863,
      0.0185364,
      -0.0297942,
      0.0799788,
      0.2705854,
      -0.0739471,
      -0.12431,
      0.0001729,
      0.0827417,
      0.1536041,
      0.0348832,
      0.029089,
      0.0157165,
      -0.0553483,
      -0.041655,
      -0.2208362,
      -0.0157019,
      0.1911489,
      0.0435494,
      0.1061507,
      -0.156796,
      -0.111944,
      -0.094983,
      0.0263456,
      -0.268352,
      -0.0231809,
      -0.2944288,
      -0.0515533,
      -0.0205884,
      0.0454672,
      0.068831,
      -0.0767726,
      0.1436657,
      -0.1017169,
      -0.1733276,
      -0.2114605,
      0.0747782,
      0.1707817,
      -0.2976294,
      -0.1312045,
      -0.111831,
      -0.2166031,
      0.0400338,
      0.140204,
      0.0068294,
      0.0715531,
      -0.0801647,
      -0.1020412,
      -0.0352824,
      -0.1036495,
      0.0062209,
      0.0680774,
      -0.1130096,
      -0.2218236,
      0.3170376,
      0.1019568,
      -0.0499116,
      -0.181191,
      -0.1050044,
      -0.06399,
      0.1073495,
      -0.3469113,
      0.1298208,
      -0.1514962,
      -0.1362169,
      -0.0105015,
      0.1706213,
      -0.2040029,
      -0.1213225,
      0.0703026,
      -0.2843302,
      -0.0599891,
      0.1210194,
      0.1687341,
      -0.2891819,
      -0.2350739,
      0.1493494,
      0.0614563,
      -0.0089342,
      -0.1620725,
      -0.1950973,
      -0.1599818,
      -0.2516288,
      0.1913041,
      0.2096804,
      -0.3523433,
      0.1687313,
      -0.2223205,
      -0.4675565,
      0.0639808,
      -0.6430565,
      -0.3319765,
      -0.070225,
      0.1694537,
      -0.0246812,
      -0.2428075,
      -0.0054078,
      -0.2420492,
      0.0218566,
      -0.3827827,
      -0.2545395,
      -0.1511275,
      0.1879962,
      0.1959377,
      -0.3210574,
      -0.1929106,
      -0.1527112,
      -0.3595092,
      0.0172297,
      -0.2972873,
      -0.1519592,
      0.0231935,
      0.0152637,
      -0.2025359,
      -0.1772886,
      -0.115014,
      -0.1863977,
      -0.2058308,
      -0.0246633,
      -0.2875835,
      -0.1568119,
      -0.3066204,
      0.3669703,
      -0.2466747,
      -0.2336451,
      -0.217932,
      -0.4878274,
      -0.0691821,
      0.0220677,
      -0.0706681,
      -0.0209055,
      -0.3040795,
      0.0381175,
      -0.2787842,
      -0.5657912,
      -0.1225006,
      0.1626115,
      -0.0792329,
      0.2344821,
      0.0234118,
      -0.1617166,
      0.2248546,
      0.2562466,
      -0.0232987,
      0.3154966,
      -0.1951026,
      0.0753201,
      -0.0856015,
      -0.2373478,
      0.0005674,
      -0.0894957,
      -0.0560387,
      -0.2448956,
      -0.1600713,
      0.2682241,
      0.0056872,
      -0.2002126,
      -0.0185466,
      0.0968003,
      -0.1111496,
      0.2060094,
      0.0188939,
      -0.1911737,
      0.0943976,
      -0.1056495,
      0.0594037,
      -0.0702257,
      0.1835665,
      0.0811862,
      -0.0639447,
      -0.2583115,
      -0.0825623,
      0.2149543,
      0.0845628,
      -0.0436803,
      -0.0332234,
      0.0427737,
      0.1247576,
      0.0486749,
      0.0054256,
      0.0963044,
      0.1406871,
      -0.1310228,
      0.0775056,
      -0.0957506,
      -0.0562356,
      -0.3243993,
      -0.3350559,
      0.1940393,
      -0.0945974,
      0.0868873,
      -0.3971763,
      0.2580121,
      0.0039514,
      -0.2790735,
      -0.1484423,
      0.1490779,
      -0.1155198,
      -0.1390279,
      0.0378091,
      -0.2212775,
      0.1162777,
      -0.2355686,
      -0.1722363,
      -0.1131898,
      -0.0809193,
      0.2077227,
      0.1383574,
      -0.048544,
      0.0658946,
      0.0156198,
      0.0628962,
      -0.1641042,
      -0.2528917,
      0.1372888,
      -0.1656347,
      -0.0317307,
      0.2242252,
      0.1407074,
      0.2945502,
      0.164994,
      0.1897579,
      0.1723811,
      -0.040921,
      -0.242694,
      -0.1270097,
      0.2375283,
      0.0530949,
      -0.0441515,
      0.100881,
      0.1002972,
      -0.0906694,
      0.0390876,
      -0.1101564,
      0.0670952,
      -0.1195317,
      -0.3346164,
      0.3856132,
      0.0039785,
      -0.3233662,
      -0.1649887,
      -0.2761861,
      -0.19238,
      -0.1542351,
      -0.2032116,
      0.0479361,
      -0.0465046,
      0.1512583,
      -0.023181,
      0.0644154,
      -0.0230154,
      -0.3964985,
      0.1032094,
      0.2964955,
      0.0386921,
      -0.0002256,
      0.0247351,
      -0.0427455,
      -0.3753381,
      0.0853033,
      -0.1470485,
      -0.0581794,
      -0.0819515,
      -0.0236702,
      -0.2329953,
      -0.2834665,
      0.1393023,
      -0.0866253,
      0.0409526,
      -0.2542621,
      0.2513797,
      -0.1831468,
      0.0383004,
      -0.0787577,
      -0.0043553,
      0.1842542,
      -0.3566039,
      -0.6548961,
      -0.0830946,
      0.1612796,
      -0.1935934,
      -0.1732927,
      -0.2676136,
      0.1407019,
      0.3342358,
      0.0878208,
      -0.1326766,
      0.0464337,
      0.2868559,
      -0.1106112,
      0.0622778,
      0.0233688,
      0.1652603,
      -0.0204446,
      0.063754,
      0.0430809,
      0.0909929,
      -0.1602013,
      -0.4139751,
      -0.090719,
      0.0199993,
      0.3457203,
      0.1980258,
      0.0371605,
      0.3502767,
      -0.1766038,
      -0.2108514,
      -0.0995155,
      -0.2317735,
      0.0417644,
      0.231387,
      -0.4016561,
      -0.0068207,
      0.1390735,
      0.1047569,
      0.1042122,
      -0.109006,
      -0.0314016,
      -0.0415531,
      -0.1555756,
      0.3247738,
      0.0687815,
      -0.0887309,
      0.2674269,
      -0.0638376,
      0.0107546,
      -0.2048373,
      0.108678,
      -0.078746,
      -0.1166598,
      0.2232309,
      -0.0660729,
      -0.0421652,
      -0.2853714,
      0.2374943,
      -0.0500479,
      0.1788924,
      0.4193892,
      0.0143935,
      -0.1871883,
      0.0556217,
      0.3058361,
      0.0420123,
      0.0624205,
      0.0757513,
      0.1482818,
      0.0077669,
      0.0779247,
      -0.1089647,
      0.3067744,
      0.0599952,
      0.1830176,
      0.2090696,
      0.0942534,
      0.0329761,
      -0.1067642,
      0.2759775,
      -0.0861832,
      0.2950278,
      -0.0167114,
      -0.1708903,
      0.0908617,
      -0.0016976,
      -0.0360637,
      -0.0679447,
      -0.0571225,
      -0.195264,
      0.0427345,
      0.0098019,
      0.0938019,
      0.1239392,
      -0.0384445,
      0.0416555,
      0.4244543,
      0.2548614,
      0.1955488,
      -0.0786171,
      0.0445482,
      0.1685293,
      -0.1461772,
      0.118263,
      -0.2054224,
      -0.0211314,
      -0.0245449,
      0.0901192,
      0.1195251,
      -0.0015118,
      0.1907685,
      -0.1057792,
      0.2836809,
      -0.0342724,
      0.0054919,
      0.0724532,
      -0.1159331,
      0.0306511,
      0.1919256,
      0.2123357,
      -0.0652405,
      0.2918252,
      0.0174076,
      -0.1206007,
      0.4264237,
      0.2140601,
      0.1107822,
      0.0503226,
      0.1643418,
      0.0292957,
      0.1309372,
      -0.0437743,
      0.1217958,
      -0.1776751,
      -0.1164008,
      -0.0369952,
      -0.0227292,
      -0.1094382,
      0.2128822,
      -0.0508786,
      -0.1512434,
      0.2601069,
      0.0538512,
      -0.1038593,
      0.0027475,
      -0.028195,
      0.0760082,
      0.1166547,
      -0.3261912,
      0.0803078,
      0.2203581,
      -0.003043,
      -0.022262,
      -0.0087639,
      -0.1849539,
      -0.0762612,
      -0.0381335,
      -0.1448805,
      0.1394092,
      0.0471151,
      0.0061838,
      -0.1571654,
      0.0220682,
      -0.1678313,
      0.0581013,
      0.0823832,
      0.1584071,
      -0.2832205,
      -0.0067447,
      -0.1975041,
      -0.1785568,
      0.0808164,
      0.0032003,
      -0.1828657,
      -0.0209621,
      0.2165986,
      -0.036753,
      0.0293665,
      -0.2843715,
      -0.3362354,
      -0.1034665,
      0.0067413,
      -0.0242929,
      -0.0342879,
      -0.1787069,
      0.270893,
      -0.1103195,
      0.1326464,
      -0.2250704,
      -0.0128431,
      -0.2364725,
      -0.2780623,
      0.0553591,
      -0.0943092,
      0.2526919,
      -0.1244291,
      -0.0228186,
      -0.1715973,
      -0.2477537,
      -0.0509467,
      -0.2578762,
      -0.301037,
      -0.3691537,
      -0.1879962,
      -0.0588405,
      -0.0412325,
      -0.1613946,
      -0.0901308,
      -0.0556142,
      0.0006072,
      0.012179,
      -0.0825946,
      -0.055323,
      -0.3065731,
      -0.2764717,
      -0.343982,
      -0.0721146,
      -0.1743747,
      0.1447607,
      -0.2170811,
      0.1646208,
      -0.1265243,
      0.1382454,
      0.3756105,
      -0.1774713,
      0.156446,
      0.1204349,
      -0.1999938,
      -0.1490213,
      0.1675162,
      -0.1690614,
      -0.0467575,
      0.0494855,
      -0.3214947,
      0.0765692,
      0.3070534,
      0.2747819,
      -0.2137338,
      0.0818078,
      -0.0549504,
      -0.0705955,
      0.3162294,
      0.1369583,
      -0.1167762,
      0.243016,
      0.3911155,
      -0.089723,
      0.2630666,
      -0.0052127,
      0.1278759,
      0.1061147,
      0.1497782,
      -0.1618051,
      0.2257363,
      -0.1137792,
      0.1165007,
      0.0897622,
      0.2235367,
      -0.0159461,
      -0.2233248,
      -0.0545976,
      -0.0573376,
      0.0509153,
      -0.0575887,
      -0.0802059,
      0.1772557,
      0.0900011,
      -0.1078772,
      -0.1372978,
      0.1465765,
      0.2365414,
      0.1358368,
      0.086074,
      -0.186128,
      0.0732273,
      0.3435893,
      -0.1060912,
      -0.1717791,
      0.0718962,
      0.2185712,
      -0.1715554,
      -0.1107285,
      0.1184095,
      0.1560166,
      -0.3489848,
      0.0025948,
      0.0341412,
      -0.090713,
      0.2338359,
      0.0418916,
      0.075471,
      -0.2055117,
      0.0656222,
      -0.0280908,
      0.2910774,
      -0.014259,
      -0.019986,
      0.0823698,
      -0.1067023,
      -0.1642715,
      0.3395844,
      -0.1718613,
      0.3073574,
      -0.0033058,
      0.0667039,
      -0.269492,
      -0.2522362,
      -0.0533902,
      -0.0527812,
      0.1531611,
      -0.1678575,
      -0.2676455,
      -0.0071952,
      0.0190714,
      -0.0942924,
      -0.1955899,
      -0.1604734,
      -0.1282842,
      -0.1839293,
      0.0408618,
      0.0658362,
      -0.1017921,
      -0.2690753,
      0.1090116,
      0.0101215,
      -0.2010596,
      -0.2265118,
      -0.0905669,
      -0.3511285,
      -0.1296507,
      0.2395619,
      -0.0739425,
      -0.0837739,
      -0.1812784,
      -0.0798924,
      -0.1530749,
      -0.1156305,
      -0.1513299,
      0.3127064,
      0.0941274,
      -0.0296419,
      0.0555936,
      -0.0920168,
      0.0706611,
      -0.1571184,
      -0.1179477,
      0.0063478,
      -0.3082743,
      -0.0658937,
      -0.2012358,
      -0.0781641,
      0.1882089,
      -0.1217233,
      -0.1858105,
      0.0696901,
      -0.1239856,
      0.1497053,
      0.1700974,
      -0.1150823,
      0.1417416,
      -0.0571024,
      -0.0029344,
      0.0027146,
      0.1195465,
      0.0521448,
      0.176407,
      -0.2178935,
      0.3988686,
      0.1414072,
      0.0178082,
      0.0670101,
      -0.2005497,
      0.0092873,
      -0.317487,
      -0.1397444,
      -0.2510728,
      0.1133843,
      0.2784464,
      -0.0710776,
      0.3087513,
      0.1043868,
      0.0012647,
      0.0668481
    ],
    "auxiliary_prediction_weights": {
      "damage": [
        1.3031779,
        0.0253328,
        0.0748724,
        -0.1938948,
        -0.0706386,
        -1.0686125,
        -0.2012697,
        -0.1611095,
        0.2184332,
        0.3642879
      ],
      "hazard": [
        0.8468317,
        0.1603201,
        -0.5960941,
        0.2440947,
        0.1554546,
        -0.7474668,
        0.3528198,
        0.2034658,
        0.117873,
        0.2663794
      ],
      "reproduction": [
        -0.6094479,
        -0.1323409,
        -0.3349807,
        0.5288599,
        -0.1193731,
        0.2693371,
        -0.3752111,
        -0.6114212,
        0.1153663,
        -0.193481
      ],
      "social": [
        -0.1420482,
        0.4540103,
        -0.0407277,
        0.1114102,
        -0.5716438,
        0.1668904,
        0.5846877,
        -0.7236095,
        -0.1832355,
        0.1126631
      ],
      "tool": [
        0.0409421,
        0.0912787,
        -0.7499478,
        -0.6706039,
        -0.7402812,
        0.3406454,
        0.2273313,
        0.1048475,
        -0.056785,
        0.2080645
      ]
    },
    "bias_h": [
      0.0481196,
      -0.0128876,
      -0.1769703,
      -0.1676383,
      -0.2809654,
      -0.0172905,
      0.1506011,
      -0.235865,
      0.0369794,
      0.0434652
    ],
    "bias_o": [
      -0.0661007,
      -0.0158787,
      -0.0901427,
      0.0112169,
      -0.3195097,
      -0.0530855,
      -0.0463311,
      -0.2188248,
      0.0570223,
      -0.049804,
      -0.3003513,
      0.1551144,
      -0.139603,
      0.0820103,
      0.1251949
    ],
    "hidden": [
      0.1398952,
      0.0444615,
      -0.6246508,
      -0.1088592,
      -0.5794218,
      0.0094865,
      0.6264868,
      -0.4826117,
      0.3232855,
      -0.2287615
    ],
    "hidden_size": 10,
    "hidden_trace": [
      0.1290212,
      0.1052255,
      -0.6505367,
      -0.1015858,
      -0.5546179,
      0.0250782,
      0.6301518,
      -0.4811539,
      0.3181844,
      -0.2198943
    ],
    "input_size": 72,
    "input_trace": [
      0.6153975,
      0.8979381,
      0.6485556,
      0.2759387,
      -0.0043427,
      -0.0035811,
      0.7073701,
      0.8472519,
      0.1062953,
      0.0072119,
      -4.91e-05,
      1.1073932,
      0.4519106,
      0.2970852,
      0.5275788,
      0.5065329,
      0.0935569,
      0.8910006,
      0.0149091,
      0.0338292,
      0.3114339,
      0.2584988,
      0.0536504,
      0.8042247,
      -0.8506095,
      0.0852678,
      0.4897357,
      0.0552212,
      0.0555327,
      0.386678,
      0.586228,
      0.4327045,
      0.4629367,
      0.097725,
      0.1585556,
      0.1305449,
      0.1438843,
      0.6151256,
      0.1120016,
      0.0441805,
      0.1363501,
      0.1831469,
      0.5017646,
      -0.0031857,
      0.0048074,
      -0.0030809,
      0.3386629,
      -0.0041259,
      0.1805562,
      0.7871164,
      0.3399977,
      -0.0241067,
      -0.0788971,
      -0.1009391,
      0.4955126,
      -0.1356469,
      0.0027439,
      0.0028287,
      -0.0054745,
      0.0018829,
      -0.0053818,
      0.06211,
      0.269036,
      0.0709384,
      0.138572,
      0.0773657,
      0.0563828,
      0.1301649,
      0.060442,
      0.1294434,
      0.0758864,
      0.0063692
    ],
    "last_attention": [
      0.8837719,
      0.8938738,
      0.8868667,
      0.8958235,
      0.8862945,
      0.8847537,
      0.9030303,
      0.888606,
      0.8874704,
      0.8637099,
      0.8832141,
      0.8955443,
      0.8903837,
      0.8941222,
      0.8884313,
      0.8960993,
      0.8886214,
      0.8944356,
      0.8763045,
      0.8739889,
      0.8863619,
      0.8841138,
      0.8848503,
      0.9030875,
      0.8831334,
      0.8795377,
      0.8923757,
      0.8748615,
      0.877175,
      0.8939052,
      0.9004186,
      0.8930996,
      0.889158,
      0.8947001,
      0.8873447,
      0.8964695,
      0.8969106,
      0.8945366,
      0.8687727,
      0.889175,
      0.8856087,
      0.8880557,
      0.8863472,
      0.8899335,
      0.8820232,
      0.8761456,
      0.8918091,
      0.890898,
      0.8889188,
      0.8999982,
      0.8956876,
      0.8788498,
      0.8827148,
      0.875045,
      0.8842691,
      0.8830377,
      0.8675586,
      0.8758033,
      0.8738858,
      0.8723387,
      0.8703379,
      0.8916909,
      0.8707726,
      0.8903789,
      0.8871716,
      0.8794906,
      0.8770868,
      0.8778736,
      0.8732841,
      0.8833742,
      0.8882843,
      0.8822595
    ],
    "last_inputs": [
      0.5850281,
      0.9216602,
      0.6490873,
      0.2441363,
      -0.0024948,
      -0.0410435,
      0.7111762,
      0.8932549,
      0.0773466,
      0.0257953,
      0.0040161,
      1.1006591,
      0.4423715,
      0.2588687,
      0.5455035,
      0.5238358,
      0.1003271,
      0.898361,
      -0.0250753,
      0.081926,
      0.2806475,
      0.278446,
      0.0708066,
      0.771048,
      -0.8738667,
      0.075746,
      0.4953335,
      0.0931103,
      0.0305871,
      0.4356599,
      0.5775927,
      0.4501803,
      0.4383763,
      0.0912563,
      0.1251019,
      0.1145566,
      0.1104217,
      0.6182155,
      0.1363941,
      0.0144441,
      0.1311363,
      0.1549828,
      0.5034459,
      0.0042284,
      0.024464,
      -0.0001833,
      0.3748804,
      -0.0179925,
      0.2595686,
      1.0362716,
      0.3457581,
      -0.0150446,
      -0.0609341,
      0.0126983,
      0.7203961,
      -0.1212373,
      0.0398872,
      -0.0068387,
      0.0149917,
      0.0139915,
      -0.0300146,
      0.0569082,
      0.2595303,
      0.0842497,
      0.1538764,
      0.0683053,
      0.0675986,
      0.1306795,
      0.0892068,
      0.13757,
      0.0578449,
      -0.0063044
    ],
    "last_outputs": [
      -0.3276828,
      -0.1751678,
      0.0981899,
      0.0234875,
      -0.1629955,
      0.1737038,
      -0.1455551,
      -0.3524985,
      0.3098226,
      -0.0608022,
      -0.4222423,
      -0.0362438,
      -0.1197832,
      0.0343584,
      0.0522967
    ],
    "last_prediction_errors": {
      "damage": -0.0403286,
      "energy": 0.3955019,
      "hazard": -0.1499895,
      "reproduction": -0.0866072,
      "social": -0.0666239,
      "tool": 0.709187
    },
    "output_size": 15,
    "prediction_weights": [
      -0.9393197,
      0.2354123,
      -0.2253735,
      0.2964028,
      0.8576238,
      -0.39551,
      -0.5465751,
      0.7427006,
      -0.1073116,
      0.1950184
    ],
    "weights_in": [
      0.0277303,
      1.1120619,
      0.7112296,
      -0.2273195,
      0.9173794,
      0.3217187,
      -0.3755023,
      0.1793482,
      -0.8472262,
      -0.0043609,
      -0.1410392,
      -0.5761268,
      -0.120602,
      0.3178086,
      0.6481032,
      -0.1388863,
      0.6576941,
      0.8933155,
      -0.0602788,
      -0.3927479,
      -0.2784069,
      -0.0429923,
      -0.0259411,
      -0.5326293,
      -0.0208203,
      0.2110874,
      -0.2510122,
      0.0127377,
      0.0071891,
      0.0007028,
      0.0175198,
      -0.2781227,
      -0.5163761,
      -0.1489113,
      0.0077437,
      0.1441289,
      0.0905088,
      -0.4766238,
      -0.296853,
      0.8087987,
      -0.1092336,
      -0.7589009,
      0.3776184,
      0.84491,
      0.2773614,
      0.9113447,
      -0.2964311,
      -0.2915129,
      -0.0756441,
      -0.1927127,
      0.2818379,
      -0.1391066,
      -0.0326663,
      0.6714975,
      -0.2368982,
      0.410444,
      0.2872886,
      0.0714072,
      0.2002627,
      0.2911799,
      0.7085161,
      -1.0107038,
      -0.6324477,
      -0.0467082,
      -0.0673758,
      -0.1177543,
      -0.4019642,
      1.2991763,
      -0.4242054,
      0.5196275,
      -0.4800551,
      0.3854543,
      -0.2682446,
      1.1606747,
      0.6271024,
      0.0002221,
      -0.2658956,
      1.0034212,
      -0.5920735,
      -0.1496801,
      0.5153156,
      -0.7767928,
      0.7231846,
      -0.4799501,
      0.2053777,
      -0.6567226,
      0.2901941,
      0.0924093,
      -0.3378375,
      -0.203443,
      -0.0748635,
      -0.0417883,
      0.2119384,
      0.0166631,
      0.3854482,
      0.5389196,
      0.2629099,
      -1.0230662,
      -0.5269402,
      -1.2000728,
      0.7330704,
      -0.2760636,
      0.4974904,
      -0.3218871,
      0.6296,
      -0.5906035,
      0.3437149,
      -0.0222839,
      -0.3256158,
      0.0637281,
      -0.8316607,
      -0.0876383,
      0.1803568,
      0.3269363,
      0.137159,
      -0.299056,
      -0.4984466,
      -0.6431013,
      0.0073992,
      0.7043718,
      0.6528929,
      -0.3339413,
      1.0479705,
      -0.0191748,
      -0.0237679,
      -0.5091479,
      -0.7249646,
      -0.3172817,
      0.3912007,
      -0.0274779,
      -0.2352426,
      -0.8170652,
      0.5803395,
      -0.4047048,
      0.1110225,
      0.0845901,
      0.0629032,
      0.044297,
      0.4584713,
      0.3989705,
      -0.4029828,
      -0.1070546,
      -0.4165707,
      0.0717933,
      -0.1780808,
      -0.0940394,
      0.0636834,
      -0.7998902,
      0.4955946,
      -0.7221869,
      -0.0493422,
      -0.5603605,
      0.1394162,
      -0.0164347,
      -0.7462807,
      0.233794,
      0.4176262,
      -0.066279,
      0.091627,
      0.2886528,
      -0.457736,
      0.5029352,
      -0.5702052,
      -0.0369994,
      0.0246996,
      -0.3253116,
      0.2720654,
      -0.1105123,
      0.3125474,
      -0.5767121,
      -0.2918176,
      0.1255299,
      -0.0404793,
      -0.1048133,
      0.3590362,
      -0.5431057,
      -0.5272018,
      -0.1642051,
      -0.4518701,
      0.3619934,
      -0.5891866,
      -0.6455804,
      -0.0106496,
      -0.0431731,
      -0.3011968,
      -0.3331516,
      -0.2324725,
      0.2251126,
      0.6408447,
      -0.6735023,
      -0.4331025,
      -0.7738034,
      0.7276922,
      0.3151577,
      -0.4249571,
      -0.8534967,
      0.988552,
      0.4811309,
      -0.1420637,
      0.4306062,
      1.1408368,
      0.1158008,
      0.2028828,
      -0.0621547,
      -0.6888962,
      -0.1613399,
      0.084021,
      -0.4829882,
      -0.0177463,
      0.1308346,
      0.0872534,
      0.2757237,
      0.3424265,
      -0.6387836,
      0.2049989,
      0.2597484,
      -0.3603947,
      0.4813056,
      -0.0640925,
      -0.6077551,
      0.4507381,
      0.303522,
      0.2220136,
      -0.2874107,
      0.9774423,
      -0.1316658,
      0.119084,
      -0.0516015,
      0.562131,
      -0.1169365,
      0.1022882,
      0.4628906,
      -0.4201291,
      0.9824299,
      0.0911097,
      -0.2187488,
      -0.6288441,
      0.2650587,
      0.5970202,
      -0.2227105,
      -0.4990113,
      -0.1636499,
      -0.7189541,
      -0.0868491,
      -0.0957716,
      0.8816646,
      -0.3069978,
      -0.2624115,
      0.4748624,
      -0.0589671,
      0.3336671,
      0.0698364,
      0.3418294,
      0.0250687,
      -0.1637134,
      0.220213,
      0.0030525,
      -0.1952573,
      -0.5606798,
      -0.1774258,
      0.3413813,
      -0.191259,
      -0.3617923,
      0.6103886,
      -0.5638919,
      0.1940513,
      -0.2371272,
      0.307246,
      -0.8346308,
      -0.5240381,
      -0.0313417,
      -0.0401337,
      0.3011929,
      0.0744855,
      -0.2644023,
      0.9356296,
      -0.3645946,
      -0.5516645,
      -0.1930656,
      -0.5606309,
      0.710138,
      -0.9764948,
      0.2872787,
      0.550453,
      -0.505214,
      0.1249592,
      0.3587347,
      0.3669599,
      0.3007734,
      -0.841107,
      -0.1278426,
      0.4020533,
      -0.4787029,
      -0.1184228,
      0.1497782,
      0.4504593,
      0.926484,
      -0.1504894,
      -0.4263331,
      0.1917747,
      -0.1881515,
      -0.3752896,
      -0.0834541,
      0.082997,
      0.1186049,
      -0.0040273,
      0.432033,
      0.1768462,
      -0.28192,
      -0.1623016,
      0.0788179,
      -0.1253966,
      -0.4799422,
      -0.0804279,
      -0.1579664,
      0.1018059,
      -0.8160907,
      0.5514509,
      -0.3216782,
      -0.4499962,
      0.0885659,
      -0.107502,
      -0.1972083,
      1.0089191,
      -0.3634746,
      0.602405,
      0.2442936,
      -0.2449153,
      0.7376655,
      -0.1327099,
      -0.0354165,
      0.016046,
      0.6233547,
      0.3243821,
      -0.0605854,
      -0.1692168,
      -0.3377438,
      -0.597874,
      0.457991,
      0.6312729,
      -0.0233875,
      -0.2796841,
      -0.2626474,
      -0.5227378,
      -0.1403939,
      -0.7583928,
      -0.1795746,
      -0.328352,
      0.3673323,
      0.6678422,
      -0.8507312,
      0.0024858,
      -0.0934543,
      0.0078343,
      0.1601973,
      0.3173299,
      0.6125246,
      0.4834632,
      -0.3130319,
      -0.6971957,
      0.4448207,
      -0.9496176,
      0.398221,
      0.0820798,
      0.1951729,
      0.4624395,
      -0.0396186,
      -0.0100816,
      0.0813755,
      0.0169955,
      0.5348293,
      -0.5040863,
      -0.2215098,
      0.727586,
      -0.677951,
      0.2312966,
      -0.4700599,
      0.1392645,
      -0.2682053,
      -0.2573306,
      -0.4981112,
      -0.7393362,
      0.0135349,
      1.1271438,
      0.2099118,
      -0.4129152,
      1.0843746,
      -0.4870016,
      0.3629931,
      0.1671745,
      0.0930923,
      -0.4239451,
      -0.2938018,
      -0.1999294,
      0.0509579,
      0.0665731,
      0.3839307,
      0.1894003,
      -0.19849,
      -0.2531689,
      0.8149831,
      -0.2594233,
      0.2829849,
      0.1201017,
      0.3170564,
      -0.1386019,
      -0.4678945,
      0.1204394,
      0.1234711,
      0.1774846,
      0.1030041,
      0.1066832,
      0.5352654,
      -0.0114665,
      -0.1117779,
      -0.2803956,
      -0.6923422,
      -0.8133588,
      0.0890255,
      -0.0328279,
      0.6641038,
      -0.1967239,
      0.2451117,
      -0.2550262,
      -0.1241176,
      0.6372092,
      -0.606135,
      0.847353,
      0.3891702,
      0.0717707,
      0.1230879,
      -0.2718913,
      0.4416234,
      -0.1342126,
      0.1958426,
      -0.4607258,
      -0.0838593,
      0.3017756,
      -0.7182628,
      -0.3354361,
      0.7604997,
      0.1251865,
      -0.0183326,
      0.8618332,
      -0.6965294,
      1.0301204,
      0.8013982,
      0.8950161,
      -0.7042072,
      -0.1573875,
      -0.0645185,
      0.2798127,
      0.0265396,
      -0.5967787,
      0.0743611,
      0.2939889,
      -0.7849057,
      0.1450559,
      1.1240485,
      -1.1791037,
      0.6949771,
      -0.2390337,
      -0.1849888,
      0.4815751,
      -0.1115323,
      -0.7933535,
      -0.3473615,
      -0.1742102,
      0.0087301,
      -0.6073397,
      0.6147391,
      -0.0861724,
      0.0264306,
      -0.1785358,
      0.5853626,
      -0.2308779,
      -0.660125,
      0.5939674,
      -0.9916178,
      -0.275887,
      -0.0769603,
      -0.4667242,
      -0.8672047,
      0.1167423,
      -0.1376323,
      -0.430508,
      0.7901801,
      0.1440564,
      0.9237809,
      -0.1157309,
      0.4688221,
      -0.8707135,
      0.2288457,
      0.5526496,
      0.3807797,
      -0.271029,
      -0.0505404,
      0.4625542,
      0.0551371,
      0.3863355,
      -0.3354492,
      -0.0988212,
      0.1919423,
      -0.3471488,
      -0.6153555,
      0.6438379,
      0.2055435,
      0.5964983,
      0.7456559,
      -0.2792685,
      0.3398782,
      0.5566112,
      0.5099408,
      -0.0684413,
      -0.1657623,
      -0.0487512,
      -0.1599303,
      -0.492266,
      0.1344042,
      0.5071961,
      -0.3663059,
      -0.2549176,
      -0.3178749,
      0.5240983,
      0.7558635,
      0.1284708,
      -0.642644,
      -0.6404994,
      0.0633839,
      -0.6188492,
      -0.2711934,
      -0.0709919,
      -0.1727162,
      0.6036701,
      -0.6453428,
      0.2161693,
      0.1503212,
      -0.136525,
      -0.4958084,
      0.447106,
      -0.6504046,
      0.0239203,
      0.1818862,
      0.3509987,
      0.5606658,
      -0.7154643,
      0.8299894,
      -0.2254866,
      0.0692046,
      -0.265249,
      0.1600173,
      0.1909796,
      1.1454075,
      -0.8031612,
      -0.0228216,
      -0.0619819,
      0.2420965,
      0.3204097,
      -0.145117,
      0.0084434,
      -0.8705419,
      -0.7008639,
      0.145777,
      0.4214439,
      -0.444968,
      -0.1813254,
      -0.7261391,
      -0.2702753,
      0.0049543,
      -0.0130296,
      -0.6566317,
      -0.6447824,
      0.1314476,
      0.3509553,
      0.3177273,
      -0.9294605,
      0.0022928,
      0.2711697,
      -0.2760538,
      0.0621071,
      -0.0117665,
      0.1635938,
      0.328136,
      0.1810941,
      -0.0676658,
      0.0758512,
      0.0412498,
      -0.1894498,
      -0.0296399,
      -0.02984,
      -0.1503607,
      -0.0306832,
      -0.1703941,
      0.2551174,
      0.1905164,
      -0.0414421,
      0.3181366,
      -0.4176224,
      0.2389123,
      0.0033526,
      -0.0645959,
      -0.2420025,
      0.2605681,
      -0.194743,
      0.2420343,
      -0.1734444,
      0.132042,
      -0.05265,
      0.0924252,
      -0.3729353,
      -0.1578309,
      0.1423325,
      -0.1784481,
      0.0845194,
      0.2538355,
      0.0504606,
      -0.0759846,
      0.0489076,
      -0.0821601,
      0.0044656,
      -0.2199851,
      -0.1186094,
      0.0663757,
      -0.0479861,
      -0.3196438,
      0.5894701,
      0.1161247,
      -0.3973743,
      -0.0399397,
      0.0371187,
      -0.2351056,
      0.0473737,
      -0.3096068,
      0.4078935,
      0.0270243,
      0.059727,
      0.1006312,
      -0.1586699,
      0.0634217,
      0.1456281,
      0.0868728,
      -0.4064384,
      -0.2357218,
      -0.2662424,
      0.1935104,
      -0.1682702,
      -0.0221451,
      0.1466318,
      -0.1029021,
      0.2300915,
      0.1474483,
      -0.2652687,
      -0.1239728,
      0.055874,
      -0.1206239,
      -0.0729218,
      -0.2059424,
      -0.3094196,
      0.0840974,
      -0.3110475,
      -0.0981756,
      -0.3380471,
      -0.009443,
      -0.679067,
      0.289813,
      -0.0653534,
      -0.0137166,
      -0.2615302,
      -0.1310069,
      -0.2770972,
      -0.1461819,
      -0.1689247,
      -0.4642999,
      -0.0883961,
      -0.3790987,
      0.2707237,
      0.1130662,
      -0.2364916,
      -0.2535217,
      -0.0009775,
      0.0184914,
      0.4020032,
      -0.0466807,
      -0.093108,
      0.1029812,
      0.0521894,
      0.0358697,
      -0.1139411,
      0.20977,
      0.3163926,
      -0.0492261,
      0.1361171,
      0.269954,
      -0.2602843,
      0.1656282,
      0.0742166,
      -0.4192702,
      -0.3037181,
      0.3761054,
      0.0331323,
      0.1219659,
      -0.1979796,
      0.1959832,
      -0.2463168,
      -0.1599293,
      -0.0876534,
      -0.2054663,
      -0.0957098,
      -0.3182483,
      -0.3635832,
      -0.2590586,
      0.3853474,
      -0.1010693,
      0.1181329,
      -0.0394804,
      0.1950416,
      -0.2933611,
      -0.223054,
      -0.1924325,
      -0.0502714
    ],
    "weights_out": [
      0.3964468,
      -0.5459282,
      0.2989045,
      0.4233113,
      0.428628,
      -0.2854553,
      -0.3729366,
      0.1874981,
      -0.2471335,
      -0.1289405,
      0.1779105,
      0.1299911,
      0.4455745,
      0.4787844,
      0.5878147,
      0.1223974,
      0.0684803,
      0.239696,
      0.3306858,
      -0.4431142,
      -0.4150177,
      -0.1352812,
      -0.7265295,
      0.035474,
      -0.3756472,
      -0.0726044,
      0.0813909,
      0.0378864,
      -0.0627821,
      0.0861616,
      1.2282123,
      -0.3647357,
      0.3882909,
      -0.0374595,
      0.2495673,
      -0.0978289,
      -0.292586,
      -0.7044405,
      0.189887,
      -0.2148183,
      0.4459765,
      0.2674279,
      -0.6964134,
      -0.1392381,
      -0.1061628,
      -0.0721626,
      0.0701941,
      0.3199276,
      0.1224835,
      0.0852945,
      -0.3489272,
      0.4000991,
      -0.7131345,
      0.3432885,
      -0.3084097,
      -0.2064174,
      0.5360293,
      0.5950638,
      0.0658541,
      -0.4084766,
      0.5820445,
      0.4947405,
      0.0956754,
      -0.0840699,
      0.1235144,
      -1.1077807,
      -0.1968614,
      0.3889947,
      0.1702315,
      0.1244833,
      0.2334213,
      -0.31057,
      -0.3167569,
      -0.4607556,
      0.3114337,
      -0.2585758,
      -0.7662413,
      -0.0631043,
      -0.1300024,
      0.0658411,
      0.2273897,
      0.2445777,
      -0.7465541,
      -0.1403278,
      -0.1933714,
      -0.4609028,
      -0.114923,
      -0.5323073,
      -0.0956681,
      -0.0602713,
      -0.2349604,
      -0.2018903,
      -0.2429333,
      -0.2838421,
      -0.109274,
      0.250522,
      -0.4185106,
      0.0037587,
      0.3241936,
      0.3587776,
      -0.1930104,
      0.2307981,
      0.3312692,
      0.5516486,
      0.6820307,
      0.1155188,
      -0.1356673,
      -0.3718387,
      0.3656174,
      -0.3483748,
      -0.045842,
      0.3178222,
      -0.0341575,
      -0.3562558,
      0.3457048,
      0.7837088,
      -0.2826843,
      0.6113939,
      -0.2776755,
      -0.3577646,
      -0.7255191,
      0.5071858,
      -0.3501689,
      -0.2210372,
      -0.310117,
      -0.8935296,
      -0.2324612,
      0.3059636,
      0.1509075,
      0.1218563,
      0.3835594,
      0.1020374,
      0.1933837,
      0.1563493,
      0.395426,
      0.4786221,
      0.1679393,
      -0.4300123,
      -0.5833449,
      -0.1283348,
      -0.2125416,
      -0.6808459,
      0.8836684,
      0.8454535,
      -0.0928209,
      -0.4524646,
      0.5442499,
      -0.0573946,
      0.0785097,
      -0.1309842
    ]
  },
  "brain_template": {
    "attention_bias": [
      3.161024,
      2.9844613,
      3.0728771,
      3.0372216,
      2.9451057,
      2.8376623,
      2.7201602,
      2.9354985,
      3.0211274,
      2.9487813,
      2.8586732,
      2.9022106,
      2.9481898,
      3.021499,
      2.9902843,
      3.0078986,
      2.8116521,
      3.1833824,
      2.9806607,
      2.8239557,
      3.0840441,
      3.0733209,
      3.1369857,
      3.1329393,
      3.1600141,
      3.315027,
      3.0085539,
      3.0044048,
      3.4321231,
      2.9931852,
      3.1193092,
      2.9802898,
      3.0610961,
      2.8349568,
      2.831114,
      3.130312,
      2.9303002,
      2.9252409,
      3.020379,
      3.0479037,
      3.0912686,
      2.9941067,
      3.2658414,
      3.1295757,
      2.8677718,
      2.9293914,
      3.0075209,
      3.2750298,
      2.9763098,
      2.8350464,
      2.9699737,
      3.0225702,
      2.9814865,
      2.7260994,
      3.0042642,
      2.8618112,
      3.0638451,
      2.9749622,
      3.0059892,
      3.0926712,
      2.9413045,
      3.2929662,
      3.0735982,
      2.9998874,
      2.9256378,
      2.9733652,
      2.989117,
      2.8118184,
      3.0378328,
      3.072905,
      2.8811995,
      2.8899134
    ],
    "attention_weights": [
      -0.2248308,
      -0.1075294,
      0.0267289,
      0.1174954,
      0.0078071,
      -0.2810925,
      -0.071876,
      0.2592985,
      -0.4591935,
      0.0007694,
      0.2193983,
      -0.4185138,
      -0.0847164,
      0.1873046,
      0.1919366,
      0.0054926,
      -0.1103526,
      -0.0402053,
      0.1331913,
      0.1918718,
      0.0496814,
      -0.0209064,
      -0.0733804,
      0.1097357,
      -0.2962225,
      0.0676079,
      -0.0865012,
      0.0816316,
      -0.0719003,
      0.2377913,
      0.0585679,
      0.2041657,
      -0.0542947,
      -0.1893428,
      0.1052095,
      -0.1137532,
      0.4744928,
      -0.0953223,
      0.3026452,
      -0.0665209,
      -0.0211513,
      -0.3375779,
      0.1516667,
      -0.1719551,
      -0.1448303,
      0.1637643,
      0.2435465,
      0.1273951,
      0.072669,
      -0.2868015,
      -0.0716912,
      -0.1251918,
      0.300119,
      -0.0068468,
      0.1599472,
      0.1277284,
      -0.139187,
      -0.0506942,
      -0.064244,
      -0.0498547,
      0.1824408,
      0.0191724,
      -0.0282535,
      0.0803769,
      0.2708937,
      -0.0746212,
      -0.1240884,
      -0.0007372,
      0.0830617,
      0.1541394,
      0.0347282,
      0.0291951,
      0.0433581,
      -0.0207743,
      -0.0305888,
      -0.204739,
      -0.0157281,
      0.1914959,
      0.0914462,
      0.1276794,
      -0.1550135,
      -0.111869,
      -0.0954333,
      0.0662656,
      -0.2503733,
      -0.0112922,
      -0.2744007,
      -0.0318501,
      -0.0167657,
      0.0801046,
      0.0691214,
      -0.0762967,
      0.1559364,
      -0.0919329,
      -0.1699765,
      -0.1826303,
      0.0915957,
      0.1751388,
      -0.2679379,
      -0.1241483,
      -0.1073363,
      -0.2027146,
      0.0515839,
      0.1568711,
      0.0189488,
      0.0798184,
      -0.0731828,
      -0.0942551,
      -0.0268169,
      -0.0814625,
      0.0185366,
      0.0741733,
      -0.1113455,
      -0.2082792,
      0.3373664,
      0.1041118,
      -0.0500035,
      -0.1815579,
      -0.0874932,
      -0.0640245,
      0.1157216,
      -0.3144375,
      0.1478895,
      -0.1510121,
      -0.1416925,
      -0.011141,
      0.1943403,
      -0.2053791,
      -0.1213688,
      0.0704518,
      -0.2849021,
      -0.0600858,
      0.121254,
      0.1714386,
      -0.2794217,
      -0.2325854,
      0.1531776,
      0.0622762,
      -0.0049219,
      -0.1609004,
      -0.1924857,
      -0.1575094,
      -0.2484107,
      0.1917569,
      0.3880683,
      -0.1306842,
      0.2661956,
      -0.1202739,
      -0.4684952,
      0.0642877,
      -0.3753866,
      -0.2045403,
      -0.0544927,
      0.1709288,
      -0.0237561,
      0.0169919,
      0.1157129,
      -0.1690817,
      0.1537214,
      -0.2571723,
      -0.2305926,
      0.0696543,
      0.1893572,
      0.2000379,
      -0.2447486,
      -0.1294246,
      -0.1283773,
      -0.1659608,
      0.0479476,
      -0.2742531,
      0.0216197,
      0.0618104,
      0.0417783,
      -0.1092245,
      -0.0901814,
      -0.0092947,
      -0.099531,
      -0.1633554,
      0.0200355,
      -0.2426111,
      -0.108341,
      -0.1664215,
      0.4341114,
      -0.2163198,
      -0.2031776,
      -0.1361675,
      -0.3637481,
      -0.0541643,
      0.0219704,
      -0.0704837,
      0.0914898,
      -0.3046849,
      0.0900965,
      -0.0622239,
      -0.4538086,
      -0.1177493,
      0.1301826,
      -0.0893014,
      0.3866457,
      0.0118423,
      -0.1598817,
      0.2253296,
      0.2567724,
      -0.0235218,
      0.3161448,
      -0.1806414,
      0.1474252,
      -0.0659053,
      -0.2132673,
      0.0084393,
      -0.0612045,
      -0.0397955,
      -0.2257988,
      -0.1366232,
      0.2889804,
      0.0061801,
      -0.1281729,
      0.0773265,
      0.1332438,
      -0.0610471,
      0.2064445,
      0.019038,
      -0.0749331,
      0.150717,
      -0.0998902,
      0.0599816,
      -0.0696424,
      0.2983354,
      0.1316001,
      -0.0300959,
      -0.2018545,
      -0.0281378,
      0.2259548,
      0.18011,
      -0.0433434,
      -0.0317002,
      0.076152,
      0.1526408,
      0.0599354,
      0.0884568,
      0.1328115,
      0.1510237,
      -0.0538579,
      0.097143,
      -0.0838008,
      -0.0161802,
      -0.2887133,
      -0.2900055,
      0.2320617,
      -0.0766926,
      0.1072845,
      -0.3778719,
      0.280051,
      0.0642268,
      -0.2475355,
      -0.1330649,
      0.1669594,
      -0.0782272,
      -0.0852505,
      0.0446173,
      -0.2218012,
      0.1166302,
      -0.1869366,
      -0.1725923,
      -0.0900207,
      0.0151112,
      0.2576623,
      0.1415221,
      -0.0633448,
      0.0635425,
      0.0840389,
      0.0596222,
      -0.1634735,
      -0.2534194,
      0.13759,
      -0.1660545,
      -0.0317996,
      0.2313451,
      0.1724887,
      0.3037396,
      0.1746013,
      0.1923476,
      0.1852676,
      -0.0361685,
      -0.2355643,
      -0.118427,
      0.246082,
      0.0534309,
      0.1319816,
      0.3238852,
      0.1953527,
      0.0127225,
      0.0392024,
      -0.1102384,
      0.3372228,
      0.0073447,
      -0.3197279,
      0.3875856,
      0.0048788,
      -0.0637882,
      -0.0450655,
      -0.2032908,
      -0.0606904,
      -0.0278815,
      -0.1791264,
      0.2695349,
      -0.0456463,
      0.1552896,
      0.0538809,
      0.1285514,
      0.0017788,
      -0.203282,
      0.1411989,
      0.3206774,
      0.2134241,
      0.0389846,
      0.0516426,
      0.0508176,
      -0.289332,
      0.1915239,
      -0.0605426,
      -0.0148095,
      -0.0372699,
      0.0221803,
      -0.1843182,
      -0.1428394,
      0.2068666,
      -0.0553908,
      0.0713718,
      -0.1721561,
      0.3774233,
      -0.168435,
      0.0382755,
      -0.0786347,
      0.1083334,
      0.1846805,
      -0.3049825,
      -0.4374704,
      0.0301625,
      0.1664923,
      -0.2267047,
      -0.182855,
      -0.1147402,
      0.1295679,
      0.3370862,
      0.0880089,
      -0.1329525,
      0.0463751,
      0.2874398,
      -0.0960576,
      0.1339029,
      0.0431975,
      0.189791,
      -0.012928,
      0.0920186,
      0.058954,
      0.1105248,
      -0.1375326,
      -0.3946857,
      -0.0904195,
      0.0107552,
      0.3362067,
      0.193592,
      0.0290385,
      0.3509843,
      -0.1769885,
      -0.2234858,
      -0.1054915,
      -0.232979,
      0.0418424,
      0.2317391,
      -0.4136525,
      -0.0138656,
      0.1339324,
      0.0988559,
      0.0986076,
      -0.1103558,
      -0.0416443,
      -0.0416631,
      -0.1560056,
      0.3219075,
      0.0659991,
      -0.0898264,
      0.2588253,
      -0.0683793,
      0.0098989,
      -0.2139835,
      0.1072857,
      -0.0800163,
      -0.121335,
      0.2205507,
      -0.0713009,
      -0.0474191,
      -0.2870058,
      0.2357779,
      -0.0520367,
      0.1772573,
      0.4131827,
      0.0114786,
      -0.1888151,
      0.0523242,
      0.302741,
      0.0363769,
      0.0623162,
      0.0759469,
      0.1485611,
      0.0031508,
      0.0781274,
      -0.1120522,
      0.2961728,
      0.0554412,
      0.1826243,
      0.2111141,
      0.0944572,
      0.0251672,
      -0.1068969,
      0.2765303,
      -0.0863474,
      0.2956466,
      -0.0167461,
      -0.171238,
      0.0902265,
      -0.0051082,
      -0.0369021,
      -0.0689715,
      -0.0574668,
      -0.1968073,
      0.0420848,
      0.0087902,
      0.0927822,
      0.1237201,
      -0.0385466,
      -0.0929355,
      0.260192,
      0.1796333,
      0.1241,
      -0.078812,
      0.0445775,
      -0.0292746,
      -0.2403271,
      0.106294,
      -0.2066707,
      -0.0214943,
      -0.217206,
      0.0008704,
      0.0661285,
      -0.0993057,
      0.0973384,
      -0.1241381,
      0.1201494,
      -0.0350518,
      0.0027732,
      0.0155656,
      -0.1635011,
      0.0134732,
      0.0480879,
      0.2068694,
      -0.0829564,
      0.1656677,
      -0.0090197,
      -0.1400079,
      0.3577451,
      0.1475936,
      0.0325466,
      -0.0145699,
      0.1326834,
      -0.0031398,
      0.0978037,
      -0.0796242,
      0.0168863,
      -0.2246998,
      -0.1377824,
      -0.0576832,
      -0.0821647,
      -0.2027087,
      0.2030725,
      -0.0509061,
      -0.1517958,
      0.1784905,
      0.0539206,
      -0.1416301,
      -0.1554414,
      -0.1109124,
      0.0730176,
      0.1404361,
      -0.3180188,
      -0.0287754,
      0.2309455,
      -0.0045999,
      -0.0223181,
      -0.0087713,
      -0.1852325,
      -0.0764116,
      -0.0489309,
      -0.1975939,
      0.1250859,
      0.0281422,
      -0.0004939,
      -0.1777994,
      0.0084389,
      -0.1830465,
      0.0398264,
      0.0672264,
      0.1583882,
      -0.1359936,
      0.1745012,
      -0.1171687,
      -0.0984466,
      0.0810143,
      0.0033304,
      0.0384558,
      0.0812127,
      0.2299938,
      -0.0358408,
      0.0301292,
      -0.0731779,
      -0.2385623,
      -0.0477885,
      0.1141562,
      0.0786624,
      -0.0144259,
      0.0011367,
      0.2722306,
      -0.1075477,
      0.1955805,
      -0.1735487,
      0.0073805,
      -0.0787583,
      -0.2598803,
      0.0749737,
      0.0472094,
      0.2839222,
      -0.1030773,
      0.0533124,
      -0.1004599,
      -0.1621645,
      0.0191479,
      -0.2225015,
      -0.2655145,
      -0.3326886,
      -0.148575,
      0.056016,
      0.0119525,
      -0.1372021,
      -0.0673542,
      0.0113709,
      0.1024847,
      0.0249591,
      -0.0828576,
      -0.0552151,
      -0.2156436,
      -0.2770025,
      -0.3030489,
      0.1026412,
      -0.0826077,
      0.1486176,
      -0.2437292,
      0.1562471,
      -0.0053399,
      0.1284001,
      0.378263,
      -0.1778467,
      0.1567522,
      0.1205676,
      -0.2004259,
      -0.1374428,
      0.2254537,
      -0.1533918,
      -0.0263899,
      0.0564046,
      -0.2989889,
      0.0907977,
      0.3239983,
      0.295111,
      -0.1974754,
      0.082375,
      -0.1540591,
      -0.1943686,
      0.263477,
      0.0804644,
      -0.1170359,
      0.2434341,
      0.2407871,
      -0.1613092,
      0.2548345,
      -0.0058882,
      0.1276853,
      -0.0380116,
      0.082751,
      -0.2021046,
      0.1529188,
      -0.1842866,
      0.1031385,
      -0.0329592,
      0.2234669,
      -0.0180517,
      -0.2665702,
      -0.0902065,
      -0.0713526,
      -0.0568079,
      -0.076574,
      -0.0935848,
      0.0802237,
      0.0685712,
      -0.1229595,
      -0.1895744,
      0.0985458,
      0.1782049,
      0.0880345,
      0.0620171,
      -0.2113712,
      0.0478503,
      0.316965,
      -0.1847383,
      -0.2093443,
      0.0547313,
      0.2028594,
      -0.2178292,
      -0.1805955,
      0.1101073,
      0.15641,
      -0.3498704,
      -0.0600482,
      0.0341966,
      -0.1199601,
      0.1127969,
      -0.0210633,
      0.0729422,
      -0.1877275,
      0.0708538,
      -0.1133129,
      0.2980006,
      -0.0154819,
      -0.0200332,
      0.0825429,
      -0.1068382,
      -0.1646054,
      0.3320073,
      -0.2120378,
      0.2969894,
      -0.0169648,
      0.0625294,
      -0.2858322,
      -0.2617506,
      -0.0644364,
      -0.0659787,
      0.1421063,
      -0.168475,
      -0.1787861,
      0.1077141,
      0.0657174,
      -0.0364789,
      -0.1959781,
      -0.1607471,
      0.0116367,
      -0.1174092,
      0.0487096,
      0.066553,
      -0.1015984,
      -0.1343864,
      0.1717589,
      0.0498776,
      -0.1332604,
      -0.1615931,
      -0.0781212,
      -0.2375557,
      -0.129429,
      0.2419503,
      -0.0342812,
      -0.0508712,
      -0.169021,
      0.0198532,
      -0.1220541,
      -0.1037651,
      -0.0597321,
      0.3345597,
      0.1083338,
      0.0185555,
      0.099756,
      -0.0373824,
      0.1162888,
      -0.1355959,
      -0.0946025,
      0.0301568,
      -0.2833733,
      0.0074742,
      -0.1656047,
      -0.0613087,
      0.2061947,
      -0.0784657,
      -0.1215534,
      0.0770376,
      -0.124312,
      0.1501606,
      0.2281227,
      -0.1153379,
      0.169675,
      0.0568333,
      0.0551198,
      0.0059104,
      0.1024852,
      0.0485159,
      0.2571522,
      -0.223162,
      0.4006802,
      0.1417007,
      0.017858,
      0.0670781,
      -0.2009783,
      0.0171898,
      -0.2809874,
      -0.1299085,
      -0.23976,
      0.116895,
      0.2933958,
      -0.0641923,
      0.3190379,
      0.1159744,
      0.0112923,
      0.0672547
    ],
    "auxiliary_prediction_weights": {
      "damage": [
        1.3057574,
        0.0258948,
        0.0793193,
        -0.1905257,
        -0.066389,
        -1.0711891,
        -0.2032538,
        -0.1579289,
        0.2160548,
        0.368319
      ],
      "hazard": [
        0.8497776,
        0.1586505,
        -0.621735,
        0.2344182,
        0.1310619,
        -0.7481278,
        0.372344,
        0.1846787,
        0.1314019,
        0.255305
      ],
      "reproduction": [
        -0.6102256,
        -0.1382966,
        -0.3808275,
        0.5075879,
        -0.1644858,
        0.2717346,
        -0.3435142,
        -0.646029,
        0.1404093,
        -0.2175827
      ],
      "social": [
        -0.1397517,
        0.4531799,
        -0.0680764,
        0.1002631,
        -0.5973101,
        0.1670397,
        0.6045791,
        -0.7429339,
        -0.1690552,
        0.100369
      ],
      "tool": [
        0.0429161,
        0.1181412,
        -0.5688663,
        -0.5902492,
        -0.5601167,
        0.3310261,
        0.0956759,
        0.2474834,
        -0.1566767,
        0.301951
      ]
    },
    "bias_h": [
      0.0481196,
      -0.0128876,
      -0.1769703,
      -0.1676383,
      -0.2809654,
      -0.0172905,
      0.1506011,
      -0.235865,
      0.0369794,
      0.0434652
    ],
    "bias_o": [
      -0.0660999,
      -0.0157243,
      -0.0902359,
      0.0112307,
      -0.3194975,
      -0.0528653,
      -0.0463102,
      -0.2188663,
      -0.0266119,
      -0.0509987,
      -0.3003799,
      0.1550972,
      -0.1396081,
      0.0820136,
      0.1251784
    ],
    "hidden_size": 10,
    "input_size": 72,
    "output_size": 15,
    "prediction_weights": [
      -0.9421696,
      0.2559064,
      -0.0568978,
      0.3732322,
      1.0226492,
      -0.4011237,
      -0.664732,
      0.8689171,
      -0.1987327,
      0.2802466
    ],
    "weights_in": [
      0.0278138,
      1.1120314,
      0.711243,
      -0.2271389,
      0.9173792,
      0.3217172,
      -0.3753687,
      0.1792735,
      -0.8472471,
      -0.0043643,
      -0.1410594,
      -0.5760321,
      -0.1205458,
      0.317622,
      0.6480863,
      -0.1389045,
      0.6576902,
      0.8932871,
      -0.0602803,
      -0.3927482,
      -0.2784174,
      -0.0429995,
      -0.0259308,
      -0.5325459,
      -0.0203465,
      0.2110951,
      -0.250914,
      0.0127612,
      0.0071932,
      0.0007005,
      0.0174629,
      -0.2781216,
      -0.5163612,
      -0.1489376,
      0.0077666,
      0.1441267,
      0.0905081,
      -0.476592,
      -0.2968136,
      0.8088175,
      -0.1091234,
      -0.7588014,
      0.3776003,
      0.8449033,
      0.2773617,
      0.9113447,
      -0.2964759,
      -0.2915134,
      -0.0756039,
      -0.1926031,
      0.2817943,
      -0.1390335,
      -0.0326966,
      0.6715565,
      -0.236801,
      0.4105187,
      0.2872872,
      0.0714071,
      0.2002628,
      0.2911796,
      0.7085162,
      -1.0106891,
      -0.6324086,
      -0.0467094,
      -0.0673891,
      -0.1177718,
      -0.4019523,
      1.2991517,
      -0.4241962,
      0.5196437,
      -0.4800572,
      0.3854572,
      -0.2671812,
      1.1620517,
      0.6275456,
      0.0007749,
      -0.2658957,
      1.0034206,
      -0.5901703,
      -0.1488103,
      0.5154181,
      -0.7767601,
      0.7231772,
      -0.4783596,
      0.2060925,
      -0.6561715,
      0.2910151,
      0.0931954,
      -0.3376852,
      -0.2020718,
      -0.0748367,
      -0.0417358,
      0.2124141,
      0.0170595,
      0.3856036,
      0.5400101,
      0.2633362,
      -1.0228937,
      -0.5257482,
      -1.1997836,
      0.7332638,
      -0.2755063,
      0.4979833,
      -0.3212511,
      0.6300588,
      -0.5902672,
      0.343994,
      -0.021964,
      -0.325275,
      0.0645984,
      -0.8311728,
      -0.0874049,
      0.1803838,
      0.3274861,
      0.13793,
      -0.2989613,
      -0.498447,
      -0.6430998,
      0.0081415,
      0.7043728,
      0.6531982,
      -0.3326694,
      1.0487124,
      -0.0191564,
      -0.0239765,
      -0.5091945,
      -0.7240696,
      -0.3173613,
      0.391235,
      -0.027478,
      -0.2352429,
      -0.817065,
      0.5803397,
      -0.4045971,
      0.1114531,
      0.0847197,
      0.0630571,
      0.0443358,
      0.4586515,
      0.399042,
      -0.4028603,
      -0.106926,
      -0.4164118,
      0.0718059,
      -0.1698021,
      -0.0830687,
      0.0679257,
      -0.7947241,
      0.4955952,
      -0.722175,
      -0.0360874,
      -0.5540114,
      0.1402818,
      -0.0162769,
      -0.7461508,
      0.2465673,
      0.4231634,
      -0.0627636,
      0.0981518,
      0.2949068,
      -0.4565255,
      0.5138412,
      -0.5700246,
      -0.036599,
      0.0284939,
      -0.322161,
      0.2731596,
      -0.1012792,
      0.3152043,
      -0.5755358,
      -0.2832221,
      0.1276003,
      -0.0391087,
      -0.1002648,
      0.3633702,
      -0.5379375,
      -0.5229877,
      -0.1620138,
      -0.4496654,
      0.3642714,
      -0.5867528,
      -0.6386974,
      -0.0072092,
      -0.0415137,
      -0.2996338,
      -0.3290999,
      -0.2263469,
      0.2257919,
      0.6408369,
      -0.673485,
      -0.4276337,
      -0.7737934,
      0.7298833,
      0.3243289,
      -0.4194655,
      -0.8533558,
      0.987074,
      0.4803778,
      -0.1360202,
      0.4298333,
      1.1410712,
      0.1158052,
      0.2028821,
      -0.0621527,
      -0.6888937,
      -0.1605744,
      0.0871721,
      -0.4820153,
      -0.0165671,
      0.1311874,
      0.0885771,
      0.2765148,
      0.3433724,
      -0.6377473,
      0.2059939,
      0.2598382,
      -0.3568296,
      0.4862718,
      -0.0624032,
      -0.6051568,
      0.4507382,
      0.3035303,
      0.2280138,
      -0.2844909,
      0.9778068,
      -0.1315985,
      0.1191602,
      -0.045719,
      0.5645197,
      -0.1153213,
      0.1052478,
      0.4657249,
      -0.4195813,
      0.9873686,
      0.0911908,
      -0.2185674,
      -0.6271238,
      0.2664883,
      0.5975172,
      -0.2185436,
      -0.4968003,
      -0.1631252,
      -0.7149769,
      -0.085795,
      -0.0951279,
      0.8837152,
      -0.3050802,
      -0.2600707,
      0.476772,
      -0.0579947,
      0.334704,
      0.0708834,
      0.342946,
      0.028158,
      -0.16201,
      0.2210566,
      0.0039613,
      -0.1933385,
      -0.5579071,
      -0.17712,
      0.3413785,
      -0.1912515,
      -0.3593149,
      0.6103936,
      -0.5629033,
      0.198131,
      -0.2346394,
      0.3073426,
      -0.835308,
      -0.5243365,
      -0.0286588,
      -0.040429,
      0.3012943,
      0.0744873,
      -0.2644025,
      0.9356303,
      -0.3645932,
      -0.5513193,
      -0.1916642,
      -0.5601933,
      0.710624,
      -0.9763905,
      0.2878744,
      0.5507337,
      -0.5048209,
      0.125367,
      0.359164,
      0.3669952,
      0.3088239,
      -0.8303323,
      -0.1237394,
      0.4071018,
      -0.4787023,
      -0.1184113,
      0.1628063,
      0.4566796,
      0.9273296,
      -0.1503302,
      -0.4262058,
      0.2043081,
      -0.1827374,
      -0.3717952,
      -0.0770452,
      0.0891403,
      0.1197939,
      0.006684,
      0.4322115,
      0.1772397,
      -0.2781933,
      -0.1592067,
      0.0799021,
      -0.1163561,
      -0.4772309,
      -0.0792711,
      -0.1495177,
      0.1038573,
      -0.8147349,
      0.5559116,
      -0.3174366,
      -0.4449252,
      0.0926763,
      -0.1053292,
      -0.1950427,
      1.0111665,
      -0.3610745,
      0.6091523,
      0.2476976,
      -0.2432708,
      0.7391602,
      -0.1287238,
      -0.0293996,
      0.0167214,
      0.6233472,
      0.3243986,
      -0.0551884,
      -0.1692072,
      -0.3355816,
      -0.5888215,
      0.4634097,
      0.6314033,
      -0.024844,
      -0.2804083,
      -0.2566552,
      -0.5234948,
      -0.1401624,
      -0.7583886,
      -0.1795753,
      -0.3283503,
      0.3673348,
      0.6685972,
      -0.8476238,
      0.0034442,
      -0.0923016,
      0.0081736,
      0.1615002,
      0.3180918,
      0.6134479,
      0.4844671,
      -0.3120495,
      -0.6971084,
      0.444335,
      -0.9499952,
      0.397948,
      0.0817423,
      0.1951729,
      0.4624393,
      -0.0401433,
      -0.0102947,
      0.0813437,
      0.016997,
      0.5348431,
      -0.5045234,
      -0.2218507,
      0.7275516,
      -0.6781745,
      0.2310839,
      -0.4701017,
      0.1388904,
      -0.2682093,
      -0.257345,
      -0.498241,
      -0.7394434,
      0.0134999,
      1.1266886,
      0.2097222,
      -0.4129534,
      1.0840212,
      -0.4870507,
      0.3629577,
      0.1669948,
      0.0929953,
      -0.4241464,
      -0.2940056,
      -0.1999604,
      0.0508727,
      0.0665055,
      0.3838578,
      0.1891224,
      -0.1985835,
      -0.2532068,
      0.8148431,
      -0.2595835,
      0.2827728,
      0.1200985,
      0.3170571,
      -0.1386034,
      -0.4680387,
      0.1204388,
      0.1233631,
      0.1770785,
      0.1028572,
      0.1066174,
      0.5353338,
      -0.0114643,
      -0.112039,
      -0.2804144,
      -0.6923482,
      -0.8133587,
      0.0890253,
      -0.0328287,
      0.6641033,
      -0.1967616,
      0.2449718,
      -0.2550582,
      -0.1241685,
      0.6371879,
      -0.6061885,
      0.847298,
      0.3891125,
      0.0717012,
      0.1230504,
      -0.2718977,
      0.4357169,
      -0.1418773,
      0.1926999,
      -0.4640907,
      -0.0838598,
      0.3017701,
      -0.7274988,
      -0.3397969,
      0.7598777,
      0.1250734,
      -0.0183959,
      0.8529479,
      -0.7004187,
      1.0275974,
      0.7968439,
      0.8906503,
      -0.7050522,
      -0.1650049,
      -0.0646463,
      0.2795326,
      0.0238922,
      -0.5989758,
      0.0736035,
      0.2875707,
      -0.7858281,
      0.1442231,
      1.1181324,
      -1.1804522,
      0.694034,
      -0.2422041,
      -0.188103,
      0.4779771,
      -0.1144734,
      -0.7949017,
      -0.3488692,
      -0.1757865,
      0.0070456,
      -0.6121773,
      0.6124571,
      -0.0872542,
      0.0254925,
      -0.1812974,
      0.5810772,
      -0.2313428,
      -0.6601193,
      0.5939557,
      -0.9954452,
      -0.2758936,
      -0.0784984,
      -0.4732313,
      -0.871047,
      0.1166742,
      -0.1366068,
      -0.4299438,
      0.7858717,
      0.1446482,
      0.9236142,
      -0.1157341,
      0.4688227,
      -0.870715,
      0.2288442,
      0.552112,
      0.3785481,
      -0.271713,
      -0.0514028,
      0.4622626,
      0.054217,
      0.3857255,
      -0.336129,
      -0.0995932,
      0.1912304,
      -0.3472167,
      -0.608857,
      0.6521792,
      0.208945,
      0.6002151,
      0.7456563,
      -0.279261,
      0.350099,
      0.561374,
      0.5106071,
      -0.0683136,
      -0.1656826,
      -0.0390354,
      -0.155639,
      -0.4896966,
      0.1393623,
      0.511949,
      -0.3653853,
      -0.2466251,
      -0.3177362,
      0.5244035,
      0.7587462,
      0.1308641,
      -0.6417767,
      -0.6334319,
      0.0648388,
      -0.6179359,
      -0.2646492,
      -0.0694613,
      -0.1716751,
      0.6071337,
      -0.6420389,
      0.2200975,
      0.1534847,
      -0.1348213,
      -0.4941427,
      0.4488431,
      -0.6485518,
      0.0291521,
      0.1844497,
      0.3522268,
      0.5617273,
      -0.7123676,
      0.8346546,
      -0.2249323,
      0.0691983,
      -0.2652365,
      0.1642202,
      0.1909859,
      1.1471107,
      -0.7959931,
      -0.0186027,
      -0.0618791,
      0.2409568,
      0.3198446,
      -0.1403482,
      0.0078468,
      -0.8703493,
      -0.7008608,
      0.1457763,
      0.4214453,
      -0.4449662,
      -0.1807295,
      -0.7236779,
      -0.2695265,
      0.0058885,
      -0.0127247,
      -0.655589,
      -0.644133,
      0.1321996,
      0.3518005,
      0.3185129,
      -0.929386,
      -0.0022404,
      0.2651809,
      -0.27837,
      0.0593257,
      -0.0117668,
      0.163588,
      0.3208341,
      0.1776095,
      -0.0681387,
      0.0757613,
      0.0411834,
      -0.1964133,
      -0.032679,
      -0.0317543,
      -0.1539224,
      -0.0340972,
      -0.171055,
      0.2491636,
      0.1904169,
      -0.041661,
      0.3160655,
      -0.4193422,
      0.2383057,
      -0.0016823,
      -0.0660222,
      -0.2426507,
      0.2558493,
      -0.195876,
      0.241282,
      -0.1759251,
      0.1296821,
      -0.0554687,
      0.0901439,
      -0.374148,
      -0.1590336,
      0.1410808,
      -0.179785,
      0.0807626,
      0.2519499,
      0.0495521,
      -0.0767859,
      0.0466873,
      -0.0855057,
      0.0040867,
      -0.2199809,
      -0.1186185,
      0.0633744,
      -0.0479913,
      -0.320851,
      0.5844185,
      0.1131119,
      -0.3974495,
      -0.0391271,
      0.0375166,
      -0.2384505,
      0.0477926,
      -0.3097371,
      0.4078912,
      0.0270247,
      0.059726,
      0.1006298,
      -0.1590917,
      0.0616878,
      0.1450947,
      0.0862238,
      -0.4066337,
      -0.2364509,
      -0.2666749,
      0.1929902,
      -0.1688412,
      -0.022698,
      0.146582,
      -0.0987413,
      0.2356586,
      0.1495054,
      -0.2624413,
      -0.1239726,
      0.0558799,
      -0.1138433,
      -0.0696565,
      -0.2055148,
      -0.3093422,
      0.0841522,
      -0.304527,
      -0.0953273,
      -0.3362491,
      -0.0061299,
      -0.6758927,
      0.2904268,
      -0.0598186,
      -0.0136252,
      -0.2613261,
      -0.1290803,
      -0.2754965,
      -0.145631,
      -0.1642017,
      -0.4623628,
      -0.0878007,
      -0.3746525,
      0.2718152,
      0.1137686,
      -0.2341793,
      -0.2513729,
      0.0016546,
      0.020654,
      0.403095,
      -0.0455426,
      -0.091945,
      0.1042266,
      0.0557111,
      0.0376759,
      -0.1130669,
      0.2106365,
      0.3184941,
      -0.0461218,
      0.136441,
      0.2699503,
      -0.2602752,
      0.1683814,
      0.0742221,
      -0.4181359,
      -0.2990334,
      0.3788707,
      0.0332491,
      0.1211978,
      -0.1983166,
      0.1990813,
      -0.2466574,
      -0.1598168,
      -0.0876513,
      -0.2054665,
      -0.0957087,
      -0.3182468,
      -0.3631871,
      -0.2574498,
      0.3858401,
      -0.1004922,
      0.1182843,
      -0.0388131,
      0.1954039,
      -0.2928896,
      -0.2225487,
      -0.1919294,
      -0.0502274
    ],
    "weights_out": [
      0.3964468,
      -0.5459283,
      0.2989033,
      0.4233108,
      0.4286268,
      -0.2854553,
      -0.3729356,
      0.1874971,
      -0.2471328,
      -0.1289411,
      0.1779084,
      0.1299366,
      0.4453457,
      0.4786589,
      0.5875944,
      0.1224093,
      0.0686459,
      0.2395373,
      0.3308024,
      -0.443238,
      -0.4150021,
      -0.135265,
      -0.7263903,
      0.0355608,
      -0.3755125,
      -0.0726275,
      0.0813025,
      0.0379791,
      -0.0628543,
      0.0862466,
      1.2282115,
      -0.3647414,
      0.3882711,
      -0.0374676,
      0.2495473,
      -0.0978281,
      -0.2925707,
      -0.7044581,
      0.1898986,
      -0.2148284,
      0.4459781,
      0.2674267,
      -0.6964313,
      -0.1392442,
      -0.1061798,
      -0.0721624,
      0.0702079,
      0.319914,
      0.122493,
      0.0852864,
      -0.3489374,
      0.400093,
      -0.7134543,
      0.3431196,
      -0.3087169,
      -0.206386,
      0.5362129,
      0.594871,
      0.0660185,
      -0.408667,
      0.5820507,
      0.4947391,
      0.0956447,
      -0.0840812,
      0.123486,
      -1.1077831,
      -0.1968357,
      0.3889721,
      0.1702477,
      0.1244721,
      0.233424,
      -0.3105582,
      -0.3166923,
      -0.4607164,
      0.3114982,
      -0.2585862,
      -0.7662857,
      -0.0630586,
      -0.1300364,
      0.0658794,
      0.2287973,
      0.2613429,
      -0.6248958,
      -0.0859785,
      -0.0732712,
      -0.4654087,
      -0.2002959,
      -0.4373022,
      -0.1627518,
      0.0015071,
      -0.2351049,
      -0.202036,
      -0.2412431,
      -0.2827893,
      -0.1075603,
      0.2506431,
      -0.4192062,
      0.0047426,
      0.3233313,
      0.3595353,
      -0.1930111,
      0.2308016,
      0.3313109,
      0.5516679,
      0.6820709,
      0.1155179,
      -0.1356951,
      -0.3718095,
      0.3655952,
      -0.3483534,
      -0.0458431,
      0.3178216,
      -0.0341329,
      -0.3562464,
      0.3457283,
      0.7837122,
      -0.2827007,
      0.6114123,
      -0.277688,
      -0.3577555,
      -0.7255192,
      0.5071891,
      -0.3501614,
      -0.221035,
      -0.3101097,
      -0.8935291,
      -0.2324681,
      0.3059703,
      0.1509033,
      0.121859,
      0.3835599,
      0.1020366,
      0.1933791,
      0.1563468,
      0.3954213,
      0.4786215,
      0.1679425,
      -0.4300156,
      -0.5833424,
      -0.1283369,
      -0.2125433,
      -0.6808417,
      0.8836794,
      0.8454578,
      -0.0928101,
      -0.4524625,
      0.5442409,
      -0.0573871,
      0.0785042,
      -0.1309792
    ]
  },
  "bucket": "tool_champion",
  "cognition": {
    "event_memory": {
      "damage": 0.0,
      "energy_gain": 0.0,
      "energy_loss": 0.003825,
      "health_gain": 0.0,
      "reproduction": 0.0,
      "social": 0.07347,
      "surprise": 0.084861,
      "tool": 0.319895
    },
    "last_action": "use_tool",
    "last_valence": 0.068274,
    "lesson_memory": [
      {
        "affordance": "crack",
        "attempted_affordance": "crack",
        "gain": 0.003084,
        "kind": "tool_use",
        "method_quality": 0.231558,
        "place": 4,
        "problem": {
          "difficulty": 0.590436,
          "kind": "causal_challenge",
          "payoff_energy": "chemical",
          "place": 4,
          "progress": 2,
          "remaining": 62.645509,
          "required_affordance": "contain",
          "sequence": [
            "crack",
            "lever",
            "contain"
          ]
        },
        "score": 0.4685,
        "skill": 1.0,
        "success": true
      },
      {
        "affordance": "crack",
        "attempted_affordance": "crack",
        "gain": 0.003084,
        "kind": "tool_use",
        "method_quality": 0.231558,
        "place": 4,
        "problem": {
          "difficulty": 0.590436,
          "kind": "causal_challenge",
          "payoff_energy": "chemical",
          "place": 4,
          "progress": 0,
          "remaining": 62.645509,
          "required_affordance": "crack",
          "sequence": [
            "crack",
            "lever",
            "contain"
          ]
        },
        "score": 0.4685,
        "skill": 1.0,
        "success": true
      },
      {
        "affordance": "crack",
        "attempted_affordance": "crack",
        "gain": 0.107053,
        "kind": "causal_step",
        "method_quality": 0.0,
        "place": 4,
        "problem": {
          "difficulty": 0.590436,
          "kind": "causal_challenge",
          "payoff_energy": "chemical",
          "place": 4,
          "progress": 1,
          "remaining": 62.645509,
          "required_affordance": "lever",
          "sequence": [
            "crack",
            "lever",
            "contain"
          ]
        },
        "score": 0.881128,
        "sequence": [
          "crack"
        ],
        "skill": 1.0,
        "success": true
      },
      {
        "affordance": "crack",
        "attempted_affordance": "crack",
        "gain": 0.110138,
        "kind": "tool_use",
        "method_quality": 0.231558,
        "place": 4,
        "problem": {
          "difficulty": 0.590436,
          "kind": "causal_challenge",
          "payoff_energy": "chemical",
          "place": 4,
          "progress": 1,
          "remaining": 62.645509,
          "required_affordance": "lever",
          "sequence": [
            "crack",
            "lever",
            "contain"
          ]
        },
        "score": 0.4685,
        "skill": 1.0,
        "success": true
      },
      {
        "affordance": "crack",
        "attempted_affordance": "crack",
        "gain": 0.003084,
        "kind": "tool_use",
        "method_quality": 0.231558,
        "place": 4,
        "problem": {
          "difficulty": 0.590436,
          "kind": "causal_challenge",
          "payoff_energy": "chemical",
          "place": 4,
          "progress": 2,
          "remaining": 62.645509,
          "required_affordance": "contain",
          "sequence": [
            "crack",
            "lever",
            "contain"
          ]
        },
        "score": 0.4685,
        "skill": 1.0,
        "success": true
      }
    ],
    "lineage": {
      "inherited_brain_template": true,
      "parent_lineages": [
        430,
        490
      ],
      "parents": [
        6751,
        6384
      ],
      "root_id": 430
    },
    "place_memory": [
      {
        "place_id": 32,
        "value": 0.786665
      },
      {
        "place_id": 4,
        "value": 0.671658
      },
      {
        "place_id": 2,
        "value": 0.606538
      },
      {
        "place_id": 3,
        "value": 0.465123
      },
      {
        "place_id": 17,
        "value": 0.129319
      }
    ],
    "prediction_errors": {
      "damage": -0.040329,
      "energy": 0.395502,
      "hazard": -0.14999,
      "reproduction": -0.086607,
      "social": -0.066624,
      "tool": 0.709187
    },
    "recent_trace": {
      "action": 0.571429,
      "damage": 0.0,
      "energy_delta": -0.013538,
      "health_delta": 0.0,
      "prediction_error": 0.395502,
      "reproduction": 0.0,
      "social": 0.242325,
      "tool": 1.028217
    },
    "signal_values": [
      0.147621,
      0.088726,
      0.078787,
      0.152475,
      0.068851,
      0.14906,
      0.09076,
      0.015203
    ],
    "success_profile": {
      "causal_step": 96.0,
      "causal_unlock": 6.0,
      "collaboration": 432.657274,
      "energy_gain": 99.020556,
      "prediction_fit": 44.692213,
      "reproduction": 2.0,
      "social_learning": 0.05,
      "structure": 3.375,
      "tool_make": 1.231558,
      "tool_use": 1215.76875,
      "written_learning": 0.015689
    },
    "tool_trace": {
      "last_artifact_method": 0.231558,
      "last_craft_target": "crack",
      "last_tool_affordance": "crack"
    }
  },
  "context": {
    "criterion": "tool_champion",
    "label": "final",
    "lineages": {
      "agent_lineages_total": 80,
      "living_agent_lineages": 6,
      "top_all_time": [
        {
          "avg_living_energy": 25.41249,
          "avg_living_health": 0.74822,
          "born": 1542,
          "dead": 1301,
          "inherited_template_count": 1536,
          "lineage_root_id": 490,
          "living": 241,
          "living_neural": 241,
          "max_generation": 26,
          "offspring_total": 3060,
          "profile": {
            "causal_step": 54.0,
            "causal_unlock": 32.98724,
            "collaboration": 111387.99092,
            "energy_gain": 17969.82702,
            "knowledge_transmitted": 3.67079,
            "prediction_fit": 12331.94002,
            "reproduction": 3060.0,
            "social_learning": 441.1,
            "structure": 193.375,
            "tool_make": 61.14022,
            "tool_use": 2172.11375,
            "written_learning": 10.63842
          },
          "score": 98367.02841,
          "successful_tools_total": 1104,
          "tool_use_counts": {
            "bind": 298,
            "build": 98,
            "concentrate_heat": 66,
            "contain": 462,
            "crack": 53,
            "craft": 56,
            "cut": 5,
            "lever": 63
          },
          "tool_users": 216,
          "top_living_ids": [
            9081,
            6451,
            7033,
            5683,
            9542
          ]
        },
        {
          "avg_living_energy": 34.36183,
          "avg_living_health": 0.77593,
          "born": 995,
          "dead": 800,
          "inherited_template_count": 988,
          "lineage_root_id": 430,
          "living": 195,
          "living_neural": 195,
          "max_generation": 23,
          "offspring_total": 1982,
          "profile": {
            "causal_step": 333.0,
            "causal_unlock": 38.80391,
            "collaboration": 67027.9865,
            "energy_gain": 19056.94601,
            "knowledge_transmitted": 2.25783,
            "prediction_fit": 9730.16561,
            "reproduction": 1982.0,
            "social_learning": 367.9,
            "structure": 344.75,
            "tool_make": 75.74275,
            "tool_use": 5315.56351,
            "written_learning": 16.09799
          },
          "score": 71310.8531,
          "successful_tools_total": 3990,
          "tool_use_counts": {
            "bind": 1594,
            "build": 164,
            "concentrate_heat": 551,
            "contain": 428,
            "crack": 627,
            "craft": 70,
            "cut": 69,
            "lever": 474
          },
          "tool_users": 257,
          "top_living_ids": [
            6854,
            6751,
            7020,
            6914,
            7539
          ]
        },
        {
          "avg_living_energy": 31.69035,
          "avg_living_health": 0.85094,
          "born": 306,
          "dead": 201,
          "inherited_template_count": 305,
          "lineage_root_id": 489,
          "living": 105,
          "living_neural": 105,
          "max_generation": 23,
          "offspring_total": 469,
          "profile": {
            "causal_step": 109.0,
            "causal_unlock": 26.74882,
            "collaboration": 15030.37461,
            "energy_gain": 3278.77743,
            "knowledge_transmitted": 1.75298,
            "prediction_fit": 2954.05991,
            "reproduction": 469.0,
            "social_learning": 463.15,
            "structure": 193.125,
            "tool_make": 58.42207,
            "tool_use": 11000.33764,
            "written_learning": 0.28908
          },
          "score": 41418.77879,
          "successful_tools_total": 9882,
          "tool_use_counts": {
            "bind": 2083,
            "build": 91,
            "concentrate_heat": 1932,
            "contain": 1146,
            "crack": 427,
            "cut": 2272,
            "filter": 201,
            "lever": 1675
          },
          "tool_users": 150,
          "top_living_ids": [
            4350,
            6629,
            6687,
            4874,
            8571
          ]
        },
        {
          "avg_living_energy": 0.0,
          "avg_living_health": 0.0,
          "born": 1,
          "dead": 1,
          "inherited_template_count": 0,
          "lineage_root_id": 447,
          "living": 0,
          "living_neural": 0,
          "max_generation": 0,
          "offspring_total": 0,
          "profile": {
            "causal_step": 2.0,
            "collaboration": 0.78914,
            "energy_gain": 177.28194,
            "prediction_fit": 61.27064,
            "structure": 1.375,
            "tool_use": 1366.33117,
            "written_learning": 0.00976
          },
          "score": 3338.60214,
          "successful_tools_total": 1197,
          "tool_use_counts": {
            "build": 1,
            "concentrate_heat": 1135,
            "crack": 1,
            "lever": 60
          },
          "tool_users": 1,
          "top_living_ids": []
        },
        {
          "avg_living_energy": -0.03533,
          "avg_living_health": 0.34456,
          "born": 2,
          "dead": 1,
          "inherited_template_count": 1,
          "lineage_root_id": 416,
          "living": 1,
          "living_neural": 1,
          "max_generation": 1,
          "offspring_total": 2,
          "profile": {
            "causal_step": 7.0,
            "collaboration": 28.95816,
            "energy_gain": 133.13608,
            "prediction_fit": 176.71801,
            "reproduction": 2.0,
            "structure": 480.375,
            "tool_make": 14.71131,
            "tool_use": 552.5657
          },
          "score": 2342.45763,
          "successful_tools_total": 700,
          "tool_use_counts": {
            "bind": 168,
            "build": 205,
            "concentrate_heat": 2,
            "contain": 176,
            "crack": 23,
            "craft": 13,
            "lever": 113
          },
          "tool_users": 2,
          "top_living_ids": [
            416
          ]
        }
      ],
      "top_living": [
        {
          "avg_living_energy": 25.41249,
          "avg_living_health": 0.74822,
          "born": 1542,
          "dead": 1301,
          "inherited_template_count": 1536,
          "lineage_root_id": 490,
          "living": 241,
          "living_neural": 241,
          "max_generation": 26,
          "offspring_total": 3060,
          "profile": {
            "causal_step": 54.0,
            "causal_unlock": 32.98724,
            "collaboration": 111387.99092,
            "energy_gain": 17969.82702,
            "knowledge_transmitted": 3.67079,
            "prediction_fit": 12331.94002,
            "reproduction": 3060.0,
            "social_learning": 441.1,
            "structure": 193.375,
            "tool_make": 61.14022,
            "tool_use": 2172.11375,
            "written_learning": 10.63842
          },
          "score": 98367.02841,
          "successful_tools_total": 1104,
          "tool_use_counts": {
            "bind": 298,
            "build": 98,
            "concentrate_heat": 66,
            "contain": 462,
            "crack": 53,
            "craft": 56,
            "cut": 5,
            "lever": 63
          },
          "tool_users": 216,
          "top_living_ids": [
            9081,
            6451,
            7033,
            5683,
            9542
          ]
        },
        {
          "avg_living_energy": 34.36183,
          "avg_living_health": 0.77593,
          "born": 995,
          "dead": 800,
          "inherited_template_count": 988,
          "lineage_root_id": 430,
          "living": 195,
          "living_neural": 195,
          "max_generation": 23,
          "offspring_total": 1982,
          "profile": {
            "causal_step": 333.0,
            "causal_unlock": 38.80391,
            "collaboration": 67027.9865,
            "energy_gain": 19056.94601,
            "knowledge_transmitted": 2.25783,
            "prediction_fit": 9730.16561,
            "reproduction": 1982.0,
            "social_learning": 367.9,
            "structure": 344.75,
            "tool_make": 75.74275,
            "tool_use": 5315.56351,
            "written_learning": 16.09799
          },
          "score": 71310.8531,
          "successful_tools_total": 3990,
          "tool_use_counts": {
            "bind": 1594,
            "build": 164,
            "concentrate_heat": 551,
            "contain": 428,
            "crack": 627,
            "craft": 70,
            "cut": 69,
            "lever": 474
          },
          "tool_users": 257,
          "top_living_ids": [
            6854,
            6751,
            7020,
            6914,
            7539
          ]
        },
        {
          "avg_living_energy": 31.69035,
          "avg_living_health": 0.85094,
          "born": 306,
          "dead": 201,
          "inherited_template_count": 305,
          "lineage_root_id": 489,
          "living": 105,
          "living_neural": 105,
          "max_generation": 23,
          "offspring_total": 469,
          "profile": {
            "causal_step": 109.0,
            "causal_unlock": 26.74882,
            "collaboration": 15030.37461,
            "energy_gain": 3278.77743,
            "knowledge_transmitted": 1.75298,
            "prediction_fit": 2954.05991,
            "reproduction": 469.0,
            "social_learning": 463.15,
            "structure": 193.125,
            "tool_make": 58.42207,
            "tool_use": 11000.33764,
            "written_learning": 0.28908
          },
          "score": 41418.77879,
          "successful_tools_total": 9882,
          "tool_use_counts": {
            "bind": 2083,
            "build": 91,
            "concentrate_heat": 1932,
            "contain": 1146,
            "crack": 427,
            "cut": 2272,
            "filter": 201,
            "lever": 1675
          },
          "tool_users": 150,
          "top_living_ids": [
            4350,
            6629,
            6687,
            4874,
            8571
          ]
        },
        {
          "avg_living_energy": 54.68116,
          "avg_living_health": 0.79254,
          "born": 3,
          "dead": 0,
          "inherited_template_count": 2,
          "lineage_root_id": 428,
          "living": 3,
          "living_neural": 3,
          "max_generation": 16,
          "offspring_total": 5,
          "profile": {
            "causal_step": 2.0,
            "collaboration": 228.1616,
            "energy_gain": 165.77385,
            "prediction_fit": 139.3502,
            "reproduction": 5.0,
            "social_learning": 1.6,
            "tool_make": 3.26645,
            "tool_use": 23.87133
          },
          "score": 376.19963,
          "successful_tools_total": 9,
          "tool_use_counts": {
            "bind": 4,
            "craft": 3,
            "lever": 2
          },
          "tool_users": 1,
          "top_living_ids": [
            428,
            9668,
            9561
          ]
        },
        {
          "avg_living_energy": 75.45151,
          "avg_living_health": 1.0,
          "born": 7,
          "dead": 6,
          "inherited_template_count": 6,
          "lineage_root_id": 463,
          "living": 1,
          "living_neural": 1,
          "max_generation": 3,
          "offspring_total": 7,
          "profile": {
            "causal_step": 1.0,
            "collaboration": 13.09917,
            "energy_gain": 1812.30748,
            "prediction_fit": 187.28802,
            "reproduction": 7.0,
            "structure": 1.375,
            "tool_use": 8.55815
          },
          "score": 218.66179,
          "successful_tools_total": 7,
          "tool_use_counts": {
            "bind": 1,
            "build": 1,
            "concentrate_heat": 3,
            "contain": 2
          },
          "tool_users": 1,
          "top_living_ids": [
            463
          ]
        }
      ]
    },
    "population": {
      "agent": 546,
      "fungus": 514,
      "neural": 546,
      "plant": 2135,
      "total": 3195
    },
    "world_energy": {
      "biological_storage": 225.8658,
      "chemical": 2.1115,
      "electrical": 237.6934,
      "high_density": 10.5386,
      "locked_chemical": 470.9569,
      "mechanical": 1854.8698,
      "radiant": 972.4174,
      "thermal": 3260.6666
    },
    "world_physics": {
      "archetype_counts": {
        "cavern": 1,
        "desert_glass": 2,
        "forest_edge": 3,
        "high_ridge": 4,
        "hydrothermal_vent": 1,
        "mineral_scree": 3,
        "pelagic": 4,
        "reef": 8,
        "tidal_marsh": 5,
        "trench": 5
      },
      "avg_abrasion": 0.1478,
      "avg_acidity": 0.15088,
      "avg_biological_activity": 0.23524,
      "avg_boundary_permeability": 0.3473,
      "avg_current_exposure": 0.1035,
      "avg_edge_current": 0.25217,
      "avg_edge_slope": 0.41624,
      "avg_elevation": 0.46212,
      "avg_fluid_level": 0.26745,
      "avg_humidity": 0.33609,
      "avg_interiority": 0.35334,
      "avg_oxygen": 0.41369,
      "avg_pressure": 0.1771,
      "avg_resource_gradient": 0.54087,
      "avg_salinity": 0.47256,
      "avg_shelter": 0.40618,
      "avg_structure_scale": 13.13636,
      "avg_temperature": 0.50553,
      "avg_terrain_richness": 0.56417,
      "avg_wet_dry_cycle": 0.17127,
      "max_abrasion": 0.24775,
      "max_acidity": 0.35509,
      "max_biological_activity": 0.73395,
      "max_boundary_permeability": 0.79585,
      "max_current_exposure": 0.28235,
      "max_edge_current": 0.79551,
      "max_edge_slope": 0.97036,
      "max_elevation": 0.98072,
      "max_fluid_level": 0.5477,
      "max_humidity": 0.65742,
      "max_interiority": 0.47059,
      "max_oxygen": 0.54739,
      "max_pressure": 0.46525,
      "max_resource_gradient": 1.0,
      "max_salinity": 1.25,
      "max_shelter": 0.48968,
      "max_structure_scale": 398,
      "max_temperature": 0.74928,
      "max_terrain_richness": 0.91823,
      "max_wet_dry_cycle": 0.24149,
      "structure_count": 198.0
    }
  },
  "genome": {
    "aquatic_affinity": 0.09452683774902436,
    "armor": 0.10903520554790902,
    "asexual_threshold": 0.5640007677622599,
    "buoyancy": 0.24129001226205837,
    "chemical_metabolism": 0.7713414574910415,
    "desiccation_tolerance": 0.44242201275562054,
    "developmental_complexity": 0.8380589018341834,
    "digestion": 0.623175263766852,
    "electrical_use": 0.061695250171966455,
    "learning_rate": 0.1530906454859496,
    "manipulator": 0.5629732004239495,
    "mate_selectivity": 0.4061477360726635,
    "mechanical_use": 0.2041171766955371,
    "memory_budget": 1.7902566843059455,
    "mobility": 0.5894943981890143,
    "mutation_rate": 0.05143759343754371,
    "neural_budget": 9.781723361527973,
    "offspring_investment": 0.3164276755623976,
    "photosynthesis_surface": 0.09135993234503606,
    "plasticity_rate": 0.2856890927107629,
    "prediction_weight": 0.345844220593711,
    "pressure_tolerance": 0.3675926611186263,
    "radiant_metabolism": 0.17227806571895804,
    "salinity_tolerance": 0.36680179824345105,
    "sensor_range": 0.9899351476179785,
    "sexual_threshold": 0.5023861276818316,
    "signal_strength": 0.23544325687554757,
    "storage_capacity": 0.526392021672762,
    "thermal_tolerance": 0.6397266905332583,
    "valence_damage": 0.8396925605635747,
    "valence_energy": 0.6337026070671897,
    "valence_health": 0.2852554915994253,
    "valence_reproduction": 0.2411127843474336,
    "valence_social": 0.31714718326156893
  },
  "inventory": {
    "crystal": 1,
    "shell": 1
  },
  "organism": {
    "age": 1482,
    "artifacts": [],
    "complexity": 3.0656,
    "energy": 62.624,
    "generation": 11,
    "health": 1.0,
    "id": 6854,
    "inherited_brain_template": true,
    "kind": "agent",
    "last_action": "use_tool",
    "last_artifact_method": 0.2316,
    "last_craft_target": "crack",
    "last_energy_delta": -0.1354,
    "last_lesson": {
      "affordance": "crack",
      "attempted_affordance": "crack",
      "gain": 0.003084,
      "kind": "tool_use",
      "method_quality": 0.231558,
      "place": 4,
      "problem": {
        "difficulty": 0.590436,
        "kind": "causal_challenge",
        "payoff_energy": "chemical",
        "place": 4,
        "progress": 2,
        "remaining": 62.645509,
        "required_affordance": "contain",
        "sequence": [
          "crack",
          "lever",
          "contain"
        ]
      },
      "score": 0.4685,
      "skill": 1.0,
      "success": true
    },
    "last_tool_affordance": "crack",
    "last_valence": 0.0683,
    "lineage_root_id": 430,
    "location": 4,
    "neural": true,
    "offspring_count": 2,
    "parent_lineage_ids": [
      430,
      490
    ],
    "parents": [
      6751,
      6384
    ],
    "success_profile": {
      "causal_step": 96.0,
      "causal_unlock": 6.0,
      "collaboration": 432.6573,
      "energy_gain": 99.0206,
      "prediction_fit": 44.6922,
      "reproduction": 2.0,
      "social_learning": 0.05,
      "structure": 3.375,
      "tool_make": 1.2316,
      "tool_use": 1215.7688,
      "written_learning": 0.0157
    },
    "successful_tools": 1106,
    "tool_use_counts": {
      "bind": 89,
      "build": 2,
      "concentrate_heat": 330,
      "contain": 151,
      "crack": 359,
      "craft": 1,
      "lever": 174
    }
  },
  "reason": "final_tool_champion",
  "score": 2272.614611,
  "signal_values": [
    0.147621,
    0.088726,
    0.078787,
    0.152475,
    0.068851,
    0.14906,
    0.09076,
    0.015203
  ],
  "tick": 5429,
  "tool_skill": {
    "anchor": 0.012134,
    "bind": 1.0,
    "build": 0.195065,
    "carry": 0.040365,
    "channel": 0.003867,
    "concentrate_heat": 1.0,
    "conduct": 0.036106,
    "contain": 1.0,
    "crack": 1.0,
    "craft": 0.137521,
    "cut": 0.032768,
    "enclose": 0.003487,
    "energy_storage": 0.028161,
    "filter": 0.032401,
    "float": 0.00281,
    "gradient_harvest": 0.003927,
    "inscribe": 2.7e-05,
    "insulate": 1.0,
    "interpret_mark": 0.003593,
    "lever": 1.0,
    "permeable": 0.003836,
    "protect": 1.0,
    "reaction_surface": 0.002887,
    "record": 0.022174,
    "shelter": 0.025187,
    "support": 0.063866,
    "traverse": 0.089218
  }
}
