{
  "artifacts": [],
  "brain": {
    "attention_bias": [
      2.0,
      2.0,
      2.0,
      2.0,
      1.9976034,
      1.9976452,
      2.0,
      2.0,
      1.9979294,
      1.9976339,
      1.999028,
      2.0,
      2.0,
      1.9997296,
      2.0,
      2.0,
      2.0,
      2.0,
      1.9978984,
      1.9999999,
      1.9999036,
      1.9982078,
      1.9981334,
      2.0,
      1.9961199,
      2.0,
      2.0,
      2.0,
      1.9999996,
      2.0,
      2.0,
      2.0,
      2.0,
      2.0,
      2.0,
      2.0,
      2.0,
      2.0,
      2.0,
      1.9999996,
      2.0,
      2.0,
      1.9999993,
      1.9996215,
      1.9976019,
      1.9976166,
      1.9997016,
      1.9976894,
      1.9976399,
      1.9976812,
      1.9996827,
      1.9974535,
      1.9954778,
      2.0,
      1.9985651,
      1.9973231,
      1.9989885,
      1.9976262,
      1.9976074,
      1.9976108,
      1.9976296,
      1.9976242,
      1.9976385,
      1.9984227,
      1.9976325,
      1.9976167,
      1.9980887,
      1.9976908,
      1.9981581,
      1.9977022,
      1.997893,
      1.9985894
    ],
    "attention_weights": [
      -0.3314422,
      -0.2338764,
      -0.029944,
      -0.0502297,
      -0.2259858,
      0.1035746,
      -0.2199247,
      0.1571815,
      0.13951,
      0.0185288,
      -0.1814993,
      0.1344692,
      -0.0196856,
      0.1769368,
      -0.0773362,
      0.142515,
      0.1861478,
      0.0427835,
      0.1873397,
      -0.0124616,
      -0.3049718,
      -0.0984004,
      -0.0621111,
      0.065333,
      0.1613949,
      0.0828801,
      -0.1199134,
      0.0538115,
      -0.0904856,
      0.0758871,
      -0.1825201,
      0.0147401,
      0.018823,
      -0.0061169,
      0.1894759,
      -0.0504136,
      -0.1232012,
      -0.0143536,
      -0.124959,
      -0.1891406,
      -0.0514299,
      -0.180552,
      0.4324045,
      -0.1188153,
      -0.0131235,
      -0.3448178,
      0.2626415,
      0.05602,
      -0.032971,
      -0.0311723,
      0.0554198,
      0.0588102,
      -0.1651196,
      0.0018626,
      -0.0381508,
      -0.1997761,
      -0.1978842,
      -0.0319686,
      0.007303,
      0.1196898,
      0.0362232,
      0.021712,
      0.1120197,
      -0.045652,
      0.0749406,
      -0.0257542,
      -0.1997546,
      0.0458657,
      0.1588548,
      0.0981998,
      0.0603723,
      -0.4072033,
      -0.1642018,
      0.0208903,
      -0.2437545,
      0.1848543,
      -0.0757456,
      -0.2882908,
      0.0064111,
      -0.225834,
      -0.0145974,
      0.0790625,
      0.0373643,
      -0.1156101,
      0.1005989,
      0.0781106,
      0.1416438,
      -0.1620821,
      0.1055158,
      -0.0190181,
      -0.0953283,
      -0.4481563,
      -0.0667206,
      0.0229016,
      0.0798458,
      -0.0876022,
      0.1115449,
      -0.0341511,
      0.0221271,
      0.2834655,
      0.0406391,
      0.0213298,
      -0.2345632,
      -0.0839879,
      -0.0315369,
      0.2656769,
      0.1058523,
      -0.1362868,
      0.1539082,
      -0.1538703,
      -0.2417359,
      0.0113228,
      0.0672572,
      0.0591682,
      0.1631509,
      0.3434339,
      -0.0402831,
      0.1110841,
      -0.2679417,
      0.3532269,
      0.019648,
      -0.1248682,
      0.3009441,
      -0.1265029,
      0.1818969,
      -0.0908021,
      0.0961265,
      0.0213294,
      -0.1319168,
      -0.051223,
      -0.1010045,
      0.1150873,
      -0.1383315,
      -0.1405002,
      -0.0641616,
      0.1882237,
      0.3723281,
      0.05419,
      0.1041948,
      0.0693487,
      0.2586053,
      -0.1438838,
      0.0785537,
      0.1145031,
      0.2385028,
      -0.1641327,
      0.0113301,
      -0.0810905,
      -0.0138879,
      -0.0060798,
      -0.1146502,
      -0.0330315,
      0.0699872,
      -0.1523693,
      -0.0794999,
      0.0896511,
      0.2880758,
      0.3873112,
      -0.2006734,
      0.1515685,
      0.0294763,
      0.0317537,
      0.1587961,
      -0.0420513,
      0.1035016,
      0.0039083,
      0.2673168,
      -0.1564269,
      -0.0350728,
      -0.2460277,
      0.087162,
      0.1654805,
      -0.0121098,
      0.2085435,
      -0.2977119,
      0.2653879,
      0.0410299,
      0.2062847,
      -0.0474921,
      -0.1298796,
      -0.2342892,
      -0.0651519,
      -0.2994857,
      0.2508603,
      -0.1677953,
      -0.0280984,
      -0.3183084,
      -0.0557588,
      -0.1308185,
      -0.1178482,
      0.144261,
      0.2392332,
      0.1934262,
      0.0604108,
      0.0448552,
      0.0954545,
      0.0322825,
      0.0374469,
      -0.1471919,
      -0.1732432,
      0.1023368,
      0.1103213,
      -0.1610055,
      0.226535,
      -0.0855504,
      0.0213293,
      -0.101309,
      0.4846246,
      0.1949598,
      -0.203261,
      -0.0108182,
      0.3313504,
      -0.2847924,
      0.0366671,
      0.0630026,
      -0.1132117,
      -0.0072051,
      0.1829946,
      0.0285821,
      -0.13426,
      0.0625682,
      -0.108606,
      -0.0392314,
      0.1346508,
      -0.0795106,
      -0.1350764,
      -0.0896608,
      0.0553143,
      -0.1006946,
      0.2642023,
      0.2083619,
      0.0432473,
      0.0338191,
      -0.0773181,
      -0.1787748,
      0.0485264,
      0.1770255,
      0.0339679,
      0.0166954,
      0.1646711,
      0.0127652,
      -0.0306869,
      0.1604191,
      -0.1828268,
      -0.1912861,
      -0.2410708,
      0.2193665,
      0.1032265,
      0.096955,
      -0.0981473,
      0.0724328,
      0.2099049,
      -0.1604417,
      -0.2248796,
      -0.4282199,
      0.1096786,
      0.0942636,
      0.0373334,
      0.0274455,
      -0.1991826,
      0.1124878,
      -0.0002571,
      0.1343703,
      -0.1566253,
      0.0901736,
      0.0578513,
      0.1774019,
      0.0296335,
      -0.0054727,
      0.2422211,
      0.0864488,
      0.0266944,
      -0.1420811,
      0.1509884,
      0.0929784,
      -0.0546485,
      0.2790055,
      0.1207739,
      0.0998274,
      -0.2225201,
      0.0281779,
      -0.110534,
      0.034422,
      -0.0400941,
      0.0348252,
      -0.1509164,
      0.0246058,
      0.077878,
      0.0239804,
      -0.020066,
      0.0224096,
      0.0601167,
      0.0619315,
      0.0510211,
      0.0163219,
      0.2283266,
      -0.0727419,
      -0.0863846,
      -0.1094269,
      -0.0708542,
      -0.0071499,
      0.1248372,
      -0.0466578,
      -0.0690311,
      0.1868229,
      -0.1664664,
      0.1864753,
      -0.0550144,
      -0.0256829,
      -0.0109906,
      0.0770698,
      0.0614059,
      0.069381,
      0.1905733,
      0.0971521,
      0.2238956,
      0.1406934,
      -0.2131019,
      0.0350085,
      0.1245411,
      0.0096653,
      0.1793676,
      0.0010588,
      0.2392129,
      0.0268679,
      0.0859957,
      -0.0475426,
      0.2957276,
      0.2608681,
      -0.4348111,
      0.1609311,
      0.123035,
      -0.0350387,
      0.0042626,
      0.0122039,
      -0.1944719,
      0.1930361,
      0.1734985,
      0.1905082,
      0.379812,
      0.1104556,
      0.0046993,
      0.0489164,
      -0.0758639,
      -0.0928598,
      -0.0808484,
      -0.0708887,
      -0.1727517,
      -0.0543152,
      0.0154364,
      -0.0430054,
      -0.1952458,
      -0.0258002,
      0.0542871,
      -0.0600074,
      0.1508678,
      -0.2392352,
      -0.0313972,
      -0.3374576,
      0.0323142,
      -0.0065833,
      0.0307309,
      -0.1559949,
      0.0742597,
      -0.0661089,
      -0.0491423,
      0.0266701,
      -0.2753037,
      -0.1708502,
      -0.369219,
      -0.0572982,
      -0.1679323,
      -0.1646315,
      0.01241,
      -0.142727,
      -0.0547496,
      0.0089548,
      -0.0523738,
      -0.0328319,
      -0.08769,
      -0.1527826,
      -0.0168143,
      -0.2650769,
      -0.1932363,
      0.0843428,
      0.0619495,
      0.0888975,
      0.0618461,
      -0.0779727,
      0.1185131,
      0.0456692,
      -0.0388732,
      0.110209,
      -0.0272319,
      0.0838778,
      0.0576459,
      0.2347782,
      -0.2283677,
      -0.1675303,
      0.0792621,
      -0.0901023,
      -0.0121201,
      0.161427,
      -0.1114382,
      -0.0276493,
      0.0426655,
      0.1571389,
      0.2008556,
      0.0627068,
      -0.0649818,
      0.023024,
      -0.2088205,
      0.0090173,
      0.1498967,
      0.0373158,
      -0.1134808,
      0.1118569,
      0.1124935,
      0.1173135,
      -0.082762,
      -0.1727517,
      -0.1121313,
      0.0288245,
      -0.096854,
      0.1557165,
      -0.0579269,
      0.0780632,
      0.1123967,
      -0.1738095,
      -0.111427,
      0.4973402,
      -0.142568,
      0.1084104,
      0.0396953,
      0.2221956,
      -0.1999234,
      0.1073903,
      0.1533317,
      0.0915594,
      -0.0327736,
      -0.1667762,
      0.246749,
      -0.4711235,
      -0.0875678,
      0.2010841,
      0.3929173,
      0.0897223,
      0.1777156,
      -0.1269857,
      0.1548993,
      -0.0538964,
      -0.1215946,
      -0.1927315,
      0.0495181,
      0.1274381,
      0.0261322,
      -0.1275758,
      0.1472497,
      -0.149481,
      -0.0938093,
      -0.0068354,
      -0.1337758,
      0.110185,
      0.1335266,
      -0.2056369,
      -0.2361434,
      0.0358253,
      -0.0455158,
      -0.1692163,
      0.0600725,
      0.0672823,
      -0.1035249,
      0.086078,
      -0.0396408,
      -0.2312056,
      0.1696928,
      0.0092341,
      0.0670457,
      0.4190523,
      0.1906597,
      0.0524139,
      0.0203743,
      -0.1142529,
      -0.0637872,
      -0.0555413,
      0.255543,
      -0.4774008,
      0.1710775,
      0.0562014,
      0.1298838,
      0.36342,
      -0.1274517,
      -0.0413234,
      0.0504927,
      -0.0296886,
      -0.0186702,
      0.0847007,
      0.0792829,
      -0.3269403,
      0.1552435,
      0.1198785,
      -0.1082758,
      0.0314119,
      -0.1368046,
      -0.0953286,
      -0.1046603,
      0.106227,
      -0.000106,
      0.1753091,
      -0.1215601,
      -0.1396317,
      0.2387739,
      0.0120514,
      0.033422,
      0.016301,
      0.0862035,
      0.2006725,
      0.2428405,
      -0.0741538,
      -0.163965,
      -0.0839255,
      -0.1096672,
      0.0452577,
      0.1702032,
      0.0712314,
      -0.0998085,
      0.2318146,
      -0.1885776,
      -0.1366271,
      -0.012206,
      0.2038342,
      -0.1406313,
      0.0495602,
      -0.020264,
      -0.3338552,
      -0.2105538,
      0.048909,
      0.142477,
      -0.0821437,
      0.0567032,
      0.2835519,
      -0.0576365,
      0.0760166,
      0.0534448,
      -0.2088452,
      0.0427191,
      -0.1391563,
      -0.1740338,
      0.0441777,
      -0.0220285,
      -0.0904337,
      0.0869583,
      0.1159483,
      -0.1213982,
      0.2002522,
      0.0970401,
      -0.095907,
      0.0232398,
      -0.1493382,
      -0.0462638,
      -0.1231049,
      0.0722015,
      -0.0674703,
      -0.059873,
      -0.2793731,
      0.0037373,
      -0.0991626,
      0.2173019,
      0.2025218,
      0.0989981,
      -0.0832568,
      -0.1328913,
      -0.1796728,
      -0.0108785,
      0.0412859,
      0.0236212,
      -0.2253419,
      0.0574172,
      -0.2040284,
      0.3621286,
      -0.1891603,
      0.2521895,
      -0.1201648,
      -0.1153984,
      0.1883923,
      0.0551529,
      -0.0593307,
      -0.0175439,
      0.1958181,
      0.1769498,
      0.106985,
      -0.0756577,
      -0.1729444,
      0.0051573,
      -0.0075009,
      -0.019209,
      -0.0265087,
      0.0841808,
      0.1045201,
      -0.0674086,
      -0.1301861,
      -0.0528171,
      0.1371082,
      0.0370158,
      -0.1183978,
      0.0593203,
      -0.036758,
      0.3830051,
      0.1181285,
      0.1446443,
      -0.0829341,
      0.0574967,
      -0.208391,
      -0.1745111,
      -0.0811706,
      0.1237948,
      0.1185231,
      0.0419071,
      0.225045,
      0.1296299,
      0.15386,
      0.0334699,
      -0.1445313,
      -0.0878456,
      -0.225416,
      0.2629403,
      -0.3373272,
      -0.0735469,
      -0.2279775,
      -0.1313989,
      0.3307956,
      0.0012591,
      0.0997017,
      -0.3680268,
      0.0051534,
      -0.0277412,
      0.0869246,
      0.0816005,
      -0.1429873,
      -0.1094977,
      -0.061197,
      -0.0914542,
      0.109939,
      -0.1332572,
      0.1283624,
      0.1354927,
      -0.1090788,
      -0.1711547,
      -0.1115286,
      -0.2898293,
      7.12e-05,
      0.0141138,
      -0.029313,
      0.1909229,
      -0.034423,
      -0.0186582,
      -0.0160888,
      0.4393528,
      -0.2822211,
      0.2369517,
      0.064137,
      0.149695,
      -0.1348422,
      0.0540106,
      0.0599588,
      0.0280979,
      0.1088627,
      0.2499059,
      0.0894847,
      -0.0933672,
      -0.0893663,
      -0.1533776,
      -0.2544651,
      0.1459047,
      0.0634926,
      0.0958046,
      0.0669255,
      -0.0688804,
      -0.2281035,
      -0.0416425,
      0.0332648,
      0.1347886,
      -0.2469785,
      -0.0298598,
      -0.0762703,
      -0.1153735,
      0.2222724,
      0.2383997,
      -0.0007065,
      0.0284319,
      0.036496,
      0.0095834,
      0.021468,
      0.2978106,
      -0.2353329,
      -0.0356865,
      0.2731647,
      0.0413906,
      0.0250527,
      -0.0370101,
      0.2287604,
      0.0057786,
      -0.1492453,
      -0.1469366,
      0.23558,
      0.145384,
      -0.1234222,
      -0.0440263,
      0.3431377,
      0.2414179,
      0.0904483,
      0.1077168,
      0.1173417,
      -0.1366273,
      -0.0904406,
      -0.1485914,
      -0.0990605,
      -0.14644,
      -0.0659162,
      -0.3902622,
      0.0982536,
      0.1575662,
      0.1163605,
      -0.0827592,
      0.1341196,
      -0.0747764,
      0.0222632,
      0.1517066,
      -0.1190081,
      0.0366151,
      0.2035134,
      -0.0914421,
      -0.127563,
      -0.0276264,
      -0.0478467,
      0.0285182,
      0.1066245,
      0.0719109,
      -0.0054109,
      0.1432908,
      -0.0060404,
      0.2213367,
      -0.0155153,
      0.2250186,
      0.1439644,
      0.1767093,
      0.00084,
      -0.261621,
      -0.1691676,
      0.0272344,
      0.3758064,
      0.1321605,
      0.2002062,
      -0.1320722,
      -0.3316105,
      -0.2455169,
      -0.0537941,
      0.1336296,
      -0.3475702,
      0.0203894,
      0.0705805,
      -0.1256888,
      0.0156373,
      0.0798384,
      0.1715575,
      -0.2250504,
      -0.0145715,
      -0.0011106,
      -0.0418917,
      -0.0626353,
      0.1949177,
      0.0843571,
      -0.1431005,
      0.1085276,
      0.0198439,
      -0.2251646,
      -0.1733408,
      -0.0876468,
      -0.0560001,
      -0.0705858,
      0.3935959,
      0.080003,
      -0.0190929,
      -0.0409554,
      -0.1886377,
      -0.2008339,
      0.039755,
      0.0340984,
      0.0633245,
      0.3322973,
      0.1687222,
      0.1461269,
      -0.341599,
      0.3302655,
      -0.0090393,
      0.1507157,
      0.0698566,
      0.1624776,
      0.1547259,
      0.1000858,
      -0.0522413,
      0.0890173,
      -0.0587671,
      0.0214463,
      -0.0514885,
      -0.1484962,
      0.0584079,
      0.1400365,
      -0.1678229,
      0.1471834,
      0.1134182,
      0.0250938,
      0.0319776,
      -0.2572955,
      -0.010061,
      0.1717921,
      -0.3553448,
      0.0450577,
      -0.0324798,
      -0.106863,
      0.0054129,
      0.0167918,
      0.0818509,
      0.0766646,
      0.0250858,
      0.1569444,
      -0.0011545,
      -0.0058508,
      -0.0633131,
      0.0156779,
      -0.0591267,
      -0.1045423,
      -0.0051202,
      -0.1976093,
      0.1456694,
      0.0646525,
      0.0270742,
      0.0706877,
      0.0647375,
      0.0372668,
      0.166103,
      -0.0506543,
      0.0785911,
      -0.0362592,
      0.2234575,
      -0.0248449,
      0.1061386,
      -0.1184966,
      -0.0729892,
      0.0935555,
      0.0573272,
      0.2309327,
      0.0880503,
      0.0898151,
      -0.0490055,
      -0.0148957,
      -0.0744936,
      -0.0420015,
      -0.0444123,
      -0.118025,
      -0.1012352,
      -0.1366215,
      0.116233,
      -0.1519015,
      0.0173317,
      -0.1710352,
      0.0291686,
      -0.0746407,
      -0.0634849,
      -0.0818178,
      0.185771,
      -0.0073239,
      0.0947651,
      0.0295928,
      -0.0139851,
      0.1293249,
      -0.0668046,
      0.4577788,
      0.2033697,
      -0.0186985,
      -0.1615976,
      0.3407396,
      0.0259516,
      -0.0918437,
      0.1387972,
      0.0451877,
      -0.1467698,
      -0.0341694,
      -0.0711856,
      -0.0607707,
      -0.2744807,
      0.0550018,
      -0.0868165,
      -0.1210333,
      -0.3340543,
      0.1416733,
      -0.0350471,
      0.0287129,
      0.0699148,
      0.0358635,
      -0.1080377,
      0.041383,
      -0.0824013,
      0.1447274,
      0.1939815,
      0.1187152,
      -0.4209595,
      -0.1468993,
      0.3120721,
      0.1750695,
      -0.1051847,
      0.1959325,
      0.2113141,
      0.1787852,
      0.1484036,
      -0.0207375,
      -0.1269692,
      -0.1966105,
      0.1340266,
      0.0284911,
      0.0746966,
      0.2027306,
      0.1047995,
      -0.1828284,
      -0.0610123,
      0.0521025,
      0.0041382,
      -0.0784133,
      -0.194509,
      0.0491523,
      0.024866,
      0.2184016,
      -0.0122479,
      -0.0805188,
      -0.1599681,
      0.1663069,
      -0.0876306,
      0.0502348,
      0.127958,
      -0.3104659,
      -0.3375782,
      -0.0292554,
      0.0447821,
      -0.0305486,
      -0.269504,
      0.0661575,
      0.0647668,
      -0.1499245,
      -0.0475488,
      0.1261858,
      0.0233174,
      0.1369027,
      -0.0577293,
      -0.0972093,
      0.1314737,
      -0.205489,
      0.1533075,
      0.0215511,
      0.0406663,
      0.083938,
      -0.1789928,
      0.2234331,
      -0.3943748,
      0.1637979,
      -0.0384148,
      0.1072796,
      0.3885941,
      -0.0407681,
      -0.1271406,
      0.0060967,
      0.1083612,
      0.1317646,
      0.0943818,
      0.1784644,
      0.0153842,
      0.0409662,
      -0.0495866,
      0.2267551,
      0.1197515,
      -0.0843148,
      -0.1788322,
      -0.3310693,
      -0.247529,
      -0.1145478,
      -0.0432176,
      0.1331993,
      0.0127572,
      0.1054201,
      0.3752693,
      -0.1517665,
      -0.0275985,
      -0.0339054,
      0.0975203,
      0.059842,
      -0.0093214,
      -0.0519008,
      0.0301819,
      0.0817609,
      -0.0004283,
      -0.0022028,
      0.1727093,
      -0.0535674,
      -0.189369,
      -0.1793054,
      0.0114382,
      0.0325801,
      0.0625567,
      0.0666234
    ],
    "auxiliary_prediction_weights": {
      "damage": [
        -0.2016824,
        -0.2344494,
        -0.0010499,
        0.2451834,
        0.3962409,
        0.1054176,
        0.0672056,
        0.0722723,
        -0.027924,
        -0.2861397,
        0.3277385,
        0.0557691,
        -0.0026781,
        -0.1677187
      ],
      "hazard": [
        0.4856172,
        0.5403695,
        -0.1360223,
        0.6734971,
        -0.1112612,
        -0.2634187,
        0.3377361,
        0.2807561,
        -0.5041593,
        -0.3014582,
        -0.1611202,
        -0.0407597,
        -0.2729759,
        -0.0397556
      ],
      "reproduction": [
        -0.2560215,
        0.1942939,
        -0.3500446,
        -0.9363061,
        -0.3854191,
        0.2353509,
        0.4512918,
        -0.2520327,
        0.1532501,
        -0.5394366,
        -0.4594594,
        0.0788101,
        -0.0829672,
        0.1717308
      ],
      "social": [
        -0.3768123,
        0.4495484,
        -0.0239733,
        -0.4647992,
        -0.1257238,
        0.1329588,
        -0.4947943,
        0.4167182,
        -0.8166573,
        0.4312097,
        -0.0758857,
        0.1641031,
        -0.1009604,
        -0.0940979
      ],
      "tool": [
        0.4289307,
        -0.0967422,
        0.0479688,
        -0.0703721,
        0.0555765,
        0.1806499,
        0.6012071,
        0.0390647,
        -0.1360976,
        0.2587611,
        0.4852913,
        -0.115983,
        -0.0834905,
        0.1739512
      ]
    },
    "bias_h": [
      -0.1112589,
      0.0196342,
      -0.0614754,
      0.0623308,
      -0.0223262,
      0.0289916,
      0.1254485,
      -0.0471909,
      -0.0854223,
      0.171035,
      -0.1289625,
      0.0183459,
      -0.0449405,
      0.0001309
    ],
    "bias_o": [
      0.0073751,
      -0.0412969,
      0.194183,
      0.0634225,
      0.0295637,
      -0.0141772,
      0.0690696,
      -0.0256246,
      0.0246848,
      -0.0116192,
      0.1147221,
      -0.0388676,
      -0.0719636,
      -0.0626726,
      0.0947353
    ],
    "hidden": [
      -0.439641,
      0.386598,
      0.301997,
      0.4498925,
      -0.1649688,
      0.3065412,
      0.4684453,
      -0.7525611,
      0.1930029,
      -0.2539311,
      -0.0592054,
      0.0014227,
      -0.23937,
      0.0295643
    ],
    "hidden_size": 14,
    "hidden_trace": [
      -0.4300633,
      0.3931984,
      0.3051645,
      0.4526296,
      -0.1265789,
      0.3061962,
      0.4680856,
      -0.7532297,
      0.1958045,
      -0.2526717,
      -0.0437191,
      0.0044782,
      -0.2382031,
      0.033798
    ],
    "input_size": 72,
    "input_trace": [
      0.8829823,
      0.883132,
      0.8757404,
      0.4755321,
      0.0052935,
      0.0010916,
      1.3100638,
      0.310011,
      0.0388465,
      0.0071665,
      -0.0028143,
      1.2300364,
      0.2991307,
      0.0012287,
      0.4184322,
      0.3266504,
      0.3309461,
      0.7258273,
      0.0242622,
      0.0932749,
      0.0617524,
      0.0295519,
      0.0191878,
      0.490011,
      0.0408891,
      0.1205438,
      0.8150317,
      0.1330428,
      0.0970162,
      0.3472822,
      0.4186993,
      0.4109753,
      0.3972225,
      0.1342466,
      0.2219765,
      0.1576891,
      0.1663675,
      0.6259568,
      0.2380202,
      0.1035791,
      0.3765505,
      0.5378635,
      0.1107058,
      0.1031674,
      -0.0015108,
      -0.0060332,
      0.0883899,
      0.0111502,
      -0.0015092,
      -0.0027279,
      0.0971938,
      -0.024995,
      -0.0899093,
      0.1477054,
      0.0024494,
      -0.0465502,
      0.0617571,
      0.0001858,
      0.0059407,
      0.005302,
      -0.0007765,
      0.0110546,
      0.0001442,
      0.0435657,
      0.017489,
      -0.0041899,
      0.027988,
      0.0361338,
      0.0351328,
      0.0338081,
      0.0083623,
      0.0177889
    ],
    "last_attention": [
      0.8872622,
      0.8908604,
      0.8767797,
      0.880915,
      0.8790989,
      0.8791657,
      0.8847335,
      0.8678264,
      0.8749104,
      0.8747106,
      0.8763738,
      0.8723985,
      0.881537,
      0.8828674,
      0.8861127,
      0.8841814,
      0.8792759,
      0.8812822,
      0.8726032,
      0.8682838,
      0.8802878,
      0.885467,
      0.8812148,
      0.8828916,
      0.8821861,
      0.8778128,
      0.8811141,
      0.8834633,
      0.8770788,
      0.8810678,
      0.8922949,
      0.8894907,
      0.8791755,
      0.8771998,
      0.8845452,
      0.8800266,
      0.8737947,
      0.8749482,
      0.8680505,
      0.8818701,
      0.8846981,
      0.883749,
      0.8793703,
      0.8885171,
      0.8777247,
      0.8835666,
      0.8874218,
      0.8853609,
      0.877611,
      0.8824928,
      0.8766245,
      0.8732001,
      0.8842691,
      0.8873891,
      0.8809116,
      0.8855972,
      0.8840663,
      0.8807498,
      0.8867186,
      0.8827487,
      0.8833431,
      0.8783757,
      0.8795961,
      0.8790759,
      0.8847233,
      0.8768258,
      0.8836864,
      0.8868105,
      0.8855233,
      0.8757174,
      0.8874019,
      0.8837921
    ],
    "last_inputs": [
      0.8951347,
      0.8574445,
      0.8770245,
      0.4375098,
      0.0105286,
      0.0183246,
      1.3162612,
      0.3288474,
      0.0488731,
      0.0216449,
      -0.0066898,
      1.1464792,
      0.2636673,
      0.0003238,
      0.3905515,
      0.3161056,
      0.3486212,
      0.7505702,
      0.0631199,
      0.1128414,
      0.028238,
      0.0232376,
      -0.0310397,
      0.4670743,
      0.0201767,
      0.1393767,
      0.8443198,
      0.1758115,
      0.106661,
      0.3700307,
      0.4162502,
      0.3929059,
      0.3752978,
      0.1508124,
      0.1919362,
      0.1547926,
      0.169825,
      0.6176051,
      0.2781672,
      0.1050463,
      0.3584409,
      0.5418783,
      0.1011076,
      0.0728495,
      0.0261866,
      -0.0248554,
      0.0328352,
      0.0307024,
      -0.0016186,
      0.0042094,
      0.0474825,
      -0.0130945,
      -0.0655652,
      0.1424863,
      -0.0397361,
      -0.0715129,
      0.0438274,
      -0.0142993,
      0.0321548,
      -0.0087436,
      0.003884,
      -0.0054002,
      -0.0112525,
      0.0579138,
      0.0296665,
      -0.0059612,
      -0.0067951,
      0.0420029,
      0.042409,
      -0.0300101,
      0.0160738,
      0.0090793
    ],
    "last_outputs": [
      0.0114391,
      0.0681657,
      0.3440692,
      0.0478741,
      0.1992071,
      -0.0717973,
      -0.0281306,
      -0.1870163,
      -0.2379358,
      0.0560692,
      -0.0954282,
      -0.1002963,
      0.1581226,
      -0.16896,
      0.2480823
    ],
    "last_prediction_errors": {
      "damage": -0.0255739,
      "energy": 0.02994,
      "hazard": -0.0520511,
      "reproduction": -0.1112706,
      "social": 0.160836,
      "tool": 0.010811
    },
    "output_size": 15,
    "prediction_weights": [
      -0.3017814,
      -0.1022798,
      -0.1692506,
      0.1538402,
      1.0522128,
      -0.6688051,
      -0.2476214,
      -0.2893239,
      -0.0323699,
      -0.2729278,
      0.525196,
      -0.4563662,
      -0.3826733,
      -0.0319597
    ],
    "weights_in": [
      0.0504637,
      -0.4417809,
      0.1695656,
      -0.5402726,
      -0.8732643,
      -0.3098737,
      0.281132,
      -0.2539579,
      0.0735991,
      -0.3102617,
      0.0229593,
      0.2407334,
      0.5080492,
      -0.038332,
      -0.8023405,
      -0.290471,
      -0.092286,
      -0.6868248,
      -0.3710383,
      -0.0069581,
      0.2058486,
      0.6857541,
      0.123797,
      -0.0870512,
      0.2889169,
      0.4837921,
      -0.0222346,
      0.5132619,
      0.159412,
      0.5167575,
      0.2617957,
      0.326393,
      0.6046427,
      -0.0745062,
      0.355273,
      0.7158834,
      -0.0453377,
      -0.008515,
      0.041014,
      0.2074023,
      -0.7745425,
      -0.9244329,
      -0.0149627,
      -0.400599,
      0.3397201,
      0.1568159,
      0.7839573,
      -0.2139365,
      0.2131803,
      0.3791111,
      0.0171957,
      0.0026325,
      0.0514468,
      -1.4322205,
      -0.1287006,
      0.4993454,
      -0.3123786,
      0.7690152,
      -0.438394,
      0.4993487,
      -0.0428101,
      -0.2961746,
      -0.8772636,
      0.3750205,
      0.5001409,
      0.1529002,
      0.2386098,
      0.4780125,
      -0.3945335,
      0.0446777,
      -0.4177228,
      -0.2415744,
      -0.0274692,
      -0.1206704,
      0.2229749,
      0.0087803,
      -0.4853424,
      0.2936878,
      0.4448698,
      0.5051435,
      -0.6731986,
      0.3964349,
      -0.3937238,
      0.2439065,
      0.1381454,
      -0.0078224,
      0.3917446,
      -0.0285218,
      -0.4091181,
      -0.800642,
      0.6709664,
      1.2503542,
      0.4075149,
      -0.5480211,
      0.0190331,
      0.1697727,
      -0.4461149,
      0.3394489,
      0.8540902,
      -0.4426928,
      -0.1726484,
      0.1608436,
      0.8075691,
      1.1225931,
      -0.2690742,
      -0.2121062,
      0.5911783,
      -0.3346836,
      -0.0386274,
      -0.4535203,
      -0.331375,
      0.4210122,
      -0.5714396,
      -0.6374696,
      -0.3820664,
      0.3145387,
      0.1185775,
      -0.3011027,
      -0.6692121,
      -0.607745,
      0.3397079,
      -1.2194122,
      0.1922599,
      -0.6942099,
      0.6746547,
      0.343811,
      0.2465959,
      0.4482444,
      -0.3585818,
      0.631327,
      -0.0566116,
      0.5734629,
      -0.9070056,
      -0.6807833,
      -0.5949089,
      -0.1742061,
      0.1882058,
      -0.4244287,
      -0.0817983,
      0.287706,
      -0.3693838,
      0.9156027,
      0.5320261,
      -0.0941291,
      0.2811983,
      0.7089865,
      -0.6078961,
      -1.1621177,
      0.5624025,
      0.2909435,
      0.5916276,
      0.6755962,
      -0.2699077,
      -0.2671106,
      0.1209608,
      0.0788083,
      -0.3025069,
      0.3128433,
      -0.5593226,
      0.0669548,
      0.1084253,
      0.1505546,
      -0.0357809,
      -0.1370924,
      -0.1917664,
      0.0018075,
      -0.2572885,
      0.3870404,
      0.2979089,
      -1.3401482,
      0.7820109,
      -0.6422272,
      0.4211442,
      0.5800709,
      -0.4495634,
      0.4224421,
      -0.0011084,
      0.6334489,
      -0.065607,
      0.3000771,
      0.0072645,
      -0.4272982,
      -0.3638242,
      -0.4806185,
      -0.0510083,
      0.4426753,
      0.0289935,
      0.3795401,
      -0.5281766,
      0.4669404,
      0.2063972,
      -0.6995854,
      0.0615895,
      -0.2885256,
      0.3988612,
      -0.5003459,
      -0.4806542,
      -0.5329582,
      0.5850444,
      -0.5662135,
      -0.4531437,
      -0.448961,
      -0.0769808,
      -0.403825,
      -0.6719967,
      -0.1107792,
      -0.6358352,
      0.5949909,
      0.4588901,
      -0.1470338,
      0.7261869,
      0.0900076,
      0.5164763,
      0.5264495,
      -0.192388,
      -0.1128151,
      -0.3676692,
      0.2129346,
      0.284668,
      0.9296461,
      0.0763251,
      0.9448609,
      0.2218966,
      -0.2158707,
      -0.175739,
      -0.5092237,
      0.8625711,
      0.1953585,
      -0.6118214,
      0.1459104,
      0.7363193,
      0.600901,
      -0.3767965,
      0.5163477,
      0.4596742,
      -0.2705867,
      -0.0858019,
      0.3642214,
      -0.3524477,
      0.3103119,
      0.1298071,
      -0.6879749,
      -0.3579824,
      0.5263745,
      -0.1215371,
      -0.1525431,
      -0.0513721,
      -0.3841654,
      -0.0791782,
      0.4061451,
      0.5067588,
      -0.2533902,
      0.1255249,
      -0.1194461,
      -0.6871133,
      0.3637745,
      0.2371532,
      0.311369,
      -0.842456,
      0.1981502,
      -0.6793747,
      0.2894225,
      -0.4389755,
      0.0239827,
      0.0010323,
      0.3328951,
      0.1266806,
      0.4470378,
      -0.0058075,
      0.1797208,
      0.1205495,
      0.105412,
      -0.0072328,
      0.45446,
      0.5361373,
      0.4282054,
      -0.1917007,
      -0.6453665,
      0.1995602,
      -0.1780672,
      -0.4688837,
      0.3558454,
      -0.0113195,
      -0.4026146,
      0.3276104,
      -0.0737937,
      -0.6525849,
      0.3442576,
      -0.1070192,
      -1.076481,
      0.0824239,
      0.4414524,
      0.3908146,
      0.1794954,
      0.0640405,
      -0.2022306,
      0.2130594,
      0.2604305,
      0.7383083,
      0.2342696,
      0.8426567,
      -0.4910404,
      0.3827411,
      -0.5701244,
      -0.5471857,
      0.4694494,
      -0.8863626,
      -0.2804576,
      -0.2336875,
      -0.8939911,
      1.2004712,
      -0.425717,
      0.2288409,
      -0.5044309,
      -0.2296161,
      0.1445539,
      -0.321424,
      -0.330386,
      0.4243405,
      0.7095567,
      0.8842903,
      0.7119067,
      -1.1553156,
      0.1958009,
      -0.1629121,
      -0.0319747,
      -0.1938301,
      0.6724595,
      -0.2522397,
      -0.24043,
      -0.0934177,
      0.7939112,
      0.009205,
      0.4694841,
      0.4200078,
      -0.0154209,
      1.0064347,
      0.2863187,
      0.3396102,
      0.2041355,
      0.2934376,
      -0.4032229,
      0.3378455,
      0.174806,
      -0.1139729,
      1.1549105,
      -0.0704246,
      -0.7322481,
      -0.9998301,
      0.0975454,
      0.2898574,
      -0.2081215,
      0.2242044,
      0.0859648,
      0.309864,
      -0.0688904,
      -0.09841,
      -0.1861131,
      -0.058214,
      -0.0869169,
      0.2115134,
      0.1772904,
      -0.1640012,
      -0.3070797,
      0.0332595,
      -0.3111448,
      0.2034333,
      0.0247947,
      -0.208556,
      -0.3533367,
      -0.3927744,
      0.5836204,
      0.5173615,
      -0.7981286,
      -0.0235933,
      -0.581814,
      0.1255101,
      -0.3524867,
      0.2341513,
      -0.6054056,
      0.4740449,
      0.6991383,
      1.4796345,
      -0.4833199,
      -0.2789228,
      0.0642775,
      0.1649993,
      -0.5083642,
      0.6996185,
      0.2709441,
      0.4647992,
      -0.0252752,
      -0.2046632,
      0.3548037,
      -0.694234,
      0.0936386,
      0.3264749,
      0.5721723,
      -0.638281,
      -0.3554579,
      -0.0675093,
      0.145364,
      0.0638307,
      -0.2051043,
      0.7676139,
      0.3608112,
      -0.7167606,
      -0.0266415,
      0.5545879,
      0.1072953,
      0.0147418,
      -0.0500857,
      0.2369309,
      -0.5767785,
      -0.8646822,
      0.2667603,
      -0.2928894,
      0.254312,
      0.2082263,
      0.247501,
      0.5808885,
      -0.2064511,
      -0.0622024,
      0.0138147,
      0.1783989,
      0.173331,
      -1.0233122,
      0.4639867,
      -0.5095014,
      0.0377351,
      0.1615828,
      -0.3898713,
      -0.193021,
      -0.225803,
      0.1727123,
      0.0800259,
      0.1557788,
      -0.8126459,
      0.452253,
      0.3563511,
      -0.4991444,
      -0.0620802,
      0.1063192,
      0.206131,
      0.0196071,
      -0.6353454,
      -0.084325,
      -0.1784114,
      -0.4386485,
      -0.2041123,
      0.5081749,
      0.3896524,
      0.2667347,
      0.0504432,
      0.3348014,
      0.1961431,
      0.3132202,
      0.5606157,
      -0.5401975,
      0.584226,
      -0.6896616,
      0.1464797,
      0.4629064,
      0.1160743,
      0.1579183,
      -0.1089989,
      -0.6518357,
      0.0956313,
      0.3816213,
      -0.3552802,
      0.225051,
      -0.2706208,
      0.3441171,
      0.7267182,
      0.0815144,
      0.0841559,
      0.507291,
      0.6978318,
      0.2955741,
      0.1591724,
      -0.4079656,
      0.2833338,
      -0.4317636,
      -0.2249568,
      -0.1626426,
      -0.0297026,
      -0.5920691,
      -0.088042,
      -0.1333718,
      0.3991039,
      0.3485231,
      0.9576453,
      -0.1877157,
      -0.1769275,
      0.6921277,
      0.3409582,
      -0.4836991,
      0.299784,
      -0.2263223,
      0.0410505,
      -0.2800743,
      -0.2104993,
      0.0875722,
      -0.3962542,
      -0.4161307,
      -0.5578347,
      -0.0223877,
      -1.0145955,
      -0.8613032,
      0.2570591,
      -0.4005328,
      -0.4544705,
      0.5975588,
      -0.6423031,
      -0.4089905,
      -0.8355492,
      1.03155,
      0.1189901,
      0.3168788,
      0.3485606,
      -0.0633032,
      -0.2465316,
      0.2080297,
      0.3073168,
      -0.386615,
      -0.4393406,
      0.3867435,
      -0.4853212,
      -0.6151599,
      -0.5247102,
      -0.210638,
      0.0216807,
      0.053547,
      -0.6661311,
      -0.0056232,
      -0.6464185,
      -0.0415126,
      -0.5082176,
      0.0007911,
      -0.353274,
      0.4871326,
      -0.5219626,
      -0.3072727,
      0.1264728,
      -0.1771748,
      0.3961695,
      -0.6977935,
      -0.1022427,
      -0.9925544,
      -0.2310504,
      -0.1881922,
      0.2581992,
      -0.947521,
      -0.2692342,
      0.6177345,
      -0.2234541,
      -0.1921468,
      -0.349428,
      0.4895132,
      -0.3261355,
      1.1102342,
      0.9749473,
      0.1578403,
      -0.5233345,
      0.5184343,
      0.6003472,
      -0.0374532,
      0.2745413,
      0.7967263,
      0.4986091,
      -0.1668128,
      -0.4409832,
      -0.3438648,
      -0.1873161,
      -0.1073135,
      -0.1930649,
      0.5580814,
      0.0552436,
      -0.5616912,
      -0.0112252,
      -0.3535373,
      -0.5042345,
      -0.4724343,
      0.3084093,
      -0.1851872,
      0.4734004,
      0.3381598,
      0.1078854,
      0.3533385,
      1.1508999,
      0.7233725,
      0.4651028,
      0.7321723,
      -0.2455241,
      -0.364328,
      0.0602685,
      0.0547901,
      -0.3410355,
      -0.2214476,
      0.2187576,
      -0.0386059,
      0.8018775,
      0.2603172,
      -0.1833062,
      0.0341994,
      -0.0261208,
      0.4972169,
      0.5160457,
      -0.9545107,
      -0.1532075,
      -0.5922704,
      -0.6753335,
      1.0009578,
      1.0841012,
      0.3538035,
      0.7758864,
      0.3373486,
      -0.1415194,
      0.7980249,
      0.4394561,
      0.0988973,
      -0.3830342,
      -0.9797883,
      0.7289665,
      0.4182178,
      0.5243091,
      -0.350116,
      0.1231983,
      -0.2249431,
      -0.5455839,
      -0.0720086,
      0.2987347,
      0.0011349,
      -0.1090364,
      -0.4136141,
      0.2150849,
      -0.0056795,
      0.8780638,
      0.4745683,
      -0.5444357,
      -1.1321548,
      -0.0074721,
      -0.2779945,
      0.0029558,
      0.1603732,
      -0.0126087,
      -0.2173601,
      -0.3589975,
      -1.0160162,
      -0.1778692,
      0.1509367,
      0.2493287,
      -0.5176763,
      0.6500196,
      -0.7997522,
      0.9303677,
      -0.182409,
      0.021208,
      -0.9490154,
      -0.3225114,
      0.0184679,
      -0.2443323,
      0.7633319,
      0.1932678,
      -0.3612931,
      -0.7628503,
      0.2499613,
      0.0862291,
      0.1177623,
      -0.3507915,
      0.6260003,
      -0.4156636,
      0.5100289,
      0.873372,
      -0.049143,
      -0.1169217,
      0.0152365,
      0.0614181,
      0.3315996,
      0.3942955,
      -0.5881267,
      0.2915044,
      0.6243045,
      -0.2337993,
      -0.8512269,
      -0.4412172,
      -0.1999039,
      0.2221152,
      0.7681458,
      -0.1172214,
      0.215011,
      -0.0413773,
      0.6162401,
      0.9954631,
      0.1799186,
      -0.5533057,
      -0.2102253,
      -0.0870594,
      -0.0650036,
      1.3566195,
      0.3490358,
      0.2229639,
      -0.307916,
      -0.0813359,
      -0.2780248,
      0.5342045,
      0.0464347,
      -0.4234865,
      0.5386278,
      0.0131159,
      0.1935738,
      0.6011763,
      -0.3828863,
      -0.4419489,
      -0.7887018,
      0.9841088,
      0.5661954,
      0.6229529,
      -0.1615234,
      -0.3339389,
      0.67068,
      0.1360985,
      0.13931,
      -0.4580322,
      -0.3363039,
      -0.142548,
      0.0910628,
      -0.2195737,
      0.0771183,
      -0.0500628,
      0.4180852,
      0.3607646,
      0.4234116,
      -0.9151861,
      -0.2297626,
      0.0465552,
      -0.0171468,
      -1.1609494,
      -0.4832193,
      0.1752551,
      0.3176748,
      0.3493798,
      -0.6757998,
      -0.4211253,
      0.1499284,
      0.3244736,
      0.1899061,
      0.0704695,
      -0.0537306,
      0.8064082,
      0.5009029,
      0.5937374,
      0.0933515,
      -0.0224481,
      -0.4645106,
      0.4220665,
      0.1778091,
      -0.1441017,
      0.2682248,
      -0.1729482,
      0.0851246,
      -0.4326147,
      -0.2122584,
      0.4013973,
      0.3662613,
      -0.2633142,
      -0.0412192,
      -0.5616601,
      0.302005,
      0.9719781,
      0.7812793,
      -0.6835189,
      0.1239693,
      0.0274724,
      -0.1855831,
      0.5237702,
      -0.2961476,
      0.5651207,
      0.0740056,
      0.3910495,
      0.3907773,
      -0.2105482,
      0.3766913,
      0.5714447,
      0.9753327,
      0.0324964,
      0.8213791,
      -0.0958854,
      -0.039344,
      -0.1317241,
      0.7536385,
      -0.4445732,
      0.1098663,
      0.3817285,
      -0.188535,
      -0.0687974,
      0.1611204,
      0.2431907,
      0.0452622,
      -0.357299,
      0.2271809,
      -0.0162349,
      -0.4369204,
      -0.0803407,
      -0.3192373,
      0.5768055,
      -0.0245711,
      -0.1827911,
      0.4182074,
      -0.0855654,
      0.0249526,
      0.1561831,
      0.0035853,
      0.2195861,
      0.0788516,
      0.0593348,
      0.0223027,
      0.1903687,
      -0.2306895,
      -0.2473839,
      0.3821976,
      0.0517673,
      0.1976206,
      -0.2490143,
      -0.2879638,
      0.049133,
      -0.2055763,
      -0.2862423,
      0.1065667,
      0.1595515,
      -0.3368871,
      0.0405355,
      0.0755939,
      -0.0056624,
      -0.2092752,
      -0.0623255,
      0.1708283,
      -0.1161586,
      0.5097285,
      -0.1963873,
      0.2847601,
      0.0868953,
      -0.1653933,
      -0.0765675,
      -0.122596,
      0.2215198,
      0.1973957,
      -0.0535053,
      0.2518603,
      -0.0644079,
      -0.1403187,
      0.1089029,
      -0.2739289,
      0.3805282,
      0.251286,
      0.4085912,
      0.140302,
      -0.1048409,
      0.3713694,
      -0.6569528,
      0.2524383,
      0.2968476,
      -0.60802,
      -0.0345564,
      -0.1360628,
      -0.0762588,
      -0.1472724,
      -0.0201823,
      0.0355802,
      0.077314,
      0.0174809,
      0.05088,
      0.5073802,
      -0.2047331,
      -0.1163573,
      0.0939962,
      -0.5737081,
      0.182077,
      -0.1052466,
      0.0609833,
      -0.1514567,
      0.1319588,
      0.3007591,
      -0.234252,
      0.2276876,
      -0.2443823,
      -0.0236969,
      -0.3951043,
      0.3533603,
      0.1158809,
      -0.1278094,
      0.0977813,
      0.3045777,
      -0.404071,
      -0.0692142,
      0.1346598,
      -0.028518,
      0.1775418,
      -0.1853156,
      0.1901708,
      0.0384315,
      0.3120355,
      0.2743141,
      0.2015577,
      -0.1620347,
      -0.0381655,
      0.2138392,
      -0.3557727,
      0.1028429,
      0.2448078,
      0.3280808,
      -0.2097068,
      0.1053514,
      0.242378,
      0.1541896,
      -0.2877248,
      -0.1698519,
      0.1415035,
      0.0448741,
      0.4245969,
      -0.4043352,
      -0.0588084,
      -0.2204212,
      0.0292045,
      0.4511396,
      0.3136981,
      -0.0465827,
      -0.2832079,
      0.0307278,
      -0.360166,
      0.295021,
      0.2523388,
      -0.3155372,
      0.1315738,
      -0.2495539,
      -0.4305076,
      -0.0497069,
      -0.0783385,
      0.2230292,
      0.3657824,
      -0.1283138,
      -0.0957551,
      0.0371402,
      -0.3810621,
      0.3174406,
      0.0495942,
      0.1279029,
      -0.0647739,
      0.2746513,
      -0.0184123,
      -0.090574,
      -0.314844,
      -0.4235046,
      0.2704788,
      -0.2827417,
      -0.0402105,
      0.1354431,
      -0.327001,
      -0.3746051,
      -0.130142,
      -0.3628226,
      -0.0794079,
      0.0486085,
      -0.1807638,
      -0.3620157,
      0.168835,
      0.1006702,
      0.016192,
      0.0165661,
      -0.236573,
      0.2567062,
      -0.02631,
      -0.4296106,
      -0.0173031,
      -0.1245239,
      0.0804885,
      -0.2475441,
      0.3504074,
      0.2209474,
      -0.5097111,
      -0.0281458,
      0.0081075,
      0.115881,
      0.211514,
      0.1572376,
      -0.0838471,
      0.1736858,
      -0.2424015,
      -0.073701,
      -0.0847894,
      0.0519252,
      -0.1883538,
      -0.2262108,
      0.1317869,
      -0.0921811,
      0.188107,
      0.1813285,
      0.0401681,
      0.1086482,
      -0.2252135,
      -0.0926429,
      -0.102368,
      0.2464578,
      -0.115532,
      -0.1994437,
      0.3912618,
      -0.3759827,
      -0.1764495
    ],
    "weights_out": [
      -0.5369898,
      -0.893635,
      0.9582581,
      -0.1128916,
      -0.679735,
      0.7038372,
      -0.4843872,
      0.1338727,
      -0.3152384,
      0.0962866,
      0.2485849,
      -0.3487006,
      -0.0009486,
      -0.4720709,
      -1.3188005,
      0.2706857,
      -0.4507193,
      -0.0590964,
      0.8537878,
      1.0616459,
      0.1739541,
      0.4033549,
      -0.7803497,
      -0.4484562,
      0.7881102,
      -0.2729239,
      -0.0234817,
      0.117074,
      -0.6562918,
      0.1410891,
      -0.2294101,
      0.9560396,
      0.2238304,
      -0.3790664,
      0.3904523,
      0.0591807,
      -0.847111,
      -0.222974,
      -0.4347749,
      0.2495398,
      0.1704995,
      -0.2278644,
      0.0630502,
      0.5990654,
      0.1660763,
      -0.0234572,
      -0.7962397,
      -0.2552731,
      -0.8596522,
      0.0937411,
      0.9293143,
      0.1736632,
      -0.2535024,
      0.1382114,
      0.1460746,
      0.1009845,
      -0.0002103,
      1.0661608,
      -0.191893,
      0.2727657,
      0.2545117,
      0.0325743,
      -0.6991064,
      -0.5063774,
      0.9749554,
      0.133603,
      -0.0997531,
      -0.2779134,
      0.1137744,
      0.1221044,
      0.6856516,
      -0.4683247,
      -0.0475551,
      -0.3305325,
      -0.1840935,
      -0.7693477,
      0.6859085,
      -0.6092908,
      -0.6850841,
      0.2279367,
      0.2694936,
      0.2124943,
      -0.2717873,
      -0.1254224,
      -0.5607777,
      -0.5567734,
      -0.1434756,
      0.5093213,
      0.1754645,
      0.2138475,
      0.0197482,
      0.9457367,
      0.2891914,
      -0.028283,
      0.1447909,
      -0.0448639,
      -0.1402916,
      -0.0970464,
      0.8024191,
      0.0075714,
      0.2504458,
      -0.4533082,
      0.9436478,
      0.0832782,
      -0.1036722,
      0.2377601,
      0.0387812,
      -0.4138795,
      -0.7668979,
      -0.0883084,
      -0.3079583,
      0.0116449,
      0.138955,
      0.1372903,
      0.3542238,
      -0.4471792,
      0.5911361,
      -0.4158575,
      0.4294726,
      1.0639902,
      -0.1223878,
      -0.2883756,
      0.2782335,
      0.3688902,
      0.3865103,
      0.1006728,
      0.2049856,
      0.2161387,
      -0.2375226,
      0.0108526,
      0.3697422,
      -0.0610467,
      -0.3504946,
      -0.8414954,
      0.3000336,
      0.4533495,
      0.1821018,
      0.2695588,
      -0.0262956,
      -0.046929,
      0.448261,
      -0.730752,
      -0.0187988,
      -0.9565089,
      0.4118241,
      -0.3713174,
      0.0799809,
      -0.3222494,
      -0.1685705,
      -0.4880104,
      0.1805036,
      0.3017375,
      0.1989439,
      -0.0828846,
      -0.1398772,
      0.2537209,
      0.5807498,
      -0.328681,
      -0.2239799,
      -0.1452354,
      0.8061035,
      0.9645604,
      0.5095369,
      0.6277221,
      0.4050867,
      -0.0249322,
      -0.1122919,
      -0.0981174,
      -0.8302793,
      -0.1327042,
      -0.0798008,
      0.713523,
      -0.7329513,
      -0.1860307,
      0.308333,
      -0.1539876,
      0.1199526,
      0.1878004,
      -0.0944932,
      -0.0005926,
      0.1962026,
      -0.2715631,
      -0.6136747,
      -0.0471467,
      -0.0755017,
      0.3198237,
      0.2326332,
      -0.6897944,
      -0.9719874,
      0.0799583,
      0.1180723,
      0.1859409,
      -0.6168341,
      -0.0434986,
      0.0543745,
      -0.1365161,
      -0.1232954,
      0.6378031,
      -0.4730978,
      -0.5289875,
      0.1408777,
      0.0677543,
      0.150055,
      -1.0168264,
      -0.7755305,
      0.1587646,
      -0.3709937,
      -0.1054259,
      0.0394682,
      -0.0528878
    ]
  },
  "brain_template": {
    "attention_bias": [
      3.1838748,
      2.7093233,
      2.871716,
      3.1414678,
      2.967229,
      2.9730097,
      3.030456,
      3.2004997,
      3.1270111,
      2.9086966,
      2.9068989,
      2.9945786,
      2.912246,
      3.0251071,
      2.9149497,
      2.9926459,
      2.8437724,
      2.9225539,
      2.9438053,
      2.9367276,
      2.915115,
      3.1164107,
      2.8635,
      2.9719119,
      3.0593771,
      3.1235122,
      3.0664543,
      2.8854673,
      2.8515784,
      2.8116113,
      3.022306,
      3.0361942,
      3.118868,
      3.1527706,
      2.8999955,
      3.1523905,
      2.8918807,
      2.9420485,
      2.7966454,
      3.0665049,
      3.0688845,
      2.8689613,
      3.0739728,
      2.9384551,
      3.0836051,
      3.0783058,
      2.9190854,
      3.0427498,
      3.0564906,
      2.677104,
      3.0214127,
      3.0025529,
      2.9870539,
      3.0960899,
      2.9907375,
      2.9296421,
      2.9543073,
      3.0589146,
      3.0304535,
      3.0251617,
      2.9075373,
      3.013748,
      2.9305295,
      3.0545058,
      2.8829652,
      2.8892003,
      3.0310698,
      2.9608126,
      2.9292165,
      2.8558362,
      2.8253888,
      3.13667
    ],
    "attention_weights": [
      -0.2939351,
      -0.1951494,
      -0.0024599,
      -0.035529,
      -0.2262648,
      0.1037413,
      -0.1831499,
      0.1729081,
      0.1400094,
      0.0185747,
      -0.1790585,
      0.1783722,
      -0.0120914,
      0.1846911,
      -0.0589398,
      0.1570483,
      0.2010618,
      0.0751415,
      0.1879047,
      -0.008427,
      -0.3024735,
      -0.0978175,
      -0.0615618,
      0.0777499,
      0.1592675,
      0.0858971,
      -0.0960661,
      0.0653142,
      -0.0868701,
      0.0881079,
      -0.1738244,
      0.0296174,
      0.0324798,
      0.0014267,
      0.1987269,
      -0.0438185,
      -0.1154835,
      -0.0006032,
      -0.1093599,
      -0.180465,
      -0.0276607,
      -0.1657801,
      0.439022,
      -0.1158088,
      -0.0131507,
      -0.3452241,
      0.2663721,
      0.0561844,
      -0.0329768,
      -0.031131,
      0.0588439,
      0.058707,
      -0.1678326,
      0.008094,
      -0.0367538,
      -0.2003311,
      -0.196269,
      -0.0319888,
      0.0073053,
      0.1198313,
      0.0362861,
      0.0217527,
      0.1121851,
      -0.0447408,
      0.0750537,
      -0.02578,
      -0.1994048,
      0.0460014,
      0.1597433,
      0.0984127,
      0.0607893,
      -0.4064424,
      -0.1816454,
      0.0031952,
      -0.2602422,
      0.1774842,
      -0.0758298,
      -0.2886509,
      -0.0121488,
      -0.2336551,
      -0.0148556,
      0.0791451,
      0.0367833,
      -0.1362258,
      0.0965692,
      0.0760699,
      0.1334594,
      -0.1687682,
      0.0989983,
      -0.0336299,
      -0.0955943,
      -0.4505176,
      -0.0680847,
      0.0226122,
      0.0797748,
      -0.0954305,
      0.1135867,
      -0.0358983,
      0.0104119,
      0.2797639,
      0.0388492,
      0.0146,
      -0.2408748,
      -0.0922248,
      -0.0385222,
      0.2627471,
      0.1020353,
      -0.1394107,
      0.1506537,
      -0.16291,
      -0.2481025,
      0.0082016,
      0.0586276,
      0.0522974,
      0.160636,
      0.3429547,
      -0.0403278,
      0.1112143,
      -0.2693288,
      0.3536122,
      0.0196569,
      -0.1250362,
      0.3002505,
      -0.1265822,
      0.1835626,
      -0.093669,
      0.0958635,
      0.0215993,
      -0.1325809,
      -0.0512911,
      -0.1011261,
      0.1152249,
      -0.1385084,
      -0.1406741,
      -0.0642513,
      0.1880579,
      0.3727575,
      0.0542522,
      0.1042157,
      0.0693729,
      0.258821,
      -0.144132,
      0.07855,
      0.1143211,
      0.2199429,
      -0.1836361,
      -0.0021792,
      -0.0886305,
      -0.0139007,
      -0.006108,
      -0.1335807,
      -0.0409679,
      0.069885,
      -0.1525655,
      -0.0808737,
      0.0679994,
      0.2845402,
      0.384045,
      -0.2100586,
      0.1446406,
      0.0222432,
      0.015806,
      0.1588185,
      -0.044104,
      0.1022087,
      0.003566,
      0.2672612,
      -0.1627538,
      -0.0350597,
      -0.247737,
      0.0751592,
      0.1600478,
      -0.0139925,
      0.2027967,
      -0.3024755,
      0.2583663,
      0.0343807,
      0.202789,
      -0.0519825,
      -0.1333823,
      -0.2385003,
      -0.0722971,
      -0.3076506,
      0.2467762,
      -0.1794174,
      -0.0356272,
      -0.3216786,
      -0.0576449,
      -0.1309685,
      -0.1179923,
      0.1425121,
      0.2395048,
      0.1936436,
      0.0604392,
      0.0430136,
      0.0956688,
      0.033551,
      0.0343778,
      -0.1480733,
      -0.1732929,
      0.1014302,
      0.110445,
      -0.1611948,
      0.2268077,
      -0.0856596,
      0.0213477,
      -0.1014456,
      0.484707,
      0.1951803,
      -0.2035078,
      -0.0111631,
      0.3316994,
      -0.2855101,
      0.0366566,
      0.0629178,
      -0.1139521,
      -0.0432184,
      0.1461885,
      0.0011947,
      -0.1496866,
      0.0626523,
      -0.1087736,
      -0.0756448,
      0.1201072,
      -0.0799533,
      -0.1352611,
      -0.0920999,
      0.0132843,
      -0.1085472,
      0.2580338,
      0.1910617,
      0.0296589,
      0.0199148,
      -0.1080761,
      -0.179311,
      0.0447447,
      0.1745248,
      0.0333388,
      0.0160966,
      0.152332,
      0.0111492,
      -0.0335715,
      0.13703,
      -0.1938312,
      -0.1951432,
      -0.2531033,
      0.2105022,
      0.0890228,
      0.0838547,
      -0.1053802,
      0.0639212,
      0.2037517,
      -0.1681053,
      -0.2389767,
      -0.4436389,
      0.1014141,
      0.0723104,
      0.0229355,
      0.0217625,
      -0.2024793,
      0.1126341,
      -0.000263,
      0.1313554,
      -0.1569085,
      0.0902486,
      0.0578378,
      0.1744879,
      0.0298609,
      -0.0032369,
      0.236506,
      0.0853478,
      0.0270537,
      -0.1440414,
      0.151152,
      0.093094,
      -0.0547141,
      0.279317,
      0.1209043,
      0.0999157,
      -0.2236914,
      0.0281884,
      -0.110672,
      0.0339094,
      -0.0402373,
      0.0342431,
      -0.1512005,
      0.0242944,
      0.076865,
      0.0384982,
      -0.0050631,
      0.0323595,
      0.0644527,
      0.0620038,
      0.0511006,
      0.0295948,
      0.2345482,
      -0.0727163,
      -0.0864799,
      -0.1084123,
      -0.0547473,
      -0.004785,
      0.1285228,
      -0.0396022,
      -0.0635958,
      0.1926994,
      -0.1542401,
      0.1868317,
      -0.0535222,
      -0.0246063,
      -0.0107318,
      0.0772697,
      0.06579,
      0.0641431,
      0.1919089,
      0.1057133,
      0.2284717,
      0.1422385,
      -0.2087089,
      0.0382224,
      0.1303975,
      0.0146927,
      0.1824996,
      0.0044969,
      0.2419724,
      0.0298921,
      0.0911956,
      -0.0416471,
      0.2994228,
      0.2704361,
      -0.429761,
      0.1635008,
      0.1239124,
      -0.0350835,
      0.0042701,
      0.0132752,
      -0.1946684,
      0.1932749,
      0.1737178,
      0.1917626,
      0.3802461,
      0.1093672,
      0.0070027,
      0.0496692,
      -0.0760642,
      -0.0924926,
      -0.0809383,
      -0.070976,
      -0.1729578,
      -0.0543741,
      0.0154599,
      -0.0430487,
      -0.195113,
      -0.0258216,
      0.0543536,
      -0.0599307,
      0.1510582,
      -0.2392708,
      -0.0314114,
      -0.3377964,
      0.0328589,
      -0.0142452,
      0.0227428,
      -0.1646536,
      0.0706593,
      -0.066184,
      -0.0492042,
      0.0174997,
      -0.2789127,
      -0.1712115,
      -0.3696659,
      -0.0573501,
      -0.1777603,
      -0.1669325,
      0.0120587,
      -0.1466629,
      -0.057739,
      0.0059666,
      -0.0590133,
      -0.0329374,
      -0.0886048,
      -0.1535364,
      -0.0169802,
      -0.2654188,
      -0.1977379,
      0.0862703,
      0.0611438,
      0.0833267,
      0.0608149,
      -0.0789792,
      0.1152459,
      0.0422395,
      -0.0429748,
      0.1068172,
      -0.0285953,
      0.0822814,
      0.0564192,
      0.233586,
      -0.2343864,
      -0.1698199,
      0.0785061,
      -0.0928724,
      -0.0153628,
      0.1603864,
      -0.1117119,
      -0.0276824,
      0.0427159,
      0.1570299,
      0.2010717,
      0.0627772,
      -0.0650581,
      0.022756,
      -0.2090375,
      0.0098943,
      0.148857,
      0.0372703,
      -0.1134713,
      0.1119053,
      0.1126256,
      0.1174516,
      -0.0828625,
      -0.1729675,
      -0.1122688,
      0.0288526,
      -0.0971426,
      0.1558943,
      -0.0579978,
      0.0781832,
      0.1124854,
      -0.173972,
      -0.1116173,
      0.4979458,
      -0.1427323,
      0.076828,
      0.0071311,
      0.1970325,
      -0.2142029,
      0.1075273,
      0.1534869,
      0.0589093,
      -0.0462254,
      -0.1673068,
      0.2470213,
      -0.4736165,
      -0.1251527,
      0.1940763,
      0.3884554,
      0.0743802,
      0.165913,
      -0.1394204,
      0.1280852,
      -0.0542432,
      -0.1251226,
      -0.1953491,
      0.048989,
      0.1270407,
      0.0144284,
      -0.1309945,
      0.1447865,
      -0.1708798,
      -0.1034024,
      -0.0100901,
      -0.1446261,
      0.101718,
      0.1207092,
      -0.2176599,
      -0.2426899,
      0.0282604,
      -0.0512533,
      -0.1760143,
      0.0476105,
      0.054216,
      -0.1110271,
      0.0671112,
      -0.0526521,
      -0.2365531,
      0.1672389,
      0.0092556,
      0.0671201,
      0.4168748,
      0.1908024,
      0.0524474,
      0.0203318,
      -0.1170296,
      -0.0636848,
      -0.0537,
      0.2505427,
      -0.4788518,
      0.1716016,
      0.0547119,
      0.1300241,
      0.3638581,
      -0.1276037,
      -0.0413939,
      0.0505407,
      -0.0297511,
      -0.0194626,
      0.0847798,
      0.0793713,
      -0.3278022,
      0.1553331,
      0.1195132,
      -0.1085066,
      0.0311248,
      -0.1378914,
      -0.0394777,
      -0.0472568,
      0.1500795,
      0.0237223,
      0.1755045,
      -0.1216512,
      -0.0828598,
      0.2621191,
      0.0126456,
      0.0335017,
      0.0197089,
      0.1518211,
      0.2131037,
      0.252775,
      -0.0469993,
      -0.142986,
      -0.0623696,
      -0.062191,
      0.0458089,
      0.1763662,
      0.075524,
      -0.0988907,
      0.2330242,
      -0.1686911,
      -0.1346695,
      -0.0076774,
      0.2409117,
      -0.1244908,
      0.0553045,
      -0.0016442,
      -0.3195236,
      -0.1880965,
      0.0696995,
      0.1536463,
      -0.0689789,
      0.0667005,
      0.2954575,
      -0.0352195,
      0.0988689,
      0.0661985,
      -0.1757511,
      0.0651841,
      -0.1303484,
      -0.1696452,
      0.0442137,
      -0.0220458,
      -0.0857307,
      0.0872073,
      0.1161385,
      -0.1214174,
      0.2052248,
      0.0968613,
      -0.0996278,
      0.0325698,
      -0.1477262,
      -0.0468495,
      -0.1205638,
      0.072313,
      -0.0675569,
      -0.0599446,
      -0.2796721,
      0.003764,
      -0.0992326,
      0.2189549,
      0.2028018,
      0.0991256,
      -0.082538,
      -0.1328954,
      -0.1789763,
      -0.0107207,
      0.0418463,
      0.0252807,
      -0.2451815,
      0.0374852,
      -0.218458,
      0.3552962,
      -0.1893819,
      0.2524684,
      -0.1391525,
      -0.1234835,
      0.188432,
      0.0552065,
      -0.0607719,
      -0.0400502,
      0.1921302,
      0.1729074,
      0.0976371,
      -0.0831048,
      -0.1806812,
      -0.0113847,
      -0.0076803,
      -0.0213043,
      -0.0280104,
      0.0839218,
      0.1043761,
      -0.0739438,
      -0.1282242,
      -0.0543981,
      0.1250635,
      0.0313872,
      -0.1204597,
      0.0530483,
      -0.041699,
      0.3757005,
      0.111327,
      0.1409858,
      -0.0875852,
      0.0541504,
      -0.212677,
      -0.182171,
      -0.0891694,
      0.1195281,
      0.1068241,
      0.0343347,
      0.2221358,
      0.1283939,
      0.1540489,
      0.0335076,
      -0.1463092,
      -0.0880113,
      -0.2257046,
      0.2632022,
      -0.3393049,
      -0.0735567,
      -0.2268778,
      -0.1347686,
      0.3303911,
      0.0014072,
      0.0989744,
      -0.3684765,
      0.005162,
      -0.0277741,
      0.0870178,
      0.0816892,
      -0.1431768,
      -0.1101233,
      -0.0612827,
      -0.0915661,
      0.1098118,
      -0.1334623,
      0.1281726,
      0.1356022,
      -0.1093255,
      -0.1719775,
      -0.1037788,
      -0.2821118,
      0.0063735,
      0.0168931,
      -0.0293508,
      0.1911606,
      -0.0261192,
      -0.0161239,
      -0.0159948,
      0.4398821,
      -0.2823039,
      0.246242,
      0.0655824,
      0.1516026,
      -0.1312077,
      0.057016,
      0.0630487,
      0.0347759,
      0.1090584,
      0.2510282,
      0.0901701,
      -0.0933324,
      -0.0894005,
      -0.1504508,
      -0.2586896,
      0.1467395,
      0.0686416,
      0.0972754,
      0.0678362,
      -0.0661709,
      -0.2258867,
      -0.038292,
      0.0365105,
      0.1363086,
      -0.2455892,
      -0.0286185,
      -0.074865,
      -0.1105127,
      0.2248465,
      0.2397287,
      0.0026972,
      0.0314743,
      0.0377726,
      0.0100279,
      0.0214939,
      0.2981665,
      -0.2349436,
      -0.0357095,
      0.2734961,
      0.0414608,
      0.0257342,
      -0.0370899,
      0.2281134,
      0.0070359,
      -0.1490261,
      -0.1472117,
      0.236117,
      0.1455593,
      -0.1235696,
      -0.0440754,
      0.3435533,
      0.2417116,
      0.0905666,
      0.1080847,
      0.1174876,
      -0.1367897,
      -0.0904852,
      -0.1487432,
      -0.0991092,
      -0.146575,
      -0.0660388,
      -0.3906136,
      0.1096618,
      0.1695796,
      0.123425,
      -0.0792236,
      0.134279,
      -0.0748507,
      0.0327701,
      0.1563537,
      -0.1190695,
      0.0366652,
      0.2046559,
      -0.0788963,
      -0.1258581,
      -0.0245453,
      -0.0422901,
      0.0329032,
      0.1112071,
      0.0818101,
      -0.0053108,
      0.1446935,
      -0.0051749,
      0.2218101,
      -0.0153945,
      0.2282572,
      0.1409666,
      0.1776708,
      0.0075572,
      -0.2583925,
      -0.1682913,
      0.0305496,
      0.3783704,
      0.1363816,
      0.2044047,
      -0.1298995,
      -0.3292704,
      -0.2438374,
      -0.0514871,
      0.1375664,
      -0.3431598,
      0.0231663,
      0.0781475,
      -0.1215113,
      0.0175393,
      0.0807188,
      0.1717597,
      -0.2253178,
      -0.0135791,
      -0.0010696,
      -0.0419346,
      -0.0627008,
      0.1961279,
      0.0844329,
      -0.1441325,
      0.1104991,
      0.0204765,
      -0.225508,
      -0.1730622,
      -0.0877458,
      -0.0560692,
      -0.0706703,
      0.3940713,
      0.0801047,
      -0.0191094,
      -0.0406965,
      -0.1888584,
      -0.2010737,
      0.0399619,
      0.0341451,
      0.0636344,
      0.3327067,
      0.1689826,
      0.1467276,
      -0.3438395,
      0.3287983,
      -0.0096035,
      0.1506855,
      0.0699405,
      0.162667,
      0.1535196,
      0.0999098,
      -0.052308,
      0.0891234,
      -0.0589321,
      0.0196668,
      -0.0515761,
      -0.1496698,
      0.0576017,
      0.1395298,
      -0.1687159,
      0.1458309,
      0.1135387,
      0.0249304,
      0.0318805,
      -0.2576394,
      -0.0101288,
      0.1717558,
      -0.3543319,
      0.0450376,
      -0.0333777,
      -0.1073928,
      0.0052703,
      0.0164443,
      0.0816987,
      0.07627,
      0.0245544,
      0.1568181,
      -0.0015211,
      -0.0061391,
      -0.0637405,
      0.0148338,
      -0.0598028,
      -0.1049781,
      -0.0061707,
      -0.1984118,
      0.1455712,
      0.0644433,
      0.027106,
      0.0707724,
      0.0644428,
      0.0373156,
      0.1663008,
      -0.0507266,
      0.0783278,
      -0.0362955,
      0.2239394,
      -0.0251677,
      0.106058,
      -0.1186475,
      -0.0732334,
      0.0936671,
      0.057396,
      0.2312075,
      0.0881563,
      0.0899204,
      -0.0490685,
      -0.0149985,
      -0.0745822,
      -0.0420514,
      -0.0445254,
      -0.1181661,
      -0.1014218,
      -0.1367889,
      0.1164,
      -0.1521531,
      0.0325502,
      -0.1556541,
      0.0413713,
      -0.0688802,
      -0.0635651,
      -0.0818983,
      0.2009827,
      -0.000917,
      0.0950274,
      0.0296373,
      -0.0130817,
      0.1470537,
      -0.0636745,
      0.4609855,
      0.2109811,
      -0.0129955,
      -0.1559295,
      0.3540223,
      0.0261175,
      -0.0903419,
      0.1401012,
      0.0455246,
      -0.146755,
      -0.0286813,
      -0.0739621,
      -0.059529,
      -0.2651852,
      0.0592694,
      -0.0854182,
      -0.115866,
      -0.3303293,
      0.1483063,
      -0.0294169,
      0.0317225,
      0.0735571,
      0.0385033,
      -0.1050822,
      0.0474916,
      -0.0765791,
      0.1481633,
      0.203297,
      0.1248549,
      -0.4190467,
      -0.1460674,
      0.3124414,
      0.1752812,
      -0.1041449,
      0.1962039,
      0.2115803,
      0.1790225,
      0.1497253,
      -0.020819,
      -0.1282859,
      -0.1944285,
      0.1346963,
      0.0283625,
      0.0753771,
      0.2029799,
      0.1049227,
      -0.183048,
      -0.0610782,
      0.0521696,
      0.0041543,
      -0.0781402,
      -0.1947304,
      0.0492132,
      0.0250694,
      0.2186972,
      -0.0120575,
      -0.0805685,
      -0.1600339,
      0.1669533,
      -0.0833656,
      0.0546983,
      0.130401,
      -0.3088925,
      -0.3379812,
      -0.029287,
      0.0488344,
      -0.0286774,
      -0.2698071,
      0.0662413,
      0.0653247,
      -0.1451094,
      -0.046714,
      0.1273055,
      0.0254536,
      0.1387094,
      -0.0561223,
      -0.0936453,
      0.1316726,
      -0.2052664,
      0.1538198,
      0.0216574,
      0.0408766,
      0.0849456,
      -0.1764052,
      0.2239173,
      -0.3920741,
      0.1658527,
      -0.0380577,
      0.1083921,
      0.3895064,
      -0.0395748,
      -0.1260219,
      0.0070495,
      0.1095744,
      0.1327711,
      0.0954791,
      0.1792357,
      0.0177341,
      0.0424688,
      -0.0462801,
      0.2287331,
      0.1205603,
      -0.0836906,
      -0.1790489,
      -0.3314647,
      -0.2472096,
      -0.1146767,
      -0.0432676,
      0.1333687,
      0.0133818,
      0.1055077,
      0.3757072,
      -0.1511653,
      -0.0274829,
      -0.0339464,
      0.0980613,
      0.0599163,
      -0.0093345,
      -0.051964,
      0.0302197,
      0.0818601,
      -0.0004258,
      -0.0020871,
      0.1729178,
      -0.0536297,
      -0.1894406,
      -0.1795129,
      0.0116256,
      0.0326195,
      0.0627297,
      0.0669323
    ],
    "auxiliary_prediction_weights": {
      "damage": [
        -0.2021288,
        -0.2342516,
        -0.0008104,
        0.2456707,
        0.396157,
        0.1055094,
        0.0676602,
        0.0715222,
        -0.027721,
        -0.2862061,
        0.3276522,
        0.0557689,
        -0.002836,
        -0.1678095
      ],
      "hazard": [
        0.4849227,
        0.5408996,
        -0.1356945,
        0.6742379,
        -0.1114834,
        -0.2631324,
        0.3384653,
        0.2795651,
        -0.5038307,
        -0.3016122,
        -0.1612643,
        -0.0407985,
        -0.2733295,
        -0.0397826
      ],
      "reproduction": [
        -0.2584538,
        0.195672,
        -0.3488888,
        -0.9340946,
        -0.3865574,
        0.2361592,
        0.4532244,
        -0.255574,
        0.1545846,
        -0.5401966,
        -0.4602791,
        0.0789588,
        -0.0840806,
        0.1716536
      ],
      "social": [
        -0.3712229,
        0.4469584,
        -0.0267198,
        -0.4702517,
        -0.1236592,
        0.1318293,
        -0.4997163,
        0.4251766,
        -0.8195122,
        0.4321193,
        -0.0742519,
        0.1639816,
        -0.0987325,
        -0.0933403
      ],
      "tool": [
        0.430405,
        -0.0972374,
        0.0472767,
        -0.0716341,
        0.0563019,
        0.1804504,
        0.6002263,
        0.0409735,
        -0.1368922,
        0.2591388,
        0.4858958,
        -0.1161553,
        -0.0829336,
        0.1740999
      ]
    },
    "bias_h": [
      -0.1112589,
      0.0196342,
      -0.0614754,
      0.0623308,
      -0.0223262,
      0.0289916,
      0.1254485,
      -0.0471909,
      -0.0854223,
      0.171035,
      -0.1289625,
      0.0183459,
      -0.0449405,
      0.0001309
    ],
    "bias_o": [
      0.0073753,
      -0.0412671,
      0.1829697,
      0.0634291,
      0.0295658,
      -0.0141762,
      0.0690718,
      -0.0256416,
      0.0245809,
      -0.0119452,
      0.1147125,
      -0.0388927,
      -0.0719585,
      -0.062672,
      0.0947358
    ],
    "hidden_size": 14,
    "input_size": 72,
    "output_size": 15,
    "prediction_weights": [
      -0.2989506,
      -0.1033136,
      -0.1707336,
      0.1512392,
      1.0533005,
      -0.6692486,
      -0.2498381,
      -0.2853239,
      -0.0337908,
      -0.272344,
      0.5261254,
      -0.4566229,
      -0.3816461,
      -0.0315261
    ],
    "weights_in": [
      0.0508479,
      -0.4413876,
      0.1698204,
      -0.5401121,
      -0.8732643,
      -0.3098732,
      0.2815047,
      -0.2538003,
      0.0736059,
      -0.3102616,
      0.0229879,
      0.241178,
      0.5081252,
      -0.0382535,
      -0.8021538,
      -0.2903258,
      -0.0921378,
      -0.6864986,
      -0.3710273,
      -0.0069165,
      0.2058803,
      0.6857704,
      0.1238113,
      -0.0869386,
      0.2889728,
      0.4838214,
      -0.021989,
      0.5133859,
      0.1594503,
      0.5168671,
      0.2618713,
      0.326529,
      0.6047759,
      -0.0744297,
      0.3553645,
      0.7159519,
      -0.0452567,
      -0.0083892,
      0.0411813,
      0.207499,
      -0.7742887,
      -0.9242815,
      -0.0149013,
      -0.4005428,
      0.33972,
      0.1568159,
      0.7840097,
      -0.2139356,
      0.2131804,
      0.3791118,
      0.0172478,
      0.0026258,
      0.051426,
      -1.4321561,
      -0.1286833,
      0.4993406,
      -0.3123442,
      0.7690154,
      -0.438394,
      0.4993487,
      -0.0428095,
      -0.2961745,
      -0.8772632,
      0.3750393,
      0.5001413,
      0.1529002,
      0.2386253,
      0.4780145,
      -0.3945191,
      0.0446799,
      -0.4177147,
      -0.2415556,
      -0.0276102,
      -0.1208121,
      0.2228436,
      0.0087102,
      -0.4853424,
      0.2936877,
      0.4447172,
      0.5050846,
      -0.6732028,
      0.3964348,
      -0.3937279,
      0.2437387,
      0.1381107,
      -0.0078375,
      0.391678,
      -0.0285736,
      -0.4091709,
      -0.8007582,
      0.6709625,
      1.2503395,
      0.4075036,
      -0.548027,
      0.01903,
      0.1697096,
      -0.4461281,
      0.3394345,
      0.8539922,
      -0.4427238,
      -0.1726631,
      0.1607887,
      0.8075213,
      1.1225261,
      -0.2691305,
      -0.2121312,
      0.5911479,
      -0.3347073,
      -0.0386552,
      -0.4535926,
      -0.3314224,
      0.4209881,
      -0.5715113,
      -0.6375249,
      -0.3820883,
      0.3145257,
      0.1185775,
      -0.3011027,
      -0.6692243,
      -0.6077454,
      0.3397078,
      -1.2194125,
      0.1922477,
      -0.6942075,
      0.6746654,
      0.3437883,
      0.2465924,
      0.4482487,
      -0.3585901,
      0.6313269,
      -0.0566116,
      0.5734629,
      -0.9070059,
      -0.6807833,
      -0.5949091,
      -0.1742123,
      0.1882055,
      -0.4244287,
      -0.081802,
      0.2877044,
      -0.3693865,
      0.915601,
      0.532024,
      -0.0941333,
      0.2809975,
      0.7087818,
      -0.6080289,
      -1.162202,
      0.5624025,
      0.2909433,
      0.5914304,
      0.6755119,
      -0.2699114,
      -0.2671107,
      0.1209461,
      0.0785757,
      -0.3025469,
      0.3128031,
      -0.5594198,
      0.0668792,
      0.1083482,
      0.1503848,
      -0.0357866,
      -0.1371141,
      -0.1917829,
      0.001799,
      -0.2572965,
      0.3869812,
      0.2978729,
      -1.3401634,
      0.7818816,
      -0.6422913,
      0.4211241,
      0.5800139,
      -0.449603,
      0.4223713,
      -0.0011774,
      0.6334093,
      -0.0656544,
      0.3000412,
      0.0072221,
      -0.4273659,
      -0.3639112,
      -0.4806685,
      -0.0511383,
      0.4425957,
      0.0289616,
      0.3795089,
      -0.5281766,
      0.4669404,
      0.2063683,
      -0.6995859,
      0.0615895,
      -0.2885259,
      0.3988324,
      -0.5003421,
      -0.4806437,
      -0.5329919,
      0.5850357,
      -0.566211,
      -0.4531627,
      -0.4489611,
      -0.0769808,
      -0.403825,
      -0.671997,
      -0.1107792,
      -0.6358354,
      0.594981,
      0.4588898,
      -0.1470338,
      0.7261783,
      0.0900064,
      0.5164685,
      0.5264483,
      -0.1923922,
      -0.1128248,
      -0.3680393,
      0.2125557,
      0.2844074,
      0.9294773,
      0.0763251,
      0.9448605,
      0.2215236,
      -0.21602,
      -0.1757464,
      -0.5092239,
      0.862546,
      0.1949244,
      -0.6118993,
      0.1458422,
      0.7361394,
      0.6007611,
      -0.3769392,
      0.5160335,
      0.4596636,
      -0.2706267,
      -0.0858324,
      0.3642057,
      -0.3524614,
      0.3101937,
      0.1297135,
      -0.6880039,
      -0.358228,
      0.5262566,
      -0.1215749,
      -0.1526517,
      -0.0514526,
      -0.3842995,
      -0.07931,
      0.4060723,
      0.5066703,
      -0.253457,
      0.125447,
      -0.1195777,
      -0.6872734,
      0.3636825,
      0.2369154,
      0.3112205,
      -0.8425149,
      0.1980965,
      -0.6793747,
      0.2894225,
      -0.439024,
      0.0239817,
      0.0010322,
      0.3328944,
      0.1266324,
      0.447045,
      -0.0057885,
      0.1796577,
      0.1205347,
      0.1054176,
      -0.0072657,
      0.4544599,
      0.5361373,
      0.4282054,
      -0.1917014,
      -0.6453666,
      0.1995598,
      -0.1780852,
      -0.4688842,
      0.3558454,
      -0.0113343,
      -0.402617,
      0.327597,
      -0.0737961,
      -0.6525926,
      0.3442405,
      -0.1068943,
      -1.0763526,
      0.0824976,
      0.4414917,
      0.3908146,
      0.1794956,
      0.0641522,
      -0.2021806,
      0.2130611,
      0.2604305,
      0.738319,
      0.2344088,
      0.8426768,
      -0.4910067,
      0.382802,
      -0.5700772,
      -0.5471374,
      0.4695557,
      -0.886359,
      -0.2804441,
      -0.2336771,
      -0.8939858,
      1.2004749,
      -0.4256858,
      0.2288166,
      -0.5044216,
      -0.2295434,
      0.1445936,
      -0.3214121,
      -0.3303511,
      0.4243617,
      0.7096003,
      0.8843315,
      0.711932,
      -1.1552863,
      0.1958225,
      -0.1628859,
      -0.0319378,
      -0.1937765,
      0.6724904,
      -0.2521549,
      -0.2403831,
      -0.0933974,
      0.7939259,
      0.009205,
      0.4694841,
      0.4200237,
      -0.0154207,
      1.0064347,
      0.2863189,
      0.339626,
      0.2041343,
      0.2934286,
      -0.4032027,
      0.3378532,
      0.174805,
      -0.1139637,
      1.1549106,
      -0.0704246,
      -0.7322481,
      -0.99983,
      0.0975454,
      0.2898575,
      -0.2081153,
      0.2242045,
      0.0859648,
      0.3098683,
      -0.0688902,
      -0.0984056,
      -0.1861126,
      -0.058212,
      -0.0869103,
      0.2114639,
      0.1772401,
      -0.1640623,
      -0.3071095,
      0.0332595,
      -0.3111448,
      0.2033689,
      0.0247753,
      -0.2085585,
      -0.3533368,
      -0.3927725,
      0.5835548,
      0.5173451,
      -0.7981278,
      -0.0236167,
      -0.5818321,
      0.1254915,
      -0.3525274,
      0.23415,
      -0.6054107,
      0.474041,
      0.6991362,
      1.4796345,
      -0.4833523,
      -0.2789177,
      0.064271,
      0.1649593,
      -0.5083665,
      0.6996126,
      0.2709189,
      0.4647717,
      -0.0253054,
      -0.2046878,
      0.3547966,
      -0.6942435,
      0.0936306,
      0.3264658,
      0.572128,
      -0.6382898,
      -0.3554597,
      -0.0675218,
      0.1453433,
      0.0638231,
      -0.2051045,
      0.7676139,
      0.3608112,
      -0.7167617,
      -0.0266416,
      0.5545878,
      0.1072952,
      0.0147407,
      -0.0500849,
      0.2369372,
      -0.5767864,
      -0.8646826,
      0.2667629,
      -0.2928899,
      0.254312,
      0.2082263,
      0.2475011,
      0.5808884,
      -0.2064511,
      -0.0622025,
      0.0138126,
      0.1783987,
      0.173331,
      -1.0233124,
      0.4639855,
      -0.509501,
      0.0377338,
      0.161583,
      -0.389871,
      -0.1933462,
      -0.2261355,
      0.1724695,
      0.0798711,
      0.1557787,
      -0.8126462,
      0.4519191,
      0.3562153,
      -0.4991513,
      -0.0620804,
      0.1062986,
      0.2057459,
      0.0195348,
      -0.6353963,
      -0.0844827,
      -0.1785342,
      -0.4387736,
      -0.2043878,
      0.5081656,
      0.3896173,
      0.266708,
      0.0504294,
      0.3347894,
      0.1960323,
      0.3131186,
      0.5605891,
      -0.5404174,
      0.5841236,
      -0.6896951,
      0.1463803,
      0.4628307,
      0.1159519,
      0.157801,
      -0.1090625,
      -0.6519134,
      0.0955725,
      0.3815529,
      -0.3553999,
      0.2249113,
      -0.2707007,
      0.3439117,
      0.726586,
      0.0814627,
      0.0841088,
      0.507291,
      0.6978318,
      0.2955327,
      0.1591715,
      -0.4079657,
      0.2833332,
      -0.4318048,
      -0.2249501,
      -0.1626267,
      -0.0297581,
      -0.5920801,
      -0.0880363,
      -0.1334007,
      0.3991038,
      0.3485231,
      0.9576453,
      -0.1877164,
      -0.1769276,
      0.6921273,
      0.3409428,
      -0.4836996,
      0.299784,
      -0.2263352,
      0.0410481,
      -0.2800858,
      -0.2105016,
      0.087565,
      -0.3962686,
      -0.4155651,
      -0.5572568,
      -0.0219774,
      -1.0143358,
      -0.8613031,
      0.2570597,
      -0.3999595,
      -0.4542401,
      0.5975706,
      -0.6423028,
      -0.4089541,
      -0.8348849,
      1.0316709,
      0.1190891,
      0.3171529,
      0.3487738,
      -0.0630858,
      -0.2460528,
      0.2080458,
      0.3073778,
      -0.3865686,
      -0.4393167,
      0.3867639,
      -0.485134,
      -0.6150208,
      -0.5246648,
      -0.2102613,
      0.0218558,
      0.0536049,
      -0.6659605,
      -0.0054945,
      -0.646208,
      -0.0413094,
      -0.5081074,
      0.000925,
      -0.3531725,
      0.487251,
      -0.521753,
      -0.3070329,
      0.1266094,
      -0.1768192,
      0.3963958,
      -0.6977036,
      -0.1021625,
      -0.9925545,
      -0.2310504,
      -0.1881198,
      0.2582007,
      -0.9475209,
      -0.2692331,
      0.6178066,
      -0.2234651,
      -0.1921768,
      -0.349332,
      0.4895348,
      -0.3261448,
      1.1102834,
      0.9749475,
      0.1578403,
      -0.5233345,
      0.5184354,
      0.6003473,
      -0.0374526,
      0.2745685,
      0.7967271,
      0.4986091,
      -0.1667907,
      -0.4409793,
      -0.3438451,
      -0.1873122,
      -0.1073018,
      -0.1930397,
      0.5578941,
      0.0550533,
      -0.5618156,
      -0.011301,
      -0.3535373,
      -0.5042347,
      -0.472615,
      0.308335,
      -0.1851907,
      0.4734003,
      0.3381466,
      0.1076697,
      0.3533012,
      1.150858,
      0.7232823,
      0.4650327,
      0.7321008,
      -0.2456816,
      -0.3643333,
      0.0602484,
      0.0547748,
      -0.3410434,
      -0.2214538,
      0.2187011,
      -0.0386192,
      0.801863,
      0.2601987,
      -0.1833631,
      0.0341808,
      -0.0261755,
      0.4971766,
      0.515978,
      -0.9545757,
      -0.1532439,
      -0.5923139,
      -0.6753665,
      1.0009188,
      1.0840348,
      0.3537254,
      0.7758421,
      0.3372302,
      -0.1415923,
      0.7979952,
      0.4394315,
      0.0988973,
      -0.3830342,
      -0.9798121,
      0.7289661,
      0.4182178,
      0.5243087,
      -0.3501397,
      0.1232013,
      -0.2249315,
      -0.5456152,
      -0.0720176,
      0.298737,
      0.0011197,
      -0.1090365,
      -0.4136141,
      0.2150849,
      -0.0056798,
      0.8780638,
      0.4745681,
      -0.5444449,
      -1.132155,
      -0.0074721,
      -0.2780014,
      0.0029546,
      0.1603666,
      -0.0126099,
      -0.2173633,
      -0.3590063,
      -1.0159583,
      -0.1778117,
      0.150979,
      0.2493514,
      -0.5176763,
      0.6500197,
      -0.7996892,
      0.9303813,
      -0.1824072,
      0.021208,
      -0.949014,
      -0.3224446,
      0.0184786,
      -0.2443158,
      0.763359,
      0.1932887,
      -0.3612716,
      -0.762803,
      0.2499629,
      0.0862351,
      0.1177669,
      -0.3507891,
      0.6260012,
      -0.4156408,
      0.5100042,
      0.8733769,
      -0.0491045,
      -0.1169134,
      0.0152426,
      0.0614375,
      0.3316192,
      0.3943191,
      -0.5881032,
      0.2915135,
      0.6243161,
      -0.23379,
      -0.8512161,
      -0.4411789,
      -0.1998887,
      0.2221216,
      0.7681694,
      -0.1171997,
      0.2150199,
      -0.0413734,
      0.6162401,
      0.9954631,
      0.1799244,
      -0.5533055,
      -0.2102253,
      -0.0870592,
      -0.0649979,
      1.3566187,
      0.3490288,
      0.2229735,
      -0.307912,
      -0.0813373,
      -0.2780221,
      0.5342045,
      0.0464347,
      -0.4234865,
      0.5386279,
      0.0131159,
      0.1935739,
      0.6011795,
      -0.3828862,
      -0.4419489,
      -0.7887004,
      0.9841095,
      0.5661962,
      0.6229538,
      -0.1615241,
      -0.3339376,
      0.6707908,
      0.1362143,
      0.1393673,
      -0.4579933,
      -0.3363039,
      -0.1425478,
      0.0911653,
      -0.2195311,
      0.0771198,
      -0.0500628,
      0.4180954,
      0.3608904,
      0.4234298,
      -0.915153,
      -0.2297074,
      0.046598,
      -0.017103,
      -1.160853,
      -0.483216,
      0.1752674,
      0.3176842,
      0.3493846,
      -0.6757958,
      -0.421101,
      0.149923,
      0.3244807,
      0.1899733,
      0.0705079,
      -0.0537197,
      0.8064349,
      0.5009191,
      0.5937709,
      0.0933885,
      -0.022425,
      -0.4644833,
      0.4220866,
      0.177833,
      -0.1440704,
      0.2682757,
      -0.1729183,
      0.0852031,
      -0.4325719,
      -0.2122402,
      0.4014128,
      0.3662613,
      -0.2633142,
      -0.0412032,
      -0.5616599,
      0.302005,
      0.9719783,
      0.7812951,
      -0.6835203,
      0.1239623,
      0.0274912,
      -0.1855757,
      0.5237697,
      -0.2961382,
      0.5651208,
      0.0740056,
      0.3910495,
      0.3907774,
      -0.2105482,
      0.3766914,
      0.5714505,
      0.9753328,
      0.0324964,
      0.8213835,
      -0.0958852,
      -0.0393397,
      -0.1317238,
      0.7536402,
      -0.4445672,
      0.1098438,
      0.3817056,
      -0.1885407,
      -0.0688015,
      0.1611204,
      0.2431906,
      0.0452436,
      -0.3573035,
      0.2271807,
      -0.0162349,
      -0.4369226,
      -0.0803641,
      -0.3192384,
      0.5767934,
      -0.024582,
      -0.1827995,
      0.4181988,
      -0.0855845,
      0.024952,
      0.1561807,
      0.0035834,
      0.2195851,
      0.0788506,
      0.059332,
      0.0223156,
      0.1903678,
      -0.2307011,
      -0.2473904,
      0.3821955,
      0.0517637,
      0.1976181,
      -0.2490191,
      -0.2879707,
      0.0491288,
      -0.2055813,
      -0.2862461,
      0.1065621,
      0.1595432,
      -0.3368961,
      0.0405305,
      0.0755794,
      -0.0056701,
      -0.2092788,
      -0.0623294,
      0.1708283,
      -0.1161586,
      0.5097238,
      -0.1963873,
      0.2847601,
      0.0868952,
      -0.1653979,
      -0.0765673,
      -0.1225938,
      0.2215159,
      0.197393,
      -0.0535056,
      0.251858,
      -0.0644079,
      -0.1403187,
      0.1089029,
      -0.2739289,
      0.3805282,
      0.251286,
      0.4085897,
      0.140302,
      -0.1048409,
      0.3713682,
      -0.6569528,
      0.2524374,
      0.2968475,
      -0.6080197,
      -0.0345576,
      -0.1359255,
      -0.0761198,
      -0.1471709,
      -0.0201256,
      0.0355802,
      0.0773142,
      0.0176141,
      0.0509373,
      0.5073829,
      -0.204733,
      -0.1163487,
      0.0941545,
      -0.5736795,
      0.1821015,
      -0.1051809,
      0.0610344,
      -0.1514045,
      0.1320735,
      0.3007629,
      -0.2342374,
      0.2276987,
      -0.2443765,
      -0.0236926,
      -0.3950588,
      0.3533628,
      0.1158927,
      -0.1277222,
      0.0978207,
      0.3045912,
      -0.4040268,
      -0.0691821,
      0.1347144,
      -0.0284688,
      0.1775683,
      -0.1852842,
      0.1901943,
      0.0384596,
      0.3120853,
      0.2743689,
      0.2015884,
      -0.1619492,
      -0.0381124,
      0.2138609,
      -0.3557556,
      0.1028429,
      0.2448078,
      0.3280972,
      -0.2097065,
      0.1053514,
      0.2423782,
      0.1542059,
      -0.2877269,
      -0.1698608,
      0.1415256,
      0.0448796,
      0.4245944,
      -0.4043246,
      -0.0588083,
      -0.2204212,
      0.0292045,
      0.4511398,
      0.3136981,
      -0.0465825,
      -0.2832015,
      0.030728,
      -0.360166,
      0.2950258,
      0.2523397,
      -0.3155328,
      0.1315748,
      -0.2495512,
      -0.4305014,
      -0.0496357,
      -0.0782655,
      0.2230687,
      0.3658129,
      -0.1283138,
      -0.095755,
      0.0372061,
      -0.3810294,
      0.3174414,
      0.0495942,
      0.1279102,
      -0.0646922,
      0.2746647,
      -0.0183979,
      -0.0905391,
      -0.3148168,
      -0.4234769,
      0.2705398,
      -0.2827396,
      -0.0402027,
      0.135449,
      -0.326998,
      -0.3746012,
      -0.1301263,
      -0.3627858,
      -0.0794036,
      0.0486533,
      -0.1807346,
      -0.3620087,
      0.1688509,
      0.1006779,
      0.0162121,
      0.0165879,
      -0.2365578,
      0.2567242,
      -0.0262965,
      -0.4295948,
      -0.0172897,
      -0.1244867,
      0.0805113,
      -0.2474901,
      0.3504359,
      0.2209588,
      -0.5096961,
      -0.0281458,
      0.0081075,
      0.1158937,
      0.2115142,
      0.1572376,
      -0.083847,
      0.1736985,
      -0.2424032,
      -0.0737022,
      -0.084777,
      0.0519281,
      -0.188354,
      -0.2262018,
      0.1317869,
      -0.0921811,
      0.188107,
      0.1813287,
      0.0401681,
      0.1086483,
      -0.2252099,
      -0.0926428,
      -0.102368,
      0.2464618,
      -0.1155318,
      -0.1994398,
      0.3912618,
      -0.3759803,
      -0.1764451
    ],
    "weights_out": [
      -0.53699,
      -0.8936349,
      0.9582582,
      -0.1128914,
      -0.6797351,
      0.7038373,
      -0.484387,
      0.1338724,
      -0.3152383,
      0.0962865,
      0.2485848,
      -0.3487006,
      -0.0009487,
      -0.4720709,
      -1.318833,
      0.2707057,
      -0.4507056,
      -0.0590641,
      0.8537747,
      1.0616522,
      0.1739857,
      0.4033053,
      -0.7803325,
      -0.4484576,
      0.7881012,
      -0.2729267,
      -0.0234972,
      0.1170703,
      -0.6439462,
      0.1366872,
      -0.2358629,
      0.9439853,
      0.2275849,
      -0.3805284,
      0.3797483,
      0.0775344,
      -0.8529395,
      -0.2214571,
      -0.4313051,
      0.248963,
      0.1748044,
      -0.2254183,
      0.0630427,
      0.5990686,
      0.1660795,
      -0.0234502,
      -0.7962427,
      -0.2552724,
      -0.859646,
      0.0937306,
      0.9293178,
      0.1736626,
      -0.2535049,
      0.1382113,
      0.1460713,
      0.1009837,
      -0.0002127,
      1.0661618,
      -0.191892,
      0.2727679,
      0.2545107,
      0.0325745,
      -0.6991043,
      -0.5063808,
      0.9749565,
      0.1336029,
      -0.0997538,
      -0.2779134,
      0.1137734,
      0.1221041,
      0.6856504,
      -0.4683245,
      -0.0475546,
      -0.3305313,
      -0.1840939,
      -0.7693476,
      0.6859095,
      -0.6092925,
      -0.6850836,
      0.2279367,
      0.2694932,
      0.2124943,
      -0.2717876,
      -0.1254227,
      -0.5607803,
      -0.5567723,
      -0.1434743,
      0.5093235,
      0.1754632,
      0.213848,
      0.0197501,
      0.9457332,
      0.2891929,
      -0.0282834,
      0.1447899,
      -0.0448637,
      -0.1402927,
      -0.0970467,
      0.8024355,
      0.0075614,
      0.2504376,
      -0.4533278,
      0.9436496,
      0.0832742,
      -0.1036904,
      0.2377908,
      0.0387734,
      -0.4138778,
      -0.7668944,
      -0.0883078,
      -0.3079523,
      0.0116484,
      0.1390611,
      0.1372308,
      0.3541736,
      -0.4472927,
      0.5911774,
      -0.4158806,
      0.4293712,
      1.0641698,
      -0.1224476,
      -0.2883483,
      0.2782646,
      0.3688801,
      0.3865523,
      0.1006839,
      0.2054005,
      0.2161276,
      -0.2377254,
      0.0105102,
      0.3699601,
      -0.0610122,
      -0.3507142,
      -0.8410259,
      0.2997895,
      0.4534526,
      0.1823193,
      0.2694846,
      -0.0261869,
      -0.0468435,
      0.448272,
      -0.7307544,
      -0.0188055,
      -0.9565193,
      0.4118268,
      -0.3713172,
      0.0799715,
      -0.3222337,
      -0.1685752,
      -0.4880105,
      0.1805066,
      0.3017371,
      0.198947,
      -0.082881,
      -0.1398483,
      0.2537101,
      0.5807366,
      -0.3287073,
      -0.2239692,
      -0.1452388,
      0.8060807,
      0.9646007,
      0.5095238,
      0.6277253,
      0.4050959,
      -0.0249329,
      -0.1122804,
      -0.098113,
      -0.8302838,
      -0.1327047,
      -0.0797971,
      0.7135292,
      -0.7329499,
      -0.1860336,
      0.3083393,
      -0.1539972,
      0.1199551,
      0.1878045,
      -0.0944948,
      -0.0005934,
      0.1962031,
      -0.2715675,
      -0.6136754,
      -0.0471463,
      -0.0755014,
      0.3198244,
      0.2326329,
      -0.6897942,
      -0.9719868,
      0.0799573,
      0.1180727,
      0.1859407,
      -0.6168343,
      -0.0434986,
      0.0543742,
      -0.1365161,
      -0.1232959,
      0.6378034,
      -0.4730975,
      -0.528987,
      0.1408775,
      0.0677544,
      0.1500555,
      -1.0168272,
      -0.7755302,
      0.1587645,
      -0.3709938,
      -0.1054259,
      0.039468,
      -0.0528879
    ]
  },
  "bucket": "learner_champion",
  "cognition": {
    "event_memory": {
      "damage": 0.0,
      "energy_gain": 0.062907,
      "energy_loss": 7.9e-05,
      "health_gain": 0.0,
      "reproduction": 0.000146,
      "social": 4e-06,
      "surprise": 0.048842,
      "tool": 0.0
    },
    "last_action": "eat",
    "last_valence": 0.00463,
    "lesson_memory": [
      {
        "affordance": "filter",
        "attempted_affordance": "filter",
        "gain": 17.781098,
        "kind": "causal_unlock",
        "method_quality": 0.0,
        "place": 32,
        "problem": {
          "difficulty": 0.450575,
          "kind": "causal_challenge",
          "payoff_energy": "chemical",
          "place": 32,
          "progress": 0,
          "remaining": 1.083069,
          "required_affordance": "contain",
          "sequence": [
            "contain",
            "filter"
          ]
        },
        "score": 0.69513,
        "sequence": [
          "contain",
          "filter"
        ],
        "skill": 0.119195,
        "success": true
      },
      {
        "affordance": "filter",
        "attempted_affordance": "filter",
        "gain": 8.683028,
        "kind": "tool_use",
        "method_quality": 0.0,
        "place": 32,
        "problem": {
          "difficulty": 0.450575,
          "kind": "causal_challenge",
          "payoff_energy": "chemical",
          "place": 32,
          "progress": 0,
          "remaining": 1.083069,
          "required_affordance": "contain",
          "sequence": [
            "contain",
            "filter"
          ]
        },
        "score": 0.574126,
        "skill": 0.17264,
        "success": true
      },
      {
        "affordance": "build",
        "attempted_affordance": "build",
        "components": {
          "crystal": 1,
          "fiber": 1,
          "resin": 1,
          "stone": 1
        },
        "gain": 2.75,
        "kind": "build",
        "method_quality": 0.0,
        "place": 3,
        "problem": {
          "difficulty": 0.635911,
          "kind": "causal_challenge",
          "payoff_energy": "chemical",
          "place": 3,
          "progress": 0,
          "remaining": 117.04308,
          "required_affordance": "bind",
          "sequence": [
            "bind",
            "crack",
            "lever",
            "contain"
          ]
        },
        "score": 0.609645,
        "skill": 0.096008,
        "success": true
      },
      {
        "affordance": "build",
        "attempted_affordance": "build",
        "components": {
          "branch": 2,
          "crystal": 1,
          "shell": 2
        },
        "gain": 13.0,
        "kind": "build",
        "method_quality": 0.0,
        "place": 32,
        "problem": {
          "difficulty": 0.450575,
          "kind": "causal_challenge",
          "payoff_energy": "chemical",
          "place": 32,
          "progress": 1,
          "remaining": 1.083069,
          "required_affordance": "filter",
          "sequence": [
            "contain",
            "filter"
          ]
        },
        "score": 0.603,
        "skill": 0.138572,
        "success": true
      },
      {
        "affordance": "build",
        "attempted_affordance": "build",
        "components": {
          "bone": 1,
          "shell": 1,
          "stone": 1
        },
        "gain": 0.0,
        "kind": "build",
        "method_quality": 0.0,
        "place": 32,
        "problem": {
          "kind": "obstacle",
          "obstacle": "heat",
          "place": 32,
          "required_affordance": "concentrate_heat",
          "required_capability": "insulate",
          "severity": 0.496752
        },
        "score": 0.058167,
        "skill": 0.143996,
        "success": false
      }
    ],
    "lineage": {
      "inherited_brain_template": true,
      "parent_lineages": [
        430,
        430
      ],
      "parents": [
        430,
        2825
      ],
      "root_id": 430
    },
    "place_memory": [
      {
        "place_id": 32,
        "value": 0.739253
      },
      {
        "place_id": 2,
        "value": 0.714301
      },
      {
        "place_id": 3,
        "value": 0.700785
      },
      {
        "place_id": 1,
        "value": 0.616124
      },
      {
        "place_id": 33,
        "value": 0.604906
      },
      {
        "place_id": 0,
        "value": 0.471759
      }
    ],
    "prediction_errors": {
      "damage": -0.025574,
      "energy": 0.02994,
      "hazard": -0.052051,
      "reproduction": -0.111271,
      "social": 0.160836,
      "tool": 0.010811
    },
    "recent_trace": {
      "action": 0.142857,
      "damage": 0.0,
      "energy_delta": 0.018271,
      "health_delta": 0.0,
      "prediction_error": 0.02994,
      "reproduction": 0.0,
      "social": 0.0,
      "tool": 0.0
    },
    "signal_values": [
      0.008702,
      0.001051,
      0.026592,
      0.039151,
      0.033373,
      0.036213,
      0.01024,
      0.014476
    ],
    "success_profile": {
      "causal_step": 2.0,
      "causal_unlock": 6.0,
      "collaboration": 185.182459,
      "energy_gain": 433.110751,
      "prediction_fit": 155.826084,
      "reproduction": 9.0,
      "structure": 6.25,
      "tool_use": 18.422725
    },
    "tool_trace": {
      "last_artifact_method": 0.0,
      "last_craft_target": "",
      "last_tool_affordance": "filter"
    }
  },
  "context": {
    "criterion": "learner_champion",
    "label": "interval",
    "lineages": {
      "agent_lineages_total": 80,
      "living_agent_lineages": 6,
      "top_all_time": [
        {
          "avg_living_energy": 17.99663,
          "avg_living_health": 0.71049,
          "born": 1378,
          "dead": 952,
          "inherited_template_count": 1372,
          "lineage_root_id": 490,
          "living": 426,
          "living_neural": 424,
          "max_generation": 26,
          "offspring_total": 2732,
          "profile": {
            "causal_step": 37.0,
            "causal_unlock": 17.98724,
            "collaboration": 99023.75008,
            "energy_gain": 15660.64345,
            "knowledge_transmitted": 3.58774,
            "prediction_fit": 9412.00662,
            "reproduction": 2732.0,
            "social_learning": 240.85,
            "structure": 136.25,
            "tool_make": 41.28803,
            "tool_use": 1145.75818,
            "written_learning": 9.52356
          },
          "score": 85629.0392,
          "successful_tools_total": 424,
          "tool_use_counts": {
            "bind": 88,
            "build": 70,
            "concentrate_heat": 46,
            "contain": 90,
            "crack": 43,
            "craft": 38,
            "cut": 3,
            "lever": 44
          },
          "tool_users": 142,
          "top_living_ids": [
            6451,
            4890,
            5683,
            2439,
            7249
          ]
        },
        {
          "avg_living_energy": 34.65527,
          "avg_living_health": 0.86462,
          "born": 881,
          "dead": 655,
          "inherited_template_count": 874,
          "lineage_root_id": 430,
          "living": 226,
          "living_neural": 226,
          "max_generation": 23,
          "offspring_total": 1752,
          "profile": {
            "causal_step": 249.0,
            "causal_unlock": 26.80391,
            "collaboration": 60250.63687,
            "energy_gain": 16762.21975,
            "knowledge_transmitted": 2.07924,
            "prediction_fit": 8194.73295,
            "reproduction": 1752.0,
            "social_learning": 210.3,
            "structure": 283.875,
            "tool_make": 60.64333,
            "tool_use": 3922.45927,
            "written_learning": 15.71916
          },
          "score": 61847.23973,
          "successful_tools_total": 2869,
          "tool_use_counts": {
            "bind": 1357,
            "build": 136,
            "concentrate_heat": 360,
            "contain": 240,
            "crack": 406,
            "craft": 56,
            "cut": 69,
            "lever": 236
          },
          "tool_users": 208,
          "top_living_ids": [
            6854,
            6751,
            6914,
            6901,
            7020
          ]
        },
        {
          "avg_living_energy": 31.52687,
          "avg_living_health": 0.91032,
          "born": 244,
          "dead": 163,
          "inherited_template_count": 243,
          "lineage_root_id": 489,
          "living": 81,
          "living_neural": 81,
          "max_generation": 21,
          "offspring_total": 372,
          "profile": {
            "causal_step": 103.0,
            "causal_unlock": 26.74882,
            "collaboration": 12851.6053,
            "energy_gain": 2489.81828,
            "knowledge_transmitted": 1.5515,
            "prediction_fit": 2128.8898,
            "reproduction": 372.0,
            "social_learning": 199.85,
            "structure": 130.375,
            "tool_make": 41.80174,
            "tool_use": 7725.5956,
            "written_learning": 0.01524
          },
          "score": 30901.49513,
          "successful_tools_total": 6977,
          "tool_use_counts": {
            "bind": 1024,
            "build": 64,
            "concentrate_heat": 1668,
            "contain": 668,
            "crack": 208,
            "cut": 1870,
            "filter": 193,
            "lever": 1244
          },
          "tool_users": 112,
          "top_living_ids": [
            4350,
            4874,
            6629,
            6687,
            6420
          ]
        },
        {
          "avg_living_energy": 0.0,
          "avg_living_health": 0.0,
          "born": 1,
          "dead": 1,
          "inherited_template_count": 0,
          "lineage_root_id": 447,
          "living": 0,
          "living_neural": 0,
          "max_generation": 0,
          "offspring_total": 0,
          "profile": {
            "causal_step": 2.0,
            "collaboration": 0.78914,
            "energy_gain": 177.28194,
            "prediction_fit": 61.27064,
            "structure": 1.375,
            "tool_use": 1366.33117,
            "written_learning": 0.00976
          },
          "score": 3338.60214,
          "successful_tools_total": 1197,
          "tool_use_counts": {
            "build": 1,
            "concentrate_heat": 1135,
            "crack": 1,
            "lever": 60
