{
  "artifacts": [],
  "brain": {
    "attention_bias": [
      1.9999228,
      1.9999216,
      1.9999508,
      1.9999401,
      1.9977842,
      1.9978712,
      1.9998988,
      1.9999072,
      1.9992447,
      1.9978824,
      1.9978834,
      1.9999191,
      1.9999267,
      1.9999838,
      1.9999535,
      1.999966,
      1.9999773,
      1.9999482,
      1.9985097,
      1.9999931,
      1.9999735,
      1.9999846,
      1.9999928,
      1.9999524,
      1.9533527,
      1.9987513,
      1.9999285,
      1.9994658,
      1.9999911,
      1.9999693,
      1.9999644,
      1.9999655,
      1.999966,
      1.9999809,
      1.9999845,
      1.9999898,
      1.9999869,
      1.9999324,
      1.9999905,
      1.9991662,
      1.999859,
      1.9999705,
      1.999956,
      1.9999783,
      1.9977844,
      1.9978449,
      1.9871347,
      1.9985748,
      1.9999792,
      1.9999204,
      1.9869373,
      1.9999825,
      1.9794679,
      1.9999599,
      1.9999199,
      1.9922434,
      1.9999505,
      1.9980437,
      1.9977927,
      1.9978247,
      1.9979725,
      1.9999891,
      1.9999589,
      1.9999823,
      1.9986705,
      1.9983051,
      1.9999982,
      1.9978202,
      1.9977975,
      1.9999915,
      1.9999982,
      1.9999902
    ],
    "attention_weights": [
      0.0883415,
      -0.0034571,
      0.2338673,
      0.0371633,
      0.4997361,
      0.0476597,
      0.0976318,
      0.0972042,
      -0.2075397,
      0.1344473,
      0.0834322,
      -0.1267713,
      0.0060579,
      -0.0072418,
      0.2341589,
      0.0841914,
      0.0953763,
      -0.0176139,
      -0.0456221,
      0.1974811,
      -0.4574817,
      0.1397939,
      0.3366755,
      -0.1245302,
      0.1318689,
      0.1819673,
      -0.0790699,
      -0.0902702,
      0.3714371,
      0.2789332,
      -0.046407,
      -0.0526049,
      -0.1741535,
      -0.1206376,
      0.0777134,
      -0.3874501,
      0.292741,
      0.0375602,
      -0.3897597,
      0.0974369,
      0.1074559,
      -0.1431226,
      0.1035418,
      0.1498,
      0.0809973,
      0.1987361,
      -0.246999,
      -0.1746018,
      -0.2757088,
      0.1382638,
      -0.2078342,
      -0.1668736,
      0.0123255,
      -0.2848543,
      0.1942771,
      -0.129172,
      -0.0162038,
      0.3164146,
      -0.031716,
      -0.1584841,
      -0.075313,
      -0.076419,
      -0.3647585,
      0.0818264,
      -0.3481942,
      -0.1652778,
      0.131591,
      -0.0947066,
      -0.1994813,
      -0.3340316,
      -0.219118,
      0.0877269,
      0.1665219,
      -0.1257652,
      -0.0888115,
      0.1031125,
      -0.1073138,
      -0.2228675,
      -0.0330273,
      -0.0050375,
      0.1450651,
      0.0534771,
      0.0257121,
      -0.0612328,
      -0.0011932,
      0.1275417,
      0.4857782,
      0.2006648,
      0.3662364,
      0.0181995,
      -0.2157529,
      0.062609,
      0.1649171,
      -0.306387,
      -0.1979303,
      0.0259695,
      0.0888214,
      -0.0728949,
      0.2921862,
      -0.1171622,
      -0.0694645,
      0.2959297,
      0.3625459,
      -0.0883102,
      0.0402973,
      0.1442263,
      -0.0552601,
      0.0184911,
      0.4322856,
      0.3192512,
      -0.2501048,
      0.3599202,
      -0.29913,
      -0.2955955,
      0.2872687,
      0.2828206,
      -0.0268973,
      0.2346083,
      -0.5866238,
      -0.0515087,
      0.0357011,
      -0.6257434,
      0.0651948,
      -0.0601085,
      -0.3585823,
      0.0516771,
      0.0755862,
      -0.2057218,
      0.1453522,
      0.0861982,
      0.1566782,
      -0.2310431,
      0.2226898,
      -0.2145585,
      -0.1463438,
      0.2369253,
      -0.2178544,
      0.0421727,
      -0.24224,
      -0.1676268,
      0.0020871,
      -0.171761,
      0.1940709,
      -0.0570165,
      -0.1014317,
      -0.028505,
      -0.0106049,
      -0.2603296,
      0.0550777,
      -0.0286779,
      -0.1409537,
      0.0169328,
      -0.2561504,
      0.2195675,
      -0.0824345,
      0.1689053,
      -0.4505131,
      -0.1086011,
      -0.4023886,
      0.3347513,
      0.2059615,
      0.0018735,
      0.3147838,
      -0.3072726,
      -0.0426428,
      0.2510108,
      0.1562742,
      0.0429324,
      0.0164267,
      -0.3987044,
      0.1012199,
      0.1730644,
      -0.1097271,
      0.1256121,
      -0.1398203,
      -0.1797405,
      0.2705929,
      0.1277297,
      0.3711637,
      0.3468672,
      0.112687,
      0.1908543,
      -0.3954566,
      -0.2083324,
      -0.2376235,
      0.3772988,
      0.0398422,
      0.0418435,
      -0.1010685,
      0.0939568,
      -0.0287759,
      0.1943445,
      0.3819663,
      0.3278296,
      0.1818731,
      0.0990777,
      -0.0554893,
      0.105944,
      0.1636685,
      0.0030559,
      -0.0023066,
      0.2560297,
      -0.173365,
      0.1438753,
      -0.0840364,
      -0.110952,
      -0.2571485,
      0.3287051,
      0.2863091,
      0.095114,
      -0.1923947,
      0.1649598,
      -0.0211416,
      0.2763492,
      0.0628254,
      0.0274158,
      -0.2028639,
      -0.0865049,
      -0.1856386,
      0.07305,
      0.0344226,
      -0.073006,
      -0.0085502,
      -0.1348391,
      -0.2984936,
      0.0386124,
      -0.1347985,
      -0.158319,
      0.1470108,
      -0.1156645,
      0.0038586,
      0.1412434,
      -0.1541503,
      -0.0427546,
      0.2418226,
      -0.0445574,
      0.2005067,
      -0.0552206,
      -0.0473131,
      -0.3083509,
      0.0240124,
      -0.2940788,
      0.1975806,
      0.0846264,
      0.0671353,
      -0.1401346,
      -0.3147101,
      0.1324353,
      0.086861,
      0.0920224,
      -0.0233085,
      0.2640965,
      0.0313992,
      -0.0638309,
      0.0724606,
      0.0710006,
      0.0812595,
      0.253963,
      0.1077946,
      0.150871,
      -0.1842462,
      -0.2706662,
      0.1498682,
      0.1613327,
      0.3697728,
      -0.0670693,
      0.1947895,
      0.020461,
      0.2361991,
      -0.1246716,
      -0.2053144,
      -0.4166229,
      0.1188977,
      0.1709694,
      -0.105226,
      -0.2452808,
      0.201024,
      -0.2305609,
      0.1794374,
      -0.0940378,
      -0.4799528,
      0.0051883,
      0.385056,
      -0.2701337,
      -0.4683273,
      0.07488,
      0.3833927,
      0.0799535,
      0.5194833,
      -0.050202,
      -0.0169062,
      0.248359,
      -0.0723123,
      0.1583187,
      0.2029722,
      0.1238252,
      -0.0123555,
      -0.2677608,
      0.3940069,
      0.2133367,
      -0.307876,
      0.1668895,
      0.0209118,
      0.2235985,
      0.0664111,
      -0.1231233,
      -0.0468702,
      -0.3290893,
      0.2587882,
      0.348389,
      0.3277816,
      0.0808913,
      0.3252545,
      -0.2561868,
      0.2864202,
      0.1079857,
      0.0497593,
      0.0551319,
      0.2227387,
      0.1880462,
      0.1657781,
      -0.210931,
      0.2073921,
      0.0915204,
      0.1717553,
      -0.0236261,
      -0.0205156,
      -0.0386003,
      -0.0154123,
      -0.0052862,
      -0.3452858,
      0.0023436,
      0.0467557,
      0.0031103,
      -0.3739816,
      0.0728724,
      -0.0510787,
      0.2113467,
      -0.0671603,
      0.2886515,
      0.0259038,
      0.063512,
      0.1206472,
      0.1794873,
      -0.0267878,
      -0.033005,
      -0.0876529,
      0.0226717,
      -0.1050376,
      0.0146187,
      0.2830781,
      -0.0277715,
      0.203128,
      0.3861653,
      0.0582232,
      -0.0696687,
      -0.0776463,
      -0.1981198,
      -0.2177315,
      -0.1561067,
      -0.1026998,
      0.4450423,
      0.1596985,
      0.0426484,
      0.2422627,
      -0.0438941,
      0.1063218,
      0.2382852,
      0.0327301,
      0.1229999,
      -0.287067,
      0.8055935,
      -0.3153775,
      0.1762122,
      -0.3032065,
      -0.0962918,
      0.4317224,
      0.1661122,
      -0.0579453,
      0.1550633,
      -0.2398417,
      0.1416029,
      -0.1588943,
      -0.2395545,
      -0.0166739,
      -0.0515494,
      0.6170139,
      -0.2608022,
      0.231065,
      -0.1390481,
      -0.1128684,
      -0.1739019,
      0.2370521,
      -0.0998165,
      0.0158382,
      0.1774345,
      0.2565266,
      0.2921834,
      0.1890853,
      -0.2066367,
      0.0172897,
      -0.1540619,
      0.2070574,
      -0.0155778,
      -0.2993856,
      0.078021,
      0.2057149,
      -0.2719811,
      -0.006508,
      0.3565439,
      -0.2842532,
      0.2315356,
      0.0076259,
      -0.1408247,
      0.2518568,
      -0.0981966,
      0.1603201,
      -0.0165028,
      0.4305682,
      -0.1122135,
      0.3771906,
      -0.252043,
      0.2767708,
      0.0740665,
      0.0870363,
      0.0450719,
      0.0410734,
      0.2981935,
      0.1118205,
      -0.0260761,
      -0.1578638,
      0.2922374,
      -0.1202715,
      0.0735132,
      -0.0521352,
      -0.2568089,
      0.4477186,
      -0.1795031,
      -0.130481,
      -0.0224505,
      -0.241501,
      -0.0069432,
      0.3152984,
      0.1016874,
      0.1637637,
      -0.2021932,
      0.0187346,
      0.1984952,
      0.0291707,
      -0.2189422,
      -0.2359859,
      -0.1065415,
      0.0596295,
      -0.0597032,
      -0.2422059,
      0.0875196,
      0.4633169,
      0.0221107,
      -0.0578711,
      -0.150124,
      0.1272936,
      0.1950113,
      -0.2014085,
      0.3971893,
      -0.1951391,
      0.0319508,
      -0.0451549,
      0.4328359,
      0.003707,
      -0.2839439,
      0.2390032,
      -0.0469429,
      -0.0489681,
      0.0385069,
      0.0723307,
      0.0497938,
      -0.0936961,
      -0.0311881,
      0.5647909,
      0.1013318,
      0.1145352,
      -0.1020715,
      0.0496788,
      -0.2120197,
      -0.3105827,
      -0.2717049,
      -0.0886045,
      -0.346427,
      0.2297609,
      0.1761556,
      0.2758817,
      -0.117211,
      -0.0769909,
      -0.1737461,
      -0.0418859,
      0.3255449,
      0.2407933,
      0.0760675,
      -0.1198934,
      0.0978523,
      0.2150699,
      -0.2017295,
      -0.0200451,
      0.0518736,
      -0.2481673,
      -0.3194792,
      0.2902286,
      0.2339232,
      -0.157638,
      0.0082402,
      -0.1854867,
      0.1875568,
      -0.1533526,
      -0.2252341,
      0.033791,
      -0.2589176,
      0.048531,
      -0.3374599,
      -0.3258148,
      0.0412729,
      0.1960294,
      0.0264048,
      -0.0316124,
      0.3101934,
      -0.2827926,
      -0.2649098,
      -0.2491312,
      0.2741993,
      0.1140827,
      0.1078022,
      -0.2321267,
      -0.085904,
      0.0757015,
      0.0526601,
      -0.0194658,
      0.01098,
      -0.0609633,
      0.262281,
      0.025981,
      -0.2589861,
      -0.0883309,
      -0.2601137,
      0.3868502,
      0.4017447,
      0.2861771,
      0.0193325,
      -0.4000774,
      0.2458466,
      -0.2490142,
      -0.1250372,
      0.0954288,
      -0.028037,
      0.1217755,
      -0.3926572,
      0.2420076,
      0.0846466,
      -0.2778606,
      -0.2623885,
      -0.3915145,
      0.3009727,
      0.0143182,
      -0.0163757,
      -0.0767599,
      0.0277726,
      -0.0114559,
      -0.2845946,
      -0.3221445,
      -0.0122913,
      0.0453959,
      -0.1008306,
      0.1739747,
      0.0156269,
      0.2845738,
      0.0900579,
      -0.1777447,
      0.4868463,
      -0.3066975,
      -0.1981019,
      -0.3328306,
      -0.130779,
      0.0704982,
      -0.098425,
      0.0974522,
      -0.1378744,
      0.1917043,
      -0.2799754,
      -0.2475375,
      -0.1763497,
      0.0660209,
      0.0009583,
      0.0709444,
      -0.0513837,
      -0.0374896,
      -0.4284917,
      0.1714667,
      0.16467,
      -0.0736732,
      0.1079801,
      0.0816818,
      -0.2799321,
      -0.0653015,
      -0.1395816,
      -0.0545243,
      0.0834824,
      -0.1471833,
      -0.0746894,
      -0.1591103,
      0.3247653,
      0.0807654,
      0.1788111,
      -0.2058186,
      0.1991183,
      0.3536453,
      0.1168336,
      0.0389863,
      -0.1202042,
      -0.0306058,
      -0.1693852,
      -0.054706,
      -0.0934119,
      0.0600029,
      -0.0737547,
      0.15839,
      -0.0517566,
      0.1350189,
      -0.153097,
      -0.0849044,
      -0.1511353,
      -0.1364635,
      -0.1787094,
      0.074891,
      0.0945377,
      -0.1058758,
      0.0590845,
      -0.0937451,
      -0.0494173,
      -0.0857728,
      0.0666539,
      0.0863758,
      0.0728639,
      0.1574501,
      0.1748274,
      0.0916925,
      -0.0924378,
      -0.0867429,
      -0.0180249,
      -0.0640548,
      0.1938607,
      -0.1097752,
      0.1374838,
      -0.1781027,
      0.1751062,
      -0.071657,
      0.0014432,
      0.0164644,
      0.0178557,
      0.4265715,
      0.0433551,
      -0.2246453,
      -0.0227997,
      0.1797231,
      0.0370945,
      -0.0046786,
      -0.2258857,
      0.1483143,
      0.1552138,
      -0.1177668,
      -0.1084312,
      -0.1009958,
      -0.0458258,
      0.0812364,
      -0.0790152,
      0.2820809,
      0.0571296,
      0.2360051,
      -0.0028032,
      -0.058735,
      -0.1477554,
      -0.1965503,
      0.2189945,
      -0.3092446,
      0.0437867,
      0.2954974,
      0.0373932,
      0.1328698,
      0.2777036,
      -0.1464462,
      0.0267672,
      0.2299163,
      0.1214393,
      -0.0558681,
      0.2195736,
      -0.016461,
      -0.0933306,
      0.0331826,
      0.1661805,
      0.088597,
      -0.1309656,
      0.1116172,
      -0.2946136,
      -0.3210324,
      0.0565883,
      -0.0318542,
      -0.0786954,
      -0.2328386,
      0.0652043,
      0.3106536,
      -0.0465771,
      -0.2403472,
      -0.1467301,
      -0.1476352,
      -0.1005009,
      0.1369481,
      -0.0016877,
      0.2661373,
      -0.0292963,
      -0.0713911,
      0.2954375,
      0.1184115,
      -0.273704
    ],
    "auxiliary_prediction_weights": {
      "damage": [
        0.469444,
        -0.8398525,
        0.2682188,
        0.0162825,
        0.8987004,
        -0.0355381,
        0.2119984,
        0.7797348,
        0.4015105,
        -0.1267716
      ],
      "hazard": [
        -0.1976919,
        0.7469958,
        0.2763658,
        0.4238782,
        -0.2372439,
        0.7069704,
        0.8987967,
        -0.1018845,
        -0.0774904,
        0.2697297
      ],
      "reproduction": [
        -0.3309205,
        0.6444616,
        0.4853645,
        -0.0073158,
        0.524473,
        0.4105422,
        0.4232436,
        -0.160204,
        -0.1073083,
        0.1626475
      ],
      "social": [
        -0.2230494,
        -0.0683926,
        0.1987064,
        0.4468096,
        0.7670457,
        -0.3391437,
        0.8278501,
        0.632347,
        -0.2505103,
        0.1509747
      ],
      "tool": [
        -0.0049869,
        -0.1747913,
        -0.4596251,
        -0.1705469,
        -0.4643163,
        0.1275375,
        0.0618845,
        -0.2674746,
        0.281093,
        0.2410108
      ]
    },
    "bias_h": [
      -0.0295335,
      -0.0527842,
      -0.0163432,
      -0.0419835,
      0.1145043,
      0.11406,
      -0.215098,
      -0.214725,
      0.048502,
      -0.0145131
    ],
    "bias_o": [
      0.1025301,
      -0.0807469,
      0.4186635,
      -0.339542,
      -0.3026839,
      -0.0851264,
      0.0366215,
      0.0197694,
      0.4038333,
      0.0085313,
      -0.0029917,
      -0.0432211,
      -0.0046287,
      0.0586034,
      -0.1058952
    ],
    "episodic_age": [
      3.0,
      2.0,
      1.0
    ],
    "episodic_capacity": 3,
    "episodic_slots": [
      -0.1469645,
      0.4060082,
      -0.1544307,
      -0.2171942,
      0.3822617,
      0.6875737,
      -0.5719939,
      -0.4312882,
      -0.151584,
      0.4022596,
      -0.1372038,
      0.4136898,
      -0.1662105,
      -0.2232948,
      0.385535,
      0.6879827,
      -0.5611518,
      -0.436633,
      -0.1506146,
      0.4006612,
      -0.1400285,
      0.4205261,
      -0.1673281,
      -0.2163459,
      0.3890794,
      0.687891,
      -0.5533421,
      -0.4423545,
      -0.1488987,
      0.403556
    ],
    "hidden": [
      -0.1366336,
      0.4187068,
      -0.1586411,
      -0.2288538,
      0.3943244,
      0.6841517,
      -0.5570466,
      -0.4482661,
      -0.1511571,
      0.4068767
    ],
    "hidden_size": 10,
    "hidden_trace": [
      -0.1588154,
      0.4064121,
      -0.150962,
      -0.2210236,
      0.3626616,
      0.6817953,
      -0.5689042,
      -0.4436272,
      -0.1514145,
      0.3999479
    ],
    "input_size": 72,
    "input_trace": [
      0.8867774,
      0.8944485,
      0.5430285,
      0.6474418,
      0.000365,
      -0.0026793,
      1.1687448,
      0.0190281,
      0.0272162,
      -0.0059433,
      0.0064693,
      0.8668483,
      0.866002,
      0.1482823,
      0.548399,
      0.3715522,
      0.2107673,
      0.5812586,
      0.0157601,
      0.0759773,
      0.2588587,
      0.1588442,
      0.0652997,
      0.5405537,
      0.7864234,
      0.0293264,
      0.8094636,
      0.0391108,
      0.0539316,
      0.3221801,
      0.4012685,
      0.3967373,
      0.4020441,
      0.1812099,
      0.1422685,
      0.1096727,
      0.1164149,
      0.7957417,
      0.0748039,
      0.0267778,
      -0.0136769,
      0.3509228,
      0.5104744,
      0.0279267,
      0.0040061,
      0.0026237,
      -0.3111838,
      -0.0003866,
      0.213951,
      0.8894363,
      -0.3176414,
      0.2076023,
      -0.1759936,
      0.4289082,
      0.8615209,
      -0.0654383,
      0.0264815,
      0.0008165,
      -0.0095436,
      0.0036586,
      -0.0023706,
      0.1129169,
      0.4803291,
      0.191329,
      0.025231,
      -0.0118471,
      0.0502693,
      0.0049328,
      0.0055721,
      0.0985482,
      0.0715723,
      0.0677051
    ],
    "last_attention": [
      0.894291,
      0.8947574,
      0.879243,
      0.891046,
      0.8733782,
      0.8826372,
      0.8903036,
      0.8866336,
      0.8981122,
      0.8839143,
      0.8721735,
      0.9024522,
      0.8689084,
      0.8981741,
      0.8859772,
      0.8738318,
      0.8942024,
      0.8910659,
      0.8746683,
      0.8771588,
      0.8839245,
      0.8863329,
      0.8852651,
      0.8738149,
      0.8738466,
      0.8780827,
      0.9062186,
      0.8769111,
      0.8806389,
      0.8754124,
      0.8911427,
      0.8719156,
      0.8873766,
      0.8719947,
      0.8861307,
      0.8796318,
      0.893345,
      0.9013045,
      0.8723747,
      0.8765628,
      0.8769135,
      0.8709733,
      0.8875044,
      0.8812847,
      0.8803244,
      0.8875201,
      0.8574921,
      0.8741074,
      0.8734312,
      0.8874396,
      0.8684587,
      0.888294,
      0.8788409,
      0.8908567,
      0.8946594,
      0.8811832,
      0.8783227,
      0.874309,
      0.8933861,
      0.8781124,
      0.8888635,
      0.8799365,
      0.8930796,
      0.8763312,
      0.8816668,
      0.8865032,
      0.8795508,
      0.8836107,
      0.8778657,
      0.8811554,
      0.8798833,
      0.8704281
    ],
    "last_inputs": [
      0.8822758,
      0.8970839,
      0.5546875,
      0.6804979,
      0.0054303,
      0.0394363,
      1.1637456,
      0.0570204,
      0.0373835,
      -0.0069135,
      0.027925,
      0.9259655,
      0.8375773,
      0.1687726,
      0.523688,
      0.3772042,
      0.2449681,
      0.5854025,
      0.0375158,
      0.0604524,
      0.2899767,
      0.159603,
      0.0639318,
      0.5367223,
      0.8174559,
      -0.0008815,
      0.8155791,
      0.0555031,
      0.0839042,
      0.3383981,
      0.3963462,
      0.3835414,
      0.3768219,
      0.2029915,
      0.1609308,
      0.0981654,
      0.1320985,
      0.7706177,
      0.0701195,
      0.0205918,
      -0.0322642,
      0.3245206,
      0.49397,
      0.0836609,
      0.0108085,
      0.0091096,
      -0.2742282,
      0.0132792,
      0.2224483,
      0.9105114,
      -0.3185979,
      0.1842563,
      -0.1746923,
      0.448973,
      0.9167561,
      -0.0634893,
      0.0601602,
      0.0371588,
      -0.0347884,
      0.0245193,
      -0.0025777,
      0.1068023,
      0.4608102,
      0.186017,
      -0.011976,
      -0.047742,
      0.0367417,
      -0.0055755,
      -0.0344627,
      0.0785462,
      0.0494736,
      0.0936228
    ],
    "last_outputs": [
      0.0769492,
      -0.2061829,
      0.3497918,
      -0.3957936,
      -0.5187322,
      0.0106151,
      0.238723,
      0.1823877,
      0.6891576,
      0.1412585,
      -0.0432271,
      0.0512294,
      0.4022843,
      -0.0394268,
      -0.0890642
    ],
    "last_prediction_errors": {
      "damage": 0.2251447,
      "energy": -0.4025407,
      "hazard": -0.0808101,
      "reproduction": -0.2042602,
      "social": 0.2235371,
      "tool": -0.0267569
    },
    "output_size": 15,
    "prediction_weights": [
      0.2420273,
      0.8173956,
      0.192088,
      0.6490245,
      0.4948878,
      0.2392191,
      -1.3886806,
      0.1120804,
      0.03291,
      0.1492984
    ],
    "weights_in": [
      -0.4025178,
      -0.6788886,
      -0.062283,
      0.4700073,
      -0.4872194,
      -0.4621567,
      -0.2946693,
      0.5493473,
      0.2326219,
      0.372828,
      -0.6498493,
      0.7690692,
      0.2926477,
      -0.4698734,
      -0.3619801,
      0.020996,
      0.8098555,
      0.2986651,
      0.2605167,
      -0.0328505,
      -0.7922883,
      -0.0921274,
      0.3154938,
      -0.3498895,
      0.0155838,
      0.1184572,
      -0.0164554,
      -0.7694076,
      -0.5611494,
      -0.3571449,
      -0.2355945,
      0.2380216,
      -0.091883,
      -0.3748335,
      0.1419603,
      -0.3776086,
      0.6057917,
      0.2994721,
      0.5146072,
      0.1596815,
      -0.1593666,
      -0.2165658,
      -0.4034164,
      0.5851241,
      1.0123574,
      -0.4247761,
      0.0042451,
      0.5392759,
      -0.5591546,
      0.3251428,
      0.4378297,
      0.3902899,
      -0.1207386,
      -0.3139478,
      0.290403,
      1.1598008,
      -0.0885488,
      0.4646977,
      0.3859344,
      0.0583868,
      0.8716666,
      -0.4861426,
      0.4868626,
      0.3421873,
      -0.4479972,
      -0.1255315,
      -0.751259,
      0.2202127,
      0.1241758,
      -0.1161766,
      0.050502,
      -0.0405238,
      -0.0378385,
      0.2436251,
      -0.1575667,
      -0.0599281,
      -0.0403396,
      0.1433138,
      0.2028691,
      0.0453424,
      0.2864687,
      -0.536057,
      0.6601479,
      0.2745195,
      0.170843,
      -0.4480989,
      0.4215058,
      -0.021419,
      0.7303033,
      -0.3313475,
      0.1463199,
      1.3307831,
      0.2593847,
      -0.1628587,
      0.6083042,
      -1.0017588,
      0.418039,
      -0.3670516,
      0.7802841,
      -0.537046,
      0.0702967,
      0.6556842,
      0.5151588,
      -0.5378677,
      -0.427895,
      -0.9860544,
      0.3050806,
      0.7310968,
      -0.1173214,
      0.5639151,
      -0.2424717,
      -0.3435705,
      -0.9061181,
      -0.0380291,
      0.1281629,
      0.2335355,
      0.2207928,
      0.1683813,
      -0.4546886,
      -0.5924305,
      -1.2469204,
      -0.1107998,
      -0.5670462,
      0.5402363,
      -0.5628442,
      -0.1044729,
      0.3651063,
      -0.4802268,
      0.0803565,
      0.1253598,
      -0.9174906,
      -1.027379,
      -0.6567395,
      0.4571184,
      -0.709565,
      0.4397297,
      0.0957113,
      -0.3299035,
      0.3567423,
      0.6274253,
      -0.2843092,
      -0.9994951,
      0.015388,
      -1.0916949,
      -0.4039054,
      -0.009673,
      0.064232,
      -0.7005264,
      -0.4192624,
      1.0463548,
      0.3476566,
      0.2017965,
      -0.5724433,
      0.0689402,
      0.3448061,
      -0.5557823,
      0.4361413,
      -0.0162966,
      -0.5880085,
      0.4145543,
      0.5019896,
      -0.1454859,
      0.3074245,
      -1.1550425,
      0.0206927,
      0.3294061,
      0.0592672,
      0.3372033,
      -0.1165633,
      -0.1361214,
      -0.0566441,
      0.4014714,
      -0.0009174,
      0.2946955,
      0.5382945,
      0.1198593,
      0.2127992,
      0.6181702,
      0.50988,
      0.5530296,
      -0.1986382,
      -0.3731524,
      0.3998115,
      -0.7859576,
      -0.4615379,
      -0.0637749,
      0.209055,
      -0.5072309,
      0.2453725,
      0.7737764,
      -0.0506333,
      -0.0698155,
      0.0414525,
      0.0443403,
      -0.1476204,
      -0.3066111,
      -0.5499518,
      0.5309364,
      -0.4376393,
      -0.1193219,
      0.5450688,
      -0.6243166,
      -0.0454346,
      0.6007904,
      -0.3224922,
      -0.4526433,
      -0.1361065,
      -0.8928922,
      0.8134405,
      -0.5259667,
      0.3565824,
      0.1333002,
      0.8578262,
      -0.8797571,
      0.8070009,
      0.597955,
      -0.0583817,
      -0.1581968,
      0.1375484,
      0.1224271,
      0.7442372,
      0.361351,
      -0.3645336,
      -0.4956043,
      0.2080265,
      0.4597417,
      0.0923943,
      -0.1713136,
      0.0392481,
      -0.5558662,
      0.2850494,
      -0.052471,
      -0.0710743,
      0.0158932,
      0.2339702,
      0.3944179,
      -0.0502297,
      0.5117509,
      -0.6823274,
      0.5963842,
      0.1672,
      0.3894865,
      -0.8100727,
      -0.4993907,
      -0.0728323,
      0.1677181,
      0.5078245,
      -0.6739977,
      -0.9725424,
      -0.115078,
      -0.1712668,
      -1.0626076,
      0.672265,
      0.6383586,
      -0.4114365,
      0.2855569,
      0.0817488,
      0.4286772,
      -0.1449754,
      -0.4740239,
      0.1469491,
      0.1014519,
      -0.4896693,
      -0.4911978,
      0.3708994,
      -0.3777602,
      -0.3630187,
      -0.2974845,
      -0.4577329,
      0.4626395,
      0.3070917,
      1.0848305,
      -0.291646,
      -0.4694968,
      0.3548855,
      -0.178645,
      -0.4859471,
      0.1736507,
      -0.811549,
      0.6796937,
      -0.2117996,
      -0.3069859,
      0.1401759,
      -0.056318,
      0.2624275,
      0.8431254,
      0.4304252,
      -0.7843422,
      -0.2624436,
      -0.7185772,
      0.2489376,
      -0.174837,
      -0.1689055,
      0.7807905,
      0.2053782,
      0.0857124,
      0.0452004,
      1.1024833,
      0.3518059,
      1.0536688,
      -0.6045772,
      0.353404,
      0.938118,
      -0.2903075,
      0.3261589,
      0.3159144,
      0.8095902,
      0.3931107,
      0.0946986,
      0.2604849,
      0.3392952,
      -0.3410033,
      0.8428402,
      -0.8338923,
      -0.1574053,
      -0.4904395,
      0.2677012,
      -0.0255863,
      0.253795,
      0.6475912,
      -0.7543067,
      -1.1595735,
      -0.1784768,
      -0.3325482,
      0.1674096,
      -0.082979,
      -0.1562575,
      -0.8797968,
      0.484207,
      0.1277483,
      -0.6094394,
      -0.1975721,
      0.7059736,
      0.1934046,
      0.2046309,
      0.4375183,
      -0.1770169,
      -0.648546,
      0.1582767,
      1.0871514,
      0.9461827,
      0.3773873,
      0.3579449,
      -0.5782373,
      0.4774131,
      -0.0411878,
      -0.3543029,
      0.1376455,
      -0.1538718,
      0.3244058,
      0.2350184,
      -0.7913229,
      -0.2703202,
      -0.5074056,
      0.7482286,
      0.4062443,
      0.233272,
      0.2810119,
      0.7946547,
      0.3620127,
      -0.1179115,
      0.7366491,
      -0.2412877,
      0.1784926,
      -0.3247517,
      0.226031,
      -1.2309423,
      1.0431635,
      0.5853053,
      0.0595426,
      0.1238228,
      0.1813146,
      0.4271593,
      0.3490446,
      0.6628073,
      -0.1127553,
      0.3819505,
      -0.7350934,
      -0.2730958,
      0.0654536,
      0.1522167,
      -0.198831,
      -0.2656674,
      0.1672159,
      0.3607573,
      0.094809,
      0.3325533,
      0.3676266,
      0.2331377,
      0.1682616,
      0.2912112,
      0.7114238,
      -0.1928271,
      -0.266929,
      0.3505823,
      0.2979093,
      0.5313337,
      0.7126049,
      0.6478357,
      -0.8671342,
      0.2480414,
      0.2495958,
      0.2014763,
      -0.8138977,
      0.6137421,
      0.3141246,
      -0.5402481,
      -0.5407557,
      0.5592568,
      0.0348116,
      0.4981146,
      0.0893948,
      -0.2954711,
      0.1756403,
      0.193767,
      -0.5678817,
      -0.0781462,
      -0.0515735,
      -0.9901583,
      -0.5440678,
      -0.0212488,
      0.4601603,
      0.6987486,
      -0.3867636,
      0.3160483,
      -0.5858717,
      0.4948195,
      0.1359515,
      -0.2825766,
      0.7105164,
      -0.1178947,
      -0.193722,
      -0.5122866,
      -1.0978905,
      0.4651583,
      0.3558674,
      -0.1842264,
      -0.6596998,
      -0.0624247,
      0.648063,
      0.2494966,
      -0.7596172,
      0.1703162,
      0.2526202,
      -1.0442924,
      0.6278904,
      -0.3848475,
      0.1391335,
      0.6728647,
      -0.7157322,
      -0.4155536,
      0.3766314,
      -0.3048376,
      -0.1262134,
      1.347219,
      0.2669464,
      -0.212204,
      -0.0850898,
      -0.438927,
      0.1414286,
      1.2390477,
      0.94752,
      0.0659503,
      -0.0853967,
      0.395439,
      0.4878588,
      0.4545755,
      -0.3677217,
      0.5803437,
      -0.3686781,
      -0.0716978,
      0.3744371,
      1.6890358,
      -0.1730712,
      0.5591653,
      -0.4177132,
      -0.1081186,
      -0.471192,
      -0.0812231,
      -0.0184535,
      -0.138293,
      0.207941,
      0.0068486,
      0.673582,
      0.4603402,
      0.1246374,
      0.1793591,
      -0.3587162,
      0.2637574,
      -0.0610668,
      -0.6126316,
      0.0137077,
      -0.4951443,
      -0.0665477,
      1.1500195,
      0.3592498,
      0.1982613,
      -0.3869709,
      -0.2556745,
      0.8465224,
      -0.1968685,
      0.2354939,
      0.4274722,
      -0.35343,
      -0.9989994,
      -0.2994637,
      0.0330588,
      -0.1909352,
      0.4437707,
      0.2650468,
      -0.0950688,
      -0.0026661,
      -0.7532099,
      0.6983739,
      -0.2179884,
      0.3426967,
      0.6180968,
      0.6823049,
      0.6462422,
      -0.0951801,
      0.2145019,
      0.8165342,
      -0.5380251,
      -0.4266366,
      0.1235741,
      0.3748469,
      -0.4733499,
      0.769171,
      0.9829314,
      -0.3968589,
      0.0944461,
      -0.2003666,
      0.1222279,
      -0.7873118,
      0.2834435,
      0.4127205,
      0.8755681,
      0.019188,
      0.580415,
      0.3278588,
      0.3084817,
      -0.3775104,
      0.9576428,
      -0.3926093,
      -0.8217383,
      0.4266389,
      -1.3995976,
      0.25578,
      -0.0908225,
      -1.0378205,
      0.4386117,
      0.2225969,
      -0.3882049,
      -0.5829702,
      0.4379915,
      -0.1482996,
      -0.6059894,
      -0.2497616,
      -0.3116917,
      0.0995073,
      -0.102062,
      -0.8209124,
      -0.1396242,
      -0.0648228,
      -0.0588505,
      0.2588038,
      0.0376859,
      -0.9355902,
      0.7256595,
      0.7482221,
      0.6380298,
      0.1684162,
      0.1176139,
      -0.1441392,
      0.4767682,
      -0.5385366,
      -0.0993268,
      -0.3199296,
      0.0302264,
      -0.2341376,
      -0.3240259,
      -0.0693866,
      -0.2677906,
      0.0521871,
      0.2114297,
      -0.2122086,
      0.1749887,
      0.0372481,
      -0.0433874,
      -0.0697667,
      0.1029469,
      0.0490315,
      -0.226654,
      -0.1557514,
      -0.2630117,
      0.203914,
      0.1777174,
      0.0449927,
      0.0471732,
      -0.1093547,
      -0.013359,
      -0.2600457,
      0.1462821,
      0.1575699,
      0.2648131,
      -0.1862003,
      0.0657444,
      -0.0931265,
      0.0514301,
      -0.2482863,
      -0.1116672,
      0.2674804,
      -0.1577204,
      -0.2693652,
      -0.035153,
      0.1538106,
      0.4354423,
      0.0794593,
      -0.0346845,
      0.1658052,
      -0.0163962,
      -0.0266295,
      0.170114,
      -0.2011747,
      -0.01326,
      -0.028724,
      -0.2474671,
      0.0619236,
      0.0632212,
      -0.0556733,
      0.0634613,
      0.2429235,
      0.0582479,
      -0.1747975,
      -0.0454194,
      -0.1345483,
      0.0396916,
      -0.0734617,
      0.1921234,
      0.4095177,
      -0.1815518,
      0.0971295,
      -0.1242501,
      -0.1216738,
      0.2272546,
      -0.0797679,
      -0.0634932,
      0.0508535,
      0.3632094,
      0.0509798,
      0.2357807,
      -0.0112745,
      0.2199726,
      0.2966683,
      0.2734017,
      0.065231,
      0.3114854,
      0.5093659,
      -0.160124,
      0.1111436,
      0.322945,
      -0.054936,
      -0.0485403,
      -0.2688915,
      0.1662963,
      0.1874374,
      0.0774542,
      0.1252786,
      0.1035848,
      0.3426927,
      0.1078669,
      0.3427361,
      0.2841835,
      0.5831051,
      -0.0834084,
      -0.0575218,
      -0.0869759,
      0.1128945,
      -0.4999547,
      -0.0460786,
      -0.1921327,
      0.0242223,
      0.1769886,
      -0.07383,
      -0.2962316,
      -0.3520789,
      -0.041368,
      -0.0369445,
      0.0659847,
      -0.2012969,
      0.1047972,
      -0.0119513,
      -0.0573241,
      0.0058202,
      -0.053363,
      -0.0552625,
      0.044678,
      0.1969502,
      -0.1562698,
      -0.08533,
      -0.2811424,
      -0.0684118,
      0.2315556,
      -0.3471142,
      -0.0148732,
      0.3107359,
      -0.1904416,
      0.1199535,
      -0.0147944,
      0.0767124,
      0.1226233,
      0.0617786,
      -0.0404008,
      0.0723169,
      -0.3227691,
      -0.6599615,
      -0.0594454,
      0.0948069,
      0.1022933,
      -0.1526729
    ],
    "weights_out": [
      -0.659643,
      0.8492333,
      -0.0167321,
      0.0470039,
      -0.3068898,
      -0.7210013,
      -0.0555074,
      0.0746106,
      -0.1287321,
      0.1938037,
      0.5861625,
      -0.5815121,
      -0.0349292,
      0.1358915,
      -0.2722974,
      -0.0277644,
      -0.2140701,
      0.2954743,
      -0.1898532,
      0.1556787,
      -0.3513067,
      0.3076497,
      -0.1218899,
      0.1773112,
      -0.0615712,
      -0.1590255,
      0.3860298,
      0.236013,
      -0.1118315,
      0.156412,
      0.4156204,
      -0.1110124,
      0.1977326,
      -0.5091841,
      -0.4164344,
      -0.0963902,
      -0.369098,
      0.4007182,
      -0.2749608,
      0.0069876,
      0.3060734,
      0.2575909,
      0.2990858,
      0.8751711,
      -0.2815428,
      -0.145185,
      0.7708142,
      -0.1774292,
      0.1072946,
      0.184094,
      0.9668899,
      -0.2067541,
      -0.1973631,
      -0.4207304,
      0.5657675,
      0.2541916,
      0.5056572,
      -0.5339757,
      0.2208161,
      0.1782657,
      1.0950701,
      0.1615754,
      0.4798831,
      1.2783441,
      0.0621014,
      0.7766694,
      -0.3068655,
      -0.2975833,
      -0.2858833,
      0.4580234,
      -0.3848385,
      0.5684575,
      0.3789645,
      0.1095871,
      -0.1485004,
      0.1015017,
      -0.3590069,
      -0.3198989,
      -0.1203816,
      -0.1563646,
      -1.3010599,
      0.252784,
      -0.5661094,
      0.7133021,
      -0.5058132,
      1.1239678,
      -0.0626164,
      0.1281042,
      -0.0935659,
      0.3219378,
      0.1441513,
      -1.0426657,
      -0.1586071,
      -0.1918618,
      0.7749014,
      0.7732882,
      0.4749151,
      -0.4603999,
      0.1681069,
      0.1373566,
      -0.4261926,
      -0.2436582,
      -0.0095111,
      -0.1558764,
      0.9736271,
      -0.6396123,
      0.4305802,
      -0.2950957,
      -0.3283255,
      -0.0221646,
      -0.0866905,
      0.0981224,
      -1.237384,
      -0.8530279,
      -0.1031784,
      0.2940299,
      0.5077643,
      0.1049002,
      0.225554,
      0.1418641,
      -0.4705154,
      0.3840211,
      0.4245761,
      -1.2526499,
      0.3189892,
      0.0406352,
      -0.877136,
      -0.4705254,
      0.1156042,
      0.016554,
      -0.3786724,
      -0.0023858,
      0.6714453,
      -0.1451628,
      0.2161638,
      -0.4419558,
      -0.2416169,
      0.0262906,
      0.3933558,
      -0.3285165,
      -0.267416,
      0.0591607,
      0.3400278,
      0.0792599,
      -0.2614146,
      -0.6502779,
      -0.1896047,
      -0.8009853,
      -0.1793401,
      0.2953859
    ]
  },
  "brain_template": {
    "attention_bias": [
      3.0043406,
      3.0328366,
      2.8693348,
      2.6978489,
      3.0369913,
      2.9777422,
      3.0746771,
      2.8286053,
      3.256489,
      3.025699,
      2.7861348,
      2.9904521,
      2.9481451,
      3.1833382,
      3.0244947,
      2.8024651,
      2.9279539,
      3.0613005,
      3.1011472,
      2.9315208,
      3.0631662,
      3.4253527,
      3.0352085,
      2.9949018,
      3.0869012,
      2.9200787,
      3.005556,
      3.2562228,
      2.7822918,
      2.7480947,
      2.936218,
      2.9546453,
      2.634776,
      3.0942498,
      2.7473693,
      2.5692668,
      2.8543036,
      3.0835027,
      3.1370786,
      2.9530074,
      2.6563067,
      2.7044315,
      3.0531896,
      2.8473202,
      3.1447582,
      2.9856071,
      2.9388181,
      3.0908474,
      2.8582986,
      2.9450639,
      3.0322469,
      2.9081058,
      3.1239771,
      2.8296535,
      2.9744308,
      2.9470358,
      3.2837917,
      2.8101911,
      3.0226609,
      3.0299876,
      3.0733468,
      3.0833805,
      3.0584787,
      2.7466915,
      2.7647139,
      3.2717155,
      2.6416223,
      2.7790271,
      3.1497263,
      3.0143759,
      3.3380018,
      3.0299121
    ],
    "attention_weights": [
      0.130024,
      0.0475432,
      0.2506537,
      0.0576608,
      0.5002702,
      0.0477384,
      0.1416521,
      0.1006687,
      -0.207263,
      0.1346162,
      0.0835469,
      -0.0795057,
      0.037722,
      0.0011763,
      0.2657223,
      0.1057713,
      0.1073666,
      0.0152519,
      -0.0454015,
      0.2013392,
      -0.4432959,
      0.1490588,
      0.3406174,
      -0.0961361,
      0.1143238,
      0.1825099,
      -0.0479866,
      -0.0892114,
      0.3742711,
      0.2985001,
      -0.0235054,
      -0.0298871,
      -0.1503779,
      -0.1124343,
      0.0878658,
      -0.3823255,
      0.2987043,
      0.0770592,
      -0.3864796,
      0.0983365,
      0.1290017,
      -0.1231832,
      0.1323327,
      0.1522935,
      0.0810728,
      0.19897,
      -0.2523786,
      -0.1743502,
      -0.2654627,
      0.1853082,
      -0.2132775,
      -0.1575679,
      0.0057749,
      -0.2611104,
      0.2390507,
      -0.1313024,
      -0.0153383,
      0.3168788,
      -0.0317608,
      -0.1586484,
      -0.0753251,
      -0.0705293,
      -0.3387408,
      0.0907575,
      -0.3482337,
      -0.1651788,
      0.135185,
      -0.0948057,
      -0.1997032,
      -0.3324163,
      -0.2173629,
      0.090531,
      0.1568522,
      -0.1414158,
      -0.09591,
      0.094736,
      -0.1074057,
      -0.2231171,
      -0.0541289,
      -0.0041085,
      0.1454282,
      0.0535763,
      0.0257351,
      -0.0687865,
      -0.0256491,
      0.1251899,
      0.4767705,
      0.1943997,
      0.3629353,
      0.0080747,
      -0.2160963,
      0.0614991,
      0.1605677,
      -0.3094436,
      -0.1987631,
      0.0168906,
      0.0795156,
      -0.0730829,
      0.2784381,
      -0.1174816,
      -0.0705919,
      0.2912392,
      0.3573779,
      -0.0948358,
      0.0347766,
      0.1404178,
      -0.0572539,
      0.0160364,
      0.4307529,
      0.2982519,
      -0.2511352,
      0.360197,
      -0.2895974,
      -0.3027054,
      0.2785037,
      0.2835757,
      -0.0269259,
      0.234867,
      -0.5773391,
      -0.0516564,
      0.0323388,
      -0.6399243,
      0.0750905,
      -0.0667123,
      -0.3560252,
      0.0424047,
      0.06178,
      -0.2044947,
      0.1456253,
      0.0862257,
      0.1568705,
      -0.2313041,
      0.2229055,
      -0.2167047,
      -0.1540718,
      0.233586,
      -0.2181816,
      0.0419423,
      -0.2424375,
      -0.167805,
      0.0020557,
      -0.1734637,
      0.1929913,
      -0.0579756,
      -0.0496399,
      0.0230564,
      0.0122156,
      -0.2347984,
      0.05515,
      -0.028693,
      -0.1048945,
      0.0203685,
      -0.2557954,
      0.2198415,
      -0.0825199,
      0.2282515,
      -0.4334198,
      -0.1000235,
      -0.3711601,
      0.356852,
      0.218152,
      0.0349341,
      0.3153964,
      -0.3038636,
      -0.0278526,
      0.2605184,
      0.161303,
      0.0723116,
      0.0205576,
      -0.3985893,
      0.1303295,
      0.1736502,
      -0.105605,
      0.1455462,
      -0.1189319,
      -0.1568246,
      0.2948971,
      0.1338092,
      0.3810442,
      0.3522845,
      0.1163465,
      0.2327336,
      -0.3937355,
      -0.2082962,
      -0.1983602,
      0.3962521,
      0.0690253,
      0.0458853,
      -0.1011997,
      0.0940643,
      -0.0290228,
      0.194651,
      0.393686,
      0.3794518,
      0.181695,
      0.1049059,
      -0.063165,
      0.1270395,
      0.2113889,
      0.0005911,
      -0.0009698,
      0.2563058,
      -0.1735615,
      0.1440245,
      -0.0841153,
      -0.1048006,
      -0.2291131,
      0.3373327,
      0.2869619,
      0.0951384,
      -0.1879889,
      0.1651504,
      -0.0212073,
      0.2803867,
      0.0661267,
      0.0313748,
      -0.1240986,
      0.0146835,
      -0.1565269,
      0.11301,
      0.0344404,
      -0.0730447,
      0.081745,
      -0.1215161,
      -0.2975673,
      0.0387322,
      -0.1348816,
      -0.0569971,
      0.2030714,
      -0.0990511,
      0.0660027,
      0.1841029,
      -0.1306488,
      0.0224552,
      0.2425853,
      -0.0373676,
      0.2298181,
      -0.0371242,
      -0.0392249,
      -0.2534743,
      -0.0192578,
      -0.2937828,
      0.2590978,
      0.0893687,
      0.0717873,
      -0.1013818,
      -0.267792,
      0.1782909,
      0.1361835,
      0.108173,
      -0.0006344,
      0.2759292,
      0.044126,
      0.0060078,
      0.0835131,
      0.0745125,
      0.1338789,
      0.2956659,
      0.1646352,
      0.1571082,
      -0.184471,
      -0.2709354,
      0.1457077,
      0.1620443,
      0.3914359,
      0.0279406,
      0.1904839,
      0.0363408,
      0.2231295,
      -0.0781472,
      -0.1152243,
      -0.4207335,
      0.1211095,
      0.1713125,
      -0.105355,
      -0.2455415,
      0.201357,
      -0.2190995,
      0.232047,
      -0.0771236,
      -0.4798504,
      0.0057132,
      0.3931123,
      -0.2704227,
      -0.4688568,
      0.0782485,
      0.3870828,
      0.0848305,
      0.439404,
      -0.1378481,
      -0.0524166,
      0.2062107,
      -0.0723961,
      0.1584688,
      0.1324534,
      0.1143588,
      -0.0134211,
      -0.2681155,
      0.3944257,
      0.1167632,
      -0.3461354,
      0.1525582,
      -0.0328342,
      0.1869258,
      0.0460763,
      -0.179524,
      -0.0473847,
      -0.3357372,
      0.2338736,
      0.3330798,
      0.3204403,
      0.0324894,
      0.3249532,
      -0.2573245,
      0.2346655,
      0.105498,
      0.0433034,
      0.0216214,
      0.1857098,
      0.1489304,
      0.1250316,
      -0.2226266,
      0.1901247,
      0.0821245,
      0.164023,
      -0.0914943,
      -0.0270637,
      -0.0405326,
      -0.074504,
      -0.038736,
      -0.3947561,
      -0.003732,
      0.0468421,
      0.0030986,
      -0.3714628,
      0.0725876,
      -0.0696754,
      0.1281459,
      -0.064076,
      0.2781087,
      0.0388106,
      0.0273073,
      0.0426431,
      0.1837912,
      -0.0289237,
      -0.0330831,
      -0.0877308,
      0.0227047,
      -0.1051971,
      0.0043302,
      0.2370337,
      -0.0419053,
      0.2028098,
      0.3866436,
      0.0509992,
      -0.069753,
      -0.0776822,
      -0.2039688,
      -0.2229032,
      -0.1622737,
      -0.2857904,
      0.218675,
      0.086201,
      -0.0506378,
      0.2425755,
      -0.0440373,
      -0.0882145,
      0.2163909,
      0.0304303,
      0.1230268,
      -0.2874972,
      0.5832736,
      -0.4468629,
      0.1388248,
      -0.4427934,
      -0.1920201,
      0.3791969,
      0.0201241,
      -0.0591666,
      0.1389631,
      -0.3053628,
      0.1011598,
      -0.1768104,
      -0.3654504,
      0.0513925,
      -0.0531858,
      0.4805192,
      -0.2684207,
      0.2188785,
      -0.2252912,
      -0.2139052,
      -0.2756367,
      0.1303711,
      -0.1353214,
      -0.0308747,
      0.1522219,
      0.2315536,
      0.1177837,
      0.1699566,
      -0.2122052,
      -0.0931675,
      -0.244625,
      0.0796644,
      -0.0280681,
      -0.2996696,
      0.078058,
      0.2232668,
      -0.2734909,
      -0.0546294,
      0.1429053,
      -0.2669218,
      0.1934985,
      0.0383921,
      -0.2461422,
      0.0488654,
      -0.0887693,
      0.1561438,
      -0.0168893,
      0.4310725,
      -0.1123551,
      0.3773478,
      -0.2789608,
      0.1587382,
      0.0353659,
      0.0857043,
      0.0440152,
      0.0248416,
      0.2985088,
      0.1119709,
      -0.0358533,
      -0.1673084,
      0.2803563,
      -0.0453801,
      0.1729614,
      -0.0209438,
      -0.2174726,
      0.448164,
      -0.1796465,
      -0.0372916,
      -0.0176935,
      -0.2411318,
      -0.0069481,
      0.3156992,
      0.1858901,
      0.2420561,
      -0.1860602,
      0.0797734,
      0.2405304,
      0.0524509,
      -0.1549258,
      -0.2356998,
      -0.0995559,
      0.0883483,
      -0.042046,
      -0.2360411,
      0.1435987,
      0.4323718,
      0.0227004,
      0.0068154,
      -0.1480366,
      0.1318395,
      0.2319225,
      -0.1575549,
      0.4415842,
      -0.1499001,
      0.0500574,
      -0.0262315,
      0.4448774,
      0.0155789,
      -0.1998183,
      0.2466913,
      -0.0454332,
      -0.0257244,
      0.0787962,
      0.128492,
      0.0531515,
      -0.0938169,
      -0.0311923,
      0.5476719,
      0.1023091,
      0.1355696,
      -0.0111253,
      0.0319519,
      -0.1897003,
      -0.3241253,
      -0.22194,
      -0.0008988,
      -0.3511526,
      0.2313014,
      0.1766453,
      0.2761553,
      -0.1173126,
      -0.0768995,
      -0.1621896,
      0.0090573,
      0.3441439,
      0.2417025,
      0.0770324,
      -0.1145174,
      0.0979602,
      0.2153447,
      -0.197943,
      -0.0160861,
      0.0568408,
      -0.0834977,
      -0.1164533,
      0.3550977,
      0.3157645,
      -0.157851,
      0.0083419,
      -0.0146568,
      0.2065353,
      -0.1513388,
      -0.2253774,
      0.0339474,
      -0.0593436,
      0.1630376,
      -0.304016,
      -0.2013309,
      0.1270661,
      0.2437366,
      0.1574762,
      -0.030614,
      0.3251205,
      -0.2246047,
      -0.2287987,
      -0.2333751,
      0.3876264,
      0.0423967,
      0.1092712,
      -0.1112459,
      -0.0800955,
      0.0864267,
      0.1301001,
      0.07151,
      0.1021146,
      0.0354651,
      0.294103,
      0.067907,
      -0.2369837,
      -0.0659366,
      -0.1058248,
      0.4038646,
      0.4064605,
      0.3877313,
      0.0999374,
      -0.2858589,
      0.2574886,
      -0.2493159,
      -0.1251327,
      0.0820984,
      -0.0268664,
      0.1653175,
      -0.1994183,
      0.2285118,
      0.1189426,
      -0.3050458,
      -0.1676902,
      -0.2082597,
      0.2931518,
      0.0183053,
      -0.0160492,
      -0.0768654,
      0.0278249,
      -0.0112204,
      -0.26093,
      -0.2158092,
      0.0224738,
      0.0467487,
      -0.0999146,
      0.1890189,
      0.0156583,
      0.2848541,
      0.0982639,
      -0.170061,
      0.4981718,
      -0.2968598,
      -0.184682,
      -0.3286725,
      -0.1251672,
      0.0705644,
      -0.0985258,
      0.1119229,
      -0.137967,
      0.1919597,
      -0.2802882,
      -0.2478013,
      -0.1666002,
      0.079345,
      0.0032462,
      0.0793914,
      -0.0457119,
      -0.0343292,
      -0.4201074,
      0.1717336,
      0.165825,
      -0.0698144,
      0.1105206,
      0.0825532,
      -0.2722602,
      -0.0688032,
      -0.139682,
      -0.0447941,
      0.08371,
      -0.1469975,
      -0.0698511,
      -0.1531393,
      0.3311011,
      0.0870854,
      0.181818,
      -0.203565,
      0.2009525,
      0.3558319,
      0.1293546,
      0.0399134,
      -0.1202669,
      -0.0308187,
      -0.1639423,
      -0.046864,
      -0.0932733,
      0.0600646,
      -0.0738326,
      0.1548697,
      -0.051619,
      0.1381354,
      -0.140569,
      -0.0886874,
      -0.1475132,
      -0.138425,
      -0.1714931,
      0.0873785,
      0.0940135,
      -0.1058705,
      0.0592059,
      -0.0938557,
      -0.0494651,
      -0.0858369,
      0.0683919,
      0.0935581,
      0.0756643,
      0.1577186,
      0.175169,
      0.092411,
      -0.0925391,
      -0.0868273,
      -0.0174775,
      -0.0635565,
      0.1947274,
      -0.1786747,
      0.0577554,
      -0.2076353,
      0.1392892,
      -0.0717192,
      0.0014119,
      -0.0528887,
      0.0113697,
      0.4262332,
      0.0433679,
      -0.2249238,
      -0.102515,
      0.1338037,
      0.0238432,
      -0.0537151,
      -0.2597685,
      0.129834,
      0.1039213,
      -0.1183251,
      -0.1142955,
      -0.1240991,
      -0.0601605,
      0.074801,
      -0.1239708,
      0.2935276,
      0.056567,
      0.1866373,
      -0.0047913,
      -0.0634374,
      -0.1781144,
      -0.23166,
      0.1835643,
      -0.346938,
      0.0316497,
      0.2800131,
      0.0286105,
      0.1246926,
      0.21443,
      -0.1525213,
      0.0253812,
      0.1911248,
      0.0902979,
      -0.1011142,
      0.2152045,
      -0.0164581,
      -0.0934445,
      0.0401951,
      0.166031,
      0.0714405,
      -0.2077608,
      0.1188577,
      -0.3082694,
      -0.3099861,
      0.0201415,
      -0.104538,
      -0.0751888,
      -0.2346787,
      0.0651776,
      0.3110161,
      -0.0466373,
      -0.2406751,
      -0.1564124,
      -0.19002,
      -0.1143556,
      0.1365783,
      -0.0019668,
      0.2605857,
      -0.0293329,
      -0.0714549,
      0.2915344,
      0.1146438,
      -0.2787952
    ],
    "auxiliary_prediction_weights": {
      "damage": [
        0.4757957,
        -0.8436546,
        0.2721908,
        0.027263,
        0.8912398,
        -0.0615355,
        0.2265733,
        0.8030336,
        0.4037883,
        -0.1357743
      ],
      "hazard": [
        -0.1995989,
        0.7479353,
        0.2741565,
        0.4200952,
        -0.2334747,
        0.7160547,
        0.8949065,
        -0.109794,
        -0.0779957,
        0.273018
      ],
      "reproduction": [
        -0.3356633,
        0.6459883,
        0.4799469,
        -0.0172362,
        0.5340416,
        0.4327938,
        0.414219,
        -0.1796008,
        -0.1082945,
        0.1706192
      ],
      "social": [
        -0.2062951,
        -0.0731933,
        0.2135738,
        0.4801573,
        0.7410315,
        -0.4127113,
        0.8611069,
        0.6986331,
        -0.2464271,
        0.1257571
      ],
      "tool": [
        0.0263651,
        -0.1815849,
        -0.4261158,
        -0.1067266,
        -0.5197511,
        -0.0141853,
        0.1207108,
        -0.1397399,
        0.2879914,
        0.191174
      ]
    },
    "bias_h": [
      -0.0295335,
      -0.0527842,
      -0.0163432,
      -0.0419835,
      0.1145043,
      0.11406,
      -0.215098,
      -0.214725,
      0.048502,
      -0.0145131
    ],
    "bias_o": [
      0.1025302,
      -0.0807186,
      0.4186243,
      -0.3395414,
      -0.3026764,
      -0.0851247,
      0.0366225,
      0.0197708,
      0.3618373,
      0.0085759,
      -0.0029983,
      -0.0432262,
      -0.0046406,
      0.0599538,
      -0.1059281
    ],
    "episodic_age": [
      -1.0,
      -1.0,
      -1.0
    ],
    "episodic_capacity": 3,
    "episodic_slots": [
      0.0,
      0.0,
      0.0,
      0.0,
      0.0,
      0.0,
      0.0,
      0.0,
      0.0,
      0.0,
      0.0,
      0.0,
      0.0,
      0.0,
      0.0,
      0.0,
      0.0,
      0.0,
      0.0,
      0.0,
      0.0,
      0.0,
      0.0,
      0.0,
      0.0,
      0.0,
      0.0,
      0.0,
      0.0,
      0.0
    ],
    "hidden_size": 10,
    "input_size": 72,
    "output_size": 15,
    "prediction_weights": [
      0.2387113,
      0.8240544,
      0.1921613,
      0.6463296,
      0.4965667,
      0.2503682,
      -1.4002693,
      0.1035613,
      0.0303783,
      0.153821
    ],
    "weights_in": [
      -0.402099,
      -0.6784097,
      -0.0621205,
      0.4702019,
      -0.4872193,
      -0.4621564,
      -0.2943038,
      0.5493954,
      0.2326393,
      0.3728303,
      -0.6498493,
      0.7695609,
      0.2928587,
      -0.4697936,
      -0.3616863,
      0.0211982,
      0.809967,
      0.2989732,
      0.2605259,
      -0.0328123,
      -0.7921505,
      -0.0920418,
      0.3155359,
      -0.3496228,
      0.0154058,
      0.1184671,
      -0.0161852,
      -0.7693904,
      -0.5611184,
      -0.3569603,
      -0.235377,
      0.2382376,
      -0.0916513,
      -0.3747648,
      0.142058,
      -0.3775597,
      0.6058428,
      0.2998081,
      0.5146448,
      0.1596942,
      -0.15907,
      -0.2163825,
      -0.4031486,
      0.5851601,
      1.0123574,
      -0.424776,
      0.0042409,
      0.5392772,
      -0.5590535,
      0.3256008,
      0.4378248,
      0.3903584,
      -0.1208012,
      -0.3137348,
      0.2908317,
      1.159777,
      -0.0885285,
      0.4646985,
      0.3859345,
      0.0583871,
      0.8716672,
      -0.4860863,
      0.4871159,
      0.3422665,
      -0.4479845,
      -0.1255309,
      -0.751217,
      0.2202128,
      0.1241757,
      -0.1161518,
      0.0505268,
      -0.0404909,
      -0.0377167,
      0.2437459,
      -0.1575451,
      -0.059894,
      -0.0403395,
      0.1433139,
      0.2029389,
      0.0453671,
      0.2864766,
      -0.5360543,
      0.6601479,
      0.2746781,
      0.1708134,
      -0.4480781,
      0.4215794,
      -0.0213679,
      0.7303309,
      -0.3312707,
      0.1463217,
      1.3307927,
      0.259419,
      -0.1628368,
      0.6083174,
      -1.0016935,
      0.4178622,
      -0.3670508,
      0.7803344,
      -0.5370382,
      0.0702952,
      0.6557372,
      0.5152351,
      -0.5378091,
      -0.4278183,
      -0.9860419,
      0.305117,
      0.7311046,
      -0.1173048,
      0.5639074,
      -0.2424558,
      -0.3435648,
      -0.9059616,
      -0.0379841,
      0.1282282,
      0.2335516,
      0.2207928,
      0.1683813,
      -0.4546336,
      -0.5924315,
      -1.2468959,
      -0.1106784,
      -0.5669927,
      0.5402322,
      -0.5628544,
      -0.1044288,
      0.3652142,
      -0.4802255,
      0.080365,
      0.1253597,
      -0.9174905,
      -1.0273789,
      -0.6567399,
      0.4571321,
      -0.709498,
      0.4397452,
      0.0957151,
      -0.3299052,
      0.3567582,
      0.6274254,
      -0.2843093,
      -0.9994968,
      0.0153884,
      -1.0916886,
      -0.4032462,
      -0.0090012,
      0.0645077,
      -0.7002149,
      -0.4192623,
      1.0463551,
      0.3481119,
      0.2018552,
      -0.5724181,
      0.0689432,
      0.3448059,
      -0.5550262,
      0.4363605,
      -0.0161839,
      -0.5875966,
      0.4148377,
      0.5021456,
      -0.1450553,
      0.3074381,
      -1.1549884,
      0.0208859,
      0.3295263,
      0.0593301,
      0.337582,
      -0.1166203,
      -0.1361034,
      -0.05628,
      0.4014855,
      -0.0008606,
      0.2949546,
      0.5385753,
      0.120161,
      0.2131155,
      0.6182506,
      0.5100074,
      0.5530958,
      -0.1985822,
      -0.3726325,
      0.3998484,
      -0.7859472,
      -0.461021,
      -0.0635315,
      0.2094317,
      -0.507174,
      0.2453725,
      0.7737765,
      -0.0506247,
      -0.0698146,
      0.0415964,
      0.0449958,
      -0.1476133,
      -0.3065351,
      -0.5500467,
      0.5312122,
      -0.4370329,
      -0.1193592,
      0.5451012,
      -0.6243164,
      -0.0454346,
      0.6007911,
      -0.3224917,
      -0.452563,
      -0.1357412,
      -0.8927858,
      0.8134589,
      -0.52597,
      0.3566456,
      0.1333002,
      0.857826,
      -0.8797099,
      0.8070456,
      0.5980091,
      -0.05749,
      -0.1570689,
      0.1378756,
      0.1228686,
      0.7442373,
      0.3613516,
      -0.3635863,
      -0.4954022,
      0.2080695,
      0.4597483,
      0.0923941,
      -0.1701098,
      0.0397356,
      -0.5556788,
      0.285741,
      -0.0519948,
      -0.070811,
      0.0166189,
      0.2339915,
      0.3945082,
      -0.0499062,
      0.5119532,
      -0.6822257,
      0.5969875,
      0.1666677,
      0.3895061,
      -0.8094257,
      -0.4993135,
      -0.0727629,
      0.1681585,
      0.5083607,
      -0.6734849,
      -0.9719802,
      -0.1149122,
      -0.1709992,
      -1.0624804,
      0.67241,
      0.6390598,
      -0.4112939,
      0.285616,
      0.0824854,
      0.4291387,
      -0.1443469,
      -0.4739333,
      0.1469491,
      0.101452,
      -0.4896418,
      -0.4911949,
      0.3711358,
      -0.37669,
      -0.3629931,
      -0.2973424,
      -0.4578815,
      0.463134,
      0.3081,
      1.0847756,
      -0.291596,
      -0.4694947,
      0.3548856,
      -0.1786441,
      -0.485946,
      0.1737802,
      -0.8109646,
      0.6798758,
      -0.2117734,
      -0.3069804,
      0.1402772,
      -0.0563179,
      0.2624273,
      0.8431737,
      0.4304721,
      -0.7842752,
      -0.2633908,
      -0.7196273,
      0.2485432,
      -0.175308,
      -0.1689056,
      0.7807899,
      0.2045913,
      0.0855699,
      0.0451613,
      1.1024787,
      0.3518062,
      1.0524961,
      -0.6049675,
      0.353229,
      0.9374739,
      -0.2907508,
      0.3259144,
      0.3152403,
      0.8095692,
      0.3930261,
      0.0943968,
      0.2602969,
      0.3391982,
      -0.3415781,
      0.8429996,
      -0.8339181,
      -0.1579913,
      -0.4904857,
      0.2676147,
      -0.0259924,
      0.2533422,
      0.6471181,
      -0.7548057,
      -1.1597083,
      -0.1786954,
      -0.332661,
      0.1673047,
      -0.0837554,
      -0.1563494,
      -0.8798319,
      0.4834363,
      0.1273462,
      -0.6100266,
      -0.1976591,
      0.7059736,
      0.1934044,
      0.2046222,
      0.4375162,
      -0.1772394,
      -0.6495548,
      0.1582699,
      1.0870303,
      0.9463318,
      0.376952,
      0.3570039,
      -0.5781784,
      0.477364,
      -0.0411885,
      -0.3543029,
      0.1376444,
      -0.1538727,
      0.3242831,
      0.2344618,
      -0.7914889,
      -0.2703466,
      -0.5074038,
      0.7481323,
      0.4062442,
      0.2332722,
      0.2809446,
      0.7945919,
      0.3619353,
      -0.1198531,
      0.7343155,
      -0.2420541,
      0.1775347,
      -0.3247519,
      0.2260297,
      -1.2327939,
      1.0428249,
      0.5852209,
      0.0595322,
      0.1238231,
      0.1788392,
      0.4261365,
      0.3486565,
      0.6613757,
      -0.1137405,
      0.3814059,
      -0.7365944,
      -0.273141,
      0.0652665,
      0.1515462,
      -0.199249,
      -0.2658764,
      0.1659447,
      0.3615356,
      0.094761,
      0.3312294,
      0.3675057,
      0.2329706,
      0.1673604,
      0.2901618,
      0.7103708,
      -0.193953,
      -0.2672593,
      0.3500755,
      0.297653,
      0.5310688,
      0.7109568,
      0.6476002,
      -0.8672265,
      0.2465324,
      0.2486727,
      0.2001713,
      -0.8140792,
      0.6137421,
      0.3141243,
      -0.5402405,
      -0.5407618,
      0.558764,
      0.0325867,
      0.4981246,
      0.0890828,
      -0.2951543,
      0.1746198,
      0.1916763,
      -0.5677567,
      -0.0782473,
      -0.0515774,
      -0.9901584,
      -0.5440697,
      -0.0212516,
      0.4598887,
      0.6975258,
      -0.387144,
      0.3159912,
      -0.5858787,
      0.4946135,
      0.1359513,
      -0.2825762,
      0.710392,
      -0.118013,
      -0.1938764,
      -0.5117375,
      -1.0972086,
      0.4653849,
      0.356145,
      -0.1842264,
      -0.6596995,
      -0.0618592,
      0.648131,
      0.2495182,
      -0.7596156,
      0.1703163,
      0.2532801,
      -1.0438964,
      0.6280036,
      -0.3844287,
      0.1394212,
      0.6730241,
      -0.7152924,
      -0.4155403,
      0.3766858,
      -0.3046413,
      -0.1260916,
      1.3472763,
      0.2673261,
      -0.2124133,
      -0.0850762,
      -0.438521,
      0.1414559,
      1.2390953,
      0.9477776,
      0.0662502,
      -0.0850921,
      0.3957582,
      0.4879654,
      0.4547117,
      -0.3676464,
      0.5804204,
      -0.3681395,
      -0.0716399,
      0.3744576,
      1.6893608,
      -0.1728019,
      0.5595491,
      -0.4176689,
      -0.1081186,
      -0.4711919,
      -0.0812774,
      -0.0184502,
      -0.1381478,
      0.2085872,
      0.0067947,
      0.6737019,
      0.4602482,
      0.1249569,
      0.1799718,
      -0.3587554,
      0.2637827,
      -0.0610649,
      -0.6126316,
      0.0137081,
      -0.4951428,
      -0.066467,
      1.1503762,
      0.3593681,
      0.1982783,
      -0.386966,
      -0.2556199,
      0.8465224,
      -0.1968686,
      0.2355315,
      0.4275083,
      -0.353385,
      -0.9971911,
      -0.297322,
      0.0337594,
      -0.1900657,
      0.4437709,
      0.265048,
      -0.0933963,
      -0.0023752,
      -0.7531316,
      0.6983843,
      -0.2179886,
      0.3449607,
      0.6190111,
      0.6826617,
      0.6475559,
      -0.0942759,
      0.2150015,
      0.8179116,
      -0.537984,
      -0.4264651,
      0.1241896,
      0.3752305,
      -0.4731577,
      0.7703459,
      0.982146,
      -0.3968157,
      0.0956517,
      -0.200265,
      0.122375,
      -0.7864833,
      0.2844136,
      0.4136878,
      0.8766075,
      0.0194901,
      0.5808764,
      0.3280884,
      0.308722,
      -0.3760211,
      0.9578469,
      -0.3925321,
      -0.8203441,
      0.4274787,
      -1.3984,
      0.2559479,
      -0.0908225,
      -1.0378202,
      0.4386193,
      0.2226022,
      -0.3877521,
      -0.5809207,
      0.4379965,
      -0.1480135,
      -0.6062756,
      -0.2488215,
      -0.3097693,
      0.0993964,
      -0.1019685,
      -0.8209088,
      -0.139624,
      -0.0648211,
      -0.058848,
      0.2590541,
      0.0388143,
      -0.9352404,
      0.7257132,
      0.7482276,
      0.6382207,
      0.1684164,
      0.1176135,
      -0.1440281,
      0.4768753,
      -0.5383943,
      -0.0993149,
      -0.3199111,
      0.030235,
      -0.2341286,
      -0.3240259,
      -0.0693866,
      -0.2677674,
      0.0521823,
      0.2114294,
      -0.212209,
      0.1749887,
      0.0372506,
      -0.0433509,
      -0.0697636,
      0.1029583,
      0.0490392,
      -0.2266496,
      -0.1557392,
      -0.2630113,
      0.2039154,
      0.1777228,
      0.0449959,
      0.0471741,
      -0.1093418,
      -0.0133504,
      -0.2600453,
      0.1462989,
      0.1575683,
      0.2648145,
      -0.186195,
      0.0657497,
      -0.0931192,
      0.0514358,
      -0.2482811,
      -0.1116666,
      0.2674828,
      -0.1577186,
      -0.2693318,
      -0.0351545,
      0.1538094,
      0.4354206,
      0.0794667,
      -0.0346732,
      0.1658045,
      -0.0163962,
      -0.0266295,
      0.1700982,
      -0.2011741,
      -0.0132555,
      -0.0287064,
      -0.2474826,
      0.0619343,
      0.0632183,
      -0.0556593,
      0.0634795,
      0.2429214,
      0.0582477,
      -0.1747973,
      -0.0454194,
      -0.1345483,
      0.0396918,
      -0.073459,
      0.1921336,
      0.4095229,
      -0.1815513,
      0.0971303,
      -0.1242498,
      -0.1216738,
      0.2272546,
      -0.079766,
      -0.0634915,
      0.050855,
      0.3625116,
      0.050182,
      0.2354954,
      -0.0116206,
      0.2199725,
      0.2966679,
      0.2727803,
      0.0651318,
      0.3114567,
      0.5093626,
      -0.1601239,
      0.1102894,
      0.3226,
      -0.055069,
      -0.0490297,
      -0.2692281,
      0.1661104,
      0.1869245,
      0.0774385,
      0.1252146,
      0.1033555,
      0.3425499,
      0.1077948,
      0.3422958,
      0.2843649,
      0.5830872,
      -0.0838638,
      -0.0575558,
      -0.0870359,
      0.1125876,
      -0.5003052,
      -0.0464376,
      -0.1925134,
      0.0241125,
      0.1768227,
      -0.0739158,
      -0.2963158,
      -0.3526678,
      -0.0414379,
      -0.0369703,
      0.065462,
      -0.2016057,
      0.1043501,
      -0.0120138,
      -0.0573241,
      0.0058201,
      -0.0533532,
      -0.0552647,
      0.0445082,
      0.1961842,
      -0.156259,
      -0.0854361,
      -0.2810319,
      -0.0687569,
      0.2308378,
      -0.3470703,
      -0.0149085,
      0.3107349,
      -0.1904416,
      0.1199528,
      -0.0147953,
      0.0766185,
      0.1222005,
      0.0616484,
      -0.0404208,
      0.072316,
      -0.3228401,
      -0.6599616,
      -0.0594453,
      0.0947596,
      0.1022485,
      -0.1527293
    ],
    "weights_out": [
      -0.659643,
      0.8492333,
      -0.0167321,
      0.0470038,
      -0.3068897,
      -0.7210012,
      -0.0555074,
      0.0746105,
      -0.1287321,
      0.1938037,
      0.586151,
      -0.5815141,
      -0.0349361,
      0.1358706,
      -0.2722854,
      -0.0277221,
      -0.2140881,
      0.2954333,
      -0.1898548,
      0.155692,
      -0.3512973,
      0.3076473,
      -0.1218978,
      0.1773404,
      -0.0615923,
      -0.1590651,
      0.3860456,
      0.2360322,
      -0.1118375,
      0.1564068,
      0.4156199,
      -0.1110113,
      0.1977341,
      -0.5091846,
      -0.4164358,
      -0.0963896,
      -0.3691002,
      0.4007177,
      -0.2749613,
      0.0069877,
      0.3060712,
      0.2575898,
      0.2990829,
      0.8751661,
      -0.2815377,
      -0.1451754,
      0.770812,
      -0.1774378,
      0.1072949,
      0.184097,
      0.9668894,
      -0.2067539,
      -0.1973634,
      -0.4207315,
      0.5657685,
      0.2541938,
      0.5056563,
      -0.5339774,
      0.2208161,
      0.1782663,
      1.0950697,
      0.1615756,
      0.4798832,
      1.2783434,
      0.0621016,
      0.7766707,
      -0.3068664,
      -0.2975843,
      -0.2858833,
      0.4580237,
      -0.3848388,
      0.5684572,
      0.3789644,
      0.1095856,
      -0.1484996,
      0.1015039,
      -0.3590072,
      -0.3199007,
      -0.1203815,
      -0.1563641,
      -1.2870329,
      0.2515467,
      -0.5493475,
      0.7433441,
      -0.5330827,
      1.0586369,
      -0.0381987,
      0.1871165,
      -0.0911542,
      0.29902,
      0.1441512,
      -1.0426678,
      -0.1586105,
      -0.1919139,
      0.774928,
      0.773357,
      0.4749059,
      -0.4604517,
      0.1681081,
      0.1373754,
      -0.4261906,
      -0.2436575,
      -0.0095093,
      -0.1558704,
      0.9736237,
      -0.6396222,
      0.4305835,
      -0.2950864,
      -0.3283253,
      -0.0221678,
      -0.0866891,
      0.0981216,
      -1.2373831,
      -0.8530251,
      -0.1031811,
      0.2940245,
      0.507767,
      0.1049044,
      0.2255543,
      0.1418619,
      -0.4705118,
      0.38402,
      0.4245798,
      -1.252639,
      0.3189813,
      0.0406174,
      -0.8771292,
      -0.4705088,
      0.1156052,
      0.0165466,
      -0.3792339,
      -0.0021905,
      0.6714008,
      -0.1462456,
      0.2164426,
      -0.439983,
      -0.2428559,
      0.0243614,
      0.3931642,
      -0.3278835,
      -0.267405,
      0.0591447,
      0.3400277,
      0.0792792,
      -0.2614189,
      -0.6503288,
      -0.189566,
      -0.8009417,
      -0.1793335,
      0.2953711
    ]
  },
  "bucket": "interval_champion",
  "cognition": {
    "event_memory": {
      "damage": 0.0,
      "energy_gain": 0.015959,
      "energy_loss": 0.000143,
      "health_gain": 0.0,
      "reproduction": 1e-06,
      "social": 0.121539,
      "surprise": 0.203848,
      "tool": 0.498216
    },
    "last_action": "clone_mutate",
    "last_valence": -0.000751,
    "lesson_memory": [
      {
        "affordance": "contain",
        "attempted_affordance": "contain",
        "gain": 0.425847,
        "kind": "tool_use",
        "method_quality": 0.0,
        "place": 28,
        "problem": {
          "difficulty": 0.451177,
          "kind": "causal_challenge",
          "payoff_energy": "electrical",
          "place": 28,
          "progress": 0,
          "remaining": 51.09218,
          "required_affordance": "concentrate_heat",
          "sequence": [
            "concentrate_heat",
            "conduct"
          ]
        },
        "score": 0.722,
        "skill": 1.0,
        "success": true
      },
      {
        "affordance": "contain",
        "attempted_affordance": "contain",
        "gain": 0.413996,
        "kind": "tool_use",
        "method_quality": 0.0,
        "place": 28,
        "problem": {
          "difficulty": 0.451177,
          "kind": "causal_challenge",
          "payoff_energy": "electrical",
          "place": 28,
          "progress": 0,
          "remaining": 51.09218,
          "required_affordance": "concentrate_heat",
          "sequence": [
            "concentrate_heat",
            "conduct"
          ]
        },
        "score": 0.722,
        "skill": 1.0,
        "success": true
      },
      {
        "affordance": "contain",
        "attempted_affordance": "contain",
        "gain": 0.40405,
        "kind": "tool_use",
        "method_quality": 0.0,
        "place": 28,
        "problem": {
          "difficulty": 0.451177,
          "kind": "causal_challenge",
          "payoff_energy": "electrical",
          "place": 28,
          "progress": 0,
          "remaining": 51.09218,
          "required_affordance": "concentrate_heat",
          "sequence": [
            "concentrate_heat",
            "conduct"
          ]
        },
        "score": 0.722,
        "skill": 1.0,
        "success": true
      },
      {
        "affordance": "contain",
        "attempted_affordance": "contain",
        "gain": 0.395707,
        "kind": "tool_use",
        "method_quality": 0.0,
        "place": 28,
        "problem": {
          "difficulty": 0.451177,
          "kind": "causal_challenge",
          "payoff_energy": "electrical",
          "place": 28,
          "progress": 0,
          "remaining": 51.09218,
          "required_affordance": "concentrate_heat",
          "sequence": [
            "concentrate_heat",
            "conduct"
          ]
        },
        "score": 0.722,
        "skill": 1.0,
        "success": true
      },
      {
        "affordance": "contain",
        "attempted_affordance": "contain",
        "gain": 0.6177,
        "kind": "tool_use",
        "method_quality": 0.0,
        "place": 28,
        "problem": {
          "difficulty": 0.451177,
          "kind": "causal_challenge",
          "payoff_energy": "electrical",
          "place": 28,
          "progress": 0,
          "remaining": 51.09218,
          "required_affordance": "concentrate_heat",
          "sequence": [
            "concentrate_heat",
            "conduct"
          ]
        },
        "score": 0.722,
        "skill": 1.0,
        "success": true
      }
    ],
    "lineage": {
      "inherited_brain_template": true,
      "parent_lineages": [
        426,
        447
      ],
      "parents": [
        3178,
        5180
      ],
      "root_id": 426
    },
    "place_memory": [
      {
        "place_id": 28,
        "value": 0.638942
      },
      {
        "place_id": 27,
        "value": 0.438553
      },
      {
        "place_id": 29,
        "value": 0.431813
      }
    ],
    "prediction_errors": {
      "damage": 0.225145,
      "energy": -0.402541,
      "hazard": -0.08081,
      "reproduction": -0.20426,
      "social": 0.223537,
      "tool": -0.026757
    },
    "recent_trace": {
      "action": 0.928571,
      "damage": 0.0,
      "energy_delta": -0.0015,
      "health_delta": 0.0,
      "prediction_error": -0.402541,
      "reproduction": 0.0,
      "social": 0.0,
      "tool": 0.0
    },
    "signal_values": [
      0.028072,
      -0.009341,
      0.045495,
      0.0,
      0.0,
      0.105563,
      0.082792,
      0.076043
    ],
    "success_profile": {
      "causal_step": 3.0,
      "causal_unlock": 3.0,
      "collaboration": 160.328962,
      "energy_gain": 103.192998,
      "prediction_fit": 32.712814,
      "reproduction": 6.0,
      "social_learning": 0.25,
      "tool_use": 1213.264587,
      "written_learning": 0.017155
    },
    "tool_trace": {
      "last_artifact_method": 0.0,
      "last_craft_target": "",
      "last_tool_affordance": "contain"
    }
  },
  "context": {
    "criterion": "overall_champion",
    "label": "final",
    "lineages": {
      "agent_lineages_total": 80,
      "living_agent_lineages": 8,
      "top_all_time": [
        {
          "avg_living_energy": 14.85293,
          "avg_living_health": 0.72583,
          "born": 3743,
          "dead": 2834,
          "inherited_template_count": 3731,
          "lineage_root_id": 460,
          "living": 909,
          "living_neural": 908,
          "max_generation": 19,
          "offspring_total": 7539,
          "profile": {
            "causal_step": 503.0,
            "causal_unlock": 83.35076,
            "collaboration": 223965.46925,
            "energy_gain": 20219.73206,
            "knowledge_transmitted": 0.99186,
            "prediction_fit": 17652.10027,
            "reproduction": 7539.0,
            "social_learning": 283.8,
            "structure": 1011.75,
            "tool_make": 207.51144,
            "tool_use": 10207.67062,
            "written_learning": 2.38273
          },
          "score": 209538.73934,
          "successful_tools_total": 6951,
          "tool_use_counts": {
            "bind": 2652,
            "build": 467,
            "concentrate_heat": 464,
            "contain": 800,
            "crack": 879,
            "craft": 192,
            "cut": 214,
            "lever": 1273
          },
          "tool_users": 697,
          "top_living_ids": [
            5506,
            5186,
            2377,
            7720,
            2504
          ]
        },
        {
          "avg_living_energy": 12.6887,
          "avg_living_health": 0.7059,
          "born": 1294,
          "dead": 940,
          "inherited_template_count": 1286,
          "lineage_root_id": 426,
          "living": 354,
          "living_neural": 354,
          "max_generation": 17,
          "offspring_total": 2600,
          "profile": {
            "causal_step": 429.0,
            "causal_unlock": 38.89463,
            "collaboration": 52103.56866,
            "energy_gain": 4759.8612,
            "knowledge_transmitted": 0.68271,
            "prediction_fit": 5736.23742,
            "reproduction": 2600.0,
            "social_learning": 489.3,
            "structure": 582.125,
            "tool_make": 17.33833,
            "tool_use": 7417.41044,
            "written_learning": 1.85375
          },
          "score": 64659.64718,
          "successful_tools_total": 6094,
          "tool_use_counts": {
            "bind": 1851,
            "build": 266,
            "concentrate_heat": 208,
            "contain": 2145,
            "crack": 785,
            "craft": 16,
            "cut": 6,
            "lever": 814
          },
          "tool_users": 205,
          "top_living_ids": [
            6462,
            2429,
            7696,
            3141,
            6445
          ]
        },
        {
          "avg_living_energy": 10.77666,
          "avg_living_health": 0.73167,
          "born": 1253,
          "dead": 1000,
          "inherited_template_count": 1247,
          "lineage_root_id": 483,
          "living": 253,
          "living_neural": 253,
          "max_generation": 16,
          "offspring_total": 2472,
          "profile": {
            "causal_step": 114.0,
            "causal_unlock": 15.0,
            "collaboration": 41795.63635,
            "energy_gain": 4671.81434,
            "knowledge_transmitted": 0.43459,
            "prediction_fit": 5793.45171,
            "reproduction": 2472.0,
            "social_learning": 144.05,
            "structure": 652.75,
            "tool_make": 21.4983,
            "tool_use": 2333.09537,
            "written_learning": 0.33769
          },
          "score": 44683.69735,
          "successful_tools_total": 1696,
          "tool_use_counts": {
            "bind": 198,
            "build": 301,
            "concentrate_heat": 43,
            "contain": 120,
            "crack": 595,
            "craft": 20,
            "cut": 3,
            "lever": 414
          },
          "tool_users": 188,
          "top_living_ids": [
            2819,
            2777,
            2782,
            7988,
            8438
          ]
        },
        {
          "avg_living_energy": 14.63338,
          "avg_living_health": 0.67125,
          "born": 540,
          "dead": 478,
          "inherited_template_count": 535,
          "lineage_root_id": 447,
          "living": 62,
          "living_neural": 61,
          "max_generation": 17,
          "offspring_total": 1044,
          "profile": {
            "causal_step": 62.0,
            "causal_unlock": 12.0,
            "collaboration": 42441.62956,
            "energy_gain": 3149.82966,
            "prediction_fit": 2867.6232,
            "reproduction": 1044.0,
            "social_learning": 9.8,
            "structure": 125.25,
            "tool_make": 17.28738,
            "tool_use": 2824.92678,
            "written_learning": 0.06058
          },
          "score": 40617.17835,
          "successful_tools_total": 2326,
          "tool_use_counts": {
            "bind": 925,
            "build": 63,
            "concentrate_heat": 145,
            "contain": 242,
            "crack": 64,
            "craft": 16,
            "cut": 30,
            "lever": 839
          },
          "tool_users": 88,
          "top_living_ids": [
            7713,
            3140,
            6735,
            7709,
            8767
          ]
        },
        {
          "avg_living_energy": 12.78772,
          "avg_living_health": 0.83426,
          "born": 138,
          "dead": 108,
          "inherited_template_count": 136,
          "lineage_root_id": 423,
          "living": 30,
          "living_neural": 30,
          "max_generation": 19,
          "offspring_total": 271,
          "profile": {
            "causal_step": 10.0,
            "causal_unlock": 3.0,
            "collaboration": 8828.94207,
            "energy_gain": 544.02242,
            "prediction_fit": 691.85278,
            "reproduction": 271.0,
            "social_learning": 5.2,
            "structure": 67.875,
            "tool_make": 7.84498,
            "tool_use": 195.12704,
            "written_learning": 0.01503
          },
          "score": 7821.32899,
          "successful_tools_total": 135,
          "tool_use_counts": {
            "bind": 3,
            "build": 34,
            "concentrate_heat": 4,
            "contain": 7,
            "crack": 10,
            "craft": 7,
            "lever": 70
          },
          "tool_users": 30,
          "top_living_ids": [
            4116,
            7759,
            8978,
            10023,
            8124
          ]
        }
      ],
      "top_living": [
        {
          "avg_living_energy": 14.85293,
          "avg_living_health": 0.72583,
          "born": 3743,
          "dead": 2834,
          "inherited_template_count": 3731,
          "lineage_root_id": 460,
          "living": 909,
          "living_neural": 908,
          "max_generation": 19,
          "offspring_total": 7539,
          "profile": {
            "causal_step": 503.0,
            "causal_unlock": 83.35076,
            "collaboration": 223965.46925,
            "energy_gain": 20219.73206,
            "knowledge_transmitted": 0.99186,
            "prediction_fit": 17652.10027,
            "reproduction": 7539.0,
            "social_learning": 283.8,
            "structure": 1011.75,
            "tool_make": 207.51144,
            "tool_use": 10207.67062,
            "written_learning": 2.38273
          },
          "score": 209538.73934,
          "successful_tools_total": 6951,
          "tool_use_counts": {
            "bind": 2652,
            "build": 467,
            "concentrate_heat": 464,
            "contain": 800,
            "crack": 879,
            "craft": 192,
            "cut": 214,
            "lever": 1273
          },
          "tool_users": 697,
          "top_living_ids": [
            5506,
            5186,
            2377,
            7720,
            2504
          ]
        },
        {
          "avg_living_energy": 12.6887,
          "avg_living_health": 0.7059,
          "born": 1294,
          "dead": 940,
          "inherited_template_count": 1286,
          "lineage_root_id": 426,
          "living": 354,
          "living_neural": 354,
          "max_generation": 17,
          "offspring_total": 2600,
          "profile": {
            "causal_step": 429.0,
            "causal_unlock": 38.89463,
            "collaboration": 52103.56866,
            "energy_gain": 4759.8612,
            "knowledge_transmitted": 0.68271,
            "prediction_fit": 5736.23742,
            "reproduction": 2600.0,
            "social_learning": 489.3,
            "structure": 582.125,
            "tool_make": 17.33833,
            "tool_use": 7417.41044,
            "written_learning": 1.85375
          },
          "score": 64659.64718,
          "successful_tools_total": 6094,
          "tool_use_counts": {
            "bind": 1851,
            "build": 266,
            "concentrate_heat": 208,
            "contain": 2145,
            "crack": 785,
            "craft": 16,
            "cut": 6,
            "lever": 814
          },
          "tool_users": 205,
          "top_living_ids": [
            6462,
            2429,
            7696,
            3141,
            6445
          ]
        },
        {
          "avg_living_energy": 10.77666,
          "avg_living_health": 0.73167,
          "born": 1253,
          "dead": 1000,
          "inherited_template_count": 1247,
          "lineage_root_id": 483,
          "living": 253,
          "living_neural": 253,
          "max_generation": 16,
          "offspring_total": 2472,
          "profile": {
            "causal_step": 114.0,
            "causal_unlock": 15.0,
            "collaboration": 41795.63635,
            "energy_gain": 4671.81434,
            "knowledge_transmitted": 0.43459,
            "prediction_fit": 5793.45171,
            "reproduction": 2472.0,
            "social_learning": 144.05,
            "structure": 652.75,
            "tool_make": 21.4983,
            "tool_use": 2333.09537,
            "written_learning": 0.33769
          },
          "score": 44683.69735,
          "successful_tools_total": 1696,
          "tool_use_counts": {
            "bind": 198,
            "build": 301,
            "concentrate_heat": 43,
            "contain": 120,
            "crack": 595,
            "craft": 20,
            "cut": 3,
            "lever": 414
          },
          "tool_users": 188,
          "top_living_ids": [
            2819,
            2777,
            2782,
            7988,
            8438
          ]
        },
        {
          "avg_living_energy": 14.63338,
          "avg_living_health": 0.67125,
          "born": 540,
          "dead": 478,
          "inherited_template_count": 535,
          "lineage_root_id": 447,
          "living": 62,
          "living_neural": 61,
          "max_generation": 17,
          "offspring_total": 1044,
          "profile": {
            "causal_step": 62.0,
            "causal_unlock": 12.0,
            "collaboration": 42441.62956,
            "energy_gain": 3149.82966,
            "prediction_fit": 2867.6232,
            "reproduction": 1044.0,
            "social_learning": 9.8,
            "structure": 125.25,
            "tool_make": 17.28738,
            "tool_use": 2824.92678,
            "written_learning": 0.06058
          },
          "score": 40617.17835,
          "successful_tools_total": 2326,
          "tool_use_counts": {
            "bind": 925,
            "build": 63,
            "concentrate_heat": 145,
            "contain": 242,
            "crack": 64,
            "craft": 16,
            "cut": 30,
            "lever": 839
          },
          "tool_users": 88,
          "top_living_ids": [
            7713,
            3140,
            6735,
            7709,
            8767
          ]
        },
        {
          "avg_living_energy": 12.78772,
          "avg_living_health": 0.83426,
          "born": 138,
          "dead": 108,
          "inherited_template_count": 136,
          "lineage_root_id": 423,
          "living": 30,
          "living_neural": 30,
          "max_generation": 19,
          "offspring_total": 271,
          "profile": {
            "causal_step": 10.0,
            "causal_unlock": 3.0,
            "collaboration": 8828.94207,
            "energy_gain": 544.02242,
            "prediction_fit": 691.85278,
            "reproduction": 271.0,
            "social_learning": 5.2,
            "structure": 67.875,
            "tool_make": 7.84498,
            "tool_use": 195.12704,
            "written_learning": 0.01503
          },
          "score": 7821.32899,
          "successful_tools_total": 135,
          "tool_use_counts": {
            "bind": 3,
            "build": 34,
            "concentrate_heat": 4,
            "contain": 7,
            "crack": 10,
            "craft": 7,
            "lever": 70
          },
          "tool_users": 30,
          "top_living_ids": [
            4116,
            7759,
            8978,
            10023,
            8124
          ]
        }
      ]
    },
    "population": {
      "agent": 1643,
      "fungus": 212,
      "neural": 1641,
      "plant": 1767,
      "total": 3622
    },
    "world_energy": {
      "biological_storage": 2.3876,
      "chemical": 0.0,
      "electrical": 214.3703,
      "high_density": 10.5386,
      "locked_chemical": 221.4762,
      "mechanical": 2243.0783,
      "radiant": 3041.5993,
      "thermal": 4334.5138
    },
    "world_physics": {
      "archetype_counts": {
        "cavern": 3,
        "desert_glass": 4,
        "forest_edge": 3,
        "high_ridge": 5,
        "hydrothermal_vent": 3,
        "mineral_scree": 2,
        "pelagic": 3,
        "reef": 4,
        "tidal_marsh": 5,
        "trench": 4
      },
      "avg_abrasion": 0.16791,
      "avg_acidity": 0.14933,
      "avg_biological_activity": 0.23365,
      "avg_boundary_permeability": 0.4618,
      "avg_current_exposure": 0.10268,
      "avg_edge_current": 0.24109,
      "avg_edge_slope": 0.39495,
      "avg_elevation": 0.48845,
      "avg_fluid_level": 0.31933,
      "avg_humidity": 0.48228,
      "avg_interiority": 0.39124,
      "avg_oxygen": 0.42143,
      "avg_pressure": 0.21119,
      "avg_resource_gradient": 0.56984,
      "avg_salinity": 0.35796,
      "avg_shelter": 0.4574,
      "avg_structure_scale": 11.9078,
      "avg_temperature": 0.75247,
      "avg_terrain_richness": 0.55941,
      "avg_wet_dry_cycle": 0.1889,
      "max_abrasion": 0.27666,
      "max_acidity": 0.29063,
      "max_biological_activity": 0.32051,
      "max_boundary_permeability": 0.76898,
      "max_current_exposure": 0.22887,
      "max_edge_current": 0.73595,
      "max_edge_slope": 0.95007,
      "max_elevation": 0.99867,
      "max_fluid_level": 0.51679,
      "max_humidity": 0.68261,
      "max_interiority": 0.4292,
      "max_oxygen": 0.54712,
      "max_pressure": 0.42842,
      "max_resource_gradient": 1.0,
      "max_salinity": 1.05756,
      "max_shelter": 0.47424,
      "max_structure_scale": 231,
      "max_temperature": 0.94444,
      "max_terrain_richness": 0.83706,
      "max_wet_dry_cycle": 0.24585,
      "structure_count": 423.0
    }
  },
  "genome": {
    "aquatic_affinity": 0.23234698724389743,
    "armor": 0.2344380748230407,
    "asexual_threshold": 0.47847748880363966,
    "buoyancy": 0.36239577677570806,
    "chemical_metabolism": 0.49520511900448505,
    "desiccation_tolerance": 0.6784969002688455,
    "developmental_complexity": 0.9194616782727031,
    "digestion": 0.7309032295702045,
    "electrical_use": 0.04225994327484868,
    "episodic_capacity": 3.5545157838177426,
    "learning_rate": 0.1530671745143692,
    "manipulator": 0.43165872337053707,
    "mate_selectivity": 0.5185357800429315,
    "mechanical_use": 0.2064144661616633,
    "memory_budget": 3.907216266993853,
    "mobility": 0.6220232620975188,
    "mutation_rate": 0.026952259296911682,
    "neural_budget": 9.619598810106117,
    "offspring_investment": 0.44606946956369287,
    "photosynthesis_surface": 0.1065136052490467,
    "plasticity_rate": 0.1800215732232875,
    "prediction_weight": 0.2916404990171369,
    "pressure_tolerance": 0.32361863550052394,
    "radiant_metabolism": 0.26339062389132506,
    "salinity_tolerance": 0.23642043046390906,
    "sensor_range": 0.6503029355619782,
    "sexual_threshold": 0.6973061508814159,
    "signal_strength": 0.258360255100108,
    "storage_capacity": 0.4712713565770721,
    "thermal_tolerance": 0.5575242329690017,
    "valence_damage": 0.7303763532618605,
    "valence_energy": 0.5004003951363475,
    "valence_health": 0.34373606416047364,
    "valence_reproduction": 0.3391928774139612,
    "valence_social": 0.23996476603777192
  },
  "inventory": {
    "shell": 1
  },
  "organism": {
    "age": 1242,
    "artifacts": [],
    "complexity": 2.9398,
    "energy": 91.5985,
    "generation": 14,
    "health": 1.0,
    "id": 6462,
    "inherited_brain_template": true,
    "kind": "agent",
    "last_action": "clone_mutate",
    "last_artifact_method": 0.0,
    "last_craft_target": "",
    "last_energy_delta": -0.015,
    "last_lesson": {
      "affordance": "contain",
      "attempted_affordance": "contain",
      "gain": 0.6177,
      "kind": "tool_use",
      "method_quality": 0.0,
      "place": 28,
      "problem": {
        "difficulty": 0.451177,
        "kind": "causal_challenge",
        "payoff_energy": "electrical",
        "place": 28,
        "progress": 0,
        "remaining": 51.09218,
        "required_affordance": "concentrate_heat",
        "sequence": [
          "concentrate_heat",
          "conduct"
        ]
      },
      "score": 0.722,
      "skill": 1.0,
      "success": true
    },
    "last_tool_affordance": "contain",
    "last_valence": -0.0008,
    "lineage_root_id": 426,
    "location": 28,
    "neural": true,
    "offspring_count": 6,
    "parent_lineage_ids": [
      426,
      447
    ],
    "parents": [
      3178,
      5180
    ],
    "success_profile": {
      "causal_step": 3.0,
      "causal_unlock": 3.0,
      "collaboration": 160.329,
      "energy_gain": 103.193,
      "prediction_fit": 32.7128,
      "reproduction": 6.0,
      "social_learning": 0.25,
      "tool_use": 1213.2646,
      "written_learning": 0.0172
    },
    "successful_tools": 1086,
    "tool_use_counts": {
      "contain": 1086
    }
  },
  "reason": "final_overall_champion",
  "score": 2251.769897,
  "signal_values": [
    0.028072,
    -0.009341,
    0.045495,
    0.0,
    0.0,
    0.105563,
    0.082792,
    0.076043
  ],
  "tick": 2368,
  "tool_skill": {
    "anchor": 0.000464,
    "bind": 0.027991,
    "build": 0.001832,
    "carry": 0.036997,
    "channel": 0.0,
    "concentrate_heat": 0.221361,
    "conduct": 0.001411,
    "contain": 1.0,
    "crack": 0.002765,
    "craft": 0.000783,
    "cut": 1.3e-05,
    "enclose": 0.0,
    "energy_storage": 0.058944,
    "filter": 0.100898,
    "float": 0.000358,
    "gradient_harvest": 0.0,
    "inscribe": 0.0,
    "insulate": 0.297492,
    "interpret_mark": 0.003658,
    "lever": 0.006808,
    "permeable": 0.0,
    "protect": 0.862405,
    "reaction_surface": 0.0,
    "record": 0.000112,
    "shelter": 0.003453,
    "support": 0.000608,
    "traverse": 0.055333
  }
}
