{
  "artifacts": [],
  "brain": {
    "attention_bias": [
      2.0,
      2.0,
      2.0,
      2.0,
      1.9992627,
      1.9994153,
      2.0,
      2.0,
      2.0,
      1.9992696,
      1.9994248,
      2.0,
      2.0,
      1.9992691,
      2.0,
      2.0,
      2.0,
      2.0,
      1.9993159,
      1.9996517,
      2.0,
      1.9999236,
      1.9998118,
      2.0,
      1.9979099,
      1.999567,
      2.0,
      1.9999432,
      1.9997893,
      2.0,
      2.0,
      2.0,
      2.0,
      1.9999973,
      2.0,
      2.0,
      2.0,
      2.0,
      2.0,
      1.9998207,
      2.0,
      2.0,
      2.0,
      1.9999121,
      1.9992674,
      1.9992678,
      1.9994929,
      1.9992681,
      1.9993006,
      1.9993334,
      1.9995007,
      1.9998177,
      1.9979359,
      1.9993691,
      2.0,
      1.9971191,
      1.9994948,
      1.9992647,
      1.9992679,
      1.9992671,
      1.9992635,
      1.9992679,
      1.9992631,
      1.9995515,
      2.0,
      1.9997602,
      1.9997721,
      2.0,
      1.9992557,
      1.9999331,
      1.9997203,
      1.9997383
    ],
    "attention_weights": [
      -0.1527795,
      -0.0909486,
      0.1020226,
      0.0719167,
      0.149439,
      -0.0494419,
      -0.0045,
      -0.0470623,
      0.2122139,
      -0.0257949,
      0.3084978,
      -0.1942261,
      -0.211655,
      0.1209785,
      0.1446009,
      0.2183696,
      -0.0581159,
      0.0733019,
      -0.0007135,
      0.0925079,
      0.1467258,
      0.3422954,
      0.021462,
      -0.1669674,
      0.011414,
      0.0706292,
      0.0493821,
      -0.129533,
      0.0987081,
      0.0394604,
      -0.1514763,
      0.0510371,
      0.0264428,
      0.0866239,
      0.2853721,
      0.1170644,
      -0.2443994,
      0.1619207,
      -0.2285798,
      0.0969211,
      -0.2102537,
      -0.1644255,
      0.1050969,
      0.072695,
      0.1468762,
      -0.0333302,
      0.0434365,
      -0.1245531,
      0.0998356,
      0.1872507,
      -0.206925,
      0.062892,
      -0.0015875,
      0.0589986,
      0.1224668,
      0.2317319,
      0.0568079,
      -0.0212019,
      -0.1180693,
      0.1051562,
      -0.0473831,
      -0.0979448,
      0.1393943,
      -0.0817123,
      0.1996809,
      0.1241856,
      0.0440304,
      -0.1959599,
      0.0156241,
      -0.2062742,
      -0.1296904,
      0.2484501,
      0.1727742,
      -0.0234019,
      0.1049349,
      0.2574238,
      0.1571005,
      -0.0515559,
      -0.136351,
      0.0970275,
      0.1415253,
      0.1162396,
      0.0758276,
      0.178077,
      0.1946853,
      0.1224004,
      0.2038559,
      0.1150544,
      0.215537,
      0.1262941,
      -0.0570825,
      0.0621169,
      0.0107558,
      -0.0968263,
      -0.0507851,
      0.1814631,
      -0.1138941,
      0.0501585,
      -0.0762477,
      -0.2157351,
      -0.0860928,
      0.0627214,
      -0.25145,
      0.0882484,
      -0.1356269,
      -0.3001163,
      -0.0378326,
      0.0307951,
      0.1456278,
      0.1208542,
      0.0916555,
      0.0336995,
      0.0392171,
      -0.0385779,
      -0.1181654,
      0.0728298,
      -0.0021839,
      0.0328416,
      -0.1834602,
      -0.2183417,
      0.0085039,
      -0.1761444,
      0.1761555,
      -0.0545324,
      -0.1304086,
      0.0214751,
      -0.0935879,
      -0.1707991,
      -0.2265868,
      -0.0505988,
      0.0044533,
      0.095818,
      -0.0513803,
      -0.1313595,
      -0.4342363,
      -0.0825061,
      -0.0669069,
      0.1153825,
      0.0984939,
      0.1331434,
      -0.0546012,
      0.1283646,
      0.1016379,
      0.0785548,
      -0.0067692,
      -0.0678042,
      0.0443101,
      0.0751144,
      -0.0070481,
      -0.0416457,
      0.2002262,
      0.0030934,
      0.3641895,
      -0.1210586,
      -0.136049,
      0.0833284,
      0.0306364,
      0.2044647,
      -0.2769526,
      -0.0778225,
      -0.0465329,
      -0.0780363,
      0.0220886,
      0.1007419,
      -0.1130314,
      -0.01246,
      0.0495645,
      -0.1544679,
      0.163897,
      0.1302119,
      -0.1545923,
      0.0893724,
      0.131162,
      -0.3243516,
      0.0891822,
      -0.1037502,
      -0.1233808,
      0.2661982,
      0.0412508,
      0.2618343,
      0.0812802,
      0.0232521,
      -0.1525771,
      0.0526827,
      -0.0085428,
      -0.0079124,
      0.2539909,
      0.0789337,
      -0.0099797,
      -0.4257457,
      -0.0081747,
      -0.0923394,
      -0.0967679,
      -0.0105714,
      -0.0536205,
      -0.0752615,
      -0.3486435,
      0.2506853,
      -0.0093825,
      0.1667629,
      0.0382194,
      0.1067325,
      -0.0620076,
      -0.18093,
      0.1330439,
      -0.1131799,
      0.1805598,
      0.0488963,
      0.0001647,
      -0.0667946,
      0.1206875,
      0.1876431,
      -0.0149929,
      -0.0252857,
      0.1497072,
      0.0184324,
      -0.0212976,
      -0.1805555,
      -0.2234567,
      0.0877872,
      0.2502243,
      -0.0131834,
      -0.0229082,
      -0.0920403,
      -0.091572,
      0.1050745,
      0.1059684,
      0.2175208,
      -0.2871026,
      0.0559325,
      0.2868105,
      -0.3266695,
      0.1746272,
      0.1922231,
      -0.033048,
      0.0038133,
      -0.001264,
      -0.1300359,
      0.2042314,
      0.0021575,
      -0.0511843,
      -0.2012765,
      -0.0038142,
      0.062983,
      0.2951366,
      -0.0969183,
      0.0550932,
      0.1178355,
      -0.3050984,
      0.0897748,
      0.0572946,
      0.1631118,
      0.0159144,
      0.0360233,
      -0.1435313,
      -0.0812304,
      0.053194,
      -0.138035,
      0.0281993,
      -0.1356117,
      -0.0548377,
      0.0176994,
      0.1478424,
      -0.0012069,
      0.2166121,
      -0.2022565,
      0.0577412,
      -0.0762555,
      -0.0756463,
      0.1087236,
      -0.053785,
      -0.0785572,
      -0.3374165,
      -0.0745391,
      -0.0008985,
      0.0434479,
      -0.1480077,
      0.1209566,
      -0.1223762,
      0.2454345,
      0.1967519,
      -0.2080302,
      0.341012,
      -0.1487607,
      0.1768304,
      -0.237052,
      -0.0677962,
      -0.0665945,
      -0.3430753,
      -0.0358608,
      0.2425814,
      -0.0309033,
      -0.1510282,
      -0.0192845,
      -0.0404747,
      0.3285371,
      0.0944019,
      -0.0341627,
      -0.1311995,
      0.0587098,
      -0.1016396,
      -0.2621093,
      -0.2534658,
      -0.2689813,
      -0.1485693,
      0.0977781,
      0.0460834,
      0.1645882,
      -0.0692563,
      -0.0804804,
      0.0550961,
      0.1484217,
      0.1889082,
      0.0760848,
      -0.1238173,
      -0.2170913,
      0.078656,
      0.0672686,
      -0.4089855,
      -0.0270713,
      0.0160407,
      -0.0295218,
      -0.056534,
      -0.1672253,
      -0.1114144,
      -0.0217723,
      0.1016646,
      -0.0035619,
      -0.1587395,
      0.1638485,
      -0.0082934,
      -0.0333303,
      -0.101502,
      0.0523968,
      -0.1696966,
      -0.1546396,
      -0.0113364,
      -0.2260237,
      -0.2912052,
      0.2594806,
      -0.2313894,
      0.0103732,
      0.0047322,
      -0.0055151,
      0.3913691,
      -0.1549943,
      -0.0086314,
      0.0160978,
      0.1395302,
      -0.2209394,
      0.0883735,
      0.114256,
      -0.1011713,
      -0.0840692,
      0.2104501,
      -0.1737659,
      0.0383885,
      -0.1486446,
      -0.1183903,
      -0.0531457,
      0.2662182,
      -0.2351698,
      -0.0645517,
      0.0547505,
      -0.0760327,
      -0.3363807,
      0.0550924,
      0.0592509,
      -0.0572931,
      0.1104878,
      0.1538226,
      0.0165103,
      -0.0133323,
      0.0135804,
      0.2064729,
      0.1479405,
      -0.0182921,
      -0.0815741,
      -0.0822261,
      -0.0130105,
      -0.0573074,
      -0.315588,
      0.0526942,
      -0.265227,
      0.0145036,
      -0.1299253,
      -0.0560839,
      -0.010881,
      0.0100354,
      0.2973348,
      0.4024461,
      0.3133766,
      -0.0019331,
      -0.2694786,
      0.0012493,
      -0.123983,
      0.0001348,
      -0.0061872,
      0.2029872,
      -0.0854018,
      -0.0750425,
      -0.0400615,
      0.1550164,
      -0.0760096,
      -0.2641763,
      0.0095153,
      -0.107536,
      0.1006443,
      -0.0268598,
      -0.126392,
      -0.213378,
      0.0834809,
      -0.0802435,
      -0.0267151,
      -0.2069645,
      0.1740798,
      0.0647324,
      0.0889696,
      0.1632413,
      0.0539927,
      -0.0521864,
      0.1449173,
      -0.1264177,
      -0.0286854,
      -0.0226986,
      -0.1265653,
      -0.0082359,
      -0.2332043,
      -0.1062009,
      -0.2691621,
      -0.0525366,
      0.0190225,
      0.0487028,
      0.041045,
      0.0681578,
      0.1631727,
      -0.1208805,
      0.2731612,
      0.0678229,
      -0.113618,
      0.2264952,
      0.0974984,
      0.1507897,
      -0.1129312,
      0.0349415,
      -0.0492173,
      -0.03005,
      -0.1689292,
      0.1430695,
      -0.2458082,
      0.030134,
      0.0528869,
      0.1603736,
      -0.0410922,
      -0.0679641,
      -0.0331405,
      0.0374743,
      -0.122392,
      0.1646156,
      -0.1657339,
      -0.0675212,
      -0.0263625,
      0.0191289,
      -0.0625656,
      0.2033107,
      -0.1018291,
      0.1175808,
      -0.0902169,
      0.2245029,
      0.2245824,
      -0.0810971,
      -0.0574188,
      0.0559713,
      0.0940289,
      0.0157081,
      0.2923466,
      -0.3138577,
      0.1429018,
      -0.0886195,
      0.0700447,
      0.2608061,
      0.0873256,
      -0.2500403,
      -0.035644,
      0.1506906,
      -0.014763,
      0.1944916,
      0.016584,
      -0.1346921,
      -0.0604086,
      -0.1685269,
      -0.0680244,
      0.1467959,
      0.0130658,
      0.1412583,
      0.1245778,
      0.0346409,
      -0.3100791,
      -0.0127184,
      -0.0935203,
      0.3143992,
      0.0107961,
      0.0586964,
      0.0088678,
      -0.0524384,
      0.0859899,
      -0.0706438,
      -0.1312749,
      0.0016871,
      -0.2438493,
      0.0249793,
      0.2343135,
      -0.1856409,
      0.1740458,
      0.0403977,
      0.0629236,
      -0.0927959,
      -0.0447441,
      -0.0163914,
      -0.1097952,
      0.0358094,
      0.128838,
      -0.1274594,
      -0.0317019,
      -0.2067882,
      0.1506161,
      0.0479279,
      0.0908871,
      0.143844,
      0.4558588,
      -0.0928771,
      0.1491488,
      -0.1386647,
      0.1377428,
      0.0821719,
      0.0232416,
      -0.212681,
      0.1997242,
      0.0555413,
      -0.2977236,
      -0.1556379,
      -0.0359094,
      0.1364216,
      -0.0380346,
      -0.0619334,
      -0.0823909,
      -0.1576022,
      0.1668477,
      0.0163375,
      -0.062585,
      0.0167311,
      0.1439829,
      0.1108803,
      0.0295637,
      -0.1548842,
      0.2380678,
      -0.2291804,
      0.0924187,
      -0.1521383,
      0.031715,
      -0.00926,
      0.0246844,
      0.0101861,
      0.0948873,
      -0.151887,
      -0.2445416,
      0.1327483,
      -0.0900892,
      0.4117008,
      -0.1274925,
      -0.1681636,
      0.049044,
      0.0879702,
      -0.0037367,
      0.0145546,
      0.0564989
    ],
    "auxiliary_prediction_weights": {
      "damage": [
        0.1617968,
        0.5157858,
        0.0314015,
        -0.2788901,
        0.3554833,
        0.1720519,
        -0.2461355,
        -0.1865204
      ],
      "hazard": [
        -0.0151188,
        -0.3229917,
        0.0890317,
        0.4042699,
        0.3353911,
        -0.6021897,
        -0.3065703,
        -0.0812248
      ],
      "reproduction": [
        -0.2206085,
        0.7065935,
        0.5402794,
        0.1379435,
        -0.5802741,
        0.2349734,
        0.4404496,
        0.1726893
      ],
      "social": [
        -0.0039406,
        0.4454488,
        0.5512,
        0.4238603,
        0.4752324,
        0.0952153,
        -0.189247,
        0.2821813
      ],
      "tool": [
        0.4980846,
        -0.3627969,
        -0.516561,
        -0.5691046,
        0.5971207,
        0.3784045,
        0.3096291,
        0.1658712
      ]
    },
    "bias_h": [
      0.0324095,
      0.0754523,
      0.0370552,
      -0.0467728,
      -0.0946966,
      -0.1025866,
      -0.0653179,
      0.0009519
    ],
    "bias_o": [
      0.036827,
      0.0524775,
      0.0846252,
      -0.1287985,
      -0.0345402,
      -0.0144511,
      -0.1080654,
      0.0689718,
      0.0916064,
      0.0966769,
      -0.019343,
      0.0161106,
      -0.0399101,
      0.003752,
      -0.0678385
    ],
    "episodic_age": [
      26.0,
      1027.0,
      165.0,
      75.0
    ],
    "episodic_capacity": 4,
    "episodic_slots": [
      0.217579,
      -0.1373162,
      0.4773142,
      -0.0346377,
      -0.6224791,
      -0.6269191,
      -0.3611656,
      -0.1203111,
      0.1128619,
      0.0812913,
      0.2999591,
      -0.204635,
      -0.5041515,
      -0.4089372,
      -0.3642779,
      0.0590396,
      0.111654,
      -0.0026857,
      0.4093205,
      -0.0939556,
      -0.5506874,
      -0.6078642,
      -0.3256616,
      -0.1671284,
      0.1271674,
      -0.0296562,
      0.4132243,
      -0.0802697,
      -0.5438399,
      -0.614926,
      -0.3274289,
      -0.1657181
    ],
    "hidden": [
      0.228162,
      -0.1486373,
      0.4713182,
      -0.007462,
      -0.6247709,
      -0.6351078,
      -0.3731076,
      -0.1180093
    ],
    "hidden_size": 8,
    "hidden_trace": [
      0.2225052,
      -0.1545472,
      0.4815213,
      0.001046,
      -0.6283354,
      -0.633666,
      -0.3615802,
      -0.1365565
    ],
    "input_size": 72,
    "input_trace": [
      0.8700693,
      0.8778467,
      0.8854601,
      0.7474785,
      0.0029269,
      -0.0055115,
      0.7198757,
      0.2854589,
      0.1071332,
      -0.0069678,
      0.0079728,
      1.3146629,
      0.5110389,
      -0.0014261,
      0.6322888,
      0.5418174,
      0.3213374,
      0.685381,
      0.0198656,
      0.0333212,
      0.1205447,
      0.0596387,
      0.0959101,
      0.285012,
      0.7934001,
      0.0231887,
      0.5953299,
      0.0897462,
      0.0734891,
      0.3179135,
      0.3873128,
      0.3923259,
      0.4375202,
      0.0538846,
      0.2115042,
      0.1191151,
      0.1265177,
      0.7158148,
      0.1584138,
      0.0586468,
      0.1451073,
      0.4373316,
      0.1409784,
      0.1141597,
      -0.0007186,
      0.0003502,
      0.0673884,
      0.0125932,
      -0.0037212,
      -6.57e-05,
      0.074126,
      0.0736816,
      -0.0337673,
      0.0387694,
      0.2499838,
      -0.1226673,
      0.0391757,
      0.0120387,
      0.0029977,
      -0.0016418,
      0.0048353,
      -0.0032895,
      0.0002421,
      0.0356694,
      0.325645,
      0.0245817,
      0.0875323,
      0.1769449,
      0.0017578,
      0.0639419,
      0.0285665,
      0.0561893
    ],
    "last_attention": [
      0.8797396,
      0.8842216,
      0.8767635,
      0.8790186,
      0.8877328,
      0.8856613,
      0.883823,
      0.8707488,
      0.8850109,
      0.8735561,
      0.8775602,
      0.8792123,
      0.8808835,
      0.8909558,
      0.8774086,
      0.8857114,
      0.880075,
      0.8816088,
      0.8824961,
      0.8787937,
      0.8816598,
      0.8924296,
      0.8804676,
      0.878247,
      0.8783291,
      0.8839056,
      0.8813382,
      0.8893755,
      0.884135,
      0.8651046,
      0.8823409,
      0.8726331,
      0.8773307,
      0.8949195,
      0.8835359,
      0.895045,
      0.8797341,
      0.8795778,
      0.8682831,
      0.8851983,
      0.8837518,
      0.8756115,
      0.8840525,
      0.8800843,
      0.8937477,
      0.8690231,
      0.8895445,
      0.8790805,
      0.8766889,
      0.8896704,
      0.8924525,
      0.871188,
      0.8814301,
      0.8857242,
      0.8849593,
      0.8820545,
      0.8740657,
      0.8849281,
      0.8771636,
      0.8764646,
      0.8796592,
      0.8815888,
      0.8860328,
      0.8784086,
      0.8834272,
      0.8891198,
      0.879135,
      0.8917743,
      0.8779762,
      0.8872222,
      0.8848361,
      0.8829386
    ],
    "last_inputs": [
      0.8779173,
      0.8715474,
      0.9229745,
      0.7409731,
      -0.0306867,
      -0.009289,
      0.7439759,
      0.2952257,
      0.055534,
      -0.0307985,
      0.0005005,
      1.2848489,
      0.5111832,
      -0.0038466,
      0.6489226,
      0.5396844,
      0.2827396,
      0.6670018,
      0.0284225,
      0.0151929,
      0.1424224,
      0.0553721,
      0.0621632,
      0.2836554,
      0.809248,
      0.0365746,
      0.6072198,
      0.1051383,
      0.0440407,
      0.3009809,
      0.3779376,
      0.3643053,
      0.4494717,
      0.0425514,
      0.2172836,
      0.1085594,
      0.1442097,
      0.7190889,
      0.1914135,
      0.0580027,
      0.1032122,
      0.4235916,
      0.1316298,
      0.1176332,
      0.0409506,
      0.0001527,
      0.0450214,
      -0.0151551,
      0.0219022,
      -0.0185392,
      0.0280008,
      0.0876209,
      -0.0264688,
      0.0544998,
      0.2604937,
      -0.1295352,
      0.0119417,
      0.0297072,
      0.0039903,
      -0.0067889,
      -0.018537,
      -0.0342309,
      -0.0086473,
      0.0721729,
      0.3314696,
      0.0584895,
      0.1137071,
      0.2076561,
      -0.0035698,
      0.04485,
      0.0013132,
      0.0847182
    ],
    "last_outputs": [
      0.0472402,
      0.2211402,
      0.3025975,
      -0.0594412,
      0.2151764,
      -0.0606307,
      -0.1354225,
      0.2874169,
      0.2200132,
      0.0339546,
      -0.0655794,
      -0.0361204,
      -0.1220388,
      -0.2491152,
      0.0140107
    ],
    "last_prediction_errors": {
      "damage": 0.084991,
      "energy": 0.2785184,
      "hazard": -0.1344879,
      "reproduction": -0.0448466,
      "social": 0.0461587,
      "tool": 0.2899652
    },
    "output_size": 15,
    "prediction_weights": [
      -0.3872651,
      0.4542477,
      -0.2403595,
      -0.0818902,
      0.0769726,
      -0.8087999,
      -0.0737106,
      0.5019216
    ],
    "weights_in": [
      -0.3472868,
      -0.2022164,
      -0.2940619,
      0.6891753,
      -0.4593825,
      0.415296,
      -0.3284144,
      0.040507,
      -0.5440713,
      -0.4201276,
      0.347041,
      0.4621711,
      -0.1926658,
      0.3194627,
      0.1335068,
      -0.2213492,
      0.2073648,
      0.0992741,
      -0.4433678,
      -0.4782377,
      0.9564507,
      0.4178012,
      -0.1121937,
      0.088273,
      0.0027799,
      -0.6135311,
      0.135049,
      0.5720814,
      -0.0955337,
      1.0279191,
      0.1653396,
      0.1170478,
      -0.0602217,
      -0.3002438,
      0.1769498,
      -0.4877546,
      0.2252761,
      0.3124402,
      -0.2651707,
      0.8096592,
      -0.4879249,
      0.1095551,
      -0.2569405,
      0.1849739,
      0.4694991,
      -0.328926,
      -0.0614808,
      1.0078963,
      0.0413221,
      0.1750143,
      -0.3672,
      -0.1392694,
      0.9284177,
      0.3848388,
      -0.2723057,
      0.3004185,
      -0.3962491,
      0.3917459,
      -0.1322087,
      0.3718628,
      -0.073362,
      0.4445043,
      0.4158031,
      -0.2967305,
      -0.6771608,
      0.3445039,
      0.4871905,
      0.1840546,
      -0.3651804,
      -0.1638726,
      -0.0223337,
      0.4703622,
      -0.8243123,
      0.6958609,
      -0.4648226,
      -0.3533876,
      0.0483998,
      0.4507473,
      0.3079689,
      0.3283049,
      -0.5856804,
      -0.0721333,
      0.5387396,
      -0.5883411,
      -0.0642288,
      0.5032804,
      0.5555815,
      0.0159864,
      0.355885,
      -0.3135737,
      -0.0378605,
      0.4052305,
      -0.245165,
      -0.3732226,
      0.218574,
      0.3244543,
      -0.2568678,
      0.2728326,
      0.4475729,
      -0.1469739,
      -1.4972605,
      0.1277096,
      -0.158885,
      -0.4541758,
      -0.4337092,
      0.2313393,
      0.1632386,
      -0.1355256,
      -0.3186487,
      0.0189024,
      -0.2190431,
      0.0034085,
      -0.6263594,
      -0.0525672,
      0.1657476,
      -0.7860643,
      0.5317063,
      1.2004538,
      0.0165044,
      0.2401758,
      0.2246361,
      0.3572831,
      -0.6832281,
      0.7180347,
      -0.5863305,
      -0.7573088,
      0.0151273,
      -0.0352051,
      0.5380763,
      -0.5277802,
      -0.1801509,
      -0.507034,
      -1.2005091,
      -0.344331,
      0.1117255,
      0.2304004,
      0.8172888,
      -0.3701452,
      0.173193,
      0.0591494,
      -0.3618815,
      -0.4800232,
      -0.1211797,
      -0.1056245,
      0.6705252,
      0.02585,
      -0.1708051,
      0.6568993,
      0.5456546,
      -0.0143203,
      0.3815941,
      0.0374913,
      0.7018376,
      -0.2642082,
      -0.1160537,
      0.2080177,
      -0.8443962,
      -0.5096889,
      0.0020609,
      -0.1764993,
      0.267979,
      0.7147412,
      0.3367527,
      0.0742327,
      -0.0981029,
      -0.0206363,
      0.5751643,
      -0.5477242,
      0.5492219,
      -0.0317096,
      -0.3293431,
      -0.2203784,
      -0.7508601,
      -0.1235219,
      -0.0073154,
      -0.1900369,
      0.2688933,
      -0.0310371,
      0.0587738,
      0.4863945,
      -0.2832822,
      0.1410885,
      -0.3691483,
      0.2262169,
      -0.3729669,
      0.172031,
      -0.1873297,
      0.2617558,
      -0.1133502,
      -0.4891402,
      0.3578334,
      0.1687483,
      -0.3445213,
      0.562298,
      0.013838,
      0.0957542,
      0.3493146,
      -0.0044024,
      -0.2296146,
      0.2992986,
      0.3392269,
      0.6412719,
      -0.7472016,
      -0.4958132,
      -0.3712349,
      0.3437284,
      -0.5935324,
      -0.4754522,
      0.2959889,
      -0.5245059,
      -0.3052021,
      -0.0685044,
      -0.3097045,
      0.144295,
      0.4923975,
      -0.2246161,
      0.032684,
      -0.1257043,
      0.226429,
      -0.0076614,
      -0.3750912,
      -0.2238085,
      -0.3659825,
      -0.1444437,
      0.5006507,
      -0.188935,
      -0.1900406,
      0.4596063,
      -0.2961668,
      -0.3973074,
      -0.4269521,
      0.199677,
      0.25995,
      -0.4525743,
      0.894148,
      0.2654114,
      -0.5564042,
      -0.1748976,
      -0.1641568,
      -0.1191675,
      0.4779489,
      0.1563153,
      -0.0690945,
      -0.4160861,
      0.4697481,
      -0.0504674,
      -0.6894948,
      -0.3254642,
      -0.0105769,
      0.5486098,
      0.3629291,
      0.1316942,
      -0.5690391,
      0.9983367,
      -0.5628915,
      -0.4126824,
      -0.5284452,
      0.1876713,
      0.7306519,
      0.203974,
      -0.2796259,
      -0.8057719,
      -0.0923636,
      0.500118,
      -0.3655489,
      0.5507959,
      1.1676841,
      0.0837935,
      0.0816738,
      -0.1463864,
      0.5487619,
      -0.0383563,
      0.1072855,
      0.3987925,
      -0.4662959,
      -0.2856458,
      -0.2270422,
      0.3793438,
      0.3082632,
      0.0512987,
      -0.3722691,
      -0.6676173,
      0.4456146,
      -0.5372932,
      0.4148911,
      0.0137087,
      0.0707932,
      -0.0239236,
      -0.1543482,
      0.4233068,
      -0.3161134,
      -0.5614038,
      0.5665842,
      -0.4270409,
      0.1983301,
      0.0517134,
      -0.3295984,
      0.6556126,
      -0.5923067,
      -0.0490284,
      -0.0393315,
      0.3182711,
      -0.0223964,
      -0.1388681,
      -0.7647578,
      -0.0145588,
      -0.5353906,
      0.0638337,
      -0.0898178,
      0.6150709,
      -1.011244,
      0.1857478,
      -0.1186419,
      -0.115177,
      -0.4810867,
      0.0355953,
      0.3450798,
      -0.3472233,
      -0.7983424,
      -0.9571031,
      0.0484656,
      0.7651591,
      -0.3336141,
      0.5192048,
      0.3926639,
      -0.2801718,
      -0.0786113,
      0.7902607,
      0.6033661,
      -0.8568689,
      0.0255069,
      0.2143389,
      0.4572661,
      -0.125439,
      -0.2572561,
      0.137452,
      -0.1413801,
      0.2959638,
      -0.2256319,
      0.1171085,
      -0.21771,
      0.1625551,
      0.2118067,
      -0.0591682,
      -0.3628726,
      0.0154696,
      0.4549259,
      -0.0515559,
      0.6162729,
      -1.0422739,
      0.0711836,
      -0.0644063,
      0.1911247,
      0.3443127,
      -1.0096974,
      -0.6223309,
      0.2766176,
      -0.0903211,
      -0.7731638,
      0.2279324,
      0.5184221,
      -0.1349114,
      -0.2471011,
      -0.8110696,
      0.4675451,
      -0.0784473,
      -0.5085603,
      0.3884748,
      0.4666775,
      -0.2324503,
      -0.2499111,
      -0.6596351,
      -0.6379288,
      -0.2574898,
      0.3222192,
      0.3000263,
      0.0563049,
      -0.1086351,
      0.3936752,
      -0.2941772,
      -0.1929873,
      0.1564922,
      -0.6387718,
      0.1267719,
      -0.7992988,
      -1.0181751,
      -0.5596441,
      0.7171104,
      0.5628222,
      -0.5784131,
      0.3641858,
      -0.1866664,
      -0.1802361,
      0.3685715,
      -0.0614164,
      -0.6061185,
      0.3806733,
      0.4093288,
      0.1770414,
      0.2705726,
      0.0619897,
      0.6929123,
      -0.5487724,
      -0.0600476,
      -0.4152208,
      -0.3524719,
      0.0027727,
      0.9828857,
      0.0179199,
      -0.1405238,
      -0.0954477,
      -0.9410074,
      -0.0984761,
      0.4106168,
      -0.3146557,
      0.4542374,
      0.4573843,
      -0.1064034,
      0.1051511,
      0.4383,
      -0.4208858,
      -0.1439429,
      0.2929407,
      -0.1615486,
      0.1031246,
      0.4095007,
      0.0806228,
      -0.2120962,
      0.0271992,
      -0.6450569,
      -0.4705451,
      0.2825239,
      -0.1931482,
      -0.4576423,
      -0.2312815,
      -0.404968,
      0.1811463,
      -0.8266143,
      0.1217126,
      0.0667103,
      0.5154085,
      -0.1890089,
      0.0624102,
      -0.1329542,
      0.5262377,
      0.0102965,
      0.1900719,
      0.2617067,
      0.8303147,
      -0.15339,
      0.2145341,
      0.3469165,
      0.4631878,
      -0.0848821,
      0.5118293,
      -0.0917764,
      0.2692761,
      0.0559164,
      -0.0889987,
      -0.0807676,
      -0.3172355,
      0.2844944,
      0.2342447,
      0.0527495,
      0.287489,
      0.6461913,
      1.2966951,
      0.0829886,
      -0.8440398,
      -0.8341009,
      -1.3724337,
      -0.502193,
      -0.0868354,
      -0.6516637,
      -0.3888714,
      0.0530851,
      -0.026038,
      0.6997147,
      0.6002041,
      0.1702498,
      -0.1116515,
      0.4359995,
      -0.3177094,
      0.380127,
      0.210551,
      -0.0642855,
      0.6748746,
      0.424133,
      -0.3645164,
      -0.151858,
      0.4690935,
      0.5135296,
      -0.2511369,
      0.4194275,
      -0.2467088,
      0.0785862,
      -0.0979516,
      0.1128501,
      0.0084453,
      -0.8047734,
      0.2917992,
      0.7884222,
      -0.149189,
      0.0948664,
      0.0246851,
      0.27141,
      0.6118819,
      -0.2903641,
      0.6875561,
      -0.4911389,
      -0.7607319,
      0.4407262,
      -1.0706242,
      -0.4864009,
      0.2332884,
      -0.7594188,
      -0.2420791,
      -0.5541784,
      0.0803318,
      -0.5120509,
      -0.3601719,
      0.2285885,
      0.1740808,
      -0.2729941,
      0.8635087,
      1.0780886,
      -0.624622,
      -0.0621209,
      -0.6308028,
      -0.6513978,
      0.0107575,
      0.4360845,
      0.2975592,
      0.1869842,
      0.7724292,
      0.2640975,
      0.8250156,
      -0.197409,
      -0.7829081,
      -0.59527,
      0.3605751,
      0.7766901,
      0.5984919,
      -0.4534688,
      -0.1540773,
      0.1897888,
      -0.4177383,
      0.7034295,
      -0.1231614,
      0.4654204,
      -0.3763943,
      -0.5794591,
      0.3128911,
      0.2139447,
      -0.2066576,
      -0.2294388,
      -1.0750024,
      -0.1767557,
      -1.0287566,
      -0.3732584,
      -0.2531769,
      0.1154603,
      -0.2827116,
      -0.8038363,
      0.2402531,
      0.2694987,
      -0.4223017,
      0.1774307,
      -0.1464398,
      -0.5013955,
      0.6944278,
      -0.0039698,
      0.1298934,
      0.3793775,
      0.1086197,
      -0.2326673
    ],
    "weights_out": [
      0.0562112,
      0.1221231,
      0.1333503,
      0.3260491,
      -0.3609265,
      0.2251418,
      0.1435362,
      0.4625921,
      0.4707514,
      -0.4024432,
      -0.0522948,
      -0.2888805,
      -0.5550123,
      -0.1117947,
      0.2282286,
      0.0024316,
      -0.8053836,
      0.0427399,
      0.2722531,
      0.8602605,
      -0.6875232,
      -0.22779,
      -0.4910235,
      0.6150347,
      -0.2710732,
      0.0431571,
      0.0582965,
      0.3786993,
      -0.3049234,
      -0.0160607,
      0.1693567,
      -0.8665907,
      0.9939404,
      -0.2901276,
      -0.1026414,
      -0.2530153,
      -0.5176794,
      -0.0459012,
      -0.282107,
      -0.2122825,
      -0.1563443,
      0.8075467,
      -0.1459225,
      -0.367104,
      0.3646855,
      -0.3943558,
      -0.0064763,
      -0.5600771,
      0.544653,
      0.1473952,
      -0.7033426,
      0.8991967,
      -0.4964038,
      -0.117687,
      0.5439914,
      0.198678,
      0.3579248,
      0.4816565,
      -0.0251452,
      -0.0703207,
      -0.476028,
      -0.3435725,
      -0.344151,
      0.2110811,
      0.417023,
      0.0308064,
      0.3759152,
      0.968115,
      -0.2127261,
      0.0469198,
      0.145968,
      -0.4577902,
      -0.7448243,
      0.1582026,
      0.1653968,
      -1.0694472,
      0.428871,
      0.2343745,
      -0.8621364,
      -0.2139237,
      -1.0127314,
      -0.1574854,
      0.3187074,
      0.5010512,
      0.1720934,
      0.0272112,
      -0.0005049,
      -0.466243,
      0.1661639,
      -0.5360763,
      -0.1319672,
      -0.0665505,
      0.0437783,
      0.29083,
      -0.0553464,
      0.1034928,
      0.7177635,
      -0.2960265,
      -0.5273629,
      0.2786227,
      -0.1945046,
      0.418866,
      0.2173175,
      -0.3064146,
      0.5505271,
      0.0903041,
      -0.2040501,
      -0.4378442,
      -0.0057021,
      0.6404862,
      0.8667264,
      0.0669463,
      0.6388415,
      -0.0851529,
      0.0492966,
      0.7581661,
      -0.0577071,
      -0.4486796,
      0.7161932,
      -0.0145316
    ]
  },
  "brain_template": {
    "attention_bias": [
      2.9620405,
      3.0940378,
      3.0457381,
      3.19769,
      2.9782718,
      3.0406629,
      3.0738035,
      2.9354596,
      3.1800842,
      2.8596806,
      3.0567966,
      3.1786334,
      2.9174262,
      3.0619464,
      3.1278291,
      3.1980845,
      3.0416339,
      2.9475042,
      3.0214827,
      2.8875928,
      3.0219306,
      3.0242127,
      2.8768001,
      3.0764065,
      2.9618694,
      3.0161436,
      2.919179,
      2.8930173,
      3.0133508,
      3.035409,
      2.9979928,
      3.061325,
      3.0419245,
      2.9178567,
      2.9205167,
      3.103471,
      2.972036,
      2.8357573,
      3.0794164,
      2.9440466,
      2.9749121,
      3.0997106,
      2.9695496,
      2.9579481,
      3.063678,
      2.9631054,
      2.9611082,
      3.0220312,
      3.1758032,
      3.0906005,
      3.0404854,
      2.8629628,
      3.0151803,
      3.1286321,
      3.0511669,
      2.955493,
      3.0761511,
      2.9064852,
      2.9164488,
      3.1942914,
      3.0454148,
      3.1085435,
      2.929356,
      2.9762272,
      2.9590418,
      3.0596887,
      2.9276454,
      3.009524,
      3.1859156,
      3.140037,
      2.9583912,
      2.9771337
    ],
    "attention_weights": [
      -0.1603976,
      -0.0986844,
      0.0984888,
      0.0682396,
      0.1494936,
      -0.0497479,
      -0.0099422,
      -0.0483173,
      0.2118132,
      -0.0258063,
      0.308087,
      -0.2036625,
      -0.2148402,
      0.12102,
      0.1391351,
      0.2137239,
      -0.0609764,
      0.0673325,
      -0.0007365,
      0.0923717,
      0.1456929,
      0.3420576,
      0.0199186,
      -0.1677779,
      0.0090897,
      0.0705166,
      0.0452377,
      -0.1301738,
      0.0985003,
      0.0377194,
      -0.1535218,
      0.0489042,
      0.0233219,
      0.0859113,
      0.2840626,
      0.1163801,
      -0.2454908,
      0.1553537,
      -0.2299715,
      0.0965562,
      -0.2108207,
      -0.1663806,
      0.1039021,
      0.070688,
      0.1469286,
      -0.0333438,
      0.0416835,
      -0.1245998,
      0.0998576,
      0.1872922,
      -0.208781,
      0.0624372,
      -0.0010252,
      0.058974,
      0.1200567,
      0.2327287,
      0.0562385,
      -0.0212108,
      -0.1181148,
      0.1051942,
      -0.0474008,
      -0.0979838,
      0.1394462,
      -0.0819811,
      0.1975826,
      0.1238911,
      0.0428342,
      -0.1985715,
      0.0156331,
      -0.2069819,
      -0.1312834,
      0.247467,
      0.1759688,
      -0.0203515,
      0.1060328,
      0.2593358,
      0.1571585,
      -0.0514577,
      -0.134233,
      0.0974985,
      0.1417689,
      0.1162856,
      0.0759341,
      0.1819747,
      0.1955749,
      0.1224475,
      0.2061282,
      0.1169737,
      0.2167445,
      0.1287235,
      -0.0570957,
      0.0622043,
      0.0111943,
      -0.0967186,
      -0.0491213,
      0.1816988,
      -0.1115181,
      0.0502293,
      -0.0745488,
      -0.2155105,
      -0.0860332,
      0.0631588,
      -0.2510038,
      0.0887756,
      -0.1344397,
      -0.2999967,
      -0.0373066,
      0.0310737,
      0.1460856,
      0.1236521,
      0.0922904,
      0.0339277,
      0.0393714,
      -0.0379078,
      -0.1177619,
      0.0750213,
      -0.0021843,
      0.0328543,
      -0.1813559,
      -0.2184295,
      0.0085079,
      -0.176211,
      0.1783983,
      -0.0541745,
      -0.1307031,
      0.0215123,
      -0.0923712,
      -0.171453,
      -0.226012,
      -0.0506202,
      0.0044557,
      0.0958547,
      -0.0513996,
      -0.1314087,
      -0.4343981,
      -0.0823119,
      -0.0663004,
      0.1155387,
      0.0994002,
      0.1345671,
      -0.0546248,
      0.1287341,
      0.1033132,
      0.0793108,
      -0.0285227,
      -0.0898929,
      0.0355933,
      0.0644217,
      -0.0070546,
      -0.0427452,
      0.1845834,
      -0.0001195,
      0.3629652,
      -0.1211123,
      -0.1376804,
      0.0576401,
      0.0228291,
      0.2045362,
      -0.2928787,
      -0.0913868,
      -0.0546863,
      -0.0952467,
      0.0220365,
      0.1003008,
      -0.1161832,
      -0.0135071,
      0.0430506,
      -0.1562197,
      0.1548424,
      0.1298827,
      -0.1666728,
      0.0876185,
      0.1306243,
      -0.3286168,
      0.0845584,
      -0.1088819,
      -0.1321485,
      0.2640687,
      0.0372855,
      0.2599309,
      0.0784683,
      0.0040622,
      -0.1564936,
      0.0514792,
      -0.0097149,
      -0.0127994,
      0.2505817,
      0.0705135,
      -0.0099874,
      -0.4259081,
      -0.0160506,
      -0.0923798,
      -0.0968452,
      -0.0106465,
      -0.0615562,
      -0.0769408,
      -0.3470059,
      0.2506769,
      -0.0169544,
      0.1697883,
      0.0356891,
      0.1067719,
      -0.0620375,
      -0.1810014,
      0.133096,
      -0.1132258,
      0.1806303,
      0.0479791,
      -0.0052989,
      -0.0677836,
      0.1163183,
      0.1796281,
      -0.0149883,
      -0.0272641,
      0.1433634,
      0.0145811,
      -0.0253682,
      -0.1846184,
      -0.2229231,
      0.0853808,
      0.2503133,
      -0.013738,
      -0.0252428,
      -0.0922738,
      -0.0918153,
      0.1051078,
      0.1052443,
      0.2146176,
      -0.2870275,
      0.0559563,
      0.2840255,
      -0.3292457,
      0.1732096,
      0.1891729,
      -0.0330641,
      0.0037359,
      -0.0018292,
      -0.1302636,
      0.2007402,
      0.0024758,
      -0.0562428,
      -0.2013772,
      -0.0059072,
      0.0625629,
      0.2952447,
      -0.0964284,
      0.0556272,
      0.11854,
      -0.3066444,
      0.0894292,
      0.056521,
      0.1629095,
      0.0154325,
      0.0321639,
      -0.1444248,
      -0.0815845,
      0.0533026,
      -0.1383432,
      0.0275788,
      -0.1402148,
      -0.0548581,
      0.0177033,
      0.1432327,
      -0.0012208,
      0.216687,
      -0.2023301,
      0.0530769,
      -0.0769197,
      -0.0751422,
      0.1088123,
      -0.055828,
      -0.0776284,
      -0.3389977,
      -0.0745661,
      -0.0009039,
      0.0434609,
      -0.1480571,
      0.1210024,
      -0.122418,
      0.2450715,
      0.1970545,
      -0.2081728,
      0.3389396,
      -0.1514802,
      0.1768977,
      -0.2377137,
      -0.0713099,
      -0.0684742,
      -0.316809,
      -0.0090554,
      0.2544395,
      -0.0182854,
      -0.1510822,
      -0.0180966,
      -0.0212312,
      0.3327252,
      0.0961544,
      -0.0341655,
      -0.1294758,
      0.0907257,
      -0.0915468,
      -0.2621986,
      -0.234334,
      -0.2526294,
      -0.1387381,
      0.1186919,
      0.0461775,
      0.1652321,
      -0.0655022,
      -0.0792413,
      0.0622239,
      0.1508771,
      0.1978607,
      0.0765688,
      -0.1092651,
      -0.215084,
      0.0794587,
      0.0729171,
      -0.4028603,
      -0.0201664,
      0.02671,
      -0.0267917,
      -0.0517126,
      -0.1648253,
      -0.1080143,
      0.0013347,
      0.1062946,
      -0.0021465,
      -0.1572195,
      0.1701474,
      -0.0040144,
      -0.0241303,
      -0.1015344,
      0.0524225,
      -0.1613348,
      -0.1546896,
      -0.0112885,
      -0.2260155,
      -0.282837,
      0.2614478,
      -0.2335377,
      0.0105302,
      0.0136257,
      -0.0088998,
      0.3942672,
      -0.1550514,
      -0.0086273,
      0.0161098,
      0.1395791,
      -0.2210154,
      0.0884036,
      0.1153319,
      -0.0941419,
      -0.082949,
      0.2154019,
      -0.1644985,
      0.0383895,
      -0.1464233,
      -0.111541,
      -0.0489214,
      0.2905571,
      -0.2106469,
      -0.0537264,
      0.0666395,
      -0.0760599,
      -0.3355532,
      0.0732108,
      0.0630475,
      -0.0558089,
      0.1105374,
      0.1553162,
      0.0462946,
      -0.0036506,
      0.0135923,
      0.2241832,
      0.163089,
      -0.0092285,
      -0.0624481,
      -0.0821853,
      -0.0124756,
      -0.0538581,
      -0.3145385,
      0.0589485,
      -0.2631157,
      0.0239738,
      -0.1295148,
      -0.0424729,
      -0.008915,
      0.0107249,
      0.3027077,
      0.4084542,
      0.3199619,
      0.0077973,
      -0.2670617,
      0.0055885,
      -0.1217573,
      0.0033304,
      0.0150241,
      0.2073449,
      -0.0840912,
      -0.0736676,
      -0.0343405,
      0.1590156,
      -0.0679468,
      -0.264269,
      0.009524,
      -0.1002196,
      0.100684,
      -0.0268163,
      -0.1263328,
      -0.2060593,
      0.0852414,
      -0.0821215,
      -0.0265546,
      -0.1987991,
      0.1709468,
      0.0671644,
      0.0890021,
      0.1633077,
      0.0540175,
      -0.0522057,
      0.1449761,
      -0.1264667,
      -0.0277654,
      -0.015947,
      -0.1254547,
      -0.0039577,
      -0.2248006,
      -0.1062515,
      -0.2671617,
      -0.046361,
      0.0227743,
      0.0638844,
      0.0565228,
      0.0754958,
      0.1704203,
      -0.1209246,
      0.273848,
      0.0789592,
      -0.111181,
      0.2275658,
      0.0975386,
      0.1517526,
      -0.0941872,
      0.0410031,
      -0.0492302,
      -0.0189814,
      -0.1595063,
      0.14882,
      -0.2338607,
      0.0301903,
      0.0532453,
      0.1626106,
      -0.0403723,
      -0.0646837,
      -0.0316332,
      0.0416286,
      -0.1221805,
      0.173064,
      -0.1646205,
      -0.0670575,
      -0.0229036,
      0.0229824,
      -0.0583171,
      0.2096076,
      -0.1003028,
      0.1203792,
      -0.0887946,
      0.2265867,
      0.2378952,
      -0.0785099,
      -0.0566474,
      0.0570078,
      0.0977995,
      0.0182139,
      0.2967626,
      -0.3139702,
      0.1429577,
      -0.0848606,
      0.0700726,
      0.260932,
      0.0874076,
      -0.2463164,
      -0.0346828,
      0.1496177,
      -0.0146755,
      0.199494,
      0.0147594,
      -0.1334647,
      -0.0604303,
      -0.1685863,
      -0.0680474,
      0.1468501,
      0.0130745,
      0.1413091,
      0.125132,
      0.0389432,
      -0.3095306,
      -0.0103114,
      -0.0884638,
      0.3145076,
      0.012069,
      0.0620866,
      0.0109984,
      -0.0464572,
      0.0919892,
      -0.0690811,
      -0.1279978,
      0.0016874,
      -0.2435694,
      0.0297459,
      0.2351477,
      -0.1854367,
      0.1741132,
      0.0407561,
      0.0699241,
      -0.0905835,
      -0.0447615,
      -0.0121198,
      -0.1061751,
      0.038024,
      0.1335295,
      -0.1274913,
      -0.0315828,
      -0.2060196,
      0.150945,
      0.0502919,
      0.0911526,
      0.149004,
      0.4561876,
      -0.0893664,
      0.1497971,
      -0.1386434,
      0.1387005,
      0.0832352,
      0.0243616,
      -0.2105593,
      0.2004056,
      0.0565624,
      -0.2973275,
      -0.1548966,
      -0.0305609,
      0.1376505,
      -0.0376286,
      -0.0618388,
      -0.0812803,
      -0.1567177,
      0.1699327,
      0.0163442,
      -0.0626069,
      0.0196837,
      0.144029,
      0.1109369,
      0.0296086,
      -0.1519854,
      0.2387291,
      -0.2297739,
      0.0925031,
      -0.1498047,
      0.0306609,
      -0.0083469,
      0.0246935,
      0.0101927,
      0.0949241,
      -0.1519432,
      -0.2446311,
      0.1327947,
      -0.089788,
      0.4133994,
      -0.1271233,
      -0.1668165,
      0.051576,
      0.0880013,
      -0.0031075,
      0.01684,
      0.0577953
    ],
    "auxiliary_prediction_weights": {
      "damage": [
        0.1613467,
        0.5160054,
        0.0301579,
        -0.2790855,
        0.3570094,
        0.1734661,
        -0.2452496,
        -0.1861816
      ],
      "hazard": [
        -0.0143687,
        -0.323317,
        0.091101,
        0.404576,
        0.3328769,
        -0.6045715,
        -0.3080423,
        -0.0818482
      ],
      "reproduction": [
        -0.2201125,
        0.7064704,
        0.5415887,
        0.1380626,
        -0.5819259,
        0.2334905,
        0.4394549,
        0.1724249
      ],
      "social": [
        -0.0040998,
        0.4455037,
        0.5508603,
        0.4239832,
        0.4757451,
        0.0956999,
        -0.1889223,
        0.282246
      ],
      "tool": [
        0.4960241,
        -0.3620992,
        -0.5220412,
        -0.569594,
        0.6039819,
        0.3847665,
        0.3137357,
        0.1672497
      ]
    },
    "bias_h": [
      0.0324095,
      0.0754523,
      0.0370552,
      -0.0467728,
      -0.0946966,
      -0.1025866,
      -0.0653179,
      0.0009519
    ],
    "bias_o": [
      0.036827,
      0.0524861,
      0.0630108,
      -0.1287989,
      -0.0345376,
      -0.0144508,
      -0.1080648,
      0.0689491,
      0.0916084,
      0.0966835,
      -0.0193442,
      0.016108,
      -0.0398456,
      0.0040438,
      -0.0678377
    ],
    "episodic_age": [
      -1.0,
      -1.0,
      -1.0,
      -1.0
    ],
    "episodic_capacity": 4,
    "episodic_slots": [
      0.0,
      0.0,
      0.0,
      0.0,
      0.0,
      0.0,
      0.0,
      0.0,
      0.0,
      0.0,
      0.0,
      0.0,
      0.0,
      0.0,
      0.0,
      0.0,
      0.0,
      0.0,
      0.0,
      0.0,
      0.0,
      0.0,
      0.0,
      0.0,
      0.0,
      0.0,
      0.0,
      0.0,
      0.0,
      0.0,
      0.0,
      0.0
    ],
    "hidden_size": 8,
    "input_size": 72,
    "output_size": 15,
    "prediction_weights": [
      -0.3879051,
      0.454886,
      -0.2429725,
      -0.0834713,
      0.0796967,
      -0.8063731,
      -0.0724483,
      0.5029608
    ],
    "weights_in": [
      -0.3475338,
      -0.2024674,
      -0.2941369,
      0.6890521,
      -0.4593825,
      0.4152721,
      -0.3285752,
      0.0404735,
      -0.5440883,
      -0.4201276,
      0.3470064,
      0.461911,
      -0.1927337,
      0.3194627,
      0.1333263,
      -0.2215034,
      0.2072721,
      0.0990782,
      -0.4433711,
      -0.4782489,
      0.9564154,
      0.4177854,
      -0.1122906,
      0.0882596,
      0.0026619,
      -0.613536,
      0.1349189,
      0.5720599,
      -0.0955455,
      1.02789,
      0.1653059,
      0.117012,
      -0.060321,
      -0.3002702,
      0.176901,
      -0.4877776,
      0.2252443,
      0.3122185,
      -0.2652144,
      0.8096421,
      -0.4879398,
      0.1095077,
      -0.2569809,
      0.1848501,
      0.469499,
      -0.328926,
      -0.0615977,
      1.0078951,
      0.0413219,
      0.1750138,
      -0.3673175,
      -0.1392911,
      0.9284413,
      0.3848401,
      -0.2723947,
      0.3004537,
      -0.3962883,
      0.3917458,
      -0.1322087,
      0.3718628,
      -0.0733621,
      0.4445042,
      0.415803,
      -0.2967468,
      -0.6772017,
      0.3444952,
      0.4871223,
      0.1839511,
      -0.3651804,
      -0.1638976,
      -0.0224208,
      0.470304,
      -0.824164,
      0.6960071,
      -0.4647846,
      -0.3533094,
      0.0483998,
      0.4507527,
      0.3080731,
      0.3283219,
      -0.5856697,
      -0.0721333,
      0.5387464,
      -0.5881708,
      -0.0642045,
      0.5032805,
      0.5556869,
      0.0160762,
      0.3559391,
      -0.3134596,
      -0.0378583,
      0.4052369,
      -0.2451442,
      -0.3732134,
      0.2186744,
      0.324459,
      -0.2567567,
      0.2728362,
      0.4476548,
      -0.1469595,
      -1.4972537,
      0.1277193,
      -0.1588733,
      -0.4541639,
      -0.4336543,
      0.231354,
      0.1632617,
      -0.1355134,
      -0.3186303,
      0.0190336,
      -0.2190146,
      0.00342,
      -0.6263524,
      -0.0525423,
      0.1657707,
      -0.7859365,
      0.5317063,
      1.2004538,
      0.0166342,
      0.2401762,
      0.2246362,
      0.3572832,
      -0.6830981,
      0.7180555,
      -0.5863443,
      -0.757308,
      0.015191,
      -0.0352351,
      0.5381186,
      -0.5277803,
      -0.1801509,
      -0.5070341,
      -1.200509,
      -0.344331,
      0.1117255,
      0.2304148,
      0.8173052,
      -0.3701413,
      0.1732481,
      0.0592237,
      -0.3618816,
      -0.4800065,
      -0.1210734,
      -0.1055828,
      0.6697056,
      0.0250205,
      -0.1710085,
      0.6564924,
      0.5456545,
      -0.0144052,
      0.381059,
      0.0373924,
      0.7017804,
      -0.2642081,
      -0.116161,
      0.2071805,
      -0.8445798,
      -0.5096888,
      0.0014637,
      -0.1770089,
      0.2676722,
      0.7140936,
      0.3367414,
      0.0741962,
      -0.0982198,
      -0.0206885,
      0.574757,
      -0.5477548,
      0.548766,
      -0.0317254,
      -0.3297758,
      -0.2204514,
      -0.7508969,
      -0.1235907,
      -0.0073944,
      -0.1901218,
      0.2685733,
      -0.0311267,
      0.0586172,
      0.4863215,
      -0.2833856,
      0.1403491,
      -0.3692958,
      0.2261586,
      -0.3730096,
      0.171891,
      -0.1874625,
      0.2612357,
      -0.1133505,
      -0.4891403,
      0.3573263,
      0.1687452,
      -0.344522,
      0.5622968,
      0.0133287,
      0.0956708,
      0.3493971,
      -0.0043965,
      -0.2299289,
      0.2994283,
      0.3390601,
      0.6412717,
      -0.7472016,
      -0.4958131,
      -0.371235,
      0.3437281,
      -0.5935327,
      -0.4755152,
      0.2958849,
      -0.5245297,
      -0.3054619,
      -0.0688734,
      -0.3097043,
      0.1442093,
      0.4920165,
      -0.2248317,
      0.0323621,
      -0.1260273,
      0.2264046,
      -0.0078231,
      -0.3750912,
      -0.2238488,
      -0.3661788,
      -0.1444704,
      0.500628,
      -0.188935,
      -0.190093,
      0.4593208,
      -0.2961939,
      -0.3973073,
      -0.4271854,
      0.1994784,
      0.2598303,
      -0.4528267,
      0.8941435,
      0.2653974,
      -0.5564499,
      -0.1749179,
      -0.1643885,
      -0.1191636,
      0.4777068,
      0.1563112,
      -0.0692601,
      -0.416116,
      0.4697356,
      -0.0504615,
      -0.6894885,
      -0.325457,
      -0.0106953,
      0.5485739,
      0.3628687,
      0.1316686,
      -0.5690779,
      0.9980407,
      -0.5629514,
      -0.4127065,
      -0.5284546,
      0.1876354,
      0.7306008,
      0.2036782,
      -0.2796261,
      -0.8057719,
      -0.0926626,
      0.5001171,
      -0.3655491,
      0.5507961,
      1.167384,
      0.0837521,
      0.0817113,
      -0.14638,
      0.5486223,
      -0.0382954,
      0.1071899,
      0.3987925,
      -0.4662959,
      -0.2856457,
      -0.2270422,
      0.3793437,
      0.3082632,
      0.0512667,
      -0.3722735,
      -0.6676208,
      0.4454739,
      -0.5374693,
      0.4148912,
      0.0136714,
      0.0705697,
      -0.024036,
      -0.1534218,
      0.4242447,
      -0.3158584,
      -0.5609496,
      0.5665843,
      -0.4269478,
      0.1989389,
      0.0518288,
      -0.3295321,
      0.6556125,
      -0.5921876,
      -0.0480655,
      -0.0391084,
      0.3182711,
      -0.0217214,
      -0.1382919,
      -0.764411,
      -0.0138268,
      -0.5353779,
      0.063875,
      -0.0896856,
      0.6151299,
      -1.0108045,
      0.1857899,
      -0.1181656,
      -0.1151587,
      -0.4805974,
      0.0356767,
      0.3451223,
      -0.3471313,
      -0.7982369,
      -0.9569896,
      0.0488294,
      0.7652606,
      -0.3334356,
      0.519288,
      0.3927806,
      -0.2793396,
      -0.0784465,
      0.7903257,
      0.6034174,
      -0.8567025,
      0.0256572,
      0.2149002,
      0.4572664,
      -0.1254389,
      -0.2567125,
      0.1374555,
      -0.1413793,
      0.2959654,
      -0.2250859,
      0.1172002,
      -0.217802,
      0.1625503,
      0.2121557,
      -0.0593105,
      -0.3626926,
      0.0154699,
      0.4549259,
      -0.051556,
      0.616273,
      -1.0422735,
      0.071184,
      -0.0643373,
      0.1912538,
      0.3443401,
      -1.0094142,
      -0.6219247,
      0.2766174,
      -0.0902263,
      -0.7727561,
      0.228168,
      0.5192516,
      -0.1340726,
      -0.2468647,
      -0.8106552,
      0.4675452,
      -0.0783736,
      -0.5080021,
      0.388581,
      0.4667348,
      -0.2324504,
      -0.2498138,
      -0.6587516,
      -0.6377192,
      -0.2574898,
      0.3228228,
      0.3005415,
      0.056615,
      -0.1079805,
      0.3936866,
      -0.2941401,
      -0.192869,
      0.1565451,
      -0.6383893,
      0.1268112,
      -0.7988451,
      -1.0181573,
      -0.5591994,
      0.7171846,
      0.5628603,
      -0.5783263,
      0.364285,
      -0.1865594,
      -0.1799113,
      0.3686616,
      -0.0612613,
      -0.6060436,
      0.3807791,
      0.4100723,
      0.1771911,
      0.2706316,
      0.0620357,
      0.6930635,
      -0.5486378,
      -0.0595595,
      -0.4152206,
      -0.3524718,
      0.0032452,
      0.9828891,
      0.0179207,
      -0.1405221,
      -0.0949732,
      -0.9409249,
      -0.0985559,
      0.4106142,
      -0.3143422,
      0.4541077,
      0.4575413,
      -0.1064032,
      0.1051511,
      0.4382999,
      -0.4208856,
      -0.1439426,
      0.2929411,
      -0.1614875,
      0.1032503,
      0.4095285,
      0.0808691,
      -0.211735,
      0.027199,
      -0.6449712,
      -0.4701821,
      0.2827277,
      -0.1926535,
      -0.4571399,
      -0.2311309,
      -0.4047234,
      0.1811463,
      -0.8265669,
      0.1220395,
      0.0667767,
      0.5154429,
      -0.189009,
      0.0624713,
      -0.1324285,
      0.5263672,
      0.0102965,
      0.1904333,
      0.2620153,
      0.8305005,
      -0.1529978,
      0.2145409,
      0.3469388,
      0.4632585,
      -0.0848504,
      0.5120369,
      -0.0917501,
      0.2695139,
      0.0559264,
      -0.0887367,
      -0.0807242,
      -0.317212,
      0.2845507,
      0.2343091,
      0.0528189,
      0.2876867,
      0.6462447,
      1.2967901,
      0.0830344,
      -0.8439764,
      -0.8336572,
      -1.3723458,
      -0.5021585,
      -0.0868054,
      -0.6515699,
      -0.3887906,
      0.0533502,
      -0.0260379,
      0.6997147,
      0.6004569,
      0.1702519,
      -0.1116511,
      0.4360005,
      -0.3174554,
      0.3801726,
      0.2105037,
      -0.0642875,
      0.6750555,
      0.4240601,
      -0.3644319,
      -0.1518578,
      0.4690935,
      0.5135296,
      -0.2511368,
      0.4194277,
      -0.2467086,
      0.0786204,
      -0.0978731,
      0.1128664,
      0.0085829,
      -0.8045657,
      0.2917991,
      0.7884722,
      -0.1489967,
      0.0949822,
      0.0249377,
      0.2716625,
      0.6119324,
      -0.2902311,
      0.6875561,
      -0.4911163,
      -0.7605546,
      0.440755,
      -1.0706089,
      -0.4864009,
      0.2333132,
      -0.7591526,
      -0.2420226,
      -0.5541784,
      0.0805137,
      -0.5118958,
      -0.3600785,
      0.2287857,
      0.1740843,
      -0.2729829,
      0.8635445,
      1.0781046,
      -0.6244795,
      -0.0621156,
      -0.6306111,
      -0.6513915,
      0.010897,
      0.4361088,
      0.2975696,
      0.1870005,
      0.7724476,
      0.2641176,
      0.8251095,
      -0.197382,
      -0.7828645,
      -0.5952485,
      0.3606075,
      0.7769176,
      0.5985404,
      -0.4534495,
      -0.1540675,
      0.189828,
      -0.4176979,
      0.7036111,
      -0.1231613,
      0.4654205,
      -0.376213,
      -0.5794578,
      0.3128914,
      0.2139452,
      -0.2064758,
      -0.2294096,
      -1.0750265,
      -0.1767564,
      -1.0286526,
      -0.3733046,
      -0.2531183,
      0.1154603,
      -0.2827116,
      -0.8038364,
      0.2402532,
      0.2694987,
      -0.4223016,
      0.1774522,
      -0.146406,
      -0.5013849,
      0.6945118,
      -0.0038479,
      0.1298933,
      0.3794064,
      0.1087579,
      -0.2325976
    ],
    "weights_out": [
      0.0562112,
      0.1221231,
      0.1333503,
      0.3260491,
      -0.3609266,
      0.2251417,
      0.1435362,
      0.4625921,
      0.4707545,
      -0.4024442,
      -0.0522855,
      -0.2888791,
      -0.5550236,
      -0.1118047,
      0.2282218,
      0.0024301,
      -0.8138585,
      0.0474468,
      0.244543,
      0.8498839,
      -0.6559796,
      -0.199645,
      -0.4740101,
      0.6232275,
      -0.2710734,
      0.0431573,
      0.0582959,
      0.3786991,
      -0.3049228,
      -0.01606,
      0.169357,
      -0.8665904,
      0.9939416,
      -0.2901279,
      -0.1026387,
      -0.2530156,
      -0.5176829,
      -0.0459045,
      -0.2821093,
      -0.2122831,
      -0.1563442,
      0.8075466,
      -0.1459222,
      -0.3671041,
      0.3646851,
      -0.3943562,
      -0.0064766,
      -0.5600771,
      0.5446532,
      0.1473952,
      -0.7033421,
      0.8991966,
      -0.4964045,
      -0.1176876,
      0.5439909,
      0.198678,
      0.3579162,
      0.4816582,
      -0.0251681,
      -0.0703183,
      -0.4759981,
      -0.3435385,
      -0.3441341,
      0.2110926,
      0.4170239,
      0.030806,
      0.3759173,
      0.968115,
      -0.2127289,
      0.0469173,
      0.1459663,
      -0.4577905,
      -0.7448218,
      0.1582026,
      0.1654031,
      -1.069448,
      0.4288624,
      0.2343666,
      -0.8621418,
      -0.2139249,
      -1.0127318,
      -0.1574857,
      0.3187067,
      0.5010519,
      0.1720949,
      0.0272124,
      -0.0005039,
      -0.4662433,
      0.1661628,
      -0.5360759,
      -0.13197,
      -0.0665507,
      0.0437819,
      0.2908333,
      -0.0553443,
      0.1034936,
      0.7177891,
      -0.2960341,
      -0.5272941,
      0.2786184,
      -0.1945908,
      0.4187784,
      0.2172643,
      -0.3064388,
      0.5506347,
      0.0903491,
      -0.20376,
      -0.4378291,
      -0.006093,
      0.6401838,
      0.8664961,
      0.0669571,
      0.6388418,
      -0.0851529,
      0.0492973,
      0.7581659,
      -0.0577081,
      -0.4486804,
      0.7161925,
      -0.0145315
    ]
  },
  "bucket": "learner_champion",
  "cognition": {
    "event_memory": {
      "damage": 2e-06,
      "energy_gain": 0.057158,
      "energy_loss": 0.000722,
      "health_gain": 0.0,
      "reproduction": 0.001401,
      "social": 6.6e-05,
      "surprise": 0.041466,
      "tool": 2e-06
    },
    "last_action": "eat",
    "last_valence": 0.262206,
    "lesson_memory": [
      {
        "affordance": "build",
        "attempted_affordance": "build",
        "components": {
          "bone": 1,
          "crystal": 1,
          "stone": 2
        },
        "gain": 15.0,
        "kind": "build",
        "method_quality": 0.0,
        "place": 6,
        "problem": {
          "difficulty": 0.545655,
          "kind": "causal_challenge",
          "payoff_energy": "chemical",
          "place": 6,
          "progress": 2,
          "remaining": 74.533107,
          "required_affordance": "contain",
          "sequence": [
            "crack",
            "lever",
            "contain"
          ]
        },
        "score": 0.691809,
        "skill": 0.494114,
        "success": true
      },
      {
        "affordance": "build",
        "attempted_affordance": "build",
        "components": {
          "branch": 2,
          "fiber": 2
        },
        "gain": 16.0,
        "kind": "build",
        "method_quality": 0.0,
        "place": 6,
        "problem": {
          "difficulty": 0.545655,
          "kind": "causal_challenge",
          "payoff_energy": "chemical",
          "place": 6,
          "progress": 2,
          "remaining": 74.533107,
          "required_affordance": "contain",
          "sequence": [
            "crack",
            "lever",
            "contain"
          ]
        },
        "score": 0.670814,
        "skill": 0.518229,
        "success": true
      },
      {
        "affordance": "build",
        "attempted_affordance": "build",
        "components": {
          "bone": 4
        },
        "gain": 17.0,
        "kind": "build",
        "method_quality": 0.0,
        "place": 6,
        "problem": {
          "difficulty": 0.545655,
          "kind": "causal_challenge",
          "payoff_energy": "chemical",
          "place": 6,
          "progress": 2,
          "remaining": 74.533107,
          "required_affordance": "contain",
          "sequence": [
            "crack",
            "lever",
            "contain"
          ]
        },
        "score": 0.670239,
        "skill": 0.541393,
        "success": true
      },
      {
        "affordance": "build",
        "attempted_affordance": "build",
        "components": {
          "bone": 2,
          "fiber": 1,
          "resin": 1
        },
        "gain": 0.0,
        "kind": "build",
        "method_quality": 0.0,
        "place": 6,
        "problem": {
          "difficulty": 0.545655,
          "kind": "causal_challenge",
          "payoff_energy": "chemical",
          "place": 6,
          "progress": 2,
          "remaining": 74.533107,
          "required_affordance": "contain",
          "sequence": [
            "crack",
            "lever",
            "contain"
          ]
        },
        "score": 0.3755,
        "skill": 0.547611,
        "success": false
      },
      {
        "affordance": "build",
        "attempted_affordance": "build",
        "components": {
          "bone": 1,
          "resin": 1,
          "shell": 1,
          "stone": 1
        },
        "gain": 18.0,
        "kind": "build",
        "method_quality": 0.0,
        "place": 6,
        "problem": {
          "difficulty": 0.545655,
          "kind": "causal_challenge",
          "payoff_energy": "chemical",
          "place": 6,
          "progress": 2,
          "remaining": 74.533107,
          "required_affordance": "contain",
          "sequence": [
            "crack",
            "lever",
            "contain"
          ]
        },
        "score": 0.669305,
        "skill": 0.570092,
        "success": true
      }
    ],
    "lineage": {
      "inherited_brain_template": false,
      "parent_lineages": [],
      "parents": [],
      "root_id": 480
    },
    "place_memory": [
      {
        "place_id": 10,
        "value": 0.647976
      },
      {
        "place_id": 6,
        "value": 0.579416
      }
    ],
    "prediction_errors": {
      "damage": 0.084991,
      "energy": 0.278518,
      "hazard": -0.134488,
      "reproduction": -0.044847,
      "social": 0.046159,
      "tool": 0.289965
    },
    "recent_trace": {
      "action": 0.142857,
      "damage": 0.0,
      "energy_delta": 0.33696,
      "health_delta": 0.0,
      "prediction_error": 0.278518,
      "reproduction": 0.0,
      "social": 0.0,
      "tool": 0.0
    },
    "signal_values": [
      0.369703,
      0.028293,
      0.139639,
      0.203123,
      0.0,
      0.086296,
      0.032401,
      0.065176
    ],
    "success_profile": {
      "collaboration": 10.978655,
      "energy_gain": 476.354559,
      "prediction_fit": 81.825249,
      "reproduction": 9.0,
      "structure": 33.875,
      "tool_use": 2.889328
    },
    "tool_trace": {
      "last_artifact_method": 0.0,
      "last_craft_target": "",
      "last_tool_affordance": ""
    }
  },
  "context": {
    "criterion": "learner_champion",
    "label": "final",
    "lineages": {
      "agent_lineages_total": 80,
      "living_agent_lineages": 8,
      "top_all_time": [
        {
          "avg_living_energy": 14.85293,
          "avg_living_health": 0.72583,
          "born": 3743,
          "dead": 2834,
          "inherited_template_count": 3731,
          "lineage_root_id": 460,
          "living": 909,
          "living_neural": 908,
          "max_generation": 19,
          "offspring_total": 7539,
          "profile": {
            "causal_step": 503.0,
            "causal_unlock": 83.35076,
            "collaboration": 223965.46925,
            "energy_gain": 20219.73206,
            "knowledge_transmitted": 0.99186,
            "prediction_fit": 17652.10027,
            "reproduction": 7539.0,
            "social_learning": 283.8,
            "structure": 1011.75,
            "tool_make": 207.51144,
            "tool_use": 10207.67062,
            "written_learning": 2.38273
          },
          "score": 209538.73934,
          "successful_tools_total": 6951,
          "tool_use_counts": {
            "bind": 2652,
            "build": 467,
            "concentrate_heat": 464,
            "contain": 800,
            "crack": 879,
            "craft": 192,
            "cut": 214,
            "lever": 1273
          },
          "tool_users": 697,
          "top_living_ids": [
            5506,
            5186,
            2377,
            7720,
            2504
          ]
        },
        {
          "avg_living_energy": 12.6887,
          "avg_living_health": 0.7059,
          "born": 1294,
          "dead": 940,
          "inherited_template_count": 1286,
          "lineage_root_id": 426,
          "living": 354,
          "living_neural": 354,
          "max_generation": 17,
          "offspring_total": 2600,
          "profile": {
            "causal_step": 429.0,
            "causal_unlock": 38.89463,
            "collaboration": 52103.56866,
            "energy_gain": 4759.8612,
            "knowledge_transmitted": 0.68271,
            "prediction_fit": 5736.23742,
            "reproduction": 2600.0,
            "social_learning": 489.3,
            "structure": 582.125,
            "tool_make": 17.33833,
            "tool_use": 7417.41044,
            "written_learning": 1.85375
          },
          "score": 64659.64718,
          "successful_tools_total": 6094,
          "tool_use_counts": {
            "bind": 1851,
            "build": 266,
            "concentrate_heat": 208,
            "contain": 2145,
            "crack": 785,
            "craft": 16,
            "cut": 6,
            "lever": 814
          },
          "tool_users": 205,
          "top_living_ids": [
            6462,
            2429,
            7696,
            3141,
            6445
          ]
        },
        {
          "avg_living_energy": 10.77666,
          "avg_living_health": 0.73167,
          "born": 1253,
          "dead": 1000,
          "inherited_template_count": 1247,
          "lineage_root_id": 483,
          "living": 253,
          "living_neural": 253,
          "max_generation": 16,
          "offspring_total": 2472,
          "profile": {
            "causal_step": 114.0,
            "causal_unlock": 15.0,
            "collaboration": 41795.63635,
            "energy_gain": 4671.81434,
            "knowledge_transmitted": 0.43459,
            "prediction_fit": 5793.45171,
            "reproduction": 2472.0,
            "social_learning": 144.05,
            "structure": 652.75,
            "tool_make": 21.4983,
            "tool_use": 2333.09537,
            "written_learning": 0.33769
          },
          "score": 44683.69735,
          "successful_tools_total": 1696,
          "tool_use_counts": {
            "bind": 198,
            "build": 301,
            "concentrate_heat": 43,
            "contain": 120,
            "crack": 595,
            "craft": 20,
            "cut": 3,
            "lever": 414
          },
          "tool_users": 188,
          "top_living_ids": [
            2819,
            2777,
            2782,
            7988,
            8438
          ]
        },
        {
          "avg_living_energy": 14.63338,
          "avg_living_health": 0.67125,
          "born": 540,
          "dead": 478,
          "inherited_template_count": 535,
          "lineage_root_id": 447,
          "living": 62,
          "living_neural": 61,
          "max_generation": 17,
          "offspring_total": 1044,
          "profile": {
            "causal_step": 62.0,
            "causal_unlock": 12.0,
            "collaboration": 42441.62956,
            "energy_gain": 3149.82966,
            "prediction_fit": 2867.6232,
            "reproduction": 1044.0,
            "social_learning": 9.8,
            "structure": 125.25,
            "tool_make": 17.28738,
            "tool_use": 2824.92678,
            "written_learning": 0.06058
          },
          "score": 40617.17835,
          "successful_tools_total": 2326,
          "tool_use_counts": {
            "bind": 925,
            "build": 63,
            "concentrate_heat": 145,
            "contain": 242,
            "crack": 64,
            "craft": 16,
            "cut": 30,
            "lever": 839
          },
          "tool_users": 88,
          "top_living_ids": [
            7713,
            3140,
            6735,
            7709,
            8767
          ]
        },
        {
          "avg_living_energy": 12.78772,
          "avg_living_health": 0.83426,
          "born": 138,
          "dead": 108,
          "inherited_template_count": 136,
          "lineage_root_id": 423,
          "living": 30,
          "living_neural": 30,
          "max_generation": 19,
          "offspring_total": 271,
          "profile": {
            "causal_step": 10.0,
            "causal_unlock": 3.0,
            "collaboration": 8828.94207,
            "energy_gain": 544.02242,
            "prediction_fit": 691.85278,
            "reproduction": 271.0,
            "social_learning": 5.2,
            "structure": 67.875,
            "tool_make": 7.84498,
            "tool_use": 195.12704,
            "written_learning": 0.01503
          },
          "score": 7821.32899,
          "successful_tools_total": 135,
          "tool_use_counts": {
            "bind": 3,
            "build": 34,
            "concentrate_heat": 4,
            "contain": 7,
            "crack": 10,
            "craft": 7,
            "lever": 70
          },
          "tool_users": 30,
          "top_living_ids": [
            4116,
            7759,
            8978,
            10023,
            8124
          ]
        }
      ],
      "top_living": [
        {
          "avg_living_energy": 14.85293,
          "avg_living_health": 0.72583,
          "born": 3743,
          "dead": 2834,
          "inherited_template_count": 3731,
          "lineage_root_id": 460,
          "living": 909,
          "living_neural": 908,
          "max_generation": 19,
          "offspring_total": 7539,
          "profile": {
            "causal_step": 503.0,
            "causal_unlock": 83.35076,
            "collaboration": 223965.46925,
            "energy_gain": 20219.73206,
            "knowledge_transmitted": 0.99186,
            "prediction_fit": 17652.10027,
            "reproduction": 7539.0,
            "social_learning": 283.8,
            "structure": 1011.75,
            "tool_make": 207.51144,
            "tool_use": 10207.67062,
            "written_learning": 2.38273
          },
          "score": 209538.73934,
          "successful_tools_total": 6951,
          "tool_use_counts": {
            "bind": 2652,
            "build": 467,
            "concentrate_heat": 464,
            "contain": 800,
            "crack": 879,
            "craft": 192,
            "cut": 214,
            "lever": 1273
          },
          "tool_users": 697,
          "top_living_ids": [
            5506,
            5186,
            2377,
            7720,
            2504
          ]
        },
        {
          "avg_living_energy": 12.6887,
          "avg_living_health": 0.7059,
          "born": 1294,
          "dead": 940,
          "inherited_template_count": 1286,
          "lineage_root_id": 426,
          "living": 354,
          "living_neural": 354,
          "max_generation": 17,
          "offspring_total": 2600,
          "profile": {
            "causal_step": 429.0,
            "causal_unlock": 38.89463,
            "collaboration": 52103.56866,
            "energy_gain": 4759.8612,
            "knowledge_transmitted": 0.68271,
            "prediction_fit": 5736.23742,
            "reproduction": 2600.0,
            "social_learning": 489.3,
            "structure": 582.125,
            "tool_make": 17.33833,
            "tool_use": 7417.41044,
            "written_learning": 1.85375
          },
          "score": 64659.64718,
          "successful_tools_total": 6094,
          "tool_use_counts": {
            "bind": 1851,
            "build": 266,
            "concentrate_heat": 208,
            "contain": 2145,
            "crack": 785,
            "craft": 16,
            "cut": 6,
            "lever": 814
          },
          "tool_users": 205,
          "top_living_ids": [
            6462,
            2429,
            7696,
            3141,
            6445
          ]
        },
        {
          "avg_living_energy": 10.77666,
          "avg_living_health": 0.73167,
          "born": 1253,
          "dead": 1000,
          "inherited_template_count": 1247,
          "lineage_root_id": 483,
          "living": 253,
          "living_neural": 253,
          "max_generation": 16,
          "offspring_total": 2472,
          "profile": {
            "causal_step": 114.0,
            "causal_unlock": 15.0,
            "collaboration": 41795.63635,
            "energy_gain": 4671.81434,
            "knowledge_transmitted": 0.43459,
            "prediction_fit": 5793.45171,
            "reproduction": 2472.0,
            "social_learning": 144.05,
            "structure": 652.75,
            "tool_make": 21.4983,
            "tool_use": 2333.09537,
            "written_learning": 0.33769
          },
          "score": 44683.69735,
          "successful_tools_total": 1696,
          "tool_use_counts": {
            "bind": 198,
            "build": 301,
            "concentrate_heat": 43,
            "contain": 120,
            "crack": 595,
            "craft": 20,
            "cut": 3,
            "lever": 414
          },
          "tool_users": 188,
          "top_living_ids": [
            2819,
            2777,
            2782,
            7988,
            8438
          ]
        },
        {
          "avg_living_energy": 14.63338,
          "avg_living_health": 0.67125,
          "born": 540,
          "dead": 478,
          "inherited_template_count": 535,
          "lineage_root_id": 447,
          "living": 62,
          "living_neural": 61,
          "max_generation": 17,
          "offspring_total": 1044,
          "profile": {
            "causal_step": 62.0,
            "causal_unlock": 12.0,
            "collaboration": 42441.62956,
            "energy_gain": 3149.82966,
            "prediction_fit": 2867.6232,
            "reproduction": 1044.0,
            "social_learning": 9.8,
            "structure": 125.25,
            "tool_make": 17.28738,
            "tool_use": 2824.92678,
            "written_learning": 0.06058
          },
          "score": 40617.17835,
          "successful_tools_total": 2326,
          "tool_use_counts": {
            "bind": 925,
            "build": 63,
            "concentrate_heat": 145,
            "contain": 242,
            "crack": 64,
            "craft": 16,
            "cut": 30,
            "lever": 839
          },
          "tool_users": 88,
          "top_living_ids": [
            7713,
            3140,
            6735,
            7709,
            8767
          ]
        },
        {
          "avg_living_energy": 12.78772,
          "avg_living_health": 0.83426,
          "born": 138,
          "dead": 108,
          "inherited_template_count": 136,
          "lineage_root_id": 423,
          "living": 30,
          "living_neural": 30,
          "max_generation": 19,
          "offspring_total": 271,
          "profile": {
            "causal_step": 10.0,
            "causal_unlock": 3.0,
            "collaboration": 8828.94207,
            "energy_gain": 544.02242,
            "prediction_fit": 691.85278,
            "reproduction": 271.0,
            "social_learning": 5.2,
            "structure": 67.875,
            "tool_make": 7.84498,
            "tool_use": 195.12704,
            "written_learning": 0.01503
          },
          "score": 7821.32899,
          "successful_tools_total": 135,
          "tool_use_counts": {
            "bind": 3,
            "build": 34,
            "concentrate_heat": 4,
            "contain": 7,
            "crack": 10,
            "craft": 7,
            "lever": 70
          },
          "tool_users": 30,
          "top_living_ids": [
            4116,
            7759,
            8978,
            10023,
            8124
          ]
        }
      ]
    },
    "population": {
      "agent": 1643,
      "fungus": 212,
      "neural": 1641,
      "plant": 1767,
      "total": 3622
    },
    "world_energy": {
      "biological_storage": 2.3876,
      "chemical": 0.0,
      "electrical": 214.3703,
      "high_density": 10.5386,
      "locked_chemical": 221.4762,
      "mechanical": 2243.0783,
      "radiant": 3041.5993,
      "thermal": 4334.5138
    },
    "world_physics": {
      "archetype_counts": {
        "cavern": 3,
        "desert_glass": 4,
        "forest_edge": 3,
        "high_ridge": 5,
        "hydrothermal_vent": 3,
        "mineral_scree": 2,
        "pelagic": 3,
        "reef": 4,
        "tidal_marsh": 5,
        "trench": 4
      },
      "avg_abrasion": 0.16791,
      "avg_acidity": 0.14933,
      "avg_biological_activity": 0.23365,
      "avg_boundary_permeability": 0.4618,
      "avg_current_exposure": 0.10268,
      "avg_edge_current": 0.24109,
      "avg_edge_slope": 0.39495,
      "avg_elevation": 0.48845,
      "avg_fluid_level": 0.31933,
      "avg_humidity": 0.48228,
      "avg_interiority": 0.39124,
      "avg_oxygen": 0.42143,
      "avg_pressure": 0.21119,
      "avg_resource_gradient": 0.56984,
      "avg_salinity": 0.35796,
      "avg_shelter": 0.4574,
      "avg_structure_scale": 11.9078,
      "avg_temperature": 0.75247,
      "avg_terrain_richness": 0.55941,
      "avg_wet_dry_cycle": 0.1889,
      "max_abrasion": 0.27666,
      "max_acidity": 0.29063,
      "max_biological_activity": 0.32051,
      "max_boundary_permeability": 0.76898,
      "max_current_exposure": 0.22887,
      "max_edge_current": 0.73595,
      "max_edge_slope": 0.95007,
      "max_elevation": 0.99867,
      "max_fluid_level": 0.51679,
      "max_humidity": 0.68261,
      "max_interiority": 0.4292,
      "max_oxygen": 0.54712,
      "max_pressure": 0.42842,
      "max_resource_gradient": 1.0,
      "max_salinity": 1.05756,
      "max_shelter": 0.47424,
      "max_structure_scale": 231,
      "max_temperature": 0.94444,
      "max_terrain_richness": 0.83706,
      "max_wet_dry_cycle": 0.24585,
      "structure_count": 423.0
    }
  },
  "genome": {
    "aquatic_affinity": 0.5168230183051443,
    "armor": 0.36959947078906064,
    "asexual_threshold": 0.3967194774591899,
    "buoyancy": 0.3813278908004867,
    "chemical_metabolism": 0.8083553074300678,
    "desiccation_tolerance": 0.5899555275810909,
    "developmental_complexity": 0.6088795114377852,
    "digestion": 0.8441665168654469,
    "electrical_use": 0.03659800036473337,
    "episodic_capacity": 3.6553367994806205,
    "learning_rate": 0.07778739784650374,
    "manipulator": 0.6109605523846611,
    "mate_selectivity": 0.6963825642140166,
    "mechanical_use": 0.17595593416323413,
    "memory_budget": 2.18732135961551,
    "mobility": 0.7192919546531278,
    "mutation_rate": 0.016752276944320806,
    "neural_budget": 7.758234798886425,
    "offspring_investment": 0.6414790731921634,
    "photosynthesis_surface": 0.03162355845267001,
    "plasticity_rate": 0.062471584080266915,
    "prediction_weight": 0.1399741878654171,
    "pressure_tolerance": 0.5439309518776826,
    "radiant_metabolism": 0.1908938368737778,
    "salinity_tolerance": 0.4627274128564643,
    "sensor_range": 0.7779815261124063,
    "sexual_threshold": 0.49316621151177603,
    "signal_strength": 0.4826003097402319,
    "storage_capacity": 0.5669249911169206,
    "thermal_tolerance": 0.5657149654553169,
    "valence_damage": 0.7789668857249358,
    "valence_energy": 0.7781530625458544,
    "valence_health": 0.5165197614726118,
    "valence_reproduction": 0.2471452715433739,
    "valence_social": 0.3238916882387566
  },
  "inventory": {},
  "organism": {
    "age": 2368,
    "artifacts": [],
    "complexity": 2.5819,
    "energy": 93.0799,
    "generation": 0,
    "health": 1.0,
    "id": 480,
    "inherited_brain_template": false,
    "kind": "agent",
    "last_action": "eat",
    "last_artifact_method": 0.0,
    "last_craft_target": "",
    "last_energy_delta": 3.3696,
    "last_lesson": {
      "affordance": "build",
      "attempted_affordance": "build",
      "components": {
        "bone": 1,
        "resin": 1,
        "shell": 1,
        "stone": 1
      },
      "gain": 18.0,
      "kind": "build",
      "method_quality": 0.0,
      "place": 6,
      "problem": {
        "difficulty": 0.545655,
        "kind": "causal_challenge",
        "payoff_energy": "chemical",
        "place": 6,
        "progress": 2,
        "remaining": 74.533107,
        "required_affordance": "contain",
        "sequence": [
          "crack",
          "lever",
          "contain"
        ]
      },
      "score": 0.669305,
      "skill": 0.570092,
      "success": true
    },
    "last_tool_affordance": "",
    "last_valence": 0.2622,
    "lineage_root_id": 480,
    "location": 10,
    "neural": true,
    "offspring_count": 9,
    "parent_lineage_ids": [],
    "parents": [],
    "success_profile": {
      "collaboration": 10.9787,
      "energy_gain": 476.3546,
      "prediction_fit": 81.8252,
      "reproduction": 9.0,
      "structure": 33.875,
      "tool_use": 2.8893
    },
    "successful_tools": 16,
    "tool_use_counts": {
      "build": 16
    }
  },
  "reason": "final_learner_champion",
  "score": 116.7597,
  "signal_values": [
    0.369703,
    0.028293,
    0.139639,
    0.203123,
    0.0,
    0.086296,
    0.032401,
    0.065176
  ],
  "tick": 2368,
  "tool_skill": {
    "anchor": 0.068411,
    "bind": 0.046011,
    "build": 0.570092,
    "carry": 0.017916,
    "channel": 0.035544,
    "concentrate_heat": 0.094233,
    "conduct": 0.014195,
    "contain": 0.013189,
    "crack": 0.047549,
    "craft": 0.000986,
    "cut": 0.03973,
    "enclose": 0.030763,
    "energy_storage": 0.014084,
    "filter": 0.023298,
    "float": 0.004609,
    "gradient_harvest": 0.04058,
    "inscribe": 9.5e-05,
    "insulate": 0.101164,
    "interpret_mark": 0.0,
    "lever": 0.084983,
    "permeable": 0.0175,
    "protect": 0.098883,
    "reaction_surface": 0.024956,
    "record": 0.019943,
    "shelter": 0.045787,
    "support": 0.074117,
    "traverse": 0.076587
  }
}
