{
  "artifacts": [],
  "brain": {
    "auxiliary_prediction_weights": {
      "damage": [
        -0.206823,
        -0.0325719,
        0.1682192,
        -0.5103226,
        -0.0854832,
        0.709692
      ],
      "hazard": [
        -0.3000174,
        0.4070055,
        -0.4362392,
        0.0624994,
        -0.4835244,
        -0.1641404
      ],
      "reproduction": [
        -0.0451046,
        -0.6012586,
        0.7016035,
        1.0692672,
        -0.1381663,
        0.1926764
      ],
      "social": [
        -0.3228428,
        -0.8861262,
        0.725554,
        0.0637466,
        -0.3162316,
        -0.328355
      ],
      "tool": [
        -0.3119557,
        0.139625,
        -0.3004841,
        0.4566277,
        -0.3507849,
        -0.2162451
      ]
    },
    "bias_h": [
      0.1742345,
      0.1655965,
      0.0452042,
      -0.0824995,
      0.0808601,
      -0.068484
    ],
    "bias_o": [
      -0.0255892,
      0.1210274,
      -0.0554869,
      -0.0918085,
      0.1145308,
      -0.0105896,
      -0.1041999,
      -0.1357287,
      0.073301,
      0.0953558,
      0.0277493,
      -0.2040452,
      -0.0331568,
      -0.1331539,
      0.1056263
    ],
    "hidden": [
      0.4255552,
      0.2366276,
      -0.3217525,
      -0.8027406,
      0.6213223,
      -0.6137552
    ],
    "hidden_size": 6,
    "hidden_trace": [
      0.3928674,
      0.2410876,
      -0.3092087,
      -0.7956665,
      0.6222503,
      -0.6127775
    ],
    "input_size": 72,
    "input_trace": [
      0.0798028,
      0.7989384,
      0.43225,
      0.2809409,
      0.0025636,
      0.0938851,
      1.4854435,
      0.0163157,
      0.019248,
      9.2e-06,
      5e-06,
      1.1247266,
      0.9801745,
      0.497843,
      0.5327757,
      0.3167766,
      0.3470148,
      0.5127022,
      0.046523,
      0.023629,
      0.1140408,
      0.3143032,
      0.0443652,
      1.0,
      -0.8478995,
      0.0450055,
      1.0437347,
      0.0004511,
      0.1192937,
      0.4037176,
      0.3757254,
      0.4581204,
      0.5158558,
      0.1240381,
      0.0653007,
      0.1422687,
      0.0500066,
      0.8693279,
      0.0011229,
      0.0003519,
      0.9857708,
      0.1023099,
      0.5809232,
      0.0265197,
      -0.0050211,
      0.0050211,
      -0.3056635,
      0.0,
      0.1459196,
      0.7414567,
      -0.3056635,
      0.0957289,
      0.5851708,
      0.3945909,
      0.922891,
      0.0544381,
      0.0087387,
      0.0010467,
      0.0,
      0.002319,
      0.0,
      0.0422432,
      0.2148189,
      0.116131,
      0.0331195,
      0.0015232,
      0.000908,
      0.0,
      0.0189281,
      0.0243177,
      0.0452266,
      0.0273145
    ],
    "last_inputs": [
      0.0975138,
      0.768125,
      0.438,
      0.2871407,
      0.0006021,
      5.08e-05,
      1.4635962,
      0.0089086,
      0.0195109,
      1e-06,
      5e-06,
      1.2222222,
      0.9818182,
      0.5,
      0.5327757,
      0.3167766,
      0.3470148,
      0.5127022,
      0.046523,
      0.023629,
      0.1140408,
      0.3143032,
      0.0596123,
      1.0,
      -0.8288423,
      0.0450055,
      0.9484965,
      0.0,
      0.1201263,
      0.4050363,
      0.3748607,
      0.4592667,
      0.5170602,
      0.1239754,
      0.0694191,
      0.1412237,
      0.0495891,
      0.8763935,
      0.0,
      0.0,
      1.0,
      0.1055323,
      0.5714286,
      0.0142306,
      0.0,
      0.0,
      -0.3118574,
      0.0,
      0.2,
      1.0,
      -0.3118574,
      0.0870174,
      0.5786461,
      0.4423249,
      1.182314,
      0.0596683,
      0.0091054,
      0.0009707,
      0.0,
      0.0009133,
      0.0,
      0.0448185,
      0.2276115,
      0.1190355,
      0.0331195,
      0.0015232,
      0.000908,
      0.0,
      0.0196682,
      0.0321616,
      0.0452266,
      0.0281609
    ],
    "last_outputs": [
      -0.4580242,
      -0.0895228,
      -0.3511203,
      -0.2624453,
      0.1338272,
      0.2305457,
      -0.0548048,
      0.0769621,
      0.4070725,
      -0.0425714,
      0.2786377,
      -0.1508813,
      0.2592595,
      -0.0964433,
      0.0235073
    ],
    "last_prediction_errors": {
      "damage": 0.0934442,
      "energy": -0.318226,
      "hazard": 0.0575075,
      "reproduction": 0.591848,
      "social": 0.455847,
      "tool": 1.1857335
    },
    "output_size": 15,
    "prediction_weights": [
      0.1401913,
      0.3659246,
      0.4160125,
      -0.5886022,
      0.5674906,
      0.0373845
    ],
    "weights_in": [
      0.2023431,
      0.3762868,
      0.153892,
      -0.4816788,
      0.4782208,
      -0.6316944,
      0.3460661,
      0.0044724,
      -0.3162534,
      -0.5941189,
      -0.3364925,
      0.722295,
      -0.6471484,
      -0.0725068,
      0.2933684,
      0.0511946,
      0.1744892,
      0.0699068,
      -0.5173381,
      0.6113284,
      0.1950887,
      -0.7423095,
      0.620448,
      0.0763698,
      0.4502036,
      -0.4009241,
      -0.4661378,
      0.2095296,
      -0.8065882,
      -0.9296557,
      -0.3275535,
      -0.1034878,
      -0.2680878,
      -0.0373972,
      0.5065643,
      0.5297721,
      0.2743749,
      -0.1247525,
      -0.3295645,
      0.7777583,
      -0.3733373,
      0.0519747,
      0.5727683,
      -0.4451457,
      -0.5324193,
      -0.3878103,
      0.3816698,
      -0.1343378,
      0.3415878,
      0.019853,
      -0.1571791,
      -0.0910024,
      0.1343703,
      0.3138183,
      0.8364222,
      -0.1968001,
      -0.5653361,
      0.5635122,
      0.4228829,
      0.2260237,
      -0.3470912,
      0.2552126,
      -0.7129969,
      -0.7717482,
      -0.7235678,
      0.4776503,
      1.2346614,
      0.7625498,
      0.2627354,
      0.4373886,
      0.0631962,
      -0.3039576,
      0.1633898,
      -0.3528059,
      -0.8987778,
      -0.1025654,
      0.1881194,
      -0.2755066,
      -0.2537414,
      -0.3662894,
      0.1868408,
      0.4093099,
      -0.1466138,
      -0.3983973,
      -0.3864551,
      -0.2866264,
      0.1502246,
      0.7465211,
      0.3928822,
      -0.6864695,
      0.0154078,
      -0.0832904,
      0.0563095,
      -0.7828191,
      1.3736435,
      0.0994932,
      -0.7148151,
      0.5886742,
      0.3214306,
      0.0649317,
      -0.2041595,
      -0.1503435,
      0.828017,
      -0.174684,
      -0.7777916,
      -0.0199964,
      0.3415004,
      -0.5717376,
      -0.5714374,
      0.1163048,
      0.0368963,
      -0.2757218,
      -0.0838738,
      0.3233419,
      0.3746341,
      -0.2122443,
      -0.2399078,
      0.7647031,
      -0.0225357,
      -0.4023016,
      -0.7139339,
      0.9437442,
      -0.2873831,
      0.4027207,
      0.1134331,
      -0.532876,
      -0.0711635,
      0.0965695,
      0.1764827,
      0.667674,
      0.088662,
      -0.5870216,
      -0.0738026,
      -0.2453076,
      0.1583615,
      -0.1344835,
      0.2543559,
      -0.112845,
      -0.7298604,
      -0.3809161,
      0.5179615,
      -0.0615353,
      0.6138167,
      -0.4123054,
      -0.6867825,
      -0.2498482,
      0.0700638,
      -0.2299927,
      -0.660039,
      0.1487993,
      0.1597005,
      0.7608963,
      0.4307274,
      0.1036636,
      -0.2651631,
      -0.8569242,
      0.096273,
      1.1073743,
      -0.1557601,
      -0.0088241,
      -0.3309628,
      -0.0015674,
      0.2665356,
      -0.1666696,
      0.2558038,
      -0.2672313,
      -0.3243425,
      0.5457168,
      0.6209628,
      -0.4918574,
      -0.2292741,
      0.6160035,
      0.91427,
      0.0484711,
      0.0596797,
      0.1558243,
      0.3756564,
      0.1918005,
      -0.1220039,
      -0.4471585,
      -0.8270148,
      -0.3653339,
      -0.994462,
      0.411678,
      -0.3587595,
      0.9639305,
      -0.8240319,
      -0.0536693,
      0.9342397,
      -0.0924918,
      -0.1336146,
      -0.3713859,
      0.3489164,
      0.5463839,
      -0.0770348,
      0.5363316,
      0.0871418,
      -0.0449344,
      -0.4802926,
      -0.9803746,
      -0.3859046,
      1.213849,
      -0.0093616,
      0.7152533,
      0.1173293,
      0.2139411,
      -0.4136703,
      0.6419175,
      -0.1792438,
      -0.1259009,
      0.6554861,
      -0.0740471,
      -0.79297,
      0.2104775,
      0.387549,
      -0.1600184,
      -0.1042373,
      -1.3275432,
      0.5941016,
      -0.2297661,
      0.0554831,
      0.392902,
      0.27615,
      -0.2775676,
      0.3242142,
      -0.1346183,
      -0.263156,
      -0.5844656,
      -0.7073314,
      0.072835,
      -1.3995286,
      0.107917,
      0.1200479,
      -0.6584478,
      0.6717417,
      -0.2398767,
      0.1336537,
      -0.1775887,
      0.139522,
      -0.0388755,
      0.2440839,
      -0.1780345,
      0.4592071,
      0.0048176,
      -0.354277,
      -0.1977084,
      -0.6877093,
      -0.1112214,
      -0.949253,
      -0.8802271,
      0.5551757,
      0.0166311,
      0.5406495,
      -0.0034564,
      0.3184902,
      0.3677331,
      -0.1684976,
      0.5853235,
      -0.1087535,
      -0.3973621,
      -0.3338032,
      0.4991446,
      -0.1200416,
      -1.2786342,
      0.4874385,
      -0.528578,
      0.7654437,
      0.8272618,
      -1.1224134,
      0.8955889,
      -0.0901543,
      0.8038335,
      -0.0274268,
      0.166053,
      -0.6695898,
      0.1506586,
      0.0475892,
      0.1973737,
      0.0251046,
      0.7904782,
      -0.0568192,
      -0.0003826,
      0.6220213,
      0.4093984,
      0.2335236,
      -0.4828426,
      0.4031783,
      0.1844452,
      -0.2530485,
      0.4207163,
      0.6676363,
      -0.2828978,
      -0.8826978,
      0.1116992,
      0.2664306,
      -0.7804619,
      -0.2517536,
      0.4798285,
      0.349201,
      0.5045187,
      0.2801177,
      0.3782377,
      0.2383363,
      -0.3615103,
      0.3064745,
      0.4617278,
      -0.0261436,
      0.2004942,
      -0.2894615,
      0.4050382,
      1.3523988,
      -0.647843,
      -0.0745558,
      -0.1036766,
      0.3327862,
      0.0041987,
      0.9551815,
      -0.0709097,
      -0.5019818,
      0.3079816,
      -0.1262521,
      0.166676,
      -0.2576159,
      -0.4175675,
      -0.3985809,
      0.2548748,
      -0.8474209,
      0.0409154,
      0.2313416,
      -0.2223434,
      0.5016229,
      -0.6789012,
      -0.5690961,
      -0.5655133,
      -0.1847993,
      0.1218515,
      0.0479581,
      -0.692071,
      0.4269443,
      -0.0535256,
      -0.4113819,
      -0.0337647,
      0.2213598,
      -0.2489725,
      -0.6304373,
      0.2745024,
      0.1398022,
      -0.0258749,
      -0.028464,
      -0.5085104,
      0.4073213,
      -0.1836025,
      0.4730431,
      0.6908213,
      0.7479672,
      -0.1226182,
      -0.4291822,
      0.8206071,
      0.0013991,
      -0.072583,
      -0.3158044,
      -0.0994692,
      0.0721567,
      0.3917092,
      0.6972548,
      0.1922645,
      -0.5962444,
      0.7039823,
      -0.1254246,
      0.681996,
      0.2292796,
      -0.6363587,
      -0.0347392,
      -0.0881442,
      0.7767059,
      0.1717264,
      -0.2793173,
      -1.0637322,
      0.4723711,
      -0.4070069,
      -0.0828597,
      -0.1440141,
      0.1289539,
      0.8595738,
      -0.2575219,
      -0.5940775,
      -0.7894776,
      -0.4129341,
      0.6210742,
      -0.235186,
      0.3178475,
      -0.3951343,
      -0.0459386,
      0.2166675,
      -0.2786243,
      -0.1079186,
      -0.205955,
      0.1461526,
      -0.8042792,
      0.6150413,
      0.0942216,
      -0.0686279,
      0.5103906,
      -0.8270259,
      0.8020262,
      -0.0095082,
      0.2291553,
      -0.452079,
      -0.6096184,
      0.2885838,
      -0.2099621,
      0.3861545,
      -1.1004911,
      -0.1496129,
      -0.4897054,
      -1.0525428,
      0.2293333,
      0.0493519,
      -0.5816217,
      -0.0225311,
      -0.5385918,
      0.2459839,
      -0.1956482,
      0.9736347,
      0.1969611,
      0.2627684,
      -0.3612708,
      -0.2247598,
      -0.2663638,
      -0.1492942,
      -1.0238942,
      0.184269
    ],
    "weights_out": [
      0.4588523,
      -0.049799,
      -0.1488553,
      0.5330086,
      -0.0750226,
      1.3297518,
      0.2781851,
      0.1657341,
      0.6466755,
      0.3761105,
      -0.0670685,
      0.1982566,
      -0.1439843,
      -0.022631,
      -0.3007265,
      0.8721383,
      0.0233037,
      0.1118693,
      -0.265742,
      0.4433263,
      -0.3261251,
      0.3363503,
      -0.2812181,
      0.1140372,
      0.0559228,
      0.5265801,
      -0.1968219,
      0.5350861,
      0.052981,
      -0.3782513,
      -0.5832232,
      0.2174277,
      0.3563664,
      -0.8938037,
      0.6749936,
      0.3825898,
      0.6253575,
      -0.0721977,
      -0.6261684,
      -0.0618567,
      -0.3521769,
      0.2612735,
      0.1318467,
      0.9193777,
      0.4462383,
      -0.3097304,
      0.4694777,
      0.2434617,
      0.6382436,
      -0.0212035,
      -0.2137736,
      -0.5448194,
      0.5393741,
      0.4727349,
      -0.3928612,
      0.3056225,
      0.1627127,
      0.0119051,
      -0.0403279,
      0.2542043,
      -0.2265732,
      0.0365627,
      -1.1701086,
      0.5115947,
      0.6091482,
      -0.5833456,
      0.4342206,
      0.1931301,
      -0.810833,
      -0.3705755,
      -0.3997144,
      0.6684627,
      0.476365,
      0.6208513,
      -0.2327042,
      -0.8012874,
      -0.0079683,
      0.5645703,
      0.1482712,
      -0.3094011,
      -0.3686759,
      0.2474709,
      0.5230269,
      0.2360847,
      0.4666919,
      0.2967152,
      -0.2444836,
      -0.1066478,
      -0.2215107,
      0.8091305
    ]
  },
  "brain_template": {
    "auxiliary_prediction_weights": {
      "damage": [
        -0.2101656,
        -0.034217,
        0.1706201,
        -0.5050806,
        -0.0889857,
        0.7139789
      ],
      "hazard": [
        -0.3010735,
        0.4065775,
        -0.4354819,
        0.0641951,
        -0.4846892,
        -0.1627304
      ],
      "reproduction": [
        -0.0648108,
        -0.6112243,
        0.7158257,
        1.1001294,
        -0.1586748,
        0.2177853
      ],
      "social": [
        -0.335932,
        -0.8931721,
        0.7347181,
        0.0842065,
        -0.3297069,
        -0.3118318
      ],
      "tool": [
        -0.341655,
        0.1240259,
        -0.2798803,
        0.5031959,
        -0.3814884,
        -0.1785715
      ]
    },
    "bias_h": [
      0.1742345,
      0.1655965,
      0.0452042,
      -0.0824995,
      0.0808601,
      -0.068484
    ],
    "bias_o": [
      -0.0255891,
      0.1210321,
      -0.0554869,
      -0.0917912,
      0.1145317,
      -0.0105885,
      -0.1041986,
      -0.1357278,
      0.0558007,
      0.0953646,
      0.0277033,
      -0.2040482,
      -0.0356363,
      -0.1331529,
      0.1055711
    ],
    "hidden_size": 6,
    "input_size": 72,
    "output_size": 15,
    "prediction_weights": [
      0.1492287,
      0.3708191,
      0.4097262,
      -0.6026951,
      0.5768004,
      0.0259858
    ],
    "weights_in": [
      0.2019912,
      0.375732,
      0.1537953,
      -0.4819107,
      0.4782148,
      -0.6321063,
      0.3452511,
      0.004439,
      -0.3162578,
      -0.5941189,
      -0.3364925,
      0.721589,
      -0.6476951,
      -0.072651,
      0.2930673,
      0.0510156,
      0.1742931,
      0.069617,
      -0.5173644,
      0.611315,
      0.1950242,
      -0.7424871,
      0.6204036,
      0.0758188,
      0.4503906,
      -0.4009338,
      -0.4666627,
      0.2095172,
      -0.8066434,
      -0.9298675,
      -0.3277774,
      -0.1037294,
      -0.2683632,
      -0.0374675,
      0.5062886,
      0.5297034,
      0.2743268,
      -0.1251505,
      -0.329596,
      0.7777493,
      -0.3737064,
      0.0519034,
      0.5724319,
      -0.4451566,
      -0.5324192,
      -0.3878104,
      0.3818341,
      -0.1343815,
      0.3414938,
      0.0193876,
      -0.1570148,
      -0.0910693,
      0.1339825,
      0.3135707,
      0.8358443,
      -0.196823,
      -0.5653441,
      0.5635074,
      0.4228829,
      0.2260237,
      -0.347104,
      0.2551849,
      -0.7131341,
      -0.7718211,
      -0.7235812,
      0.4776503,
      1.2346614,
      0.7625498,
      0.2627024,
      0.4373527,
      0.0631849,
      -0.3039633,
      0.163255,
      -0.3530414,
      -0.8988319,
      -0.1026424,
      0.1881179,
      -0.2756101,
      -0.2540761,
      -0.3662967,
      0.1868394,
      0.4093099,
      -0.1466138,
      -0.3986719,
      -0.3866887,
      -0.2866879,
      0.1500977,
      0.7464456,
      0.3927995,
      -0.6865916,
      0.0153967,
      -0.083296,
      0.0562823,
      -0.782894,
      1.373627,
      0.0992565,
      -0.7146762,
      0.5886681,
      0.3212099,
      0.0649262,
      -0.2041784,
      -0.1504269,
      0.8279195,
      -0.1747809,
      -0.7779034,
      -0.0200266,
      0.3414224,
      -0.5717636,
      -0.5714566,
      0.1161622,
      0.0368823,
      -0.2757258,
      -0.0839788,
      0.3233152,
      0.3744942,
      -0.2122466,
      -0.2399078,
      0.7647031,
      -0.0224615,
      -0.4023155,
      -0.7139746,
      0.943543,
      -0.2873089,
      0.4026935,
      0.113271,
      -0.5329863,
      -0.0714109,
      0.0965619,
      0.1764805,
      0.6676725,
      0.088662,
      -0.5870216,
      -0.0738067,
      -0.2453197,
      0.1583018,
      -0.1345149,
      0.2543491,
      -0.112845,
      -0.7298604,
      -0.3809161,
      0.517949,
      -0.0615483,
      0.6138092,
      -0.4123094,
      -0.6864962,
      -0.2494289,
      0.0701332,
      -0.2298127,
      -0.6600333,
      0.1491391,
      0.1603186,
      0.7609192,
      0.4307313,
      0.1036636,
      -0.2651631,
      -0.8563695,
      0.0966841,
      1.1074828,
      -0.1555335,
      -0.0086894,
      -0.3308152,
      -0.0013493,
      0.2665554,
      -0.1666595,
      0.2558523,
      -0.2670976,
      -0.3243075,
      0.5461358,
      0.6208315,
      -0.4918508,
      -0.2288792,
      0.6160113,
      0.914314,
      0.0486341,
      0.0598461,
      0.1560094,
      0.3758665,
      0.1918531,
      -0.1217799,
      -0.4471056,
      -0.8269798,
      -0.3650178,
      -0.9944415,
      0.4116835,
      -0.3584483,
      0.9639837,
      -0.8237761,
      -0.0536618,
      0.9342397,
      -0.0924918,
      -0.1337377,
      -0.3713468,
      0.348986,
      0.5467272,
      -0.0771579,
      0.536383,
      0.0874415,
      -0.0447481,
      -0.4798646,
      -0.9803576,
      -0.385898,
      1.2138533,
      -0.0093616,
      0.7152533,
      0.1173408,
      0.2139617,
      -0.413569,
      0.6419725,
      -0.1792336,
      -0.1259009,
      0.6554861,
      -0.0740471,
      -0.7929431,
      0.2105062,
      0.3875564,
      -0.160015,
      -0.1036833,
      -1.3266716,
      0.5942528,
      -0.2293987,
      0.0554928,
      0.3935613,
      0.277434,
      -0.2775142,
      0.3242214,
      -0.1346183,
      -0.263156,
      -0.5833497,
      -0.7064721,
      0.0730628,
      -1.3990551,
      0.1081985,
      0.1203563,
      -0.6579922,
      0.671783,
      -0.2398557,
      0.1337551,
      -0.1773094,
      0.1395919,
      -0.0380093,
      0.243796,
      -0.1780194,
      0.4600343,
      0.0048367,
      -0.3541892,
      -0.1973737,
      -0.6873581,
      -0.11084,
      -0.9488187,
      -0.8801167,
      0.555615,
      0.0167398,
      0.5407249,
      -0.0028237,
      0.3185389,
      0.3677469,
      -0.1679034,
      0.5854358,
      -0.108224,
      -0.3973445,
      -0.3338033,
      0.4991447,
      -0.1202991,
      -1.2785649,
      0.4875857,
      -0.5278492,
      0.7651862,
      0.8273671,
      -1.1218034,
      0.8959768,
      -0.0892485,
      0.8038699,
      -0.027414,
      0.1660606,
      -0.6695898,
      0.1506586,
      0.0476095,
      0.1974171,
      0.0253194,
      0.7905927,
      -0.0567982,
      -0.0003826,
      0.6220213,
      0.4093984,
      0.2335757,
      -0.4827861,
      0.4031956,
      0.1844539,
      -0.2534202,
      0.4201333,
      0.667536,
      -0.2831467,
      -0.8827044,
      0.1112451,
      0.2655668,
      -0.780498,
      -0.2517586,
      0.4798285,
      0.349201,
      0.5037628,
      0.2795431,
      0.3780847,
      0.2380194,
      -0.3616987,
      0.3062681,
      0.4614229,
      -0.0261713,
      0.2004801,
      -0.2895293,
      0.4048513,
      1.3523516,
      -0.6484222,
      -0.0743698,
      -0.1036865,
      0.3322293,
      0.0041863,
      0.9551216,
      -0.0711354,
      -0.5022159,
      0.3077247,
      -0.126544,
      0.1666023,
      -0.2579166,
      -0.417641,
      -0.398631,
      0.2544442,
      -0.8474526,
      0.0409065,
      0.2309294,
      -0.2224186,
      0.501268,
      -0.6789131,
      -0.569096,
      -0.5655134,
      -0.1846276,
      0.1218037,
      0.04786,
      -0.6925562,
      0.427116,
      -0.0535965,
      -0.4117913,
      -0.0340232,
      0.2207561,
      -0.2489973,
      -0.6304461,
      0.2744971,
      0.1398022,
      -0.0258749,
      -0.028478,
      -0.5085393,
      0.4071784,
      -0.183679,
      0.4730292,
      0.6908213,
      0.7479672,
      -0.1226182,
      -0.4292174,
      0.8205689,
      0.0013881,
      -0.0725884,
      -0.3153451,
      -0.0987503,
      0.0722786,
      0.3920172,
      0.6972629,
      0.1928249,
      -0.5951814,
      0.7040279,
      -0.1254185,
      0.681996,
      0.2292796,
      -0.6354313,
      -0.0340308,
      -0.0879565,
      0.7770967,
      0.1719587,
      -0.2790628,
      -1.0633562,
      0.4724052,
      -0.4069896,
      -0.0827761,
      -0.1437836,
      0.1290121,
      0.860287,
      -0.2577457,
      -0.5940655,
      -0.7887934,
      -0.4129184,
      0.6211477,
      -0.2349083,
      0.3181366,
      -0.3948183,
      -0.0455792,
      0.2167585,
      -0.2782527,
      -0.1078281,
      -0.2058926,
      0.1466809,
      -0.8042391,
      0.6150526,
      0.0947245,
      -0.0685345,
      0.510828,
      -0.8270109,
      0.8020261,
      -0.0095081,
      0.2289439,
      -0.4520206,
      -0.6094971,
      0.2891841,
      -0.2101735,
      0.3862418,
      -1.0999872,
      -0.1492941,
      -0.4889587,
      -1.0525122,
      0.2293441,
      0.0493583,
      -0.5816217,
      -0.0225311,
      -0.5385747,
      0.2460196,
      -0.1954714,
      0.973729,
      0.1969781,
      0.2627684,
      -0.3612708,
      -0.2247598,
      -0.2663205,
      -0.149247,
      -1.0238806,
      0.1842757
    ],
    "weights_out": [
      0.4588524,
      -0.0497989,
      -0.1488554,
      0.5330084,
      -0.0750225,
      1.3297516,
      0.2781909,
      0.1657364,
      0.6466717,
      0.376102,
      -0.0670624,
      0.1982492,
      -0.1439843,
      -0.022631,
      -0.3007265,
      0.8721383,
      0.0233037,
      0.1118693,
      -0.265721,
      0.4433403,
      -0.3261385,
      0.336318,
      -0.281197,
      0.1140111,
      0.0559239,
      0.5265809,
      -0.1968225,
      0.5350845,
      0.052982,
      -0.3782526,
      -0.583222,
      0.2174282,
      0.3563657,
      -0.8938054,
      0.6749948,
      0.3825883,
      0.6253591,
      -0.0721969,
      -0.6261693,
      -0.0618591,
      -0.3521754,
      0.2612716,
      0.1318478,
      0.9193782,
      0.4462374,
      -0.3097321,
      0.4694789,
      0.2434603,
      0.617527,
      -0.0308113,
      -0.198874,
      -0.5123255,
      0.5177918,
      0.4993431,
      -0.3928503,
      0.3056286,
      0.1627057,
      0.0118886,
      -0.0403177,
      0.254191,
      -0.2266137,
      0.0365529,
      -1.1700634,
      0.5116716,
      0.609091,
      -0.5832815,
      0.4342171,
      0.1931275,
      -0.8108309,
      -0.37057,
      -0.399718,
      0.6684671,
      0.4734165,
      0.6198569,
      -0.2300853,
      -0.7966352,
      -0.0111694,
      0.5684843,
      0.1482723,
      -0.3094005,
      -0.3686767,
      0.247469,
      0.5230282,
      0.2360832,
      0.4666224,
      0.2966773,
      -0.2444397,
      -0.1065447,
      -0.2215742,
      0.8092136
    ]
  },
  "bucket": "tool_champion",
  "cognition": {
    "event_memory": {
      "damage": 0.000794,
      "energy_gain": 0.008477,
      "energy_loss": 0.000844,
      "health_gain": 0.0,
      "reproduction": 0.0,
      "social": 0.046793,
      "surprise": 0.12112,
      "tool": 0.237025
    },
    "last_action": "use_tool",
    "last_valence": 0.059648,
    "lesson_memory": [
      {
        "affordance": "contain",
        "gain": 0.39448,
        "kind": "tool_use",
        "method_quality": 0.0,
        "place": 7,
        "problem": {
          "kind": "obstacle",
          "obstacle": "salinity",
          "place": 7,
          "required_affordance": "contain",
          "required_capability": "filter",
          "severity": 1.109067
        },
        "score": 0.3765,
        "skill": 1.0,
        "success": true
      },
      {
        "affordance": "contain",
        "gain": 0.314968,
        "kind": "tool_use",
        "method_quality": 0.0,
        "place": 7,
        "problem": {
          "kind": "obstacle",
          "obstacle": "salinity",
          "place": 7,
          "required_affordance": "contain",
          "required_capability": "filter",
          "severity": 1.109155
        },
        "score": 0.3765,
        "skill": 1.0,
        "success": true
      },
      {
        "affordance": "contain",
        "gain": 0.0,
        "kind": "tool_use",
        "method_quality": 0.0,
        "place": 7,
        "problem": {
          "kind": "obstacle",
          "obstacle": "salinity",
          "place": 7,
          "required_affordance": "contain",
          "required_capability": "filter",
          "severity": 1.109243
        },
        "score": 0.3765,
        "skill": 1.0,
        "success": false
      },
      {
        "affordance": "contain",
        "gain": 0.277619,
        "kind": "tool_use",
        "method_quality": 0.0,
        "place": 7,
        "problem": {
          "kind": "obstacle",
          "obstacle": "salinity",
          "place": 7,
          "required_affordance": "contain",
          "required_capability": "filter",
          "severity": 1.10933
        },
        "score": 0.3765,
        "skill": 1.0,
        "success": true
      },
      {
        "affordance": "contain",
        "gain": 0.279894,
        "kind": "tool_use",
        "method_quality": 0.0,
        "place": 7,
        "problem": {
          "kind": "obstacle",
          "obstacle": "salinity",
          "place": 7,
          "required_affordance": "contain",
          "required_capability": "filter",
          "severity": 1.109419
        },
        "score": 0.3765,
        "skill": 1.0,
        "success": true
      }
    ],
    "place_memory": [
      {
        "place_id": 7,
        "value": 0.579696
      },
      {
        "place_id": 6,
        "value": 0.52749
      }
    ],
    "prediction_errors": {
      "damage": 0.093444,
      "energy": -0.318226,
      "hazard": 0.057508,
      "reproduction": 0.591848,
      "social": 0.455847,
      "tool": 1.185734
    },
    "recent_trace": {
      "action": 0.571429,
      "damage": 0.0,
      "energy_delta": 0.014323,
      "health_delta": 0.0,
      "prediction_error": -0.318226,
      "reproduction": 0.0,
      "social": 0.2,
      "tool": 1.0
    },
    "signal_values": [
      0.03312,
      0.001523,
      0.000908,
      0.0,
      0.019668,
      0.033496,
      0.045227,
      0.028784
    ],
    "success_profile": {
      "causal_step": 40.0,
      "energy_gain": 39.722647,
      "prediction_fit": 19.936444,
      "reproduction": 46.0,
      "social_learning": 0.6,
      "tool_use": 761.676051
    },
    "tool_trace": {
      "last_artifact_method": 0.0,
      "last_craft_target": "",
      "last_tool_affordance": "contain"
    }
  },
  "context": {
    "criterion": "tool_champion",
    "label": "final",
    "population": {
      "agent": 1640,
      "fungus": 120,
      "neural": 1634,
      "plant": 853,
      "total": 2613
    },
    "world_energy": {
      "biological_storage": 1586.943,
      "chemical": 248.6819,
      "electrical": 67.6837,
      "high_density": 3.7703,
      "locked_chemical": 184.5907,
      "mechanical": 486.1534,
      "radiant": 1049.7982,
      "thermal": 5073.7106
    },
    "world_physics": {
      "avg_abrasion": 0.09466,
      "avg_acidity": 0.1361,
      "avg_biological_activity": 0.29718,
      "avg_boundary_permeability": 0.22233,
      "avg_current_exposure": 0.06785,
      "avg_edge_current": 0.20166,
      "avg_edge_slope": 0.28877,
      "avg_elevation": 0.4213,
      "avg_fluid_level": 0.09345,
      "avg_humidity": 0.15534,
      "avg_interiority": 0.2801,
      "avg_oxygen": 0.46566,
      "avg_pressure": 0.05567,
      "avg_salinity": 0.23858,
      "avg_shelter": 0.33013,
      "avg_structure_scale": 10.7,
      "avg_temperature": 0.859,
      "avg_wet_dry_cycle": 0.08004,
      "max_abrasion": 0.14122,
      "max_acidity": 0.284,
      "max_biological_activity": 0.9277,
      "max_boundary_permeability": 0.65472,
      "max_current_exposure": 0.15693,
      "max_edge_current": 0.65157,
      "max_edge_slope": 0.97845,
      "max_elevation": 0.98025,
      "max_fluid_level": 0.2684,
      "max_humidity": 0.50614,
      "max_interiority": 0.46584,
      "max_oxygen": 0.59049,
      "max_pressure": 0.20143,
      "max_salinity": 1.10942,
      "max_shelter": 0.49897,
      "max_structure_scale": 156,
      "max_temperature": 1.37637,
      "max_wet_dry_cycle": 0.15088,
      "structure_count": 140.0
    }
  },
  "genome": {
    "aquatic_affinity": 0.363811010265925,
    "armor": 0.34701475257636705,
    "asexual_threshold": 0.5075012597985301,
    "buoyancy": 0.11629047281798342,
    "chemical_metabolism": 0.5836199836653344,
    "desiccation_tolerance": 0.4354400976861862,
    "developmental_complexity": 0.6959226458548456,
    "digestion": 0.7658315044857302,
    "electrical_use": 0.08233640817686827,
    "learning_rate": 0.07326389273700448,
    "manipulator": 0.31677661443237115,
    "mate_selectivity": 0.7481709252517368,
    "mechanical_use": 0.3471040018715683,
    "memory_budget": 1.1341919362510429,
    "mobility": 0.5327757269658091,
    "mutation_rate": 0.016439343536711715,
    "neural_budget": 5.954938294539238,
    "offspring_investment": 0.4048847708830463,
    "photosynthesis_surface": 0.07163125981417846,
    "plasticity_rate": 0.3143032125856539,
    "prediction_weight": 0.11404082953632602,
    "pressure_tolerance": 0.023043656857819887,
    "radiant_metabolism": 0.1755985280980632,
    "salinity_tolerance": 0.2451693562917197,
    "sensor_range": 0.5127021998121559,
    "sexual_threshold": 0.5619419059344208,
    "signal_strength": 0.19950474181575756,
    "storage_capacity": 0.44728409732239294,
    "thermal_tolerance": 0.5797707596991396,
    "valence_damage": 0.6402012594546201,
    "valence_energy": 0.38509321044474665,
    "valence_health": 0.4237214446398725,
    "valence_reproduction": 0.34188827529793037,
    "valence_social": 0.270660995875691
  },
  "inventory": {
    "bone": 1,
    "shell": 1
  },
  "organism": {
    "age": 876,
    "artifacts": [],
    "complexity": 2.0734,
    "energy": 8.2997,
    "generation": 8,
    "health": 0.7729,
    "id": 3875,
    "kind": "agent",
    "last_action": "use_tool",
    "last_artifact_method": 0.0,
    "last_craft_target": "",
    "last_energy_delta": 0.1432,
    "last_lesson": {
      "affordance": "contain",
      "gain": 0.279894,
      "kind": "tool_use",
      "method_quality": 0.0,
      "place": 7,
      "problem": {
        "kind": "obstacle",
        "obstacle": "salinity",
        "place": 7,
        "required_affordance": "contain",
        "required_capability": "filter",
        "severity": 1.109419
      },
      "score": 0.3765,
      "skill": 1.0,
      "success": true
    },
    "last_tool_affordance": "contain",
    "last_valence": 0.0596,
    "location": 7,
    "neural": true,
    "offspring_count": 46,
    "parents": [
      3295,
      3300
    ],
    "success_profile": {
      "causal_step": 40.0,
      "energy_gain": 39.7226,
      "prediction_fit": 19.9364,
      "reproduction": 46.0,
      "social_learning": 0.6,
      "tool_use": 761.6761
    },
    "successful_tools": 709
  },
  "reason": "final_tool_champion",
  "score": 1730.849365,
  "signal_values": [
    0.03312,
    0.001523,
    0.000908,
    0.0,
    0.019668,
    0.033496,
    0.045227,
    0.028784
  ],
  "tick": 1689,
  "tool_skill": {
    "anchor": 0.0,
    "bind": 0.04203,
    "build": 0.0,
    "carry": 0.0,
    "channel": 0.0,
    "concentrate_heat": 0.0,
    "conduct": 0.0,
    "contain": 1.0,
    "crack": 0.0,
    "craft": 0.0,
    "cut": 0.0,
    "enclose": 0.0,
    "energy_storage": 0.0,
    "filter": 0.0,
    "float": 0.0,
    "gradient_harvest": 0.0,
    "inscribe": 0.0,
    "insulate": 0.0,
    "interpret_mark": 0.002109,
    "lever": 0.021005,
    "permeable": 0.0,
    "protect": 0.0,
    "reaction_surface": 0.0,
    "record": 0.0,
    "shelter": 0.0,
    "support": 0.0,
    "traverse": 0.0
  }
}
