{
  "artifacts": [],
  "brain": {
    "auxiliary_prediction_weights": {
      "damage": [
        0.3543267,
        0.533963,
        0.2992645,
        -0.2469471,
        0.2343872,
        -0.2540683
      ],
      "hazard": [
        -0.0067823,
        0.0467013,
        -0.1102031,
        0.6452115,
        -0.5586234,
        0.3588792
      ],
      "reproduction": [
        0.3546055,
        -0.0134794,
        0.0475466,
        0.2421078,
        -1.1070091,
        -0.0878546
      ],
      "social": [
        -0.2112419,
        -0.3488545,
        -0.7457211,
        -0.0506709,
        -0.0579687,
        0.200158
      ],
      "tool": [
        0.3267991,
        0.0598134,
        0.258216,
        0.2695215,
        0.2980079,
        0.6796228
      ]
    },
    "bias_h": [
      0.0486664,
      0.0212457,
      -0.0886348,
      -0.0864564,
      0.1037295,
      -0.0174795
    ],
    "bias_o": [
      -0.0373567,
      -0.0260609,
      0.1610036,
      -0.0735913,
      -0.0318998,
      -0.0526117,
      -0.1473158,
      0.0126615,
      0.1550367,
      -0.0453794,
      -0.0418979,
      -0.0165048,
      0.0286345,
      -0.0476616,
      0.0146943
    ],
    "hidden": [
      -0.0767805,
      -0.0938914,
      -0.542592,
      -0.2901423,
      0.3922032,
      0.5361495
    ],
    "hidden_size": 6,
    "hidden_trace": [
      -0.0988849,
      -0.1265925,
      -0.56065,
      -0.2540255,
      0.4306751,
      0.4657555
    ],
    "input_size": 72,
    "input_trace": [
      0.9978163,
      0.4186036,
      0.56475,
      0.2859026,
      0.0024723,
      0.0935969,
      1.4854655,
      0.0268094,
      0.0182945,
      3e-06,
      4.7e-06,
      1.1314117,
      0.9774596,
      0.5,
      0.5134325,
      0.3349739,
      0.3575068,
      0.510103,
      0.049445,
      0.0265603,
      0.1179415,
      0.3129606,
      0.1161566,
      1.0,
      -0.8478995,
      0.0450055,
      1.0472458,
      0.0026599,
      0.1164559,
      0.408167,
      0.3867159,
      0.4601179,
      0.5213548,
      0.1275649,
      0.0665801,
      0.1410821,
      0.0515433,
      0.8451574,
      0.0062102,
      0.0020747,
      0.9626079,
      0.1057495,
      0.2620731,
      0.2668953,
      -9.12e-05,
      9.12e-05,
      0.3983665,
      0.0,
      0.0042186,
      0.0033727,
      0.3983665,
      0.0906679,
      0.260077,
      -0.2259519,
      -0.0728829,
      0.0749583,
      0.1078173,
      0.0002375,
      0.0,
      5.4e-05,
      0.0,
      0.0019347,
      0.001509,
      0.0622116,
      0.2222977,
      0.1084929,
      0.0286574,
      0.0438311,
      0.1464335,
      0.1754559,
      0.1447508,
      0.1647542
    ],
    "last_inputs": [
      0.9974773,
      0.4012299,
      0.5705,
      0.2871407,
      0.0006021,
      5.08e-05,
      1.4635962,
      0.0089086,
      0.0195109,
      1e-06,
      5e-06,
      1.2222222,
      0.9818182,
      0.5,
      0.5134325,
      0.3349739,
      0.3575068,
      0.510103,
      0.049445,
      0.0265603,
      0.1179415,
      0.3129606,
      0.0025799,
      1.0,
      -0.8288423,
      0.0450055,
      0.9484965,
      0.0,
      0.1201263,
      0.4050363,
      0.3748607,
      0.4592667,
      0.5170602,
      0.1239754,
      0.0694191,
      0.1412237,
      0.0495891,
      0.8763935,
      0.0,
      0.0,
      1.0,
      0.1055323,
      0.1428571,
      0.0059845,
      0.0,
      0.0,
      0.123227,
      0.0,
      0.0,
      0.0,
      0.123227,
      0.088798,
      0.2493601,
      -0.22727,
      -0.0916475,
      0.0660928,
      0.0663633,
      0.0001196,
      0.0,
      1.04e-05,
      0.0,
      0.000881,
      0.0007311,
      0.0561727,
      0.2222977,
      0.1083988,
      0.0286575,
      0.0438311,
      0.16619,
      0.1125764,
      0.1441123,
      0.1458853
    ],
    "last_outputs": [
      0.0286056,
      -0.218261,
      0.2709622,
      -0.0016768,
      -0.0782381,
      -0.4224355,
      -0.4341535,
      -0.1110771,
      0.1785138,
      0.0313253,
      -0.0947081,
      -0.0108597,
      0.1056732,
      -0.0009367,
      0.2013116
    ],
    "last_prediction_errors": {
      "damage": 0.086698,
      "energy": 0.1201051,
      "hazard": 0.0644858,
      "reproduction": 0.2462954,
      "social": -0.2257174,
      "tool": -0.0948166
    },
    "output_size": 15,
    "prediction_weights": [
      -0.0102564,
      0.2364523,
      0.8817103,
      -0.2165136,
      0.2050631,
      0.138718
    ],
    "weights_in": [
      -0.1903904,
      0.0648927,
      0.330156,
      0.6012801,
      0.2787734,
      0.4319882,
      0.1378791,
      -0.4479261,
      0.6714728,
      -0.16633,
      -0.4109221,
      -0.0437389,
      -0.3921803,
      0.4336277,
      -0.0877085,
      0.3299847,
      0.4456681,
      0.7984624,
      -0.2814401,
      0.3592237,
      0.5715556,
      0.2007693,
      -2.63e-05,
      0.0182823,
      -0.1208041,
      0.002608,
      0.4036947,
      0.3615465,
      -0.078855,
      -0.5253744,
      0.2338039,
      -0.698932,
      0.1564303,
      -0.1366785,
      -0.1134156,
      -0.1256998,
      0.0216171,
      -0.6528008,
      -0.1178087,
      -0.4903416,
      -0.8833229,
      0.0218635,
      0.0217077,
      -0.3030347,
      0.2494924,
      0.1770834,
      -0.1532441,
      0.445883,
      -0.3713435,
      -0.58333,
      -0.2773826,
      -0.6610744,
      0.1895989,
      0.336781,
      -0.2918954,
      0.2089024,
      -0.1335886,
      -0.0773021,
      0.3517191,
      0.6380934,
      -0.6338865,
      -0.0566259,
      0.2928172,
      0.2621143,
      -0.4363765,
      0.4954005,
      0.2258163,
      -0.4809659,
      -0.3132763,
      -0.497038,
      -0.14122,
      0.5980887,
      -0.3066327,
      -0.0061589,
      0.0139901,
      0.6366103,
      -0.4012937,
      -0.3392278,
      -0.0770859,
      -0.7472315,
      -0.6795111,
      0.4477169,
      0.0222894,
      -0.0689932,
      0.2010109,
      0.1618762,
      0.3660194,
      -0.840773,
      -0.4389068,
      0.5937666,
      0.4012596,
      0.378113,
      0.56078,
      0.1577083,
      0.3406874,
      -0.2666482,
      -0.2356757,
      0.2549735,
      0.3563397,
      -0.6607154,
      -0.7134334,
      -0.123157,
      -0.4969653,
      0.1167609,
      0.4233177,
      -0.3677832,
      -0.0688882,
      -0.0054099,
      -0.1703398,
      -0.3273909,
      0.1936243,
      -1.0689063,
      -0.1851005,
      0.3766845,
      0.258484,
      -0.3032503,
      -0.5595857,
      -0.2330082,
      0.4624226,
      0.1895207,
      0.1667132,
      0.2080709,
      -0.7510509,
      -0.2366375,
      -0.4334349,
      -0.5544692,
      -0.409013,
      0.0222797,
      0.0831216,
      0.293999,
      0.6269977,
      0.5734095,
      0.5195179,
      -0.0187533,
      -0.0743444,
      0.2096078,
      -0.1362892,
      -0.5777511,
      0.1786216,
      0.3614342,
      -0.4633275,
      -0.6686346,
      -0.3914724,
      -0.6596735,
      -0.6208599,
      0.0897632,
      -0.8667644,
      0.1699165,
      -0.1210592,
      0.0967697,
      -0.0409092,
      -0.5627193,
      -0.0080881,
      -0.1333182,
      -0.0819124,
      0.0549087,
      -0.5002739,
      0.6289258,
      -0.0153293,
      -0.4147143,
      -0.7603348,
      -0.4917452,
      0.0454852,
      -0.6596905,
      -0.3174161,
      -0.045327,
      0.0486742,
      0.166077,
      -0.757523,
      -0.0511095,
      -0.3219004,
      -0.496288,
      -0.4750177,
      0.4927353,
      -1.0672379,
      0.126461,
      0.2256945,
      -0.2594377,
      -0.3622946,
      0.4757989,
      -0.3673787,
      -0.1367119,
      0.5255296,
      -0.0885634,
      -0.0608166,
      -0.2105916,
      0.1339913,
      -0.3253217,
      -0.3473965,
      -0.2227809,
      -0.3385791,
      -0.0082575,
      0.3551043,
      -5.36e-05,
      -0.167097,
      0.2327495,
      0.38425,
      0.3082295,
      0.0242101,
      0.774204,
      0.7768127,
      -0.4478824,
      0.6064117,
      -0.5873211,
      -0.793677,
      0.1316319,
      0.5256032,
      -0.5309787,
      -0.1768424,
      0.6804483,
      0.2661571,
      -0.5535827,
      0.0559424,
      0.1433441,
      -0.1803311,
      0.8196457,
      -0.5478866,
      0.3152607,
      -0.1576542,
      -0.0334444,
      -0.0614752,
      -0.2520153,
      0.1677714,
      0.2884004,
      -0.4469511,
      -0.0382131,
      0.3209181,
      -0.2991489,
      -0.2940809,
      0.8063217,
      -0.5171363,
      0.3950064,
      -0.1006637,
      -0.3162047,
      -0.4177089,
      -0.3822169,
      -0.4383899,
      0.2938297,
      0.0184963,
      -0.2802433,
      -0.0961316,
      0.6538141,
      0.2118659,
      0.8889666,
      0.2354788,
      -0.2058509,
      -0.2211905,
      1.0655478,
      -0.1000352,
      0.1387566,
      0.8500937,
      0.2521971,
      -0.1387789,
      0.0982443,
      -0.5289459,
      0.1629057,
      -0.1012176,
      0.3871911,
      0.7781243,
      0.077208,
      0.3462324,
      0.5628699,
      0.0724569,
      -0.0009545,
      -0.3645624,
      0.0989394,
      -0.2020874,
      0.5386683,
      0.1103591,
      -0.1468693,
      0.7601069,
      0.5201187,
      0.2847226,
      0.4347947,
      0.1715515,
      -0.2926855,
      0.2172243,
      -0.1133538,
      -0.0867126,
      -0.3415314,
      -0.1820745,
      0.0077061,
      -0.8223693,
      -0.8466631,
      -0.1131298,
      0.0702931,
      0.6156768,
      -0.3526762,
      -0.4029538,
      -0.3368873,
      -0.349421,
      0.212244,
      -0.0197612,
      0.2353063,
      0.4789058,
      -0.3582912,
      -0.0820054,
      0.8115654,
      -0.1769339,
      -0.3206533,
      0.0094102,
      0.2394294,
      0.348226,
      0.428506,
      -0.2234464,
      -0.1319238,
      0.565417,
      0.3314408,
      0.0519736,
      0.6358124,
      0.3454482,
      -0.3704625,
      0.1572664,
      0.3579477,
      -0.0593169,
      -0.2192258,
      -0.0161942,
      0.4323473,
      -0.1751872,
      -0.2127981,
      -0.0898056,
      0.7521142,
      0.0118315,
      -0.966294,
      0.7937639,
      0.1647761,
      0.6508991,
      -0.1228863,
      0.5401856,
      0.1820224,
      0.5906834,
      -0.2287657,
      -0.095948,
      0.2549257,
      0.8918722,
      -0.1965167,
      0.0306665,
      -0.1093945,
      -0.4117026,
      0.6017626,
      -0.7671555,
      0.2066614,
      -0.8538076,
      -0.2118707,
      0.168652,
      0.5536019,
      -0.4624723,
      -0.3088092,
      0.265063,
      -0.1405281,
      0.0414274,
      0.060632,
      -0.1785194,
      0.0681344,
      -0.1606875,
      0.212221,
      0.6919571,
      0.3991174,
      0.0368674,
      0.4830058,
      0.1345697,
      0.1615803,
      -0.4060349,
      -0.794616,
      0.4126836,
      -0.0751994,
      0.7464593,
      0.2081183,
      -0.5653338,
      -0.3407806,
      0.0775262,
      0.6705796,
      0.5355127,
      0.4760132,
      -0.0828465,
      -0.8265765,
      0.7450623,
      0.2256266,
      0.5406782,
      -0.7504982,
      0.3858083,
      -0.3418023,
      -0.5146133,
      -0.1403932,
      0.3876117,
      0.0406436,
      -0.0644095,
      -0.5987287,
      -0.1787949,
      0.4692577,
      -0.1215893,
      0.1264374,
      0.5849918,
      0.1255195,
      -0.7286438,
      -0.0905069,
      0.3691201,
      0.0092212,
      -0.8043713,
      0.420202,
      0.286875,
      0.6334787,
      -0.4193967,
      -0.8640999,
      -0.2350555,
      -0.3913059,
      -0.1128539,
      -0.4715549,
      0.0125713,
      -0.3159692,
      0.0578164,
      -0.1132313,
      0.4995479,
      0.4109834,
      0.1919013,
      -0.9435042,
      -0.4782055,
      0.4327667,
      -0.5292866,
      0.2171885,
      0.0061258,
      0.2850874,
      -0.435477,
      0.4911489,
      -0.1194331,
      -0.6185427,
      0.7438316,
      -0.4504012,
      -0.4381306,
      -0.5632043,
      0.3407246,
      0.456788
    ],
    "weights_out": [
      -0.3507474,
      -0.6800025,
      0.5754747,
      0.3399079,
      0.2831732,
      0.6912346,
      -0.2439774,
      0.2546556,
      0.310092,
      0.603864,
      0.1423929,
      -0.3320006,
      0.2568117,
      1.251878,
      -0.6042321,
      0.2844365,
      0.0059025,
      0.2964946,
      0.2363036,
      0.6713425,
      0.5307336,
      -0.7956811,
      0.2951894,
      0.370545,
      -0.3789323,
      -0.7579648,
      -0.014064,
      -0.7909653,
      -0.2732468,
      -0.6410926,
      -0.1277067,
      -0.4826113,
      1.1889397,
      0.0986037,
      0.1696981,
      -0.6599576,
      0.4455747,
      0.4659078,
      0.177361,
      0.3287054,
      -0.5905846,
      -0.3756692,
      -0.0165895,
      0.1775392,
      -0.1215232,
      0.4714387,
      -0.4840998,
      -0.0503375,
      -0.2532015,
      0.5609201,
      -0.0275335,
      0.2819712,
      -0.2918307,
      0.5074342,
      -0.4332664,
      -0.1783478,
      -0.0307891,
      -0.2458116,
      -0.7735363,
      0.6588323,
      -0.025446,
      -0.5385163,
      0.1865033,
      -0.1665262,
      0.1788453,
      -0.3714242,
      0.6182876,
      0.6024259,
      0.0358367,
      -0.028812,
      0.3980928,
      -0.0507051,
      -0.1002343,
      0.1013555,
      0.1146701,
      0.4356358,
      -0.348003,
      -0.0010203,
      0.0320294,
      0.1427768,
      0.4561397,
      -0.5260019,
      -0.0736053,
      0.0078756,
      -0.1246974,
      -0.2442821,
      -0.0188929,
      -0.5415066,
      0.6192909,
      0.026772
    ]
  },
  "brain_template": {
    "auxiliary_prediction_weights": {
      "damage": [
        0.3536082,
        0.534876,
        0.3022346,
        -0.2465671,
        0.232105,
        -0.2555152
      ],
      "hazard": [
        -0.0082849,
        0.0478279,
        -0.1065915,
        0.6458222,
        -0.5613508,
        0.3574478
      ],
      "reproduction": [
        0.3506977,
        -0.0102494,
        0.0588905,
        0.2440036,
        -1.1155347,
        -0.0933047
      ],
      "social": [
        -0.2081162,
        -0.350672,
        -0.7540197,
        -0.0527397,
        -0.0521122,
        0.2049478
      ],
      "tool": [
        0.3282139,
        0.0593861,
        0.2548922,
        0.2684237,
        0.3002093,
        0.6820288
      ]
    },
    "bias_h": [
      0.0486664,
      0.0212457,
      -0.0886348,
      -0.0864564,
      0.1037295,
      -0.0174795
    ],
    "bias_o": [
      -0.0373566,
      -0.0260546,
      0.1040671,
      -0.073573,
      -0.031898,
      -0.0526102,
      -0.1473153,
      0.0126621,
      0.1550008,
      -0.045365,
      -0.0419063,
      -0.0165148,
      0.0284995,
      -0.0476602,
      0.0081258
    ],
    "hidden_size": 6,
    "input_size": 72,
    "output_size": 15,
    "prediction_weights": [
      -0.0207067,
      0.2431103,
      0.9062262,
      -0.2120357,
      0.1867047,
      0.1268107
    ],
    "weights_in": [
      -0.1918,
      0.0635216,
      0.3297647,
      0.6004421,
      0.2787729,
      0.4306525,
      0.1358342,
      -0.4480471,
      0.6714729,
      -0.16633,
      -0.4109221,
      -0.0455428,
      -0.3927983,
      0.4331676,
      -0.088434,
      0.3295114,
      0.4451629,
      0.7977416,
      -0.28151,
      0.3591862,
      0.5713889,
      0.2003271,
      -0.0002441,
      0.0168643,
      -0.1205147,
      0.0025894,
      0.4022084,
      0.3614033,
      -0.0789466,
      -0.5260465,
      0.2329868,
      -0.6996111,
      0.1556027,
      -0.1369292,
      -0.114364,
      -0.1258671,
      0.0214356,
      -0.6532819,
      -0.1180905,
      -0.4904533,
      -0.8836105,
      0.0215612,
      0.0209674,
      -0.3034985,
      0.2494924,
      0.1770834,
      -0.1539594,
      0.445877,
      -0.371398,
      -0.5833531,
      -0.2780979,
      -0.661129,
      0.1893263,
      0.3369967,
      -0.2918053,
      0.2087973,
      -0.1337367,
      -0.0773021,
      0.3517191,
      0.6380934,
      -0.6338876,
      -0.056642,
      0.2928105,
      0.2620363,
      -0.4365807,
      0.495358,
      0.2257839,
      -0.4810276,
      -0.3135252,
      -0.4972932,
      -0.1413121,
      0.5978398,
      -0.3057218,
      -0.0052403,
      0.0141904,
      0.6372372,
      -0.4012933,
      -0.3381278,
      -0.0757565,
      -0.7471041,
      -0.6795109,
      0.4477169,
      0.0222894,
      -0.0678308,
      0.2013551,
      0.1621198,
      0.3664992,
      -0.84046,
      -0.4385727,
      0.5942433,
      0.4013058,
      0.3781378,
      0.5608902,
      0.1580007,
      0.3408445,
      -0.2657568,
      -0.2356083,
      0.2549743,
      0.3572773,
      -0.6606061,
      -0.7133615,
      -0.122716,
      -0.4964461,
      0.117209,
      0.4238564,
      -0.3676247,
      -0.0681157,
      -0.0052914,
      -0.1702076,
      -0.3270177,
      0.1938366,
      -1.0688211,
      -0.1848526,
      0.376907,
      0.2590884,
      -0.3029266,
      -0.5595857,
      -0.2330082,
      0.4629282,
      0.1895262,
      0.1667678,
      0.2080951,
      -0.7505453,
      -0.2365874,
      -0.4332334,
      -0.5546034,
      -0.4090547,
      0.022354,
      0.083225,
      0.293999,
      0.6269977,
      0.5734095,
      0.5195189,
      -0.0187371,
      -0.0743372,
      0.2096618,
      -0.1361779,
      -0.5777437,
      0.1786404,
      0.3614713,
      -0.4631567,
      -0.6684494,
      -0.3914363,
      -0.6595071,
      -0.6176065,
      0.092912,
      -0.8658261,
      0.1718172,
      -0.1210582,
      0.0995167,
      -0.0361117,
      -0.5623607,
      -0.0080869,
      -0.1333182,
      -0.0819124,
      0.0591008,
      -0.4985833,
      0.6300235,
      -0.0136256,
      -0.4136027,
      -0.7591485,
      -0.4900525,
      0.0456493,
      -0.6596024,
      -0.3170247,
      -0.0442885,
      0.0491808,
      0.1692791,
      -0.7582298,
      -0.0510692,
      -0.318406,
      -0.4959813,
      -0.4747837,
      0.4942953,
      -1.0653832,
      0.1280497,
      0.2276176,
      -0.2588661,
      -0.3602533,
      0.4762002,
      -0.3669674,
      -0.1354151,
      0.5261416,
      -0.0883243,
      -0.0598705,
      -0.2099077,
      0.1356643,
      -0.3242497,
      -0.3473965,
      -0.2227809,
      -0.3369239,
      -0.0082437,
      0.3552419,
      8.7e-06,
      -0.1654418,
      0.2329108,
      0.3849168,
      0.307708,
      0.0239983,
      0.7744315,
      0.7771521,
      -0.4478824,
      0.6064117,
      -0.5873211,
      -0.7936745,
      0.1316728,
      0.5256214,
      -0.5307957,
      -0.1763455,
      0.6805659,
      0.2662286,
      -0.5534474,
      0.0564924,
      0.1439376,
      -0.1800832,
      0.8202039,
      -0.5472436,
      0.3158241,
      -0.1573946,
      -0.0331843,
      -0.0614751,
      -0.2518328,
      0.1687244,
      0.2884321,
      -0.4469506,
      -0.0382131,
      0.3209181,
      -0.2983084,
      -0.2936171,
      0.8066181,
      -0.5168084,
      0.3952203,
      -0.1004354,
      -0.3158789,
      -0.4176773,
      -0.3821999,
      -0.4383146,
      0.2940296,
      0.018587,
      -0.2795899,
      -0.0965954,
      0.653835,
      0.2125974,
      0.8890004,
      0.2355151,
      -0.2055511,
      -0.2208246,
      1.0658533,
      -0.0996602,
      0.1388709,
      0.8502715,
      0.2522678,
      -0.1387176,
      0.098471,
      -0.528872,
      0.162932,
      -0.1010385,
      0.3872894,
      0.7782957,
      0.0774135,
      0.3462324,
      0.5628699,
      0.0727551,
      -0.0009525,
      -0.3645579,
      0.0989414,
      -0.2017892,
      0.5386924,
      0.1104726,
      -0.1469869,
      0.7600455,
      0.5201543,
      0.2847867,
      0.4347947,
      0.1715515,
      -0.2926855,
      0.2172247,
      -0.1133524,
      -0.0867121,
      -0.3414972,
      -0.1819438,
      0.0077561,
      -0.8223533,
      -0.8466344,
      -0.1130312,
      0.070398,
      0.6157643,
      -0.3525659,
      -0.4053561,
      -0.3392437,
      -0.3500713,
      0.210776,
      -0.0197619,
      0.2330293,
      0.4753599,
      -0.3585688,
      -0.0820063,
      0.8115654,
      -0.1769339,
      -0.323741,
      0.0082461,
      0.2386594,
      0.3469637,
      0.4276825,
      -0.2243253,
      -0.1331779,
      0.5652954,
      0.3313755,
      0.0516836,
      0.635043,
      0.3450646,
      -0.3728163,
      0.1576067,
      0.3579251,
      -0.0618715,
      -0.2194667,
      -0.0163727,
      0.4311912,
      -0.1765554,
      -0.2139753,
      -0.0912273,
      0.7516935,
      0.0101805,
      -0.9665952,
      0.7934484,
      0.1638003,
      0.6504213,
      -0.1230741,
      0.5394827,
      0.1814969,
      0.5893504,
      -0.2295723,
      -0.095948,
      0.2549257,
      0.890622,
      -0.1965278,
      0.0305556,
      -0.1094441,
      -0.4129528,
      0.6016398,
      -0.7676604,
      0.2070408,
      -0.8536609,
      -0.2120462,
      0.1683957,
      0.5536019,
      -0.4624723,
      -0.3088092,
      0.265061,
      -0.1405609,
      0.0414129,
      0.0604948,
      -0.1788664,
      0.0680651,
      -0.1607392,
      0.212122,
      0.6915395,
      0.398667,
      0.0367081,
      0.4825873,
      0.1330594,
      0.1601721,
      -0.4065771,
      -0.7953286,
      0.4126834,
      -0.0758997,
      0.7441879,
      0.2079863,
      -0.5653347,
      -0.3407806,
      0.0775262,
      0.6685856,
      0.534469,
      0.4753689,
      -0.0836368,
      -0.8270921,
      0.744512,
      0.2248414,
      0.5406021,
      -0.7505391,
      0.3856268,
      -0.342284,
      -0.5148345,
      -0.141876,
      0.3884054,
      0.0406084,
      -0.0661159,
      -0.598826,
      -0.1788962,
      0.4685389,
      -0.1224446,
      0.1257022,
      0.5840982,
      0.1252532,
      -0.7292461,
      -0.0906858,
      0.3689575,
      0.0086065,
      -0.8045786,
      0.4201262,
      0.2863675,
      0.6332163,
      -0.4199465,
      -0.8645856,
      -0.2350555,
      -0.3913059,
      -0.1135798,
      -0.4715608,
      0.0125379,
      -0.3159866,
      0.0570905,
      -0.1133057,
      0.4992519,
      0.4112549,
      0.1920321,
      -0.9435904,
      -0.4783587,
      0.4327667,
      -0.5292866,
      0.2171885,
      0.0061247,
      0.2850775,
      -0.4354818,
      0.4910656,
      -0.119717,
      -0.6186387,
      0.7437973,
      -0.4504642,
      -0.4383707,
      -0.5634651,
      0.3405447,
      0.4565326
    ],
    "weights_out": [
      -0.3507473,
      -0.6800025,
      0.5754746,
      0.3399079,
      0.2831733,
      0.6912346,
      -0.2439769,
      0.2546541,
      0.310086,
      0.6038625,
      0.1423972,
      -0.3319968,
      0.2228276,
      1.2725058,
      -0.5274906,
      0.3009055,
      -0.0503598,
      0.2593753,
      0.2363121,
      0.6713389,
      0.5307092,
      -0.7956894,
      0.2952051,
      0.3705614,
      -0.3789316,
      -0.7579656,
      -0.0140666,
      -0.7909655,
      -0.2732448,
      -0.6410913,
      -0.1277055,
      -0.482612,
      1.1889375,
      0.0986033,
      0.1696998,
      -0.659957,
      0.445575,
      0.4659075,
      0.1773603,
      0.3287054,
      -0.5905841,
      -0.3756691,
      -0.0165892,
      0.1775392,
      -0.121524,
      0.4714384,
      -0.4840993,
      -0.0503368,
      -0.2532311,
      0.5609294,
      -0.0274855,
      0.2819829,
      -0.2918644,
      0.5074082,
      -0.433258,
      -0.1783547,
      -0.0308093,
      -0.2458143,
      -0.7735212,
      0.658839,
      -0.0254516,
      -0.5385148,
      0.1865144,
      -0.1665227,
      0.1788379,
      -0.371431,
      0.6182811,
      0.6024282,
      0.0358506,
      -0.0288082,
      0.3980842,
      -0.0507127,
      -0.1002914,
      0.101426,
      0.1148509,
      0.4356643,
      -0.3481452,
      -0.0011078,
      0.0320302,
      0.1427761,
      0.4561377,
      -0.5260021,
      -0.0736037,
      0.0078763,
      -0.1275638,
      -0.2403959,
      -0.0090643,
      -0.5414144,
      0.6112996,
      0.0239283
    ]
  },
  "bucket": "learner_champion",
  "cognition": {
    "event_memory": {
      "damage": 9e-06,
      "energy_gain": 0.057975,
      "energy_loss": 0.000104,
      "health_gain": 0.0,
      "reproduction": 0.0,
      "social": 0.000767,
      "surprise": 0.054552,
      "tool": 0.000636
    },
    "last_action": "eat",
    "last_valence": 0.002109,
    "lesson_memory": [
      {
        "affordance": "bind",
        "gain": 0.000502,
        "kind": "read_tool_use",
        "problem": {
          "difficulty": 0.443758,
          "kind": "causal_challenge",
          "payoff_energy": "chemical",
          "remaining": 55.37571,
          "required_affordance": "filter",
          "sequence": [
            "contain",
            "filter"
          ]
        },
        "score": 0.4725,
        "success": true
      },
      {
        "affordance": "lever",
        "gain": 2.2e-05,
        "kind": "tool_use",
        "method_quality": 0.0,
        "place": 28,
        "problem": {
          "difficulty": 0.443758,
          "kind": "causal_challenge",
          "payoff_energy": "chemical",
          "place": 28,
          "remaining": 55.37571,
          "required_affordance": "filter",
          "sequence": [
            "contain",
            "filter"
          ]
        },
        "score": 0.50125,
        "skill": 1.0,
        "success": true
      },
      {
        "affordance": "lever",
        "gain": 0.0,
        "kind": "tool_use",
        "method_quality": 0.0,
        "place": 28,
        "problem": {
          "difficulty": 0.443758,
          "kind": "causal_challenge",
          "payoff_energy": "chemical",
          "place": 28,
          "remaining": 55.37571,
          "required_affordance": "filter",
          "sequence": [
            "contain",
            "filter"
          ]
        },
        "score": 0.50125,
        "skill": 1.0,
        "success": false
      },
      {
        "affordance": "lever",
        "gain": 2.2e-05,
        "kind": "tool_use",
        "method_quality": 0.0,
        "place": 28,
        "problem": {
          "difficulty": 0.443758,
          "kind": "causal_challenge",
          "payoff_energy": "chemical",
          "place": 28,
          "remaining": 55.37571,
          "required_affordance": "contain",
          "sequence": [
            "contain",
            "filter"
          ]
        },
        "score": 0.50125,
        "skill": 1.0,
        "success": true
      },
      {
        "affordance": "lever",
        "gain": 0.0,
        "kind": "tool_use",
        "method_quality": 0.0,
        "place": 7,
        "problem": {
          "kind": "obstacle",
          "obstacle": "salinity",
          "place": 7,
          "required_affordance": "lever",
          "required_capability": "filter",
          "severity": 1.108121
        },
        "score": 0.50125,
        "skill": 1.0,
        "success": false
      }
    ],
    "place_memory": [
      {
        "place_id": 28,
        "value": 0.642947
      },
      {
        "place_id": 7,
        "value": 0.593342
      }
    ],
    "prediction_errors": {
      "damage": 0.086698,
      "energy": 0.120105,
      "hazard": 0.064486,
      "reproduction": 0.246295,
      "social": -0.225717,
      "tool": -0.094817
    },
    "recent_trace": {
      "action": 0.142857,
      "damage": 0.0,
      "energy_delta": 0.004893,
      "health_delta": 0.0,
      "prediction_error": 0.120105,
      "reproduction": 0.0,
      "social": 0.0,
      "tool": 0.0
    },
    "signal_values": [
      0.222298,
      0.108399,
      0.028657,
      0.043831,
      0.16619,
      0.100536,
      0.144112,
      0.140374
    ],
    "success_profile": {
      "energy_gain": 393.636325,
      "prediction_fit": 38.022754,
      "reproduction": 3.0,
      "social_learning": 49.3,
      "tool_use": 2.000005,
      "written_learning": 1.081204
    },
    "tool_trace": {
      "last_artifact_method": 0.0,
      "last_craft_target": "",
      "last_tool_affordance": "lever"
    }
  },
  "context": {
    "criterion": "learner_champion",
    "label": "final",
    "population": {
      "agent": 1640,
      "fungus": 120,
      "neural": 1634,
      "plant": 853,
      "total": 2613
    },
    "world_energy": {
      "biological_storage": 1586.943,
      "chemical": 248.6819,
      "electrical": 67.6837,
      "high_density": 3.7703,
      "locked_chemical": 184.5907,
      "mechanical": 486.1534,
      "radiant": 1049.7982,
      "thermal": 5073.7106
    },
    "world_physics": {
      "avg_abrasion": 0.09466,
      "avg_acidity": 0.1361,
      "avg_biological_activity": 0.29718,
      "avg_boundary_permeability": 0.22233,
      "avg_current_exposure": 0.06785,
      "avg_edge_current": 0.20166,
      "avg_edge_slope": 0.28877,
      "avg_elevation": 0.4213,
      "avg_fluid_level": 0.09345,
      "avg_humidity": 0.15534,
      "avg_interiority": 0.2801,
      "avg_oxygen": 0.46566,
      "avg_pressure": 0.05567,
      "avg_salinity": 0.23858,
      "avg_shelter": 0.33013,
      "avg_structure_scale": 10.7,
      "avg_temperature": 0.859,
      "avg_wet_dry_cycle": 0.08004,
      "max_abrasion": 0.14122,
      "max_acidity": 0.284,
      "max_biological_activity": 0.9277,
      "max_boundary_permeability": 0.65472,
      "max_current_exposure": 0.15693,
      "max_edge_current": 0.65157,
      "max_edge_slope": 0.97845,
      "max_elevation": 0.98025,
      "max_fluid_level": 0.2684,
      "max_humidity": 0.50614,
      "max_interiority": 0.46584,
      "max_oxygen": 0.59049,
      "max_pressure": 0.20143,
      "max_salinity": 1.10942,
      "max_shelter": 0.49897,
      "max_structure_scale": 156,
      "max_temperature": 1.37637,
      "max_wet_dry_cycle": 0.15088,
      "structure_count": 140.0
    }
  },
  "genome": {
    "aquatic_affinity": 0.364774236497845,
    "armor": 0.3575067605666296,
    "asexual_threshold": 0.5153129359639581,
    "buoyancy": 0.04945815704869869,
    "chemical_metabolism": 0.5867431767100044,
    "desiccation_tolerance": 0.40715012855217114,
    "developmental_complexity": 0.6565095308747261,
    "digestion": 0.7770498332829061,
    "electrical_use": 0.06790511534275795,
    "learning_rate": 0.08912712638828861,
    "manipulator": 0.33497389637868874,
    "mate_selectivity": 0.7515263372938785,
    "mechanical_use": 0.35047106883098555,
    "memory_budget": 1.2748947773395676,
    "mobility": 0.5134324512445254,
    "mutation_rate": 0.01671166067442134,
    "neural_budget": 6.328955865251377,
    "offspring_investment": 0.4071363322544038,
    "photosynthesis_surface": 0.07137912134872229,
    "plasticity_rate": 0.31296064552953684,
    "prediction_weight": 0.11794147660802323,
    "pressure_tolerance": 0.030010479470818252,
    "radiant_metabolism": 0.20050955481648813,
    "salinity_tolerance": 0.23481143906435242,
    "sensor_range": 0.5101029580314997,
    "sexual_threshold": 0.6550110155555166,
    "signal_strength": 0.1974412799753545,
    "storage_capacity": 0.447284097322393,
    "thermal_tolerance": 0.5962837940988884,
    "valence_damage": 0.6094276821826154,
    "valence_energy": 0.4310923294749994,
    "valence_health": 0.43079176078669257,
    "valence_reproduction": 0.3380228367745549,
    "valence_social": 0.2832667113232811
  },
  "inventory": {
    "bone": 1,
    "fiber": 1
  },
  "organism": {
    "age": 1141,
    "artifacts": [],
    "complexity": 2.0534,
    "energy": 82.7206,
    "generation": 5,
    "health": 0.406,
    "id": 3174,
    "kind": "agent",
    "last_action": "eat",
    "last_artifact_method": 0.0,
    "last_craft_target": "",
    "last_energy_delta": 0.0489,
    "last_lesson": {
      "affordance": "lever",
      "gain": 0.0,
      "kind": "tool_use",
      "method_quality": 0.0,
      "place": 7,
      "problem": {
        "kind": "obstacle",
        "obstacle": "salinity",
        "place": 7,
        "required_affordance": "lever",
        "required_capability": "filter",
        "severity": 1.108121
      },
      "score": 0.50125,
      "skill": 1.0,
      "success": false
    },
    "last_tool_affordance": "lever",
    "last_valence": 0.0021,
    "location": 7,
    "neural": true,
    "offspring_count": 3,
    "parents": [
      2317
    ],
    "success_profile": {
      "energy_gain": 393.6363,
      "prediction_fit": 38.0228,
      "reproduction": 3.0,
      "social_learning": 49.3,
      "tool_use": 2.0,
      "written_learning": 1.0812
    },
    "successful_tools": 2
  },
  "reason": "final_learner_champion",
  "score": 49.93176,
  "signal_values": [
    0.222298,
    0.108399,
    0.028657,
    0.043831,
    0.16619,
    0.100536,
    0.144112,
    0.140374
  ],
  "tick": 1689,
  "tool_skill": {
    "anchor": 0.0,
    "bind": 1.0,
    "build": 0.0,
    "carry": 0.0,
    "channel": 0.0,
    "concentrate_heat": 0.517918,
    "conduct": 0.0,
    "contain": 0.065793,
    "crack": 0.046872,
    "craft": 0.0,
    "cut": 0.0,
    "enclose": 0.0,
    "energy_storage": 0.0,
    "filter": 0.0,
    "float": 0.0,
    "gradient_harvest": 0.0,
    "inscribe": 0.0,
    "insulate": 0.0,
    "interpret_mark": 0.252858,
    "lever": 1.0,
    "permeable": 0.0,
    "protect": 0.0,
    "reaction_surface": 0.0,
    "record": 0.0,
    "shelter": 0.0,
    "support": 0.0,
    "traverse": 0.0
  }
}
