{
  "artifacts": [],
  "brain": {
    "auxiliary_prediction_weights": {
      "damage": [
        -0.3321745,
        0.1742816,
        0.1583462,
        -0.4272246,
        -0.0120549,
        0.7058995
      ],
      "hazard": [
        -0.3047256,
        0.4458536,
        -0.3912556,
        -0.0648842,
        -0.7369657,
        0.008674
      ],
      "reproduction": [
        0.1704053,
        -0.5364798,
        0.8608004,
        0.9798754,
        -0.1142938,
        0.0871149
      ],
      "social": [
        -0.5425656,
        -0.8457832,
        0.7610811,
        0.1788057,
        -0.2759585,
        -0.3151265
      ],
      "tool": [
        -0.3305137,
        -0.0816593,
        -0.2313947,
        0.6030194,
        -0.3242031,
        -0.3586724
      ]
    },
    "bias_h": [
      -0.0047239,
      0.3116978,
      0.0173774,
      -0.1853503,
      0.0776739,
      0.0173086
    ],
    "bias_o": [
      0.2386876,
      -0.0424189,
      -0.0294095,
      -0.1627904,
      -0.0569276,
      -0.0154033,
      -0.0906379,
      -0.1736798,
      0.2509163,
      -0.2613467,
      -0.029366,
      -0.1006314,
      0.0681176,
      0.1015444,
      -0.0297726
    ],
    "hidden": [
      -0.222973,
      0.4214057,
      -0.1994793,
      -0.7256984,
      0.6498525,
      -0.5207372
    ],
    "hidden_size": 6,
    "hidden_trace": [
      -0.0911119,
      0.4805531,
      -0.3101647,
      -0.7490408,
      0.6420213,
      -0.55638
    ],
    "input_size": 72,
    "input_trace": [
      0.8658533,
      0.968674,
      0.19725,
      0.2618674,
      0.0326217,
      1.2364103,
      1.4992646,
      0.0815224,
      0.0109448,
      0.0010667,
      1.75e-05,
      0.90257,
      0.998577,
      0.3469127,
      0.5120083,
      0.2945938,
      0.3575068,
      0.510103,
      0.0439574,
      0.021554,
      0.1036806,
      0.3173737,
      0.0321062,
      1.0,
      -0.8478995,
      0.0450055,
      1.200512,
      0.0529532,
      0.0830919,
      0.3992683,
      0.1587017,
      0.4604344,
      0.4913202,
      0.1571831,
      0.4740198,
      0.1169249,
      0.0750673,
      0.2804631,
      0.0972954,
      0.0413035,
      0.1170392,
      0.1653611,
      0.4871145,
      0.0162885,
      -0.0014852,
      0.0014852,
      -0.3224161,
      0.0245587,
      0.0719832,
      0.3392406,
      -0.3224161,
      0.0181059,
      0.6054796,
      0.3962418,
      0.5078479,
      0.0251808,
      0.0124599,
      0.0062693,
      0.0,
      0.0006901,
      0.0135123,
      0.032735,
      0.1566774,
      0.1098652,
      0.0297055,
      0.045925,
      0.0581789,
      0.0450731,
      0.0332974,
      0.0369592,
      0.0435358,
      0.0737
    ],
    "last_inputs": [
      0.8697991,
      0.9500243,
      0.203,
      0.2701972,
      0.0501537,
      1.4991138,
      1.5,
      0.1469585,
      0.0094374,
      0.0012796,
      1.71e-05,
      0.8039216,
      1.0,
      0.6,
      0.5120083,
      0.2945938,
      0.3575068,
      0.510103,
      0.0439574,
      0.021554,
      0.1036806,
      0.3173737,
      -0.0005416,
      1.0,
      -0.8288423,
      0.0450055,
      1.2424777,
      0.0480786,
      0.0779647,
      0.3991709,
      0.126914,
      0.4614899,
      0.4952065,
      0.1724235,
      0.5746683,
      0.1155113,
      0.0703102,
      0.2792957,
      0.0869611,
      0.0375013,
      0.0841118,
      0.1457579,
      0.3571429,
      -0.0015,
      0.0,
      0.0,
      -0.3270574,
      0.0,
      0.0,
      0.0,
      -0.3270574,
      -0.0191499,
      0.5205262,
      0.2196511,
      0.1528648,
      0.0414434,
      0.0052995,
      0.0016254,
      0.0,
      0.0002421,
      0.0024501,
      0.0122613,
      0.0560069,
      0.0785761,
      0.0301111,
      0.0477537,
      0.0573903,
      0.0450994,
      0.0263244,
      0.003366,
      0.0428499,
      0.0728326
    ],
    "last_outputs": [
      -0.2881189,
      -0.305688,
      -0.2751904,
      -0.3149713,
      -0.0001329,
      0.4214065,
      -0.2563755,
      0.1027749,
      0.3684873,
      -0.2119222,
      0.2192062,
      -0.1775074,
      0.3627453,
      0.1173472,
      -0.2443443
    ],
    "last_prediction_errors": {
      "damage": -0.0206322,
      "energy": -0.7449671,
      "hazard": 0.0418353,
      "reproduction": 1.5171096,
      "social": 0.2172998,
      "tool": 0.1535389
    },
    "output_size": 15,
    "prediction_weights": [
      0.1556819,
      0.5017998,
      0.332695,
      -0.4035511,
      0.5943033,
      -0.0161332
    ],
    "weights_in": [
      0.2651736,
      0.4000732,
      -0.0035412,
      -0.7527835,
      0.3663436,
      -0.5640376,
      0.365037,
      -0.1546095,
      -0.4055238,
      -0.5061723,
      -0.0913187,
      0.8366281,
      -0.6680255,
      0.1789585,
      0.4217155,
      0.0481292,
      0.1449885,
      0.05429,
      -0.4569989,
      0.5680653,
      0.3822968,
      -0.7424569,
      0.59245,
      0.2260794,
      0.4272542,
      -0.472683,
      -0.4271363,
      0.2949816,
      -0.8106385,
      -1.007956,
      -0.3149658,
      0.0047244,
      -0.3351229,
      -0.0854429,
      0.1595184,
      0.6534526,
      0.11074,
      -0.3307558,
      -0.3086722,
      0.7846685,
      -0.3031894,
      0.2025635,
      0.2693562,
      -0.652462,
      -0.7603439,
      -0.2496988,
      0.5277137,
      -0.0313516,
      0.408532,
      -0.022842,
      -0.3496339,
      0.0470417,
      0.0483319,
      0.0496916,
      0.9119684,
      -0.0992694,
      -0.5971865,
      0.6893394,
      0.4273728,
      0.3041854,
      -0.4582342,
      0.278538,
      -0.5853304,
      -0.6949853,
      -0.4891703,
      0.6242647,
      1.168799,
      0.7895106,
      0.0588621,
      0.4011976,
      0.1269904,
      -0.2301975,
      0.3892392,
      -0.3771117,
      -0.8787475,
      -0.0258928,
      0.1974219,
      -0.4333542,
      -0.0804664,
      -0.2224058,
      0.3172978,
      0.1857435,
      -0.1736682,
      -0.280826,
      -0.3258327,
      -0.3286782,
      -0.1051311,
      0.5836591,
      0.4480967,
      -0.6608147,
      -0.0249778,
      0.0152354,
      0.0910457,
      -0.8364491,
      1.4899644,
      0.2368009,
      -0.711497,
      0.5635461,
      0.2704391,
      -0.2963917,
      -0.0636729,
      -0.078819,
      0.5826638,
      -0.2990974,
      -0.7365397,
      -0.1103143,
      0.3535021,
      -0.4800904,
      -0.3597323,
      0.2514582,
      0.0197714,
      -0.3279365,
      0.0625634,
      0.3245821,
      0.5052652,
      -0.3099526,
      -0.430036,
      0.641126,
      -0.2335741,
      -0.3722707,
      -0.7291154,
      1.0679284,
      -0.2472031,
      0.4379845,
      0.0118495,
      -0.6310947,
      -0.2906576,
      0.1799172,
      0.1338793,
      0.7341432,
      -0.0971967,
      -0.5977468,
      -0.1183933,
      -0.1661015,
      0.2727358,
      -0.4129818,
      0.4745031,
      -0.2431798,
      -0.6274283,
      -0.3744887,
      0.5897785,
      0.0169441,
      0.4458217,
      -0.5365446,
      -0.5547225,
      -0.0067668,
      0.1577674,
      -0.096198,
      -0.6129397,
      0.1451474,
      0.143152,
      0.6558154,
      0.3261975,
      0.088332,
      -0.0986779,
      -0.826869,
      -0.0651672,
      1.2110821,
      -0.0065579,
      0.0111087,
      -0.4555778,
      -0.0928221,
      0.2374212,
      -0.1093401,
      0.1886149,
      -0.5338431,
      -0.4135312,
      0.4770572,
      0.5480248,
      -0.6101419,
      -0.1757374,
      0.740074,
      0.8873731,
      0.1104235,
      -0.0072746,
      -0.0850045,
      0.6902614,
      0.0299906,
      -0.1677799,
      -0.4830272,
      -0.9006813,
      -0.4798062,
      -1.0051758,
      0.4773479,
      -0.4583949,
      0.9344949,
      -0.7369875,
      -0.2640122,
      0.9733973,
      -0.116955,
      -0.2537974,
      -0.5526729,
      0.6558148,
      0.5926422,
      0.1141514,
      0.4495568,
      -0.08971,
      -0.0343425,
      -0.4760584,
      -0.9558419,
      -0.3813365,
      1.2243745,
      -0.1210142,
      0.8184633,
      0.0512308,
      0.2739227,
      -0.5148355,
      0.6968804,
      -0.0506353,
      -0.1412625,
      0.8751273,
      -0.2687396,
      -0.6598509,
      0.052346,
      0.2685493,
      -0.1109546,
      -0.0126947,
      -1.4653138,
      0.3792911,
      -0.234695,
      0.0657807,
      0.4983102,
      0.3347834,
      -0.2714086,
      0.2330623,
      0.0044723,
      -0.235154,
      -0.6351049,
      -0.5750932,
      0.2780182,
      -1.3807325,
      0.1970038,
      0.1203897,
      -0.5875078,
      0.6190591,
      0.0055145,
      0.1051004,
      -0.0528506,
      -0.0865878,
      -0.1229445,
      0.1605698,
      -0.0585246,
      0.51976,
      0.0496281,
      -0.2425657,
      -0.3631181,
      -0.5854902,
      -0.0425699,
      -0.8460757,
      -0.7088707,
      0.5668801,
      -0.0120292,
      0.4530466,
      -0.019953,
      0.3247639,
      0.3319141,
      -0.2435692,
      0.6053275,
      -0.0304686,
      -0.1840378,
      -0.2305515,
      0.4765069,
      -0.1709517,
      -1.1132657,
      0.4443085,
      -0.4858623,
      0.757188,
      0.7637714,
      -1.142787,
      0.8128253,
      -0.1304878,
      0.9587001,
      0.0331706,
      0.2707192,
      -0.6928342,
      0.2046918,
      -0.0893123,
      0.1658325,
      0.0329088,
      0.6731909,
      -0.0310229,
      0.0074549,
      0.4380922,
      0.2578864,
      0.2225128,
      -0.4712945,
      0.3340138,
      0.3058499,
      -0.2491896,
      0.6987559,
      0.422455,
      -0.1604491,
      -1.0413307,
      -0.0134087,
      0.4036802,
      -0.5062675,
      -0.1698201,
      0.4337884,
      0.3130777,
      0.5209324,
      0.480347,
      0.2933132,
      0.3354709,
      -0.3605506,
      0.3635379,
      0.4004548,
      0.2231231,
      0.149928,
      -0.3961925,
      0.4493882,
      1.324967,
      -0.6238126,
      -0.1651592,
      -0.136075,
      0.4761277,
      -0.1846308,
      0.8514902,
      -0.1803953,
      -0.3669435,
      0.4529666,
      -0.0403094,
      0.107724,
      -0.2721749,
      -0.134117,
      -0.280717,
      0.2798557,
      -0.8489549,
      -0.0641845,
      0.2372757,
      -0.2712477,
      0.5360928,
      -0.6208309,
      -0.5942411,
      -0.8065471,
      -0.2546246,
      0.008465,
      -0.0430123,
      -0.6276788,
      0.317396,
      -0.1419162,
      -0.5120736,
      -0.2944214,
      0.1428314,
      -0.3245036,
      -0.7261441,
      0.279323,
      0.1582431,
      -0.0272616,
      -0.0582323,
      -0.3838541,
      0.4153248,
      -0.103528,
      0.3425392,
      0.6980069,
      0.6989645,
      -0.38518,
      -0.3980511,
      1.0762894,
      -0.0593671,
      -0.0505058,
      -0.3949263,
      0.1938744,
      0.1616576,
      0.3228245,
      0.75665,
      0.1877686,
      -0.7941173,
      0.8492938,
      -0.225332,
      0.4998427,
      0.0032727,
      -0.5769015,
      0.1547154,
      0.006295,
      0.7172469,
      0.274914,
      -0.2144832,
      -0.9323998,
      0.5015603,
      -0.5017872,
      -0.1131398,
      -0.0472925,
      0.0871133,
      0.8517839,
      -0.1490782,
      -0.8855508,
      -0.6790608,
      -0.3644683,
      0.4988332,
      -0.4016613,
      0.4006305,
      -0.3411356,
      0.1447459,
      0.2750467,
      -0.425445,
      -0.2597469,
      -0.3024974,
      0.0103696,
      -0.9214897,
      0.494232,
      0.0733347,
      -0.4285126,
      0.717745,
      -0.9536819,
      0.932709,
      -0.0055653,
      0.2690062,
      -0.3930064,
      -0.4942862,
      0.2663159,
      -0.1192579,
      0.5625907,
      -1.1721143,
      -0.3615352,
      -0.7609767,
      -1.0950126,
      0.1561606,
      0.0463869,
      -0.4968601,
      0.0101442,
      -0.5720828,
      0.4005208,
      0.0337353,
      1.0644563,
      0.0461255,
      0.1046245,
      -0.4568318,
      -0.1588623,
      -0.2490722,
      0.0712133,
      -1.1053807,
      0.2181065
    ],
    "weights_out": [
      0.4210512,
      0.1050799,
      -0.3795954,
      0.5690464,
      -0.180029,
      1.5105097,
      0.1779567,
      0.1791133,
      0.7059677,
      0.4545889,
      -0.1756596,
      0.1839726,
      0.0967556,
      -0.017835,
      -0.4594088,
      0.7747244,
      0.1106193,
      0.334642,
      -0.400438,
      0.2520371,
      -0.2436291,
      0.374741,
      -0.2718764,
      0.3230667,
      0.0093227,
      0.5682771,
      -0.2315329,
      0.531976,
      0.088361,
      -0.353668,
      -0.5382744,
      0.1355258,
      0.269099,
      -0.8735326,
      0.7037532,
      0.2772019,
      0.5983533,
      -0.0498783,
      -0.7981176,
      0.0266569,
      -0.2323786,
      0.4616305,
      0.0773958,
      0.7954216,
      0.2867954,
      -0.3207996,
      0.5506304,
      0.3345021,
      0.4182153,
      0.032709,
      -0.2145937,
      -0.3055578,
      0.3924138,
      0.2920955,
      -0.5322076,
      0.281025,
      0.0028923,
      0.0525335,
      -0.0779202,
      0.0512574,
      -0.1735805,
      0.1413041,
      -1.1312975,
      0.3336594,
      0.5344421,
      -0.3452454,
      0.3683718,
      0.0332465,
      -0.6418286,
      -0.2910596,
      -0.2271625,
      0.5987881,
      0.2750777,
      0.5557259,
      -0.0511709,
      -0.7996029,
      -0.0196137,
      0.7082028,
      0.1969841,
      -0.1930585,
      -0.2670361,
      0.3468027,
      0.5652646,
      0.3254861,
      0.602522,
      0.4718637,
      -0.0802308,
      0.0508403,
      -0.1558915,
      0.8985227
    ]
  },
  "brain_template": {
    "auxiliary_prediction_weights": {
      "damage": [
        -0.3329193,
        0.1730992,
        0.1592185,
        -0.4256382,
        -0.0132305,
        0.7071777
      ],
      "hazard": [
        -0.3049564,
        0.445467,
        -0.3909696,
        -0.0643568,
        -0.7373623,
        0.0090966
      ],
      "reproduction": [
        0.1643825,
        -0.5475735,
        0.86862,
        0.9948378,
        -0.1253557,
        0.0988166
      ],
      "social": [
        -0.5481714,
        -0.8556412,
        0.7681412,
        0.1920844,
        -0.2857679,
        -0.3046576
      ],
      "tool": [
        -0.339868,
        -0.0980275,
        -0.2196595,
        0.6250771,
        -0.3404759,
        -0.3412795
      ]
    },
    "bias_h": [
      -0.0047239,
      0.3116978,
      0.0173774,
      -0.1853503,
      0.0776739,
      0.0173086
    ],
    "bias_o": [
      0.2386877,
      -0.0424162,
      -0.0294116,
      -0.1627752,
      -0.0569268,
      -0.0154671,
      -0.0906376,
      -0.1736798,
      0.2413237,
      -0.261345,
      -0.029366,
      -0.1006314,
      0.0663153,
      0.1015444,
      -0.0298158
    ],
    "hidden_size": 6,
    "input_size": 72,
    "output_size": 15,
    "prediction_weights": [
      0.158657,
      0.5072117,
      0.3288654,
      -0.4108388,
      0.5997015,
      -0.0218494
    ],
    "weights_in": [
      0.2650274,
      0.3998726,
      -0.0035596,
      -0.7528318,
      0.3663429,
      -0.5640397,
      0.3647385,
      -0.1546353,
      -0.4055257,
      -0.5061723,
      -0.0913187,
      0.8363756,
      -0.6681725,
      0.1789183,
      0.4216121,
      0.0480697,
      0.1449163,
      0.054187,
      -0.4570078,
      0.568061,
      0.3822759,
      -0.742521,
      0.5924326,
      0.2258921,
      0.4274418,
      -0.4726914,
      -0.4273441,
      0.2949646,
      -0.8106584,
      -1.0080377,
      -0.3150071,
      0.0046336,
      -0.33522,
      -0.0854683,
      0.1594848,
      0.653428,
      0.1107173,
      -0.3308129,
      -0.308704,
      0.7846553,
      -0.3032273,
      0.2025138,
      0.2692385,
      -0.6524706,
      -0.7603439,
      -0.2496988,
      0.5277817,
      -0.0313658,
      0.4084968,
      -0.023017,
      -0.3495659,
      0.0470255,
      0.0481879,
      0.0495601,
      0.9117484,
      -0.0992746,
      -0.5971904,
      0.6893377,
      0.4273728,
      0.3041854,
      -0.4582383,
      0.278528,
      -0.5853798,
      -0.6950133,
      -0.4891724,
      0.6242621,
      1.1687928,
      0.7895074,
      0.0588535,
      0.4011856,
      0.1269825,
      -0.2302052,
      0.3889585,
      -0.3774862,
      -0.8787856,
      -0.0259807,
      0.1974209,
      -0.4333602,
      -0.0810197,
      -0.222459,
      0.3172937,
      0.1857435,
      -0.1736682,
      -0.2812708,
      -0.326132,
      -0.3287536,
      -0.1053239,
      0.5835481,
      0.4479621,
      -0.6610068,
      -0.0249944,
      0.0152273,
      0.0910067,
      -0.8365686,
      1.4899313,
      0.2364439,
      -0.7111422,
      0.5635303,
      0.2700588,
      -0.2964228,
      -0.0637109,
      -0.0789714,
      0.5825776,
      -0.2992675,
      -0.7367202,
      -0.1103581,
      0.3534347,
      -0.4801363,
      -0.3597741,
      0.2513514,
      0.0197129,
      -0.3279608,
      0.0624869,
      0.324485,
      0.505044,
      -0.3099664,
      -0.430036,
      0.641126,
      -0.2334449,
      -0.3723023,
      -0.7291802,
      1.0676089,
      -0.2470739,
      0.4379571,
      0.011577,
      -0.6313364,
      -0.2910608,
      0.1799086,
      0.1338719,
      0.7341395,
      -0.0971967,
      -0.5977468,
      -0.1184023,
      -0.16612,
      0.2726447,
      -0.413034,
      0.4744987,
      -0.243185,
      -0.6274419,
      -0.3744953,
      0.5897637,
      0.0169204,
      0.4458066,
      -0.5365616,
      -0.5545295,
      -0.0065075,
      0.1577933,
      -0.0961366,
      -0.612939,
      0.1451516,
      0.1435365,
      0.6558502,
      0.3262002,
      0.088332,
      -0.0986779,
      -0.8265534,
      -0.0649652,
      1.2111343,
      -0.0064244,
      0.0111855,
      -0.4554846,
      -0.0926891,
      0.2374327,
      -0.1093345,
      0.1886419,
      -0.5337603,
      -0.4135085,
      0.4773027,
      0.5477805,
      -0.6101309,
      -0.1754718,
      0.7400956,
      0.8873992,
      0.110529,
      -0.0072169,
      -0.0848869,
      0.6903866,
      0.0300217,
      -0.1677347,
      -0.4829955,
      -0.9006523,
      -0.4797323,
      -1.0051352,
      0.4773647,
      -0.4583431,
      0.934561,
      -0.7368348,
      -0.2640023,
      0.9733973,
      -0.116955,
      -0.2538865,
      -0.5526521,
      0.6558597,
      0.5928644,
      0.1140623,
      0.4495766,
      -0.0895221,
      -0.0341743,
      -0.4757782,
      -0.9558356,
      -0.3813314,
      1.2243769,
      -0.1210142,
      0.8184633,
      0.0512368,
      0.2739355,
      -0.5147723,
      0.6969165,
      -0.0506323,
      -0.1412588,
      0.8751364,
      -0.268735,
      -0.6598404,
      0.0523621,
      0.2685597,
      -0.1109432,
      -0.0123174,
      -1.464809,
      0.3793426,
      -0.2345765,
      0.065782,
      0.4983188,
      0.3355294,
      -0.2713368,
      0.2330679,
      0.0044723,
      -0.235154,
      -0.6345044,
      -0.5746899,
      0.2781198,
      -1.3804726,
      0.1971533,
      0.1205712,
      -0.5872489,
      0.6190814,
      0.0055254,
      0.105153,
      -0.0526895,
      -0.0865432,
      -0.1224647,
      0.1600921,
      -0.0585032,
      0.5202727,
      0.0496701,
      -0.2425145,
      -0.3629128,
      -0.585374,
      -0.0423408,
      -0.8458324,
      -0.7088116,
      0.5669709,
      -0.0119674,
      0.453103,
      -0.0198091,
      0.3248429,
      0.3319469,
      -0.243466,
      0.6054583,
      -0.0301707,
      -0.1840191,
      -0.2305515,
      0.4765069,
      -0.1711256,
      -1.1132231,
      0.4443956,
      -0.4854324,
      0.7570141,
      0.7638084,
      -1.1424199,
      0.8131508,
      -0.1299451,
      0.9587119,
      0.0331806,
      0.2707241,
      -0.6928342,
      0.2046918,
      -0.0893002,
      0.1658573,
      0.0330313,
      0.673261,
      -0.031017,
      0.0074621,
      0.4381106,
      0.2578955,
      0.2225328,
      -0.4712626,
      0.334034,
      0.3058729,
      -0.2494654,
      0.6983869,
      0.4224172,
      -0.1605359,
      -1.0413317,
      -0.0134154,
      0.4031342,
      -0.5063191,
      -0.1698242,
      0.4337884,
      0.3130777,
      0.5204911,
      0.4800528,
      0.2932389,
      0.3352809,
      -0.3606599,
      0.3634052,
      0.4002655,
      0.2231068,
      0.14992,
      -0.396231,
      0.4492704,
      1.3249345,
      -0.624163,
      -0.1648104,
      -0.1360906,
      0.4757521,
      -0.1846615,
      0.8514528,
      -0.1805454,
      -0.3670282,
      0.4527991,
      -0.0404872,
      0.1076807,
      -0.2722408,
      -0.1341622,
      -0.2807582,
      0.2797505,
      -0.8490126,
      -0.0642084,
      0.2372004,
      -0.271343,
      0.5358752,
      -0.6208444,
      -0.5942411,
      -0.8065471,
      -0.2544974,
      0.008434,
      -0.0430759,
      -0.6279928,
      0.3175232,
      -0.1419435,
      -0.5123419,
      -0.2946594,
      0.142435,
      -0.3245123,
      -0.7261514,
      0.2793194,
      0.1582431,
      -0.0272616,
      -0.0582412,
      -0.3838722,
      0.4152354,
      -0.1035793,
      0.3425348,
      0.6980015,
      0.698951,
      -0.3851867,
      -0.3980657,
      1.0762661,
      -0.0593819,
      -0.0505227,
      -0.3946357,
      0.1942656,
      0.1616967,
      0.3229169,
      0.7566511,
      0.1877753,
      -0.793538,
      0.8493482,
      -0.2253278,
      0.4998427,
      0.0032727,
      -0.5764296,
      0.1550222,
      0.0063737,
      0.7174483,
      0.2750299,
      -0.2143425,
      -0.9321991,
      0.5015776,
      -0.5017787,
      -0.113099,
      -0.0471676,
      0.0871478,
      0.8521538,
      -0.1494471,
      -0.8855343,
      -0.6786615,
      -0.3644356,
      0.4988727,
      -0.4015022,
      0.4007184,
      -0.3409582,
      0.1449346,
      0.2750933,
      -0.4253757,
      -0.259699,
      -0.3024536,
      0.0104811,
      -0.9214283,
      0.4942575,
      0.0734133,
      -0.4284122,
      0.7179755,
      -0.9536668,
      0.932709,
      -0.0055653,
      0.268872,
      -0.3929745,
      -0.4942185,
      0.2666506,
      -0.1193921,
      0.5626201,
      -1.1718307,
      -0.3612822,
      -0.7605546,
      -1.0950032,
      0.1561684,
      0.0463906,
      -0.4968601,
      0.0101442,
      -0.5720737,
      0.4005401,
      0.0338304,
      1.0645107,
      0.04613,
      0.10463,
      -0.456818,
      -0.1588554,
      -0.2490564,
      0.0712378,
      -1.1053651,
      0.2181238
    ],
    "weights_out": [
      0.4210513,
      0.10508,
      -0.3795955,
      0.5690463,
      -0.1800289,
      1.5105096,
      0.1779591,
      0.1791172,
      0.7059647,
      0.4545836,
      -0.1756555,
      0.1839683,
      0.0967541,
      -0.017838,
      -0.4594066,
      0.7747285,
      0.1106162,
      0.3346452,
      -0.4004261,
      0.2520584,
      -0.2436451,
      0.3747122,
      -0.2718545,
      0.3230435,
      0.0093231,
      0.5682782,
      -0.2315337,
      0.5319744,
      0.0883623,
      -0.3536692,
      -0.5382602,
      0.135454,
      0.2691452,
      -0.8734204,
      0.703657,
      0.2772852,
      0.5983535,
      -0.0498778,
      -0.7981179,
      0.0266563,
      -0.2323781,
      0.46163,
      0.0773958,
      0.7954216,
      0.2867954,
      -0.3207996,
      0.5506304,
      0.3345021,
      0.4107367,
      0.0193762,
      -0.2051764,
      -0.2875522,
      0.3792044,
      0.306195,
      -0.5322059,
      0.2810274,
      0.0028904,
      0.0525302,
      -0.0779178,
      0.0512547,
      -0.1735805,
      0.1413041,
      -1.1312975,
      0.3336594,
      0.5344421,
      -0.3452454,
      0.3683718,
      0.0332465,
      -0.6418286,
      -0.2910596,
      -0.2271625,
      0.5987881,
      0.2738603,
      0.5531074,
      -0.0494636,
      -0.7960969,
      -0.0221572,
      0.7108352,
      0.1969841,
      -0.1930585,
      -0.2670361,
      0.3468027,
      0.5652646,
      0.3254861,
      0.602486,
      0.4718008,
      -0.0801859,
      0.0509243,
      -0.1559541,
      0.8985891
    ]
  },
  "bucket": "causal_champion",
  "cognition": {
    "event_memory": {
      "damage": 0.00021,
      "energy_gain": 0.004603,
      "energy_loss": 0.017452,
      "health_gain": 0.0,
      "reproduction": 0.040391,
      "social": 0.01065,
      "surprise": 0.085442,
      "tool": 0.048649
    },
    "last_action": "pickup",
    "last_valence": 0.185019,
    "lesson_memory": [
      {
        "affordance": "contain",
        "gain": 1.216073,
        "kind": "tool_use",
        "method_quality": 0.0,
        "place": 11,
        "problem": {
          "kind": "obstacle",
          "obstacle": "heat",
          "place": 11,
          "required_affordance": "contain",
          "required_capability": "insulate",
          "severity": 1.0
        },
        "score": 0.722,
        "skill": 1.0,
        "success": true
      },
      {
        "affordance": "contain",
        "gain": 1.215708,
        "kind": "tool_use",
        "method_quality": 0.0,
        "place": 11,
        "problem": {
          "kind": "obstacle",
          "obstacle": "heat",
          "place": 11,
          "required_affordance": "contain",
          "required_capability": "insulate",
          "severity": 1.0
        },
        "score": 0.722,
        "skill": 1.0,
        "success": true
      },
      {
        "affordance": "contain",
        "gain": 1.21536,
        "kind": "tool_use",
        "method_quality": 0.0,
        "place": 11,
        "problem": {
          "kind": "obstacle",
          "obstacle": "heat",
          "place": 11,
          "required_affordance": "contain",
          "required_capability": "insulate",
          "severity": 1.0
        },
        "score": 0.722,
        "skill": 1.0,
        "success": true
      },
      {
        "affordance": "contain",
        "gain": 1.215246,
        "kind": "tool_use",
        "method_quality": 0.0,
        "place": 11,
        "problem": {
          "kind": "obstacle",
          "obstacle": "heat",
          "place": 11,
          "required_affordance": "contain",
          "required_capability": "insulate",
          "severity": 1.0
        },
        "score": 0.722,
        "skill": 1.0,
        "success": true
      },
      {
        "affordance": "contain",
        "gain": 1.215302,
        "kind": "tool_use",
        "method_quality": 0.0,
        "place": 11,
        "problem": {
          "kind": "obstacle",
          "obstacle": "heat",
          "place": 11,
          "required_affordance": "contain",
          "required_capability": "insulate",
          "severity": 1.0
        },
        "score": 0.722,
        "skill": 1.0,
        "success": true
      }
    ],
    "place_memory": [
      {
        "place_id": 11,
        "value": 0.968587
      },
      {
        "place_id": 24,
        "value": 0.548237
      }
    ],
    "prediction_errors": {
      "damage": -0.020632,
      "energy": -0.744967,
      "hazard": 0.041835,
      "reproduction": 1.5,
      "social": 0.2173,
      "tool": 0.153539
    },
    "recent_trace": {
      "action": 0.357143,
      "damage": 0.0,
      "energy_delta": -0.419218,
      "health_delta": 0.0,
      "prediction_error": -0.744967,
      "reproduction": 1.0,
      "social": 0.0,
      "tool": 0.0
    },
    "signal_values": [
      0.030111,
      0.047754,
      0.05739,
      0.045099,
      0.031182,
      0.020011,
      0.04285,
      0.072833
    ],
    "success_profile": {
      "causal_step": 4.0,
      "causal_unlock": 12.0,
      "energy_gain": 29.351209,
      "prediction_fit": 8.406304,
      "reproduction": 29.0,
      "social_learning": 0.4,
      "tool_use": 373.280696,
      "written_learning": 0.007629
    },
    "tool_trace": {
      "last_artifact_method": 0.0,
      "last_craft_target": "",
      "last_tool_affordance": "contain"
    }
  },
  "context": {
    "criterion": "causal_champion",
    "label": "final",
    "population": {
      "agent": 1640,
      "fungus": 120,
      "neural": 1634,
      "plant": 853,
      "total": 2613
    },
    "world_energy": {
      "biological_storage": 1586.943,
      "chemical": 248.6819,
      "electrical": 67.6837,
      "high_density": 3.7703,
      "locked_chemical": 184.5907,
      "mechanical": 486.1534,
      "radiant": 1049.7982,
      "thermal": 5073.7106
    },
    "world_physics": {
      "avg_abrasion": 0.09466,
      "avg_acidity": 0.1361,
      "avg_biological_activity": 0.29718,
      "avg_boundary_permeability": 0.22233,
      "avg_current_exposure": 0.06785,
      "avg_edge_current": 0.20166,
      "avg_edge_slope": 0.28877,
      "avg_elevation": 0.4213,
      "avg_fluid_level": 0.09345,
      "avg_humidity": 0.15534,
      "avg_interiority": 0.2801,
      "avg_oxygen": 0.46566,
      "avg_pressure": 0.05567,
      "avg_salinity": 0.23858,
      "avg_shelter": 0.33013,
      "avg_structure_scale": 10.7,
      "avg_temperature": 0.859,
      "avg_wet_dry_cycle": 0.08004,
      "max_abrasion": 0.14122,
      "max_acidity": 0.284,
      "max_biological_activity": 0.9277,
      "max_boundary_permeability": 0.65472,
      "max_current_exposure": 0.15693,
      "max_edge_current": 0.65157,
      "max_edge_slope": 0.97845,
      "max_elevation": 0.98025,
      "max_fluid_level": 0.2684,
      "max_humidity": 0.50614,
      "max_interiority": 0.46584,
      "max_oxygen": 0.59049,
      "max_pressure": 0.20143,
      "max_salinity": 1.10942,
      "max_shelter": 0.49897,
      "max_structure_scale": 156,
      "max_temperature": 1.37637,
      "max_wet_dry_cycle": 0.15088,
      "structure_count": 140.0
    }
  },
  "genome": {
    "aquatic_affinity": 0.364774236497845,
    "armor": 0.35750676056662967,
    "asexual_threshold": 0.5313577353615404,
    "buoyancy": 0.0393498659953241,
    "chemical_metabolism": 0.5626214666021223,
    "desiccation_tolerance": 0.42456083775342873,
    "developmental_complexity": 0.7749685535329395,
    "digestion": 0.7512270417229729,
    "electrical_use": 0.0830317073834901,
    "learning_rate": 0.07507394150057524,
    "manipulator": 0.2945937821027577,
    "mate_selectivity": 0.7513666354704256,
    "mechanical_use": 0.34736770119796856,
    "memory_budget": 1.0345904325861184,
    "mobility": 0.5120082859746473,
    "mutation_rate": 0.016311844100882118,
    "neural_budget": 5.62654975205792,
    "offspring_investment": 0.4809321426381048,
    "photosynthesis_surface": 0.07141948433103912,
    "plasticity_rate": 0.31737372112636325,
    "prediction_weight": 0.1036805613270407,
    "pressure_tolerance": 0.030010479470818252,
    "radiant_metabolism": 0.1663167003253908,
    "salinity_tolerance": 0.26990817788618804,
    "sensor_range": 0.5101029580314997,
    "sexual_threshold": 0.5094734442048283,
    "signal_strength": 0.20524604943059574,
    "storage_capacity": 0.45525011424172057,
    "thermal_tolerance": 0.5721256593101308,
    "valence_damage": 0.6373906145634691,
    "valence_energy": 0.3610559046007322,
    "valence_health": 0.39587330376247976,
    "valence_reproduction": 0.3363802834086017,
    "valence_social": 0.2708781645912379
  },
  "inventory": {
    "bone": 2,
    "shell": 1
  },
  "organism": {
    "age": 406,
    "artifacts": [],
    "complexity": 2.0904,
    "energy": 71.1283,
    "generation": 12,
    "health": 0.9548,
    "id": 6677,
    "kind": "agent",
    "last_action": "pickup",
    "last_artifact_method": 0.0,
    "last_craft_target": "",
    "last_energy_delta": -4.1922,
    "last_lesson": {
      "affordance": "contain",
      "gain": 1.215302,
      "kind": "tool_use",
      "method_quality": 0.0,
      "place": 11,
      "problem": {
        "kind": "obstacle",
        "obstacle": "heat",
        "place": 11,
        "required_affordance": "contain",
        "required_capability": "insulate",
        "severity": 1.0
      },
      "score": 0.722,
      "skill": 1.0,
      "success": true
    },
    "last_tool_affordance": "contain",
    "last_valence": 0.185,
    "location": 11,
    "neural": true,
    "offspring_count": 29,
    "parents": [
      5111,
      4944
    ],
    "success_profile": {
      "causal_step": 4.0,
      "causal_unlock": 12.0,
      "energy_gain": 29.3512,
      "prediction_fit": 8.4063,
      "reproduction": 29.0,
      "social_learning": 0.4,
      "tool_use": 373.2807,
      "written_learning": 0.0076
    },
    "successful_tools": 337
  },
  "reason": "final_causal_champion",
  "score": 888.743955,
  "signal_values": [
    0.030111,
    0.047754,
    0.05739,
    0.045099,
    0.031182,
    0.020011,
    0.04285,
    0.072833
  ],
  "tick": 1689,
  "tool_skill": {
    "anchor": 0.0,
    "bind": 0.020668,
    "build": 0.0,
    "carry": 0.0,
    "channel": 0.0,
    "concentrate_heat": 0.0,
    "conduct": 0.0,
    "contain": 1.0,
    "crack": 0.021072,
    "craft": 0.0,
    "cut": 0.0,
    "enclose": 0.0,
    "energy_storage": 0.0,
    "filter": 0.0,
    "float": 0.0,
    "gradient_harvest": 0.0,
    "inscribe": 0.0,
    "insulate": 0.0,
    "interpret_mark": 0.001301,
    "lever": 0.0,
    "permeable": 0.0,
    "protect": 0.0,
    "reaction_surface": 0.0,
    "record": 0.0,
    "shelter": 0.0,
    "support": 0.0,
    "traverse": 0.0
  }
}
