{
  "artifacts": [],
  "brain": {
    "auxiliary_prediction_weights": {
      "damage": [
        0.400664,
        0.1848079,
        -0.0070325,
        0.1011499,
        -0.3241895,
        -0.2469149,
        0.9729831,
        0.5883466,
        0.1947038,
        0.8331516,
        -0.1116075,
        -0.3925818
      ],
      "hazard": [
        -0.0604651,
        0.212707,
        1.2975123,
        -1.0534598,
        -0.1524873,
        0.1019457,
        -0.6620063,
        -0.104539,
        0.1240507,
        -0.2194949,
        0.1597133,
        0.1669051
      ],
      "reproduction": [
        -0.3556364,
        0.2420921,
        -0.2385871,
        1.1839062,
        0.2912064,
        -0.0381957,
        0.0045955,
        -0.0971615,
        0.1748336,
        0.1316676,
        -0.5189735,
        -0.6233485
      ],
      "social": [
        -0.3819623,
        0.2176615,
        0.0045484,
        0.6053548,
        0.8823585,
        0.1039681,
        -0.9870022,
        -0.4222942,
        1.2650182,
        0.4677089,
        0.0947684,
        0.4792576
      ],
      "tool": [
        -0.3357843,
        -0.5934282,
        0.6544819,
        0.3461313,
        0.0440715,
        0.1914612,
        0.4592412,
        -0.5227069,
        0.0692362,
        0.5944941,
        -0.3120425,
        -0.3423589
      ]
    },
    "bias_h": [
      0.1226117,
      -0.0426089,
      0.0451214,
      -0.0304861,
      -0.0372477,
      -0.0638032,
      -0.0408169,
      -0.0284375,
      0.0862233,
      0.1074288,
      -0.1421718,
      -0.0629947
    ],
    "bias_o": [
      0.003771,
      -0.0198933,
      -0.0420785,
      0.0415751,
      -0.0174198,
      -0.0626794,
      0.0615384,
      -0.0021828,
      0.0808319,
      -0.0115094,
      -0.0354237,
      0.0291114,
      -0.0400209,
      0.0436873,
      0.0138469
    ],
    "hidden": [
      0.6450702,
      0.5632984,
      -0.6668491,
      0.5291302,
      -0.4853874,
      -0.1960265,
      0.6396998,
      -0.121751,
      -0.1644773,
      0.1318998,
      0.378163,
      -0.4302173
    ],
    "hidden_size": 12,
    "hidden_trace": [
      0.6415758,
      0.5519097,
      -0.6608143,
      0.521178,
      -0.4495731,
      -0.2116601,
      0.6207035,
      -0.0898892,
      -0.1928879,
      0.146943,
      0.373475,
      -0.429053
    ],
    "input_size": 72,
    "input_trace": [
      0.998169,
      0.9987241,
      0.49425,
      0.6158308,
      0.0003484,
      0.0165687,
      1.2419972,
      0.2518339,
      0.0302073,
      0.0002492,
      0.3963972,
      1.0446599,
      0.0219544,
      0.3999792,
      0.3879994,
      0.3456087,
      0.300773,
      0.6453125,
      0.0916257,
      0.0360088,
      0.2820172,
      0.2395866,
      0.0262431,
      1.0,
      0.0360771,
      -0.0061727,
      0.7982954,
      0.1725978,
      0.1153242,
      0.0031444,
      0.0034806,
      0.0052059,
      0.5499429,
      0.0714479,
      0.2060915,
      0.1310841,
      0.1486761,
      0.3105398,
      0.3008306,
      0.1346263,
      0.2136372,
      0.2165352,
      0.4857692,
      0.0560838,
      -0.0024309,
      0.0024309,
      -0.2050773,
      0.0,
      0.147887,
      0.7358253,
      -0.2050773,
      -0.3948834,
      -0.1814129,
      0.4788592,
      0.8576677,
      0.5048547,
      0.0188483,
      0.0002484,
      0.0,
      0.0007763,
      0.0,
      0.0495911,
      0.2457559,
      0.1467272,
      -0.0114231,
      0.0,
      -0.0041184,
      0.0,
      0.0037995,
      -0.0002665,
      0.0166963,
      0.0072275
    ],
    "last_inputs": [
      0.9985384,
      0.9984646,
      0.5,
      0.6075778,
      0.0002848,
      0.0152951,
      1.3156186,
      0.2555621,
      0.0306189,
      0.0002101,
      0.4009982,
      1.0454545,
      0.0217391,
      0.4,
      0.3879994,
      0.3456087,
      0.300773,
      0.6453125,
      0.0916257,
      0.0360088,
      0.2820172,
      0.2395866,
      0.0377982,
      1.0,
      0.0,
      0.0134074,
      0.8128447,
      0.1729749,
      0.1151942,
      0.0,
      0.0,
      0.0,
      0.5517378,
      0.0690228,
      0.2056677,
      0.1322028,
      0.1498582,
      0.3035679,
      0.3015076,
      0.1349204,
      0.2174672,
      0.217608,
      0.5714286,
      0.0755394,
      0.0,
      0.0,
      -0.1929402,
      0.0,
      0.2,
      1.0,
      -0.1929402,
      -0.3991404,
      -0.1814042,
      0.5404442,
      1.1239467,
      0.5090556,
      0.0193134,
      5.69e-05,
      0.0,
      0.0008541,
      0.0,
      0.050422,
      0.2515241,
      0.1489432,
      -0.011513,
      0.0,
      -0.0041222,
      0.0,
      0.0037995,
      -0.0002665,
      0.0162606,
      0.0072275
    ],
    "last_outputs": [
      0.0797759,
      -0.1571336,
      -0.2021793,
      0.1865388,
      0.1225918,
      -0.0382543,
      0.0592455,
      -0.0358404,
      0.1865485,
      -0.1516345,
      -0.4798515,
      0.0185979,
      0.0077024,
      -0.0158517,
      0.1480991
    ],
    "last_prediction_errors": {
      "damage": -0.3989599,
      "energy": -0.2905678,
      "hazard": 0.507938,
      "reproduction": -0.1830246,
      "social": 0.3325548,
      "tool": 0.1681948
    },
    "output_size": 15,
    "prediction_weights": [
      0.462124,
      0.4757609,
      -0.5860323,
      0.7533171,
      -0.6287712,
      -0.9428554,
      0.0134079,
      0.0360753,
      0.709913,
      0.108737,
      -0.6470063,
      1.2883666
    ],
    "weights_in": [
      -0.1906732,
      0.1953278,
      -0.2377654,
      0.6416584,
      0.1035034,
      0.2804938,
      0.1373069,
      0.2494139,
      0.4864609,
      -0.9869829,
      -0.3575699,
      0.5836984,
      0.1798802,
      0.088088,
      0.246633,
      0.2561973,
      -0.2038846,
      -0.0295546,
      -0.0016766,
      -0.6563855,
      0.0998297,
      0.347449,
      0.0064234,
      0.2957383,
      0.2280303,
      -0.2295795,
      -0.0662248,
      -0.1366846,
      0.2333766,
      0.2909213,
      0.2910223,
      0.2954613,
      -0.4330294,
      0.1073823,
      0.3398824,
      0.5076699,
      -0.3213622,
      0.1496934,
      -0.1579466,
      0.5472992,
      0.2027976,
      0.1391326,
      -0.4565615,
      -0.3066646,
      -0.1120402,
      0.3083384,
      -0.0412747,
      0.1131056,
      -0.195895,
      0.4227848,
      -0.4027298,
      -0.1215454,
      0.0376495,
      0.3745895,
      -0.0640198,
      0.3937571,
      0.3957487,
      0.2820168,
      0.1424307,
      -0.3855545,
      0.7446112,
      1.2756318,
      -0.2199469,
      0.2731386,
      -0.1051648,
      -0.0048569,
      0.0815392,
      0.8698572,
      0.5162814,
      -0.1334826,
      -0.940515,
      0.3197078,
      0.5888888,
      0.3568484,
      -0.5037196,
      -0.0084167,
      0.3123762,
      0.026477,
      0.5464813,
      -0.0957584,
      0.1652629,
      0.0741509,
      -0.3493566,
      -0.0573229,
      0.0782562,
      0.0407772,
      0.4068602,
      -0.6290977,
      0.0822968,
      0.1079207,
      -0.2103971,
      0.3833233,
      1.3340024,
      -1.4941769,
      0.9030274,
      0.3886388,
      1.0057558,
      -0.6306274,
      0.183421,
      -0.1219174,
      -0.2032661,
      -0.1486596,
      -0.2829404,
      0.1632803,
      0.2869629,
      1.1985594,
      -0.0294919,
      -0.3654606,
      0.2497142,
      0.0809685,
      -1.2768167,
      0.8047576,
      0.5700534,
      -0.2534119,
      -0.1833423,
      -0.1126583,
      0.8492562,
      0.281784,
      0.2381658,
      -0.2411948,
      0.4691629,
      -0.11679,
      -0.0636697,
      -0.4458036,
      -0.3252587,
      0.3922472,
      0.4261641,
      0.3549778,
      -0.4417454,
      -0.4934516,
      0.1965188,
      0.3348411,
      -0.1619874,
      0.0354893,
      0.1446252,
      0.421325,
      -0.4982324,
      0.2106941,
      -0.4398461,
      0.3544426,
      -0.0831589,
      0.6226976,
      0.0739328,
      0.8698249,
      -0.6956404,
      -0.148274,
      -0.7001822,
      0.3265444,
      0.435981,
      0.0850359,
      -0.3874609,
      -0.3164865,
      0.2110968,
      -0.3278599,
      -0.5901583,
      -0.9835046,
      -0.2092205,
      0.1762316,
      -0.1654153,
      0.1608306,
      0.6399665,
      -1.1210206,
      0.4501788,
      0.0498272,
      0.5839613,
      0.1049742,
      0.6370997,
      0.5640977,
      0.4768302,
      -0.3700928,
      -0.6300683,
      -0.2117213,
      0.0453366,
      -0.0528911,
      -0.3543727,
      0.3570379,
      -0.4041405,
      -0.3986579,
      -0.4276297,
      0.4062473,
      -0.1094601,
      -0.5092536,
      -0.5143812,
      -0.0308989,
      -0.5744091,
      -0.53458,
      0.3448311,
      -0.5326646,
      0.3551398,
      -0.3116063,
      -0.5893883,
      -0.2749904,
      -0.7159227,
      0.2027876,
      -0.4041371,
      0.0490594,
      -0.373369,
      -0.0117044,
      -0.1238592,
      0.023456,
      0.1011216,
      -0.9812993,
      -0.0885263,
      -0.0717181,
      -0.1135527,
      -0.1779745,
      -0.3497973,
      -0.3683784,
      -0.1260154,
      -0.3547622,
      -0.1198502,
      0.4414645,
      0.167772,
      0.0356846,
      0.7244234,
      0.0220608,
      0.4124519,
      -0.070904,
      0.761606,
      -0.2183269,
      -0.1916243,
      0.3012461,
      0.4862433,
      0.6346993,
      0.3148744,
      0.39714,
      -0.426024,
      0.4903881,
      -0.1606818,
      0.0701676,
      0.2736773,
      0.6808767,
      0.6074412,
      -0.2247367,
      0.2658717,
      0.0343124,
      0.1435342,
      0.0601594,
      1.4663025,
      0.6909192,
      0.1413002,
      -0.4074557,
      0.0630864,
      0.0471951,
      0.2417716,
      0.2042755,
      0.2351871,
      0.4013534,
      -0.1309067,
      -0.4213536,
      0.3630238,
      -1.2357816,
      0.4158528,
      -0.1970164,
      -0.1847701,
      0.3025741,
      -0.0269356,
      -0.0707135,
      -0.3826785,
      -0.0994983,
      0.1496237,
      -0.5965254,
      0.6208429,
      0.0777189,
      -0.2143715,
      0.608576,
      0.2667333,
      0.1977096,
      -0.2000573,
      -0.6715162,
      -0.215906,
      0.2943936,
      0.6111338,
      -0.0629595,
      -1.5039796,
      0.3753314,
      0.0042264,
      0.2197297,
      0.0274594,
      -0.3495828,
      -0.768926,
      -0.0704935,
      -0.1156102,
      0.2694871,
      0.9274138,
      -0.1701281,
      -0.3059371,
      0.5427204,
      0.1990885,
      0.0430479,
      0.7294836,
      1.0580422,
      -0.2077305,
      -0.2240664,
      -0.8786403,
      0.3727617,
      1.1594577,
      0.3471332,
      -0.7466553,
      -0.3034848,
      0.8382044,
      -0.5623298,
      0.3978315,
      0.166274,
      -0.0907778,
      0.6360694,
      -0.3635622,
      0.3607572,
      -0.0286134,
      -0.0002003,
      0.2996698,
      -0.8345454,
      0.2413742,
      0.5277679,
      0.278953,
      -0.0777634,
      1.0476755,
      -0.2178393,
      -0.103695,
      0.823218,
      -0.8994566,
      -0.2159756,
      0.2896934,
      0.4203142,
      -0.8397665,
      0.3710979,
      0.1931198,
      -0.7130283,
      0.6109669,
      0.2242151,
      0.2382017,
      0.527281,
      0.0579927,
      0.2511946,
      -0.3084902,
      0.1067855,
      -1.1032703,
      -1.1172995,
      -0.1186446,
      -0.0662984,
      0.857797,
      0.1514686,
      0.2081108,
      -0.1604796,
      0.3096712,
      0.5261275,
      -0.3576645,
      0.7711942,
      -0.1779249,
      0.6219987,
      -0.0001629,
      -0.2903546,
      -0.3746705,
      0.6518921,
      0.4020964,
      -0.2234102,
      0.209435,
      -0.4594979,
      -0.1410205,
      -0.5280895,
      0.3106884,
      -0.1349299,
      -0.2368484,
      -0.9115564,
      -0.3379354,
      -0.0702523,
      -0.4429323,
      0.1113459,
      0.2893508,
      -0.1173333,
      0.3674164,
      -0.1226197,
      0.253777,
      0.5042801,
      -0.1488131,
      -0.0949925,
      0.3757676,
      -0.4867743,
      -0.2050867,
      -0.0622533,
      0.2229804,
      0.2063269,
      0.7892207,
      0.4958424,
      -0.2925436,
      0.0665671,
      -0.2829271,
      -0.0300141,
      0.7849104,
      0.1405828,
      0.1565061,
      -0.1084527,
      0.0046015,
      0.1126546,
      -0.432401,
      -0.3538147,
      -0.399724,
      0.0303692,
      -0.3134243,
      0.8261636,
      -0.2731931,
      -0.8851378,
      0.3626528,
      -0.0977479,
      -0.0520695,
      0.422775,
      0.8543103,
      0.0726485,
      0.7571137,
      -0.2679753,
      0.6352736,
      0.160658,
      -1.010523,
      0.5247829,
      0.4921251,
      0.6902579,
      -0.6030364,
      0.4414836,
      0.2731102,
      0.5383563,
      -0.0620088,
      0.4514142,
      0.0130454,
      -0.3750425,
      0.615045,
      0.8240724,
      0.5193955,
      0.1291797,
      0.2332518,
      0.7713109,
      0.4673062,
      -0.5339771,
      0.0553032,
      0.1803925,
      0.5810528,
      -0.2691863,
      0.3191007,
      -0.0547508,
      0.3701879,
      -0.3587237,
      0.0845625,
      -0.0918985,
      0.350233,
      0.1329864,
      0.5740115,
      -0.1937252,
      0.3964526,
      0.8665806,
      0.6500609,
      -0.2710899,
      0.6861579,
      0.3158952,
      0.2241065,
      -0.1307839,
      -0.0616539,
      0.5771659,
      0.1213718,
      0.3624747,
      0.1916484,
      -0.0714526,
      -0.3219197,
      -0.6662704,
      0.3187138,
      -0.1039818,
      0.1662192,
      -0.061777,
      -0.2804681,
      -0.1852835,
      -0.2324701,
      0.5928127,
      -0.1237254,
      0.3303402,
      0.0513749,
      0.3560685,
      -0.0683118,
      -0.167235,
      -0.5296209,
      0.0847963,
      -0.2143793,
      -0.335425,
      0.3610277,
      0.7523513,
      0.4715313,
      -0.2837492,
      0.0899835,
      0.5333367,
      -0.1905851,
      0.104549,
      0.1993787,
      0.8778253,
      0.5232508,
      0.2445783,
      0.334058,
      -0.1511273,
      0.1688008,
      0.1628176,
      -0.1342307,
      0.9380237,
      0.3985015,
      -0.428482,
      -0.6246862,
      0.2831423,
      -0.8356472,
      0.157217,
      -0.3066731,
      0.2714468,
      -0.0453602,
      0.5495196,
      -0.1794937,
      -0.0937422,
      -0.1908659,
      0.6519206,
      0.3398559,
      0.2444034,
      0.4503491,
      0.229138,
      0.4174667,
      -0.7390916,
      0.2320473,
      0.096891,
      0.3326733,
      -0.5091928,
      -0.0541322,
      0.887506,
      -0.2327893,
      0.5558369,
      -0.1080671,
      -0.1136037,
      -0.3863741,
      0.2469973,
      0.2382751,
      0.0296676,
      -0.0722092,
      0.1376614,
      0.3580693,
      -0.8923381,
      0.2481003,
      0.0211734,
      0.1530948,
      0.6815947,
      0.047555,
      -0.0518554,
      -0.4464588,
      -0.1129717,
      0.2030286,
      0.3298233,
      0.6718436,
      0.1658173,
      -0.3030745,
      0.6304567,
      -0.4936147,
      -0.2552025,
      -0.6738585,
      -0.1587061,
      -0.2511498,
      -0.1851118,
      0.1200086,
      -0.5761619,
      -0.8489857,
      -0.0906947,
      0.8150947,
      1.4878774,
      -0.400531,
      0.0944217,
      0.2102535,
      0.7357504,
      -0.0653817,
      0.1115016,
      0.0550202,
      0.6349229,
      -0.0231546,
      0.0536029,
      0.1326259,
      -0.1031531,
      -0.0926251,
      -0.3445422,
      -0.7902693,
      -0.4653011,
      -1.1892136,
      0.3497597,
      -0.7744046,
      -0.7173736,
      -0.2045938,
      0.3893614,
      0.0573038,
      -0.8464801,
      0.4615083,
      0.6860886,
      0.8298203,
      -0.1812113,
      0.4819476,
      0.1113304,
      -0.2782207,
      -0.6462789,
      0.4397375,
      -0.7234629,
      0.7317516,
      0.7054003,
      0.0250822,
      -0.6471866,
      -0.3351689,
      -0.8795721,
      0.0886156,
      -0.3795731,
      -0.1695628,
      0.0522764,
      0.144,
      0.2324455,
      0.1167626,
      -0.0127771,
      0.2965601,
      -0.0057453,
      0.0838792,
      0.5405031,
      0.4023715,
      -0.0351732,
      -0.47297,
      0.0718333,
      -0.7649082,
      -0.4432146,
      0.5410275,
      0.0837322,
      1.226093,
      0.8406453,
      0.5901944,
      0.8875644,
      0.0165719,
      0.843793,
      -0.0496776,
      -0.5030104,
      0.5431337,
      -0.2487139,
      0.1301435,
      -0.375829,
      -0.6080876,
      0.9886971,
      -0.0740892,
      -0.6330603,
      -0.590198,
      0.6604115,
      -0.6260632,
      0.1513816,
      0.0327959,
      0.0872228,
      -0.2608944,
      0.7884376,
      0.575234,
      -0.042187,
      -0.2941524,
      0.06301,
      -0.0075145,
      -0.290487,
      -0.1236999,
      0.3888868,
      -0.6225058,
      0.4985824,
      0.0685405,
      0.4313064,
      0.6732766,
      0.019808,
      -0.2331299,
      0.5490962,
      -0.1064924,
      -0.2644984,
      -0.0243224,
      0.103668,
      0.4230635,
      0.1572412,
      0.1899651,
      0.7195319,
      0.4732667,
      0.3205404,
      -0.3690384,
      0.3724074,
      0.2102764,
      -0.5264615,
      -0.3871971,
      -0.4808955,
      -0.096797,
      -0.6898497,
      -0.3299529,
      -0.2947686,
      0.3180653,
      -0.326636,
      0.4526805,
      0.3545709,
      -0.3844624,
      -0.4744072,
      -0.4868077,
      -0.4317006,
      0.292671,
      0.1416815,
      -0.3342622,
      0.4674186,
      0.2281436,
      0.0971019,
      -0.3101111,
      0.1233831,
      0.98916,
      -0.8844865,
      -0.4274663,
      -0.1793787,
      -0.4854497,
      0.0642209,
      -0.0890142,
      -0.0681939,
      0.1341567,
      -0.4789928,
      -0.3209752,
      -0.3353933,
      0.428118,
      -0.4523143,
      -0.5306704,
      -0.052104,
      -0.1432319,
      0.1921981,
      0.054543,
      -0.0269532,
      1.1490928,
      0.7042865,
      -0.5721165,
      1.4251953,
      -0.2277249,
      -0.1720131,
      -0.1322888,
      0.4545884,
      -0.123736,
      0.3026132,
      -0.3198057,
      -0.1683908,
      0.37262,
      -0.1622232,
      -0.1518334,
      0.129494,
      0.7042293,
      0.7096505,
      0.4678149,
      0.199794,
      0.1584611,
      -0.6141464,
      0.5992653,
      -0.1360648,
      -0.4112005,
      0.3558977,
      0.3766195,
      -0.222269,
      0.9446557,
      0.0162379,
      0.2605146,
      0.0509361,
      1.2346347,
      -0.1275805,
      0.2533684,
      0.5496397,
      -0.1163617,
      -0.6859362,
      -0.326433,
      -0.1916703,
      0.1423497,
      0.4076122,
      0.478894,
      -0.0786593,
      -0.1994475,
      -0.0026578,
      0.4657347,
      0.1641863,
      -0.0369306,
      1.341641,
      -0.3008649,
      0.4154942,
      -0.5029736,
      0.4929287,
      0.3575274,
      -0.446637,
      0.1407359,
      -0.3753852,
      -0.1384019,
      -0.1523041,
      0.0038248,
      -0.5889753,
      -0.1405629,
      0.0580589,
      0.3090474,
      -0.2052867,
      -0.4533864,
      0.1972357,
      -0.6715021,
      0.2090178,
      -0.1688726,
      -0.1529202,
      0.1856945,
      0.0274343,
      -0.2365249,
      -0.2598146,
      -0.959384,
      0.3362912,
      -0.105364,
      -0.4408958,
      0.0357208,
      -0.1862092,
      -0.2138518,
      0.4593837,
      0.2683359,
      -0.0087384,
      -0.3997455,
      -0.1434567,
      -0.1877253,
      -0.0811074,
      0.2194045,
      -0.0693349,
      -0.2383822,
      -0.5779105,
      0.3907383,
      -0.1667923,
      -0.355001,
      0.3277036,
      -0.757312,
      -0.6722738,
      -0.1166612,
      -0.8153938,
      0.1770289,
      -0.0640739,
      0.2301816,
      -0.025714,
      -0.1958072,
      1.0320183,
      -0.762314,
      -0.0850924,
      -0.0931797,
      0.1977904,
      -0.6982532,
      -0.0959604,
      -0.0854347,
      -0.0306944,
      0.2033713,
      0.1182536,
      0.0227406,
      -0.0626637,
      0.012519,
      -0.166519,
      -0.0114387,
      -0.3204633,
      0.0251134,
      -0.4419527,
      0.2252156,
      0.1137819,
      0.120989,
      -0.150978,
      0.6453295,
      0.2983201,
      0.325761,
      0.4631275,
      0.4954901,
      0.1306421,
      -0.0628772,
      -0.3897028,
      0.3568251,
      -0.1164593,
      -0.4725042,
      -0.4417374,
      0.1554716,
      -0.4146625,
      0.0059265,
      -0.1514247
    ],
    "weights_out": [
      -0.3139094,
      0.2749211,
      0.014245,
      0.5170726,
      -0.5739649,
      0.4587018,
      0.150594,
      0.5964399,
      0.1462656,
      0.9924544,
      0.2738495,
      0.8739358,
      0.5488187,
      -0.1660574,
      0.2719245,
      -0.2910659,
      0.151568,
      -0.1341396,
      -0.7917612,
      -0.4516186,
      0.2351213,
      0.4551681,
      0.0435206,
      -0.1403934,
      -0.3564574,
      -0.0657772,
      0.1089744,
      -0.2009615,
      0.1677464,
      -0.6208546,
      -0.3182795,
      -0.4128813,
      1.3354091,
      0.2633942,
      0.6035976,
      0.0904467,
      0.5731018,
      0.1891726,
      -0.5737931,
      0.2096131,
      -0.0888851,
      0.9162128,
      -0.4415193,
      0.2558927,
      -0.05144,
      0.240749,
      0.6804422,
      0.7324405,
      -0.3675202,
      0.6429591,
      -0.4567176,
      -0.2248483,
      -0.1626754,
      -0.0388831,
      0.3281257,
      0.7728103,
      0.2941811,
      -0.2933315,
      -0.1024623,
      -0.2272225,
      0.4389567,
      0.9519062,
      -0.2997176,
      -0.2517313,
      -0.0101184,
      -0.6224995,
      -0.9458732,
      0.7979484,
      -0.1888338,
      -0.0784285,
      0.1143513,
      0.6742906,
      0.274271,
      0.185532,
      -0.0721946,
      -0.4808916,
      -0.1259191,
      -0.0400244,
      0.1448784,
      -0.1030633,
      -0.6389217,
      0.3615072,
      -0.3909064,
      0.6094643,
      -0.9699969,
      0.3783334,
      -0.5477858,
      -0.0179373,
      0.3441489,
      -0.033871,
      0.2313295,
      -0.3062837,
      0.5483029,
      0.1666051,
      -0.2378457,
      -0.1708336,
      0.6386374,
      0.1171214,
      0.1019447,
      -0.1079909,
      0.5310773,
      0.3518253,
      0.6325505,
      -0.0626133,
      -0.0117684,
      0.2169692,
      -0.9893264,
      -0.6309302,
      -0.3735739,
      0.9060341,
      0.3805846,
      -1.1169342,
      -0.2882918,
      0.2744407,
      -0.1247996,
      0.2085407,
      0.3792235,
      0.2139287,
      0.0843268,
      -0.258842,
      -0.5174758,
      0.5280949,
      0.9371614,
      -1.0214144,
      -0.2833358,
      0.4408584,
      -0.2491607,
      -0.4282881,
      0.5606094,
      0.0790325,
      -0.1508198,
      0.3320417,
      0.1216645,
      0.4319647,
      0.0687588,
      -0.6247172,
      0.0303872,
      0.3978862,
      0.0038796,
      -0.0165312,
      0.1276817,
      0.2344742,
      0.1383583,
      -0.1027025,
      0.3248498,
      -0.1771407,
      0.4085763,
      0.2398177,
      0.1583061,
      -0.2963387,
      -0.4784109,
      0.2464284,
      -0.8655504,
      0.1577517,
      -0.2439655,
      0.3792583,
      0.1009201,
      -0.0442895,
      -0.2249711,
      -0.7018487,
      0.1205819,
      0.2459554,
      -0.4361333,
      0.2391129,
      0.1124408,
      0.0943965,
      -0.1519908,
      -0.1507017,
      0.2163128,
      -0.168651,
      0.5703681,
      0.6272042,
      -0.5963068,
      0.0711378,
      0.0359665,
      0.309396,
      -0.4404128,
      0.3593817,
      0.6837016,
      0.3956609
    ]
  },
  "brain_template": {
    "auxiliary_prediction_weights": {
      "damage": [
        0.4407556,
        0.2207124,
        -0.0399208,
        0.1265868,
        -0.342003,
        -0.2642115,
        1.0072573,
        0.5819772,
        0.1901419,
        0.8388669,
        -0.0855634,
        -0.4171021
      ],
      "hazard": [
        -0.1079732,
        0.1693884,
        1.3368811,
        -1.0848792,
        -0.1304531,
        0.1218201,
        -0.7032625,
        -0.0953718,
        0.1306801,
        -0.2250979,
        0.1289725,
        0.1959453
      ],
      "reproduction": [
        -0.3388032,
        0.2577719,
        -0.2525543,
        1.1954782,
        0.2829158,
        -0.0449211,
        0.0194332,
        -0.1010934,
        0.1721716,
        0.1333058,
        -0.5080976,
        -0.6337437
      ],
      "social": [
        -0.4248854,
        0.1776318,
        0.0400284,
        0.5761998,
        0.9033055,
        0.1213052,
        -1.0247591,
        -0.4124618,
        1.2719113,
        0.4633407,
        0.067034,
        0.5059325
      ],
      "tool": [
        -0.4198687,
        -0.6723139,
        0.7235834,
        0.2895821,
        0.085076,
        0.2253961,
        0.3852713,
        -0.5027836,
        0.0825352,
        0.5859899,
        -0.3664599,
        -0.2894669
      ]
    },
    "bias_h": [
      0.1226117,
      -0.0426089,
      0.0451214,
      -0.0304861,
      -0.0372477,
      -0.0638032,
      -0.0408169,
      -0.0284375,
      0.0862233,
      0.1074288,
      -0.1421718,
      -0.0629947
    ],
    "bias_o": [
      0.0037711,
      -0.0198904,
      -0.0420785,
      0.0419524,
      -0.0174086,
      -0.0626784,
      0.0615406,
      -0.0021805,
      0.0734654,
      -0.0115067,
      -0.0354254,
      0.0291099,
      -0.0400243,
      0.0436876,
      0.0138473
    ],
    "hidden_size": 12,
    "input_size": 72,
    "output_size": 15,
    "prediction_weights": [
      0.4845886,
      0.4960524,
      -0.6046303,
      0.7679284,
      -0.6389735,
      -0.9524027,
      0.0328255,
      0.0320436,
      0.7071806,
      0.1115019,
      -0.6324247,
      1.2747774
    ],
    "weights_in": [
      -0.1907858,
      0.1952566,
      -0.237789,
      0.641569,
      0.1035035,
      0.2804928,
      0.1372424,
      0.2494281,
      0.4864576,
      -0.9869829,
      -0.3576082,
      0.5835985,
      0.1798808,
      0.0880381,
      0.2466053,
      0.2561726,
      -0.2039061,
      -0.0296006,
      -0.0016831,
      -0.6563881,
      0.0998096,
      0.3474319,
      0.0064185,
      0.2956381,
      0.2279098,
      -0.2295746,
      -0.0662798,
      -0.1366943,
      0.2333693,
      0.2909261,
      0.2910276,
      0.2954692,
      -0.433072,
      0.1073842,
      0.3398703,
      0.5076609,
      -0.3213722,
      0.1496881,
      -0.1579643,
      0.5472916,
      0.2027749,
      0.1391246,
      -0.4566243,
      -0.3066729,
      -0.1120401,
      0.3083383,
      -0.0412642,
      0.1131056,
      -0.1959198,
      0.4226617,
      -0.4027193,
      -0.121517,
      0.0376675,
      0.3745362,
      -0.0641528,
      0.393721,
      0.3957454,
      0.2820168,
      0.1424307,
      -0.3855545,
      0.7446112,
      1.2756229,
      -0.2199899,
      0.2731224,
      -0.1051648,
      -0.0048569,
      0.0815392,
      0.8698572,
      0.5162814,
      -0.1334826,
      -0.9405182,
      0.3197078,
      0.5887713,
      0.3567556,
      -0.5037439,
      -0.0085192,
      0.3123762,
      0.026476,
      0.5464064,
      -0.0957502,
      0.1652593,
      0.0741509,
      -0.3494015,
      -0.0574394,
      0.0782551,
      0.0407238,
      0.4068241,
      -0.6291298,
      0.0822688,
      0.1078607,
      -0.2104056,
      0.38332,
      1.3339762,
      -1.4941992,
      0.9030226,
      0.3885281,
      1.0056301,
      -0.6306226,
      0.1833547,
      -0.1219303,
      -0.2032758,
      -0.1486551,
      -0.2829355,
      0.1632877,
      0.2869085,
      1.1985584,
      -0.0295096,
      -0.3654721,
      0.249701,
      0.0809538,
      -1.2768401,
      0.8047475,
      0.5700278,
      -0.2534262,
      -0.1834104,
      -0.1126667,
      0.8492563,
      0.2817839,
      0.2381808,
      -0.2411948,
      0.4691381,
      -0.1169134,
      -0.0636547,
      -0.4457669,
      -0.3252392,
      0.3921904,
      0.426026,
      0.3549342,
      -0.4417487,
      -0.4934516,
      0.1965188,
      0.3348411,
      -0.1619874,
      0.0354805,
      0.1445822,
      0.4213072,
      -0.4982324,
      0.2106941,
      -0.4398461,
      0.3544426,
      -0.0831589,
      0.6226976,
      0.0739297,
      0.8698249,
      -0.6955549,
      -0.1482217,
      -0.7001647,
      0.3266134,
      0.4359809,
      0.0850367,
      -0.3874156,
      -0.3164982,
      0.2110994,
      -0.3278599,
      -0.590128,
      -0.9834284,
      -0.2092213,
      0.1762706,
      -0.165395,
      0.1608487,
      0.6399823,
      -1.1209868,
      0.4501836,
      0.0498291,
      0.5839761,
      0.1049868,
      0.6371035,
      0.5641745,
      0.4769237,
      -0.3700967,
      -0.6300282,
      -0.2117136,
      0.0453419,
      -0.0528958,
      -0.3543779,
      0.3570302,
      -0.4041085,
      -0.3986606,
      -0.4276203,
      0.406254,
      -0.1094525,
      -0.5092531,
      -0.5143674,
      -0.0308929,
      -0.5743907,
      -0.5345743,
      0.3448793,
      -0.5326582,
      0.3551397,
      -0.3116062,
      -0.5893957,
      -0.2749904,
      -0.7159034,
      0.2028834,
      -0.4041445,
      0.0490381,
      -0.3733827,
      -0.0116635,
      -0.1237563,
      0.0234829,
      0.1011242,
      -0.9812993,
      -0.0885263,
      -0.0717181,
      -0.1135527,
      -0.1779676,
      -0.3497638,
      -0.368366,
      -0.1260154,
      -0.3547622,
      -0.1198502,
      0.4414645,
      0.167772,
      0.0356846,
      0.7244259,
      0.0220608,
      0.4123747,
      -0.0709698,
      0.761591,
      -0.2183978,
      -0.1916243,
      0.3012454,
      0.4861959,
      0.6347042,
      0.3148718,
      0.39714,
      -0.4260557,
      0.4903104,
      -0.1606832,
      0.0701319,
      0.2736517,
      0.6808539,
      0.6074214,
      -0.2247792,
      0.2658657,
      0.03431,
      0.1435156,
      0.0601436,
      1.4662993,
      0.6908476,
      0.1412163,
      -0.4074524,
      0.0630417,
      0.0471858,
      0.2417647,
      0.2042796,
      0.2351916,
      0.4013601,
      -0.1309454,
      -0.4213545,
      0.3630104,
      -1.2357896,
      0.4158431,
      -0.197027,
      -0.1847869,
      0.3025668,
      -0.0269537,
      -0.0707249,
      -0.3827252,
      -0.0995039,
      0.1496238,
      -0.5965255,
      0.6208532,
      0.0777189,
      -0.2143881,
      0.6084937,
      0.2667436,
      0.1977355,
      -0.2000445,
      -0.6715538,
      -0.215999,
      0.294364,
      0.6111316,
      -0.0629595,
      -1.5039796,
      0.3753314,
      0.0042264,
      0.2197238,
      0.0274307,
      -0.3495948,
      -0.768926,
      -0.0704935,
      -0.1156102,
      0.2694871,
      0.9274138,
      -0.1701281,
      -0.3059392,
      0.5427204,
      0.1991615,
      0.0431199,
      0.7294989,
      1.0581115,
      -0.2077305,
      -0.2240658,
      -0.8785871,
      0.3727616,
      1.1594601,
      0.3471332,
      -0.7466243,
      -0.3034059,
      0.8382066,
      -0.5622969,
      0.3978595,
      0.1662989,
      -0.0907561,
      0.6361159,
      -0.3635556,
      0.3607598,
      -0.0285931,
      -0.000183,
      0.2996726,
      -0.834475,
      0.2414488,
      0.5277652,
      0.2790012,
      -0.0777535,
      1.0476832,
      -0.2178418,
      -0.1036977,
      0.8232139,
      -0.8994154,
      -0.2159722,
      0.2897081,
      0.4203228,
      -0.8397561,
      0.3711153,
      0.1931378,
      -0.7130206,
      0.6109838,
      0.2242288,
      0.2382461,
      0.527286,
      0.0579926,
      0.2511947,
      -0.3085025,
      0.1067855,
      -1.1032557,
      -1.1172268,
      -0.1186569,
      -0.0663263,
      0.8577845,
      0.1515044,
      0.2081958,
      -0.1604482,
      0.3096731,
      0.5261275,
      -0.3576645,
      0.7711942,
      -0.1779249,
      0.6220038,
      -0.0001378,
      -0.290343,
      -0.3746705,
      0.6518921,
      0.4020964,
      -0.2234102,
      0.209435,
      -0.4594979,
      -0.1410187,
      -0.5280895,
      0.3107204,
      -0.1349269,
      -0.2368419,
      -0.9115382,
      -0.3379355,
      -0.070252,
      -0.4429224,
      0.1113355,
      0.2893516,
      -0.1173333,
      0.3674235,
      -0.1226012,
      0.2537751,
      0.5042936,
      -0.1488119,
      -0.0949914,
      0.3757685,
      -0.4867723,
      -0.2050864,
      -0.0622532,
      0.2229813,
      0.2063276,
      0.7892224,
      0.4958665,
      -0.2925068,
      0.0665653,
      -0.2829201,
      -0.0300137,
      0.7849105,
      0.1405807,
      0.1565038,
      -0.1084562,
      0.0046048,
      0.1126509,
      -0.432402,
      -0.353814,
      -0.3997237,
      0.030361,
      -0.3134235,
      0.8261639,
      -0.2731878,
      -0.885141,
      0.3626685,
      -0.0977453,
      -0.0520696,
      0.4227751,
      0.8543111,
      0.0726485,
      0.7571218,
      -0.267935,
      0.6352744,
      0.1606562,
      -1.0105275,
      0.5247972,
      0.4921643,
      0.6902627,
      -0.6030352,
      0.4414836,
      0.2731102,
      0.5383563,
      -0.0620088,
      0.4514172,
      0.0130597,
      -0.3750386,
      0.615045,
      0.8240724,
      0.5193955,
      0.1291797,
      0.2332518,
      0.7713109,
      0.4673073,
      -0.5339771,
      0.0551992,
      0.1803153,
      0.5810313,
      -0.2692753,
      0.3191007,
      -0.0547517,
      0.3701248,
      -0.3587146,
      0.0845593,
      -0.0918985,
      0.3501939,
      0.132886,
      0.5740111,
      -0.1937726,
      0.3964226,
      0.8665539,
      0.6500376,
      -0.2711398,
      0.6861508,
      0.3158924,
      0.2240847,
      -0.1308024,
      -0.0616583,
      0.5770691,
      0.1212601,
      0.3624791,
      0.1915924,
      -0.0714635,
      -0.3219278,
      -0.6662659,
      0.3187188,
      -0.1039743,
      0.1661735,
      -0.0617767,
      -0.2804827,
      -0.1852931,
      -0.2324812,
      0.5928033,
      -0.1237452,
      0.3303317,
      0.0513522,
      0.3560573,
      -0.0683716,
      -0.1672425,
      -0.5296208,
      0.0847962,
      -0.2143672,
      -0.335425,
      0.3610053,
      0.75224,
      0.4715434,
      -0.2837184,
      0.0900006,
      0.5332866,
      -0.1907082,
      0.104512,
      0.1993757,
      0.8778253,
      0.5232508,
      0.2445783,
      0.334058,
      -0.1511352,
      0.168762,
      0.162802,
      -0.1342307,
      0.9380237,
      0.3985015,
      -0.428482,
      -0.6246862,
      0.2831423,
      -0.83565,
      0.157217,
      -0.3066215,
      0.2715161,
      -0.0453497,
      0.5495785,
      -0.1794937,
      -0.0937419,
      -0.1908204,
      0.6519271,
      0.3398578,
      0.2444034,
      0.4503762,
      0.2292081,
      0.4174697,
      -0.7390659,
      0.2320742,
      0.096915,
      0.3326942,
      -0.509148,
      -0.0541258,
      0.8875085,
      -0.2327697,
      0.5558535,
      -0.1080655,
      -0.1135455,
      -0.3863193,
      0.2469957,
      0.2383182,
      0.0296775,
      -0.0722016,
      0.1376604,
      0.3580681,
      -0.8923398,
      0.2481392,
      0.0211785,
      0.1531101,
      0.6816029,
      0.047565,
      -0.0518345,
      -0.446441,
      -0.112964,
      0.2030426,
      0.3298383,
      0.6718772,
      0.1658205,
      -0.3030745,
      0.6304567,
      -0.4936277,
      -0.2552025,
      -0.6738492,
      -0.1586596,
      -0.2511628,
      -0.1851387,
      0.1199988,
      -0.576135,
      -0.8489261,
      -0.0906663,
      0.8150958,
      1.4878774,
      -0.400531,
      0.0944217,
      0.2102535,
      0.7357535,
      -0.0653657,
      0.1115108,
      0.0550202,
      0.6349229,
      -0.0231546,
      0.0536029,
      0.1326259,
      -0.1031531,
      -0.092624,
      -0.3445422,
      -0.7902586,
      -0.4652834,
      -1.1892129,
      0.3497763,
      -0.7744046,
      -0.7173734,
      -0.2045889,
      0.3893625,
      0.0573045,
      -0.8464801,
      0.4615167,
      0.6861044,
      0.8298214,
      -0.1812049,
      0.4819545,
      0.1113365,
      -0.2782154,
      -0.6462675,
      0.4397391,
      -0.7234623,
      0.7317566,
      0.7054045,
      0.0250827,
      -0.6471754,
      -0.3351542,
      -0.8795727,
      0.0886243,
      -0.3795701,
      -0.1695608,
      0.0522745,
      0.1439979,
      0.2324424,
      0.1167733,
      -0.0127766,
      0.296565,
      -0.0057431,
      0.0838823,
      0.540506,
      0.4023768,
      -0.0351708,
      -0.4729651,
      0.0718383,
      -0.764899,
      -0.4432139,
      0.5410275,
      0.0837322,
      1.2260902,
      0.8406453,
      0.5901968,
      0.8875764,
      0.0165691,
      0.843786,
      -0.0496796,
      -0.5030043,
      0.5431491,
      -0.2487075,
      0.1301438,
      -0.375829,
      -0.6080876,
      0.9886971,
      -0.0740892,
      -0.6330594,
      -0.5901936,
      0.6604137,
      -0.6260632,
      0.1513816,
      0.0327959,
      0.0872228,
      -0.2608944,
      0.7884376,
      0.5752342,
      -0.042187,
      -0.2941626,
      0.063017,
      -0.0075179,
      -0.2904861,
      -0.1236999,
      0.3888867,
      -0.6225094,
      0.4985873,
      0.0685405,
      0.4313064,
      0.673278,
      0.0198086,
      -0.2331288,
      0.5490937,
      -0.1064897,
      -0.264496,
      -0.0243203,
      0.1036725,
      0.4230641,
      0.1572415,
      0.1899671,
      0.7195336,
      0.4732661,
      0.320536,
      -0.3690455,
      0.3724079,
      0.2102769,
      -0.52646,
      -0.3871962,
      -0.4808957,
      -0.0967972,
      -0.68985,
      -0.3299491,
      -0.2947671,
      0.3180683,
      -0.3266353,
      0.4526819,
      0.3545749,
      -0.38446,
      -0.4744061,
      -0.4868073,
      -0.431697,
      0.2926679,
      0.1416806,
      -0.3342622,
      0.4674186,
      0.2281417,
      0.0971019,
      -0.3101136,
      0.1233705,
      0.9891581,
      -0.8844893,
      -0.4274652,
      -0.1793822,
      -0.48546,
      0.0642217,
      -0.0890146,
      -0.0681939,
      0.1341567,
      -0.4789928,
      -0.3209752,
      -0.3353942,
      0.4281137,
      -0.4523149,
      -0.5306704,
      -0.052104,
      -0.1432319,
      0.1921981,
      0.054543,
      -0.0269532,
      1.1490924,
      0.7042865,
      -0.572191,
      1.4251482,
      -0.2277407,
      -0.1720717,
      -0.1322888,
      0.4545878,
      -0.1237796,
      0.3026224,
      -0.3198078,
      -0.1683908,
      0.3725951,
      -0.1622892,
      -0.151833,
      0.1294612,
      0.704211,
      0.7096342,
      0.4678007,
      0.1997636,
      0.1584568,
      -0.6141481,
      0.599252,
      -0.1360761,
      -0.4112037,
      0.3558314,
      0.3765402,
      -0.2222658,
      0.944619,
      0.0162316,
      0.2605098,
      0.0509389,
      1.2346378,
      -0.1275758,
      0.2533404,
      0.5496407,
      -0.1163696,
      -0.6859421,
      -0.3264395,
      -0.1916745,
      0.1423382,
      0.4076073,
      0.4788793,
      -0.0786645,
      -0.1994887,
      -0.0026632,
      0.4657348,
      0.1641862,
      -0.0369236,
      1.341641,
      -0.3008812,
      0.4154135,
      -0.5029666,
      0.4929474,
      0.3575393,
      -0.4466721,
      0.1406486,
      -0.3754091,
      -0.1384041,
      -0.1523041,
      0.0038248,
      -0.5889753,
      -0.1405629,
      0.0580531,
      0.3090192,
      -0.2052974,
      -0.4533864,
      0.1972357,
      -0.6715021,
      0.2090178,
      -0.1688726,
      -0.1529202,
      0.1856924,
      0.0274343,
      -0.2364405,
      -0.259752,
      -0.9593652,
      0.3363604,
      -0.105364,
      -0.4408951,
      0.035777,
      -0.1862158,
      -0.2138494,
      0.4593837,
      0.2683656,
      -0.0086583,
      -0.3997451,
      -0.1434196,
      -0.187701,
      -0.0810857,
      0.2194234,
      -0.0692944,
      -0.2383765,
      -0.5779082,
      0.390756,
      -0.1667773,
      -0.3549976,
      0.3277816,
      -0.7572254,
      -0.6722772,
      -0.1166143,
      -0.8153855,
      0.1770354,
      -0.0640763,
      0.230179,
      -0.0257179,
      -0.195771,
      1.0320192,
      -0.7623031,
      -0.0850847,
      -0.0931711,
      0.1978014,
      -0.698238,
      -0.095954,
      -0.0854179,
      -0.030686,
      0.2034188,
      0.1182595,
      0.0227405,
      -0.0626636,
      0.0125087,
      -0.166519,
      -0.0114211,
      -0.3203755,
      0.0251031,
      -0.4419772,
      0.2252017,
      0.1138222,
      0.1210863,
      -0.1509478,
      0.6453318,
      0.2983201,
      0.325761,
      0.4631275,
      0.4954901,
      0.1306483,
      -0.0628468,
      -0.3896904,
      0.3568251,
      -0.1164593,
      -0.4725042,
      -0.4417374,
      0.1554716,
      -0.4146625,
      0.0059288,
      -0.1514247
    ],
    "weights_out": [
      -0.3139093,
      0.2749212,
      0.0142449,
      0.5170727,
      -0.5739649,
      0.4587018,
      0.1505941,
      0.5964399,
      0.1462656,
      0.9924544,
      0.2738496,
      0.8739357,
      0.5488226,
      -0.1660544,
      0.2719212,
      -0.2910641,
      0.151567,
      -0.1341416,
      -0.791758,
      -0.4516187,
      0.2351212,
      0.455169,
      0.0435231,
      -0.1403956,
      -0.3564574,
      -0.0657772,
      0.1089744,
      -0.2009615,
      0.1677464,
      -0.6208546,
      -0.3182795,
      -0.4128813,
      1.3354091,
      0.2633942,
      0.6035976,
      0.0904467,
      0.5736908,
      0.1897348,
      -0.5743211,
      0.2100815,
      -0.0891858,
      0.9159794,
      -0.4409763,
      0.2557282,
      -0.0516115,
      0.240753,
      0.6808122,
      0.7321104,
      -0.3675092,
      0.6429646,
      -0.4567278,
      -0.2248479,
      -0.162672,
      -0.0388925,
      0.3281325,
      0.772816,
      0.2941847,
      -0.2933272,
      -0.1024552,
      -0.2272285,
      0.4389582,
      0.9519074,
      -0.2997188,
      -0.2517305,
      -0.0101188,
      -0.6225003,
      -0.945872,
      0.7979484,
      -0.1888339,
      -0.0784282,
      0.1143523,
      0.6742898,
      0.2742745,
      0.1855353,
      -0.0721974,
      -0.4808892,
      -0.1259207,
      -0.0400257,
      0.1448814,
      -0.1030644,
      -0.6389222,
      0.3615074,
      -0.3909041,
      0.6094623,
      -0.9699933,
      0.378337,
      -0.5477888,
      -0.0179345,
      0.344147,
      -0.0338721,
      0.2313328,
      -0.3062852,
      0.5483021,
      0.1666055,
      -0.2378433,
      -0.1708359,
      0.6271236,
      0.1061807,
      0.1113725,
      -0.1158913,
      0.536987,
      0.3562542,
      0.6223142,
      -0.0595318,
      -0.0100449,
      0.2158823,
      -0.9968022,
      -0.6236427,
      -0.3735697,
      0.906038,
      0.3805812,
      -1.1169313,
      -0.288294,
      0.2744391,
      -0.1247959,
      0.2085398,
      0.379223,
      0.2139294,
      0.0843295,
      -0.2588445,
      -0.5174785,
      0.5280922,
      0.9371638,
      -1.0214166,
      -0.2833344,
      0.4408595,
      -0.2491632,
      -0.4282872,
      0.5606102,
      0.0790327,
      -0.1508216,
      0.3320432,
      0.1216622,
      0.4319628,
      0.0687607,
      -0.6247187,
      0.0303883,
      0.3978872,
      0.0038777,
      -0.0165311,
      0.1276819,
      0.2344736,
      0.1383568,
      -0.1027011,
      0.3248445,
      -0.1771457,
      0.4085806,
      0.239814,
      0.1583088,
      -0.2963365,
      -0.4784156,
      0.2464295,
      -0.8655496,
      0.1577512,
      -0.243969,
      0.3792616,
      0.1009205,
      -0.0442891,
      -0.2249714,
      -0.7018486,
      0.1205818,
      0.2459552,
      -0.4361329,
      0.2391129,
      0.1124408,
      0.0943966,
      -0.1519905,
      -0.1507019,
      0.2163135,
      -0.1686503,
      0.5703676,
      0.6272047,
      -0.5963071,
      0.0711375,
      0.0359671,
      0.3093958,
      -0.4404129,
      0.3593817,
      0.683702,
      0.3956605
    ]
  },
  "bucket": "tool_champion",
  "cognition": {
    "event_memory": {
      "damage": 0.000747,
      "energy_gain": 0.016888,
      "energy_loss": 0.000763,
      "health_gain": 0.0,
      "reproduction": 0.0,
      "social": 0.044089,
      "surprise": 0.143576,
      "tool": 0.222061
    },
    "last_action": "use_tool",
    "last_valence": -0.003441,
    "lesson_memory": [
      {
        "affordance": "concentrate_heat",
        "gain": 0.923192,
        "kind": "tool_use",
        "method_quality": 0.0,
        "place": 35,
        "problem": {
          "difficulty": 0.526809,
          "kind": "causal_challenge",
          "payoff_energy": "chemical",
          "place": 35,
          "remaining": 94.306798,
          "required_affordance": "crack",
          "sequence": [
            "crack",
            "lever",
            "contain"
          ]
        },
        "score": 0.7135,
        "skill": 1.0,
        "success": true
      },
      {
        "affordance": "concentrate_heat",
        "gain": 0.923192,
        "kind": "tool_use",
        "method_quality": 0.0,
        "place": 35,
        "problem": {
          "difficulty": 0.526809,
          "kind": "causal_challenge",
          "payoff_energy": "chemical",
          "place": 35,
          "remaining": 94.306798,
          "required_affordance": "crack",
          "sequence": [
            "crack",
            "lever",
            "contain"
          ]
        },
        "score": 0.7135,
        "skill": 1.0,
        "success": true
      },
      {
        "affordance": "concentrate_heat",
        "gain": 0.923192,
        "kind": "tool_use",
        "method_quality": 0.0,
        "place": 35,
        "problem": {
          "difficulty": 0.526809,
          "kind": "causal_challenge",
          "payoff_energy": "chemical",
          "place": 35,
          "remaining": 94.306798,
          "required_affordance": "crack",
          "sequence": [
            "crack",
            "lever",
            "contain"
          ]
        },
        "score": 0.7135,
        "skill": 1.0,
        "success": true
      },
      {
        "affordance": "concentrate_heat",
        "gain": 0.923192,
        "kind": "tool_use",
        "method_quality": 0.0,
        "place": 35,
        "problem": {
          "difficulty": 0.526809,
          "kind": "causal_challenge",
          "payoff_energy": "chemical",
          "place": 35,
          "remaining": 94.306798,
          "required_affordance": "crack",
          "sequence": [
            "crack",
            "lever",
            "contain"
          ]
        },
        "score": 0.7135,
        "skill": 1.0,
        "success": true
      },
      {
        "affordance": "concentrate_heat",
        "gain": 0.0,
        "kind": "tool_use",
        "method_quality": 0.0,
        "place": 35,
        "problem": {
          "difficulty": 0.526809,
          "kind": "causal_challenge",
          "payoff_energy": "chemical",
          "place": 35,
          "remaining": 94.306798,
          "required_affordance": "crack",
          "sequence": [
            "crack",
            "lever",
            "contain"
          ]
        },
        "score": 0.7135,
        "skill": 1.0,
        "success": false
      }
    ],
    "place_memory": [
      {
        "place_id": 35,
        "value": 0.750386
      },
      {
        "place_id": 0,
        "value": 0.690469
      }
    ],
    "prediction_errors": {
      "damage": -0.39896,
      "energy": -0.290568,
      "hazard": 0.507938,
      "reproduction": -0.183025,
      "social": 0.332555,
      "tool": 0.168195
    },
    "recent_trace": {
      "action": 0.571429,
      "damage": 0.0,
      "energy_delta": -0.016774,
      "health_delta": 0.0,
      "prediction_error": -0.290568,
      "reproduction": 0.0,
      "social": 0.0,
      "tool": 0.05
    },
    "signal_values": [
      -0.011513,
      0.0,
      -0.004122,
      0.0,
      0.0038,
      -0.000267,
      0.011104,
      0.007227
    ],
    "success_profile": {
      "causal_step": 37.0,
      "energy_gain": 56.722166,
      "prediction_fit": 24.341363,
      "tool_use": 650.332587
    },
    "tool_trace": {
      "last_artifact_method": 0.0,
      "last_craft_target": "",
      "last_tool_affordance": "concentrate_heat"
    }
  },
  "context": {
    "criterion": "tool_champion",
    "label": "interval",
    "population": {
      "agent": 400,
      "fungus": 196,
      "neural": 399,
      "plant": 1569,
      "total": 2165
    },
    "world_energy": {
      "biological_storage": 2749.3718,
      "chemical": 152.7726,
      "electrical": 53.6418,
      "high_density": 3.7703,
      "locked_chemical": 630.6572,
      "mechanical": 986.8217,
      "radiant": 1944.0859,
      "thermal": 4298.2306
    },
    "world_physics": {
      "avg_abrasion": 0.11893,
      "avg_acidity": 0.13389,
      "avg_biological_activity": 0.48914,
      "avg_boundary_permeability": 0.07616,
      "avg_current_exposure": 0.09166,
      "avg_edge_current": 0.20166,
      "avg_edge_slope": 0.28877,
      "avg_elevation": 0.4213,
      "avg_fluid_level": 0.28632,
      "avg_humidity": 0.22052,
      "avg_interiority": 0.09941,
      "avg_oxygen": 0.45839,
      "avg_pressure": 0.17073,
      "avg_salinity": 0.20825,
      "avg_shelter": 0.1197,
      "avg_structure_scale": 7.11765,
      "avg_temperature": 0.67678,
      "avg_wet_dry_cycle": 0.14525,
      "max_abrasion": 0.17125,
      "max_acidity": 0.2691,
      "max_biological_activity": 0.99827,
      "max_boundary_permeability": 0.57675,
      "max_current_exposure": 0.17099,
      "max_edge_current": 0.65157,
      "max_edge_slope": 0.97845,
      "max_elevation": 0.98025,
      "max_fluid_level": 0.45783,
      "max_humidity": 0.3372,
      "max_interiority": 0.47755,
      "max_oxygen": 0.58521,
      "max_pressure": 0.35762,
      "max_salinity": 1.0304,
      "max_shelter": 0.48136,
      "max_structure_scale": 23,
      "max_temperature": 0.97329,
      "max_wet_dry_cycle": 0.18296,
      "structure_count": 17.0
    }
  },
  "genome": {
    "aquatic_affinity": 0.26130710844942157,
    "armor": 0.30077295494772655,
    "asexual_threshold": 0.46325680490445753,
    "buoyancy": 0.5845200446696338,
    "chemical_metabolism": 0.7345544364091321,
    "desiccation_tolerance": 0.3051155628294544,
    "developmental_complexity": 0.7540205964947706,
    "digestion": 0.8433428259904348,
    "electrical_use": 0.08273820491825422,
    "learning_rate": 0.09727382575633878,
    "manipulator": 0.34560867244076565,
    "mate_selectivity": 0.56093100669928,
    "mechanical_use": 0.13085370322082582,
    "memory_budget": 1.7284242591019412,
    "mobility": 0.3879993822993203,
    "mutation_rate": 0.04394555903364348,
    "neural_budget": 11.728089729568044,
    "offspring_investment": 0.6464941587952152,
    "photosynthesis_surface": 0.07273307516887799,
    "plasticity_rate": 0.23958659297332643,
    "prediction_weight": 0.28201716713791053,
    "pressure_tolerance": 0.09270649236392155,
    "radiant_metabolism": 0.0964849588959319,
    "salinity_tolerance": 0.2733498444141978,
    "sensor_range": 0.6453124660853782,
    "sexual_threshold": 0.6689376105055744,
    "signal_strength": 0.3535282209663568,
    "storage_capacity": 0.5436516139889702,
    "thermal_tolerance": 0.4239827161132496,
    "valence_damage": 0.49063643977727134,
    "valence_energy": 0.20514768796444743,
    "valence_health": 0.23040404832772796,
    "valence_reproduction": 0.33833773762969527,
    "valence_social": 0.11150731118153209
  },
  "inventory": {
    "crystal": 2
  },
  "organism": {
    "age": 1000,
    "artifacts": [],
    "complexity": 2.5882,
    "energy": 94.1839,
    "generation": 0,
    "health": 1.0,
    "id": 411,
    "kind": "agent",
    "last_action": "use_tool",
    "last_artifact_method": 0.0,
    "last_craft_target": "",
    "last_energy_delta": -0.1677,
    "last_lesson": {
      "affordance": "concentrate_heat",
      "gain": 0.0,
      "kind": "tool_use",
      "method_quality": 0.0,
      "place": 35,
      "problem": {
        "difficulty": 0.526809,
        "kind": "causal_challenge",
        "payoff_energy": "chemical",
        "place": 35,
        "remaining": 94.306798,
        "required_affordance": "crack",
        "sequence": [
          "crack",
          "lever",
          "contain"
        ]
      },
      "score": 0.7135,
      "skill": 1.0,
      "success": false
    },
    "last_tool_affordance": "concentrate_heat",
    "last_valence": -0.0034,
    "location": 35,
    "neural": true,
    "offspring_count": 0,
    "parents": [],
    "success_profile": {
      "causal_step": 37.0,
      "energy_gain": 56.7222,
      "prediction_fit": 24.3414,
      "tool_use": 650.3326
    },
    "successful_tools": 583
  },
  "reason": "interval_tool_champion",
  "score": 1192.797677,
  "signal_values": [
    -0.011513,
    0.0,
    -0.004122,
    0.0,
    0.0038,
    -0.000267,
    0.011104,
    0.007227
  ],
  "tick": 1000,
  "tool_skill": {
    "anchor": 0.0,
    "bind": 0.0085,
    "build": 0.006,
    "carry": 0.0,
    "channel": 0.0,
    "concentrate_heat": 1.0,
    "conduct": 0.0,
    "contain": 1.0,
    "crack": 0.0,
    "craft": 0.004,
    "cut": 0.0,
    "enclose": 0.0,
    "energy_storage": 0.0,
    "filter": 0.0,
    "float": 0.0,
    "gradient_harvest": 0.0,
    "inscribe": 0.0,
    "insulate": 0.0,
    "interpret_mark": 0.0,
    "lever": 0.0,
    "permeable": 0.0,
    "protect": 0.0,
    "reaction_surface": 0.0,
    "record": 0.0,
    "shelter": 0.0,
    "support": 0.0,
    "traverse": 0.0
  }
}
