{
  "artifacts": [],
  "brain": {
    "auxiliary_prediction_weights": {
      "damage": [
        -0.275562,
        0.0320038,
        0.235782,
        -0.4850206,
        -0.0332754,
        0.6780124
      ],
      "hazard": [
        -0.2394739,
        0.4133816,
        -0.4640929,
        0.0716188,
        -0.6027493,
        -0.1421734
      ],
      "reproduction": [
        0.0235461,
        -0.6391261,
        0.6857826,
        1.0241487,
        -0.121903,
        0.274537
      ],
      "social": [
        -0.439746,
        -0.8192544,
        0.7660861,
        0.170371,
        -0.374941,
        -0.3529051
      ],
      "tool": [
        -0.1348398,
        0.1722925,
        -0.2645256,
        0.5043347,
        -0.3504491,
        -0.2466737
      ]
    },
    "bias_h": [
      0.0971709,
      0.1761847,
      0.0478429,
      -0.111854,
      0.0353502,
      -0.0657203
    ],
    "bias_o": [
      0.0185084,
      0.076957,
      -0.0556535,
      -0.0733184,
      0.1033191,
      -0.0267954,
      -0.0423019,
      -0.110088,
      0.2487574,
      -0.0113748,
      0.0289598,
      -0.0501503,
      0.014777,
      -0.0983433,
      -0.0427395
    ],
    "hidden": [
      0.5086882,
      0.3375918,
      -0.3723035,
      -0.773735,
      0.53446,
      -0.6889618
    ],
    "hidden_size": 6,
    "hidden_trace": [
      0.4807922,
      0.3138751,
      -0.3760059,
      -0.7728797,
      0.5459232,
      -0.684951
    ],
    "input_size": 72,
    "input_trace": [
      0.9972408,
      0.9854404,
      0.74675,
      0.2067112,
      0.0022393,
      0.004207,
      1.4999338,
      0.0178364,
      0.0098008,
      0.0005782,
      7.1e-06,
      1.1772218,
      0.9994391,
      0.4969891,
      0.5081,
      0.2939376,
      0.3575068,
      0.510103,
      0.0447258,
      0.0210986,
      0.1126964,
      0.3173737,
      0.096317,
      1.0,
      -0.8478995,
      0.0450055,
      1.1306647,
      0.0274271,
      0.0424873,
      0.3578032,
      0.3108102,
      0.4260234,
      0.4327447,
      0.1315103,
      0.0465187,
      0.0961,
      0.0752258,
      0.3798417,
      0.0693751,
      0.0213932,
      0.0,
      0.0836981,
      0.5666393,
      0.1308628,
      -0.0001833,
      0.0001833,
      -0.165575,
      0.0050634,
      0.169974,
      0.8535792,
      -0.165575,
      0.1302077,
      0.6150036,
      0.5176317,
      0.9864012,
      0.0400094,
      0.0371762,
      0.0018492,
      0.0,
      8.52e-05,
      0.0032713,
      0.0470619,
      0.2358546,
      0.1171193,
      0.0959816,
      0.0220951,
      0.01667,
      0.0078002,
      0.0843629,
      0.0862737,
      0.0701142,
      0.0901126
    ],
    "last_inputs": [
      0.9984278,
      0.9826915,
      0.7525,
      0.2105012,
      0.0152312,
      6.04e-05,
      1.4999274,
      0.013137,
      0.0098972,
      0.0005782,
      7.1e-06,
      1.1643836,
      1.0,
      0.5,
      0.5081,
      0.2939376,
      0.3575068,
      0.510103,
      0.0447258,
      0.0210986,
      0.1126964,
      0.3173737,
      0.113404,
      1.0,
      -0.8288423,
      0.0450055,
      1.1179775,
      0.0246789,
      0.0417389,
      0.3592153,
      0.3069318,
      0.4274937,
      0.4328024,
      0.1315148,
      0.0453841,
      0.0963034,
      0.0745554,
      0.3798417,
      0.0631136,
      0.0192496,
      0.0,
      0.0831878,
      0.5714286,
      0.1589525,
      0.0,
      0.0,
      -0.1397219,
      0.0,
      0.2,
      1.0,
      -0.1397219,
      0.1331425,
      0.6140423,
      0.5558833,
      1.1308964,
      0.0369945,
      0.0403032,
      0.0005751,
      0.0,
      2.92e-05,
      0.0001238,
      0.0507284,
      0.2551067,
      0.1193117,
      0.0959816,
      0.0220951,
      0.01667,
      0.0078002,
      0.0853421,
      0.0879595,
      0.0701142,
      0.090792
    ],
    "last_outputs": [
      -0.4502313,
      -0.0725301,
      -0.2938769,
      -0.2046809,
      0.2249808,
      0.1548855,
      -0.0515829,
      0.0597081,
      0.5512771,
      -0.152445,
      0.2623736,
      0.0131127,
      0.5377696,
      0.0067414,
      -0.0894141
    ],
    "last_prediction_errors": {
      "damage": 0.1334165,
      "energy": -0.1394758,
      "hazard": 0.0363717,
      "reproduction": 0.6147822,
      "social": 0.5570666,
      "tool": 1.1305022
    },
    "output_size": 15,
    "prediction_weights": [
      0.0355587,
      0.3904764,
      0.3234604,
      -0.5568773,
      0.6012013,
      0.0735798
    ],
    "weights_in": [
      0.2117588,
      0.2505229,
      0.1871263,
      -0.5917605,
      0.4372514,
      -0.4884547,
      0.4095422,
      0.034921,
      -0.3665884,
      -0.4811619,
      -0.2839683,
      0.8145782,
      -0.5758867,
      -0.0103528,
      0.2602471,
      0.0831039,
      0.0575488,
      0.0504825,
      -0.5184166,
      0.516626,
      0.1796001,
      -0.7705121,
      0.6294966,
      0.1201241,
      0.4144128,
      -0.3043336,
      -0.4130595,
      0.2569279,
      -0.8352567,
      -0.9801442,
      -0.3184091,
      -0.1467171,
      -0.3006736,
      -0.1077862,
      0.3389549,
      0.4933193,
      0.1759719,
      -0.2417795,
      -0.3898659,
      0.7734098,
      -0.3724834,
      0.1590824,
      0.426225,
      -0.5227586,
      -0.5891262,
      -0.337619,
      0.4553075,
      -0.1008628,
      0.3547364,
      0.0156798,
      -0.2478003,
      -0.1116654,
      0.035845,
      0.2972996,
      0.9204103,
      -0.1313553,
      -0.5350074,
      0.5406203,
      0.3745658,
      0.3175959,
      -0.4053855,
      0.2710026,
      -0.6211539,
      -0.8151231,
      -0.6146291,
      0.4599803,
      1.1830765,
      0.7843137,
      0.1663986,
      0.3593168,
      0.1098407,
      -0.3058445,
      0.135417,
      -0.3402991,
      -0.8883418,
      -0.0917747,
      0.1966746,
      -0.2157986,
      -0.2529445,
      -0.405717,
      0.2790584,
      0.3387818,
      -0.1373639,
      -0.321708,
      -0.3919632,
      -0.2533748,
      0.201919,
      0.6823104,
      0.3511524,
      -0.668568,
      -0.0392743,
      0.03668,
      0.0690236,
      -0.8605579,
      1.4107416,
      0.1711323,
      -0.7561639,
      0.5458798,
      0.3452988,
      0.032826,
      -0.1820342,
      -0.1021509,
      0.8182563,
      -0.1399265,
      -0.7252083,
      -0.0127763,
      0.2525053,
      -0.4918221,
      -0.4356486,
      0.0209859,
      0.066576,
      -0.3019045,
      -0.0422069,
      0.3459123,
      0.305261,
      -0.2550202,
      -0.2711572,
      0.7862807,
      -0.0848384,
      -0.3415223,
      -0.6782416,
      0.9846852,
      -0.3445295,
      0.4269437,
      0.0732113,
      -0.4992846,
      -0.0347765,
      0.036642,
      0.1438325,
      0.8670795,
      0.0576163,
      -0.6149387,
      -0.1682762,
      -0.2699628,
      0.1736701,
      -0.2271787,
      0.2505163,
      -0.0988786,
      -0.5632068,
      -0.3466224,
      0.4902111,
      -0.077608,
      0.5706928,
      -0.4027083,
      -0.5811341,
      -0.2618408,
      0.076039,
      -0.1708324,
      -0.513912,
      0.1576999,
      0.1669817,
      0.7395159,
      0.4063455,
      0.1089562,
      -0.2975436,
      -0.8814441,
      0.0422764,
      1.1816841,
      -0.0352921,
      -0.0066252,
      -0.3373476,
      -0.0783267,
      0.1351244,
      -0.133361,
      0.1572991,
      -0.2828423,
      -0.3366889,
      0.6443665,
      0.6761075,
      -0.4736342,
      -0.2328844,
      0.6642929,
      0.848693,
      0.0918065,
      0.089079,
      0.1277299,
      0.4835572,
      0.0788726,
      -0.0422574,
      -0.4881585,
      -0.7715529,
      -0.3260119,
      -0.8621002,
      0.2903169,
      -0.4028802,
      0.8495301,
      -0.8133447,
      -0.069851,
      0.8196454,
      -0.0316685,
      -0.1330559,
      -0.440217,
      0.4145713,
      0.477822,
      -0.0152152,
      0.582797,
      -0.0349585,
      0.0114659,
      -0.4884344,
      -1.0285304,
      -0.3962095,
      1.2020313,
      -0.0666429,
      0.7508286,
      0.0547377,
      0.207007,
      -0.5690221,
      0.6578266,
      -0.0190257,
      -0.154701,
      0.7728573,
      -0.1420464,
      -0.6618738,
      0.2530222,
      0.2241399,
      -0.1182241,
      -0.0566976,
      -1.3874495,
      0.4607978,
      -0.1825256,
      0.0802959,
      0.4111174,
      0.3790888,
      -0.3382714,
      0.2892048,
      -0.0915514,
      -0.2281904,
      -0.5417251,
      -0.6774496,
      0.1968893,
      -1.3419922,
      0.2415181,
      0.1721271,
      -0.6062408,
      0.6776538,
      -0.2134103,
      0.0526293,
      -0.2178587,
      0.0802601,
      -0.0249185,
      0.3032402,
      -0.1316262,
      0.3766899,
      0.0386491,
      -0.3784473,
      -0.184517,
      -0.6929111,
      -0.1416453,
      -0.8366266,
      -0.7811652,
      0.5907258,
      0.1039367,
      0.4272583,
      0.0481546,
      0.4417073,
      0.2904155,
      -0.0387584,
      0.511967,
      -0.143998,
      -0.3573235,
      -0.3093649,
      0.4001462,
      -0.1894738,
      -1.2353918,
      0.5139124,
      -0.5696736,
      0.8475402,
      0.7167234,
      -1.1171495,
      0.9600122,
      0.0080246,
      0.8708796,
      0.0251056,
      0.1883681,
      -0.6289199,
      0.2225756,
      -0.0394793,
      0.2236067,
      0.1041964,
      0.7448038,
      -0.1116649,
      0.0086903,
      0.6366505,
      0.3304381,
      0.2136683,
      -0.5066066,
      0.3810712,
      0.2649513,
      -0.2076152,
      0.5008709,
      0.5535873,
      -0.2691153,
      -0.8840545,
      0.0762785,
      0.2775568,
      -0.6587768,
      -0.197096,
      0.546442,
      0.2646743,
      0.5314701,
      0.3105867,
      0.4810789,
      0.2049772,
      -0.3861469,
      0.2730573,
      0.4045115,
      -0.0464929,
      0.2085246,
      -0.3166025,
      0.3348927,
      1.293346,
      -0.6145462,
      -0.0506379,
      -0.1039776,
      0.3732874,
      -0.0619041,
      0.8514313,
      -0.1539492,
      -0.3951365,
      0.3390203,
      -0.1268749,
      0.0737592,
      -0.2502139,
      -0.2315058,
      -0.4193189,
      0.2418885,
      -0.8472666,
      0.0554854,
      0.2254596,
      -0.2897386,
      0.5007059,
      -0.5840055,
      -0.5517823,
      -0.6710277,
      -0.2485549,
      -0.0444482,
      -0.021546,
      -0.7126747,
      0.2984768,
      -0.0598485,
      -0.3923269,
      -0.0606878,
      0.1620649,
      -0.2877444,
      -0.6450677,
      0.3084192,
      0.1135079,
      0.0032033,
      -0.0030741,
      -0.4629065,
      0.3257494,
      -0.110921,
      0.4427919,
      0.5975847,
      0.7296498,
      -0.1541001,
      -0.4926219,
      0.9252082,
      -0.0789597,
      -0.0476696,
      -0.3399364,
      -0.0899694,
      0.1235211,
      0.3043574,
      0.8001382,
      0.1914497,
      -0.6295926,
      0.6914354,
      -0.2359666,
      0.6515279,
      0.1315754,
      -0.6392602,
      0.051977,
      -0.0067638,
      0.7144275,
      0.2745847,
      -0.2985993,
      -1.0828319,
      0.4413249,
      -0.3793043,
      -0.1521343,
      -0.0748112,
      0.0943959,
      0.9644732,
      -0.1888332,
      -0.6587995,
      -0.7415467,
      -0.4189881,
      0.6113272,
      -0.3221013,
      0.4034936,
      -0.2735097,
      0.0640865,
      0.1454013,
      -0.4106876,
      -0.1024021,
      -0.1973767,
      0.0393126,
      -0.8357974,
      0.5009737,
      0.0798617,
      -0.192989,
      0.5099801,
      -0.8835926,
      0.7822094,
      0.0157108,
      0.2560246,
      -0.3371965,
      -0.5872225,
      0.3797469,
      -0.21912,
      0.4223944,
      -1.1785347,
      -0.2262873,
      -0.5520529,
      -1.0041082,
      0.1400623,
      -0.0269641,
      -0.6181849,
      0.0593665,
      -0.5479651,
      0.243712,
      -0.1104746,
      1.0710224,
      0.2123687,
      0.1985712,
      -0.4538106,
      -0.151057,
      -0.3035318,
      0.0068995,
      -1.0781798,
      0.1785699
    ],
    "weights_out": [
      0.3512263,
      0.0359134,
      -0.216926,
      0.5502644,
      -0.0038291,
      1.4397296,
      0.3227314,
      0.1731093,
      0.6554733,
      0.2340688,
      -0.1196227,
      0.1447125,
      -0.1061828,
      0.1275056,
      -0.2354352,
      0.7433644,
      0.0705342,
      0.1781529,
      -0.184844,
      0.3020876,
      -0.3680505,
      0.4146146,
      -0.2101748,
      0.0487982,
      0.0790318,
      0.545247,
      -0.1729411,
      0.4596027,
      0.0941849,
      -0.4566606,
      -0.5758005,
      0.2193596,
      0.3396766,
      -0.8493813,
      0.7140522,
      0.3606747,
      0.5792996,
      -0.0824545,
      -0.5685082,
      0.1120508,
      -0.3186056,
      0.3545315,
      0.1452816,
      0.8056453,
      0.4524739,
      -0.2839338,
      0.4614639,
      0.3306924,
      0.6518369,
      0.039772,
      -0.2762734,
      -0.4178099,
      0.4225187,
      0.3710746,
      -0.5000173,
      0.2851737,
      0.091787,
      0.0268436,
      0.0040952,
      0.1955342,
      -0.356853,
      0.1176273,
      -1.1447197,
      0.4702279,
      0.6261763,
      -0.4594507,
      0.4517656,
      0.1475847,
      -0.7421403,
      -0.225355,
      -0.2681455,
      0.6270633,
      0.5014517,
      0.6665607,
      -0.1655887,
      -0.7929124,
      -0.007503,
      0.5592201,
      0.0670768,
      -0.3479944,
      -0.4314255,
      0.2624357,
      0.5587861,
      0.239226,
      0.5777484,
      0.3012397,
      -0.2805103,
      -0.0496974,
      -0.170382,
      0.8153485
    ]
  },
  "brain_template": {
    "auxiliary_prediction_weights": {
      "damage": [
        -0.2808193,
        0.0296502,
        0.2384231,
        -0.4766587,
        -0.0376398,
        0.6852266
      ],
      "hazard": [
        -0.2418869,
        0.4128638,
        -0.4633805,
        0.0751931,
        -0.6043956,
        -0.1391032
      ],
      "reproduction": [
        -0.0081652,
        -0.6552013,
        0.7030176,
        1.0761694,
        -0.1493501,
        0.3185997
      ],
      "social": [
        -0.4579165,
        -0.8287483,
        0.7765307,
        0.2005149,
        -0.3912083,
        -0.3273852
      ],
      "tool": [
        -0.1715064,
        0.1564589,
        -0.2464179,
        0.5636943,
        -0.3812629,
        -0.1960609
      ]
    },
    "bias_h": [
      0.0971709,
      0.1761847,
      0.0478429,
      -0.111854,
      0.0353502,
      -0.0657203
    ],
    "bias_o": [
      0.0185084,
      0.0769639,
      -0.0557888,
      -0.0733143,
      0.1033246,
      -0.0267938,
      -0.0423732,
      -0.1101584,
      0.2095959,
      -0.0113712,
      0.0288701,
      -0.0501582,
      0.0034921,
      -0.097005,
      -0.0428813
    ],
    "hidden_size": 6,
    "input_size": 72,
    "output_size": 15,
    "prediction_weights": [
      0.0463531,
      0.3960139,
      0.3176373,
      -0.5745888,
      0.6104852,
      0.0586343
    ],
    "weights_in": [
      0.2104452,
      0.249086,
      0.1865799,
      -0.5924145,
      0.437251,
      -0.4888846,
      0.4076631,
      0.0348151,
      -0.3665884,
      -0.4811619,
      -0.2839792,
      0.8133286,
      -0.5771298,
      -0.0107251,
      0.2595142,
      0.0826799,
      0.0570331,
      0.0497467,
      -0.5184811,
      0.5165956,
      0.1794375,
      -0.7709699,
      0.6293581,
      0.1186949,
      0.4142761,
      -0.3043365,
      -0.4143258,
      0.2567773,
      -0.8353426,
      -0.9804404,
      -0.3188154,
      -0.1470599,
      -0.3013194,
      -0.107984,
      0.3385397,
      0.4931654,
      0.175793,
      -0.2423207,
      -0.3901576,
      0.7732924,
      -0.372508,
      0.1588336,
      0.4253116,
      -0.5228131,
      -0.589126,
      -0.3376192,
      0.4556273,
      -0.1010688,
      0.3545393,
      0.0147416,
      -0.2474805,
      -0.1118264,
      0.0348796,
      0.2967348,
      0.9192486,
      -0.131425,
      -0.5350456,
      0.5405978,
      0.3745658,
      0.3175959,
      -0.4054452,
      0.2709461,
      -0.6214226,
      -0.8152799,
      -0.6147356,
      0.4599638,
      1.1830606,
      0.7843137,
      0.1662807,
      0.3592189,
      0.1097571,
      -0.3059673,
      0.134808,
      -0.3409638,
      -0.8886956,
      -0.0919783,
      0.1966744,
      -0.2159418,
      -0.2538691,
      -0.4057362,
      0.2790584,
      0.3387818,
      -0.1373648,
      -0.3223133,
      -0.3925917,
      -0.2535494,
      0.20158,
      0.6821143,
      0.3509139,
      -0.6689083,
      -0.0393041,
      0.0366659,
      0.0689484,
      -0.8607696,
      1.4106743,
      0.170465,
      -0.7558316,
      0.5458637,
      0.3446741,
      0.0327837,
      -0.1820682,
      -0.1023445,
      0.8179824,
      -0.1401558,
      -0.7255013,
      -0.0128657,
      0.2523572,
      -0.4918874,
      -0.4357161,
      0.0207339,
      0.0664858,
      -0.3019374,
      -0.0422125,
      0.3458247,
      0.3048385,
      -0.2550393,
      -0.2711572,
      0.7862807,
      -0.0846678,
      -0.3416343,
      -0.6783329,
      0.98425,
      -0.3443589,
      0.4268692,
      0.0727089,
      -0.4995907,
      -0.0353061,
      0.036627,
      0.1438146,
      0.8670667,
      0.0576163,
      -0.6149387,
      -0.1683088,
      -0.2699891,
      0.1735451,
      -0.2272564,
      0.2504551,
      -0.0988909,
      -0.5632162,
      -0.3466224,
      0.49015,
      -0.0776643,
      0.5706481,
      -0.4027627,
      -0.5804634,
      -0.2611167,
      0.0764176,
      -0.1706019,
      -0.5139118,
      0.1578353,
      0.167991,
      0.7395345,
      0.4063455,
      0.1089562,
      -0.2975426,
      -0.8807723,
      0.0429509,
      1.1818754,
      -0.0349229,
      -0.0064116,
      -0.3370878,
      -0.077956,
      0.1351569,
      -0.1333457,
      0.157381,
      -0.2826117,
      -0.3366161,
      0.6450913,
      0.6757886,
      -0.4736186,
      -0.2322017,
      0.6643393,
      0.8487301,
      0.0920052,
      0.0893573,
      0.1279651,
      0.4838764,
      0.07897,
      -0.0421105,
      -0.4880874,
      -0.771479,
      -0.3257374,
      -0.8620012,
      0.290353,
      -0.4028739,
      0.849625,
      -0.8128848,
      -0.0698284,
      0.8196454,
      -0.0316685,
      -0.1332382,
      -0.4400996,
      0.4146705,
      0.4782944,
      -0.0153975,
      0.58288,
      -0.0344189,
      0.0117965,
      -0.487858,
      -1.0285112,
      -0.3961901,
      1.2020443,
      -0.0666429,
      0.7508286,
      0.0547719,
      0.2070356,
      -0.5688861,
      0.6579108,
      -0.0189613,
      -0.1546883,
      0.7728676,
      -0.1420464,
      -0.6618067,
      0.2530832,
      0.2241884,
      -0.1181634,
      -0.0545906,
      -1.3851396,
      0.4617417,
      -0.1815337,
      0.0802966,
      0.4118345,
      0.3821274,
      -0.3381099,
      0.2892048,
      -0.0915514,
      -0.2281736,
      -0.539707,
      -0.6754229,
      0.1974883,
      -1.3408138,
      0.2421998,
      0.1729562,
      -0.6050578,
      0.6777575,
      -0.2133614,
      0.0528907,
      -0.2171226,
      0.0804827,
      -0.0226192,
      0.3031812,
      -0.1316103,
      0.3787468,
      0.0388768,
      -0.3783122,
      -0.1839897,
      -0.6921833,
      -0.1410329,
      -0.8355883,
      -0.7808474,
      0.5913915,
      0.1041812,
      0.4275366,
      0.049025,
      0.4421515,
      0.2905928,
      -0.0387195,
      0.5123533,
      -0.1425237,
      -0.3572449,
      -0.3093652,
      0.4001465,
      -0.1900073,
      -1.2350465,
      0.5142253,
      -0.5681888,
      0.8470067,
      0.7169793,
      -1.1155595,
      0.9609423,
      0.009862,
      0.8709788,
      0.0251661,
      0.1884061,
      -0.6289199,
      0.2225756,
      -0.0393795,
      0.2236965,
      0.1046223,
      0.7450577,
      -0.1114848,
      0.0087203,
      0.6366771,
      0.3304381,
      0.21386,
      -0.5064439,
      0.381208,
      0.2651448,
      -0.208716,
      0.4996738,
      0.5530452,
      -0.2695761,
      -0.8840548,
      0.0759535,
      0.2759312,
      -0.658835,
      -0.197096,
      0.546442,
      0.264669,
      0.5303986,
      0.309505,
      0.4807649,
      0.2043664,
      -0.3865002,
      0.2726275,
      0.4038983,
      -0.0465467,
      0.2084992,
      -0.316738,
      0.3345112,
      1.2932287,
      -0.6157403,
      -0.0504274,
      -0.1039919,
      0.3721889,
      -0.0620052,
      0.8513648,
      -0.1542409,
      -0.3955431,
      0.3386782,
      -0.1274073,
      0.0735964,
      -0.2505197,
      -0.2316293,
      -0.4194545,
      0.2414358,
      -0.8474702,
      0.0554067,
      0.2254448,
      -0.2899205,
      0.4999447,
      -0.5840463,
      -0.5517822,
      -0.6710278,
      -0.24827,
      -0.044631,
      -0.0217094,
      -0.7134522,
      0.2987617,
      -0.0599839,
      -0.3931749,
      -0.0611946,
      0.1611086,
      -0.2877895,
      -0.6450996,
      0.3083988,
      0.1135079,
      0.0032033,
      -0.0031273,
      -0.4629535,
      0.325526,
      -0.1110557,
      0.4426934,
      0.5975671,
      0.7296346,
      -0.1541001,
      -0.4927272,
      0.9251166,
      -0.0790347,
      -0.0477708,
      -0.3381311,
      -0.0879938,
      0.1243216,
      0.3052236,
      0.8001389,
      0.1921183,
      -0.6269725,
      0.6915737,
      -0.2359666,
      0.6515279,
      0.1315886,
      -0.6375188,
      0.0536894,
      -0.006251,
      0.7154355,
      0.2751678,
      -0.29789,
      -1.0818199,
      0.4414136,
      -0.3792624,
      -0.1519107,
      -0.0741816,
      0.0945866,
      0.9664392,
      -0.1888309,
      -0.6587881,
      -0.739775,
      -0.4187913,
      0.6114434,
      -0.3216486,
      0.4041173,
      -0.2729857,
      0.0649775,
      0.1456739,
      -0.4100924,
      -0.1021915,
      -0.1971368,
      0.0400564,
      -0.8354131,
      0.501127,
      0.0798979,
      -0.1926553,
      0.5112384,
      -0.8835227,
      0.7822091,
      0.0157111,
      0.2555732,
      -0.3369045,
      -0.5869536,
      0.3810248,
      -0.2195714,
      0.4226156,
      -1.1771824,
      -0.2254955,
      -0.5504735,
      -1.0040213,
      0.1401145,
      -0.0269319,
      -0.6181849,
      0.0593665,
      -0.5478806,
      0.2437892,
      -0.1101081,
      1.0712394,
      0.2125224,
      0.1985966,
      -0.4537875,
      -0.151057,
      -0.3033636,
      0.0070405,
      -1.0780618,
      0.1787378
    ],
    "weights_out": [
      0.3512263,
      0.0359134,
      -0.216926,
      0.5502644,
      -0.0038291,
      1.4397296,
      0.3227392,
      0.1731105,
      0.6554718,
      0.2340575,
      -0.1196186,
      0.1447027,
      -0.1063006,
      0.1274415,
      -0.2353936,
      0.7435795,
      0.0704098,
      0.1783593,
      -0.1848393,
      0.3020907,
      -0.3680542,
      0.4146072,
      -0.2101696,
      0.0487916,
      0.0790371,
      0.5452496,
      -0.1729443,
      0.459594,
      0.0941896,
      -0.4566681,
      -0.5757993,
      0.2193604,
      0.3396756,
      -0.8493834,
      0.7140535,
      0.3606729,
      0.5792058,
      -0.082465,
      -0.5684924,
      0.1121733,
      -0.3186562,
      0.3546361,
      0.145208,
      0.8055936,
      0.4525179,
      -0.2838065,
      0.4613955,
      0.3308006,
      0.6092652,
      0.0207753,
      -0.2553232,
      -0.3497377,
      0.3873605,
      0.4292952,
      -0.5000133,
      0.2851754,
      0.0917854,
      0.026837,
      0.0040981,
      0.1955291,
      -0.3569496,
      0.1175651,
      -1.1446659,
      0.4703872,
      0.6260906,
      -0.4593139,
      0.4517564,
      0.1475836,
      -0.742138,
      -0.2253429,
      -0.268151,
      0.627075,
      0.4896636,
      0.6600456,
      -0.1588217,
      -0.7729628,
      -0.0180371,
      0.5760658,
      0.0684282,
      -0.3473394,
      -0.4320867,
      0.2601289,
      0.5599924,
      0.237266,
      0.5776131,
      0.3011537,
      -0.2804178,
      -0.049453,
      -0.1705197,
      0.8155639
    ]
  },
  "bucket": "interval_champion",
  "cognition": {
    "event_memory": {
      "damage": 2.5e-05,
      "energy_gain": 0.04105,
      "energy_loss": 0.000499,
      "health_gain": 0.0,
      "reproduction": 0.000108,
      "social": 0.051666,
      "surprise": 0.120179,
      "tool": 0.2596
    },
    "last_action": "use_tool",
    "last_valence": 0.113405,
    "lesson_memory": [
      {
        "affordance": "bind",
        "gain": 1.75349,
        "kind": "tool_use",
        "method_quality": 0.0,
        "place": 6,
        "problem": {
          "difficulty": 0.37127,
          "kind": "causal_challenge",
          "payoff_energy": "electrical",
          "place": 6,
          "remaining": 44.941734,
          "required_affordance": "concentrate_heat",
          "sequence": [
            "concentrate_heat",
            "conduct"
          ]
        },
        "score": 0.701,
        "skill": 1.0,
        "success": true
      },
      {
        "affordance": "bind",
        "gain": 1.75349,
        "kind": "tool_use",
        "method_quality": 0.0,
        "place": 6,
        "problem": {
          "difficulty": 0.37127,
          "kind": "causal_challenge",
          "payoff_energy": "electrical",
          "place": 6,
          "remaining": 44.941734,
          "required_affordance": "conduct",
          "sequence": [
            "concentrate_heat",
            "conduct"
          ]
        },
        "score": 0.701,
        "skill": 1.0,
        "success": true
      },
      {
        "affordance": "bind",
        "gain": 1.75349,
        "kind": "tool_use",
        "method_quality": 0.0,
        "place": 6,
        "problem": {
          "difficulty": 0.37127,
          "kind": "causal_challenge",
          "payoff_energy": "electrical",
          "place": 6,
          "remaining": 44.941734,
          "required_affordance": "conduct",
          "sequence": [
            "concentrate_heat",
            "conduct"
          ]
        },
        "score": 0.701,
        "skill": 1.0,
        "success": true
      },
      {
        "affordance": "bind",
        "gain": 1.75349,
        "kind": "tool_use",
        "method_quality": 0.0,
        "place": 6,
        "problem": {
          "difficulty": 0.37127,
          "kind": "causal_challenge",
          "payoff_energy": "electrical",
          "place": 6,
          "remaining": 44.941734,
          "required_affordance": "conduct",
          "sequence": [
            "concentrate_heat",
            "conduct"
          ]
        },
        "score": 0.701,
        "skill": 1.0,
        "success": true
      },
      {
        "affordance": "bind",
        "gain": 1.75349,
        "kind": "tool_use",
        "method_quality": 0.0,
        "place": 6,
        "problem": {
          "difficulty": 0.37127,
          "kind": "causal_challenge",
          "payoff_energy": "electrical",
          "place": 6,
          "remaining": 44.941734,
          "required_affordance": "conduct",
          "sequence": [
            "concentrate_heat",
            "conduct"
          ]
        },
        "score": 0.701,
        "skill": 1.0,
        "success": true
      }
    ],
    "place_memory": [
      {
        "place_id": 28,
        "value": 1.162627
      },
      {
        "place_id": 6,
        "value": 0.536657
      }
    ],
    "prediction_errors": {
      "damage": 0.133417,
      "energy": -0.139476,
      "hazard": 0.036372,
      "reproduction": 0.614782,
      "social": 0.557067,
      "tool": 1.130502
    },
    "recent_trace": {
      "action": 0.571429,
      "damage": 0.0,
      "energy_delta": 0.158955,
      "health_delta": 0.0,
      "prediction_error": -0.139476,
      "reproduction": 0.0,
      "social": 0.2,
      "tool": 1.0
    },
    "signal_values": [
      0.095982,
      0.022095,
      0.01667,
      0.0078,
      0.087773,
      0.088698,
      0.070114,
      0.090792
    ],
    "success_profile": {
      "energy_gain": 163.288874,
      "knowledge_transmitted": 0.388687,
      "prediction_fit": 38.23372,
      "reproduction": 196.0,
      "social_learning": 0.6,
      "tool_use": 1090.742652,
      "written_learning": 0.037743
    },
    "tool_trace": {
      "last_artifact_method": 0.0,
      "last_craft_target": "",
      "last_tool_affordance": "bind"
    }
  },
  "context": {
    "criterion": "overall_champion",
    "label": "final",
    "population": {
      "agent": 1640,
      "fungus": 120,
      "neural": 1634,
      "plant": 853,
      "total": 2613
    },
    "world_energy": {
      "biological_storage": 1586.943,
      "chemical": 248.6819,
      "electrical": 67.6837,
      "high_density": 3.7703,
      "locked_chemical": 184.5907,
      "mechanical": 486.1534,
      "radiant": 1049.7982,
      "thermal": 5073.7106
    },
    "world_physics": {
      "avg_abrasion": 0.09466,
      "avg_acidity": 0.1361,
      "avg_biological_activity": 0.29718,
      "avg_boundary_permeability": 0.22233,
      "avg_current_exposure": 0.06785,
      "avg_edge_current": 0.20166,
      "avg_edge_slope": 0.28877,
      "avg_elevation": 0.4213,
      "avg_fluid_level": 0.09345,
      "avg_humidity": 0.15534,
      "avg_interiority": 0.2801,
      "avg_oxygen": 0.46566,
      "avg_pressure": 0.05567,
      "avg_salinity": 0.23858,
      "avg_shelter": 0.33013,
      "avg_structure_scale": 10.7,
      "avg_temperature": 0.859,
      "avg_wet_dry_cycle": 0.08004,
      "max_abrasion": 0.14122,
      "max_acidity": 0.284,
      "max_biological_activity": 0.9277,
      "max_boundary_permeability": 0.65472,
      "max_current_exposure": 0.15693,
      "max_edge_current": 0.65157,
      "max_edge_slope": 0.97845,
      "max_elevation": 0.98025,
      "max_fluid_level": 0.2684,
      "max_humidity": 0.50614,
      "max_interiority": 0.46584,
      "max_oxygen": 0.59049,
      "max_pressure": 0.20143,
      "max_salinity": 1.10942,
      "max_shelter": 0.49897,
      "max_structure_scale": 156,
      "max_temperature": 1.37637,
      "max_wet_dry_cycle": 0.15088,
      "structure_count": 140.0
    }
  },
  "genome": {
    "aquatic_affinity": 0.364774236497845,
    "armor": 0.3575067605666296,
    "asexual_threshold": 0.5068028914495883,
    "buoyancy": 0.04834345138963965,
    "chemical_metabolism": 0.5770265006411304,
    "desiccation_tolerance": 0.4428368695010294,
    "developmental_complexity": 0.6335593105319123,
    "digestion": 0.7770498332829061,
    "electrical_use": 0.08579306528994977,
    "learning_rate": 0.07777284657428438,
    "manipulator": 0.2939376004496935,
    "mate_selectivity": 0.7513666354704256,
    "mechanical_use": 0.34812866101819495,
    "memory_budget": 1.012730447954062,
    "mobility": 0.5081000072826963,
    "mutation_rate": 0.016309250583413405,
    "neural_budget": 5.724901975954915,
    "offspring_investment": 0.3932696063512454,
    "photosynthesis_surface": 0.07199207036773746,
    "plasticity_rate": 0.31737372112636325,
    "prediction_weight": 0.11269641803979913,
    "pressure_tolerance": 0.030010479470818256,
    "radiant_metabolism": 0.11118730237221632,
    "salinity_tolerance": 0.2800090060638997,
    "sensor_range": 0.5101029580314997,
    "sexual_threshold": 0.5007716670899389,
    "signal_strength": 0.20672703083905564,
    "storage_capacity": 0.44728409732239294,
    "thermal_tolerance": 0.5688921811201726,
    "valence_damage": 0.6420127808072796,
    "valence_energy": 0.373103874658591,
    "valence_health": 0.38705792793300986,
    "valence_reproduction": 0.3365001840135408,
    "valence_social": 0.2704909290400575
  },
  "inventory": {
    "fiber": 1,
    "resin": 1
  },
  "organism": {
    "age": 1505,
    "artifacts": [],
    "complexity": 1.9567,
    "energy": 82.307,
    "generation": 2,
    "health": 0.9875,
    "id": 1958,
    "kind": "agent",
    "last_action": "use_tool",
    "last_artifact_method": 0.0,
    "last_craft_target": "",
    "last_energy_delta": 1.5895,
    "last_lesson": {
      "affordance": "bind",
      "gain": 1.75349,
      "kind": "tool_use",
      "method_quality": 0.0,
      "place": 6,
      "problem": {
        "difficulty": 0.37127,
        "kind": "causal_challenge",
        "payoff_energy": "electrical",
        "place": 6,
        "remaining": 44.941734,
        "required_affordance": "conduct",
        "sequence": [
          "concentrate_heat",
          "conduct"
        ]
      },
      "score": 0.701,
      "skill": 1.0,
      "success": true
    },
    "last_tool_affordance": "bind",
    "last_valence": 0.1134,
    "location": 6,
    "neural": true,
    "offspring_count": 196,
    "parents": [
      494,
      457
    ],
    "success_profile": {
      "energy_gain": 163.2889,
      "knowledge_transmitted": 0.3887,
      "prediction_fit": 38.2337,
      "reproduction": 196.0,
      "social_learning": 0.6,
      "tool_use": 1090.7427,
      "written_learning": 0.0377
    },
    "successful_tools": 905
  },
  "reason": "final_overall_champion",
  "score": 3022.270064,
  "signal_values": [
    0.095982,
    0.022095,
    0.01667,
    0.0078,
    0.087773,
    0.088698,
    0.070114,
    0.090792
  ],
  "tick": 1689,
  "tool_skill": {
    "anchor": 1.0,
    "bind": 1.0,
    "build": 1.0,
    "carry": 1.0,
    "channel": 1.0,
    "concentrate_heat": 1.0,
    "conduct": 1.0,
    "contain": 1.0,
    "crack": 1.0,
    "craft": 1.0,
    "cut": 1.0,
    "enclose": 1.0,
    "energy_storage": 1.0,
    "filter": 1.0,
    "float": 1.0,
    "gradient_harvest": 1.0,
    "inscribe": 1.0,
    "insulate": 1.0,
    "interpret_mark": 1.0,
    "lever": 1.0,
    "permeable": 1.0,
    "protect": 1.0,
    "reaction_surface": 1.0,
    "record": 1.0,
    "shelter": 1.0,
    "support": 1.0,
    "traverse": 1.0
  }
}
